{"observations_loss_sum/train": 1659.315185546875, "_timestamp": 1671101835.7182968, "image_hsr_256/train": 1659.315185546875, "reward_loss/train": 0.0, "kl_loss_sum/train": 92.28675842285156, "kl_loss/train": 92.28675842285156, "predict_pose_loss/train": -7.563834190368652, "frame": 20000000, "_runtime": 9556.573340654373, "_step": 8000, "observations_loss_sum/validation": 4366.8701171875, "image_hsr_256/validation": 4366.8701171875, "reward_loss/validation": 0.0, "kl_loss_sum/validation": 164.25546264648438, "kl_loss/validation": 164.25546264648438, "predict_pose_loss/validation": -4.708056449890137, "gradients/graph_4fc3.weight": {"_type": "histogram", "values": [1.0, 1.0, 0.0, 1.0, 1.0, 2.0, 9.0, 8.0, 11.0, 8.0, 12.0, 5.0, 8.0, 9.0, 11.0, 16.0, 24.0, 27.0, 66.0, 261.0, 2737.0, 140.0, 50.0, 32.0, 37.0, 14.0, 18.0, 10.0, 14.0, 12.0, 9.0, 2.0, 1.0, 6.0, 2.0, 2.0, 1.0, 1.0, 1.0, 1.0, 1.0, 1.0, 1.0, 0.0, 0.0, 0.0, 2.0, 1.0, 0.0, 0.0, 0.0, 1.0, 2.0, 0.0, 2.0, 1.0, 0.0, 0.0, 0.0, 0.0, 0.0, 0.0, 0.0, 1.0], "bins": [-38.9375, -37.0234375, -35.109375, -33.1953125, -31.28125, -29.3671875, -27.453125, -25.5390625, -23.625, -21.7109375, -19.796875, -17.8828125, -15.96875, -14.0546875, -12.140625, -10.2265625, -8.3125, -6.3984375, -4.484375, -2.5703125, -0.65625, 1.2578125, 3.171875, 5.0859375, 7.0, 8.9140625, 10.828125, 12.7421875, 14.65625, 16.5703125, 18.484375, 20.3984375, 22.3125, 24.2265625, 26.140625, 28.0546875, 29.96875, 31.8828125, 33.796875, 35.7109375, 37.625, 39.5390625, 41.453125, 43.3671875, 45.28125, 47.1953125, 49.109375, 51.0234375, 52.9375, 54.8515625, 56.765625, 58.6796875, 60.59375, 62.5078125, 64.421875, 66.3359375, 68.25, 70.1640625, 72.078125, 73.9921875, 75.90625, 77.8203125, 79.734375, 81.6484375, 83.5625]}, "gradients/graph_4fc3.bias": {"_type": "histogram", "values": [1.0, 0.0, 0.0, 0.0, 0.0, 0.0, 0.0, 0.0, 0.0, 0.0, 0.0, 0.0, 0.0, 0.0, 1.0, 0.0, 0.0, 0.0, 0.0, 0.0, 0.0, 0.0, 0.0, 0.0, 1.0, 0.0, 7.0, 2.0, 1.0, 0.0, 0.0, 0.0, 0.0, 0.0, 0.0, 0.0, 0.0, 0.0, 0.0, 0.0, 0.0, 0.0, 0.0, 0.0, 0.0, 0.0, 0.0, 0.0, 0.0, 0.0, 0.0, 0.0, 0.0, 0.0, 0.0, 0.0, 0.0, 0.0, 0.0, 0.0, 0.0, 0.0, 0.0, 1.0], "bins": [-19.4375, -18.71484375, -17.9921875, -17.26953125, -16.546875, -15.82421875, -15.1015625, -14.37890625, -13.65625, -12.93359375, -12.2109375, -11.48828125, -10.765625, -10.04296875, -9.3203125, -8.59765625, -7.875, -7.15234375, -6.4296875, -5.70703125, -4.984375, -4.26171875, -3.5390625, -2.81640625, -2.09375, -1.37109375, -0.6484375, 0.07421875, 0.796875, 1.51953125, 2.2421875, 2.96484375, 3.6875, 4.41015625, 5.1328125, 5.85546875, 6.578125, 7.30078125, 8.0234375, 8.74609375, 9.46875, 10.19140625, 10.9140625, 11.63671875, 12.359375, 13.08203125, 13.8046875, 14.52734375, 15.25, 15.97265625, 16.6953125, 17.41796875, 18.140625, 18.86328125, 19.5859375, 20.30859375, 21.03125, 21.75390625, 22.4765625, 23.19921875, 23.921875, 24.64453125, 25.3671875, 26.08984375, 26.8125]}, "gradients/graph_4fc2.weight": {"_type": "histogram", "values": [1.0, 0.0, 0.0, 0.0, 0.0, 0.0, 0.0, 0.0, 1.0, 0.0, 0.0, 1.0, 0.0, 0.0, 0.0, 0.0, 1.0, 0.0, 1.0, 2.0, 1.0, 1.0, 2.0, 3.0, 6.0, 6.0, 3.0, 6.0, 13.0, 12.0, 12.0, 21.0, 31.0, 42.0, 86.0, 138.0, 222.0, 523.0, 1454.0, 11676.0, 47545.0, 2211.0, 704.0, 318.0, 164.0, 127.0, 61.0, 41.0, 25.0, 25.0, 17.0, 9.0, 9.0, 4.0, 3.0, 2.0, 2.0, 0.0, 2.0, 0.0, 1.0, 0.0, 0.0, 1.0], "bins": [-7.9765625, -7.77777099609375, -7.5789794921875, -7.38018798828125, -7.181396484375, -6.98260498046875, -6.7838134765625, -6.58502197265625, -6.38623046875, -6.18743896484375, -5.9886474609375, -5.78985595703125, -5.591064453125, -5.39227294921875, -5.1934814453125, -4.99468994140625, -4.7958984375, -4.59710693359375, -4.3983154296875, -4.19952392578125, -4.000732421875, -3.80194091796875, -3.6031494140625, -3.40435791015625, -3.20556640625, -3.00677490234375, -2.8079833984375, -2.60919189453125, -2.410400390625, -2.21160888671875, -2.0128173828125, -1.81402587890625, -1.615234375, -1.41644287109375, -1.2176513671875, -1.01885986328125, -0.820068359375, -0.62127685546875, -0.4224853515625, -0.22369384765625, -0.02490234375, 0.17388916015625, 0.3726806640625, 0.57147216796875, 0.770263671875, 0.96905517578125, 1.1678466796875, 1.36663818359375, 1.5654296875, 1.76422119140625, 1.9630126953125, 2.16180419921875, 2.360595703125, 2.55938720703125, 2.7581787109375, 2.95697021484375, 3.15576171875, 3.35455322265625, 3.5533447265625, 3.75213623046875, 3.950927734375, 4.14971923828125, 4.3485107421875, 4.54730224609375, 4.74609375]}, "gradients/graph_4fc2.bias": {"_type": "histogram", "values": [1.0, 0.0, 0.0, 0.0, 0.0, 0.0, 0.0, 0.0, 0.0, 0.0, 0.0, 0.0, 0.0, 0.0, 1.0, 0.0, 0.0, 0.0, 0.0, 0.0, 1.0, 0.0, 0.0, 0.0, 0.0, 2.0, 0.0, 4.0, 2.0, 2.0, 2.0, 2.0, 0.0, 4.0, 4.0, 6.0, 4.0, 8.0, 11.0, 32.0, 62.0, 45.0, 26.0, 8.0, 4.0, 2.0, 4.0, 4.0, 3.0, 2.0, 0.0, 1.0, 1.0, 1.0, 1.0, 3.0, 1.0, 0.0, 0.0, 0.0, 0.0, 0.0, 0.0, 2.0], "bins": [-2.509765625, -2.44805908203125, -2.3863525390625, -2.32464599609375, -2.262939453125, -2.20123291015625, -2.1395263671875, -2.07781982421875, -2.01611328125, -1.95440673828125, -1.8927001953125, -1.83099365234375, -1.769287109375, -1.70758056640625, -1.6458740234375, -1.58416748046875, -1.5224609375, -1.46075439453125, -1.3990478515625, -1.33734130859375, -1.275634765625, -1.21392822265625, -1.1522216796875, -1.09051513671875, -1.02880859375, -0.96710205078125, -0.9053955078125, -0.84368896484375, -0.781982421875, -0.72027587890625, -0.6585693359375, -0.59686279296875, -0.53515625, -0.47344970703125, -0.4117431640625, -0.35003662109375, -0.288330078125, -0.22662353515625, -0.1649169921875, -0.10321044921875, -0.04150390625, 0.02020263671875, 0.0819091796875, 0.14361572265625, 0.205322265625, 0.26702880859375, 0.3287353515625, 0.39044189453125, 0.4521484375, 0.51385498046875, 0.5755615234375, 0.63726806640625, 0.698974609375, 0.76068115234375, 0.8223876953125, 0.88409423828125, 0.94580078125, 1.00750732421875, 1.0692138671875, 1.13092041015625, 1.192626953125, 1.25433349609375, 1.3160400390625, 1.37774658203125, 1.439453125]}, "gradients/graph_4fc1.weight": {"_type": "histogram", "values": [3.0, 2.0, 0.0, 2.0, 3.0, 1.0, 5.0, 3.0, 6.0, 4.0, 8.0, 15.0, 14.0, 22.0, 22.0, 38.0, 35.0, 56.0, 75.0, 108.0, 123.0, 206.0, 276.0, 392.0, 599.0, 1009.0, 1817.0, 3797.0, 8830.0, 16860.0, 15734.0, 7679.0, 3376.0, 1609.0, 930.0, 572.0, 374.0, 217.0, 187.0, 135.0, 89.0, 63.0, 46.0, 49.0, 33.0, 20.0, 20.0, 20.0, 13.0, 4.0, 7.0, 5.0, 1.0, 8.0, 5.0, 4.0, 2.0, 0.0, 1.0, 1.0, 0.0, 0.0, 0.0, 1.0], "bins": [-1.193359375, -1.1534881591796875, -1.113616943359375, -1.0737457275390625, -1.03387451171875, -0.9940032958984375, -0.954132080078125, -0.9142608642578125, -0.8743896484375, -0.8345184326171875, -0.794647216796875, -0.7547760009765625, -0.71490478515625, -0.6750335693359375, -0.635162353515625, -0.5952911376953125, -0.555419921875, -0.5155487060546875, -0.475677490234375, -0.4358062744140625, -0.39593505859375, -0.3560638427734375, -0.316192626953125, -0.2763214111328125, -0.2364501953125, -0.1965789794921875, -0.156707763671875, -0.1168365478515625, -0.07696533203125, -0.0370941162109375, 0.002777099609375, 0.0426483154296875, 0.08251953125, 0.1223907470703125, 0.162261962890625, 0.2021331787109375, 0.24200439453125, 0.2818756103515625, 0.321746826171875, 0.3616180419921875, 0.4014892578125, 0.4413604736328125, 0.481231689453125, 0.5211029052734375, 0.56097412109375, 0.6008453369140625, 0.640716552734375, 0.6805877685546875, 0.720458984375, 0.7603302001953125, 0.800201416015625, 0.8400726318359375, 0.87994384765625, 0.9198150634765625, 0.959686279296875, 0.9995574951171875, 1.0394287109375, 1.0792999267578125, 1.119171142578125, 1.1590423583984375, 1.19891357421875, 1.2387847900390625, 1.278656005859375, 1.3185272216796875, 1.3583984375]}, "gradients/graph_4fc1.bias": {"_type": "histogram", "values": [1.0, 0.0, 0.0, 0.0, 0.0, 0.0, 0.0, 0.0, 0.0, 1.0, 0.0, 0.0, 0.0, 0.0, 2.0, 2.0, 0.0, 1.0, 1.0, 0.0, 2.0, 0.0, 1.0, 0.0, 2.0, 2.0, 3.0, 1.0, 12.0, 9.0, 12.0, 11.0, 17.0, 23.0, 18.0, 25.0, 20.0, 17.0, 18.0, 14.0, 4.0, 2.0, 4.0, 5.0, 1.0, 4.0, 2.0, 2.0, 1.0, 2.0, 1.0, 3.0, 3.0, 0.0, 0.0, 0.0, 0.0, 0.0, 1.0, 2.0, 0.0, 2.0, 1.0, 1.0], "bins": [-1.3564453125, -1.318389892578125, -1.28033447265625, -1.242279052734375, -1.2042236328125, -1.166168212890625, -1.12811279296875, -1.090057373046875, -1.052001953125, -1.013946533203125, -0.97589111328125, -0.937835693359375, -0.8997802734375, -0.861724853515625, -0.82366943359375, -0.785614013671875, -0.74755859375, -0.709503173828125, -0.67144775390625, -0.633392333984375, -0.5953369140625, -0.557281494140625, -0.51922607421875, -0.481170654296875, -0.443115234375, -0.405059814453125, -0.36700439453125, -0.328948974609375, -0.2908935546875, -0.252838134765625, -0.21478271484375, -0.176727294921875, -0.138671875, -0.100616455078125, -0.06256103515625, -0.024505615234375, 0.0135498046875, 0.051605224609375, 0.08966064453125, 0.127716064453125, 0.165771484375, 0.203826904296875, 0.24188232421875, 0.279937744140625, 0.3179931640625, 0.356048583984375, 0.39410400390625, 0.432159423828125, 0.47021484375, 0.508270263671875, 0.54632568359375, 0.584381103515625, 0.6224365234375, 0.660491943359375, 0.69854736328125, 0.736602783203125, 0.774658203125, 0.812713623046875, 0.85076904296875, 0.888824462890625, 0.9268798828125, 0.964935302734375, 1.00299072265625, 1.041046142578125, 1.0791015625]}, "gradients/decoder.conv.15.weight": {"_type": "histogram", "values": [1.0, 0.0, 0.0, 1.0, 0.0, 1.0, 0.0, 2.0, 1.0, 2.0, 1.0, 2.0, 2.0, 1.0, 3.0, 3.0, 2.0, 4.0, 3.0, 2.0, 1.0, 3.0, 5.0, 2.0, 4.0, 5.0, 3.0, 6.0, 1.0, 4.0, 7.0, 7.0, 4.0, 13.0, 13.0, 13.0, 10.0, 25.0, 23.0, 24.0, 37.0, 31.0, 41.0, 65.0, 57.0, 86.0, 83.0, 101.0, 115.0, 126.0, 116.0, 114.0, 103.0, 104.0, 99.0, 83.0, 51.0, 31.0, 16.0, 19.0, 17.0, 16.0, 8.0, 5.0], "bins": [-1789.0, -1756.890625, -1724.78125, -1692.671875, -1660.5625, -1628.453125, -1596.34375, -1564.234375, -1532.125, -1500.015625, -1467.90625, -1435.796875, -1403.6875, -1371.578125, -1339.46875, -1307.359375, -1275.25, -1243.140625, -1211.03125, -1178.921875, -1146.8125, -1114.703125, -1082.59375, -1050.484375, -1018.375, -986.265625, -954.15625, -922.046875, -889.9375, -857.828125, -825.71875, -793.609375, -761.5, -729.390625, -697.28125, -665.171875, -633.0625, -600.953125, -568.84375, -536.734375, -504.625, -472.515625, -440.40625, -408.296875, -376.1875, -344.078125, -311.96875, -279.859375, -247.75, -215.640625, -183.53125, -151.421875, -119.3125, -87.203125, -55.09375, -22.984375, 9.125, 41.234375, 73.34375, 105.453125, 137.5625, 169.671875, 201.78125, 233.890625, 266.0]}, "gradients/decoder.conv.15.bias": {"_type": "histogram", "values": [1.0, 0.0, 0.0, 0.0, 0.0, 0.0, 0.0, 0.0, 0.0, 0.0, 0.0, 0.0, 0.0, 0.0, 0.0, 0.0, 0.0, 0.0, 0.0, 0.0, 0.0, 0.0, 0.0, 0.0, 0.0, 0.0, 0.0, 0.0, 0.0, 0.0, 0.0, 0.0, 0.0, 0.0, 0.0, 0.0, 0.0, 0.0, 0.0, 0.0, 0.0, 0.0, 0.0, 0.0, 1.0, 0.0, 0.0, 0.0, 0.0, 0.0, 0.0, 0.0, 0.0, 0.0, 0.0, 0.0, 0.0, 0.0, 0.0, 0.0, 0.0, 0.0, 0.0, 1.0], "bins": [-5312.0, -5184.6875, -5057.375, -4930.0625, -4802.75, -4675.4375, -4548.125, -4420.8125, -4293.5, -4166.1875, -4038.875, -3911.5625, -3784.25, -3656.9375, -3529.625, -3402.3125, -3275.0, -3147.6875, -3020.375, -2893.0625, -2765.75, -2638.4375, -2511.125, -2383.8125, -2256.5, -2129.1875, -2001.875, -1874.5625, -1747.25, -1619.9375, -1492.625, -1365.3125, -1238.0, -1110.6875, -983.375, -856.0625, -728.75, -601.4375, -474.125, -346.8125, -219.5, -92.1875, 35.125, 162.4375, 289.75, 417.0625, 544.375, 671.6875, 799.0, 926.3125, 1053.625, 1180.9375, 1308.25, 1435.5625, 1562.875, 1690.1875, 1817.5, 1944.8125, 2072.125, 2199.4375, 2326.75, 2454.0625, 2581.375, 2708.6875, 2836.0]}, "gradients/decoder.conv.13.weight": {"_type": "histogram", "values": [1.0, 0.0, 0.0, 0.0, 0.0, 0.0, 0.0, 0.0, 0.0, 0.0, 0.0, 0.0, 0.0, 0.0, 0.0, 0.0, 0.0, 0.0, 0.0, 0.0, 0.0, 0.0, 0.0, 0.0, 0.0, 0.0, 0.0, 0.0, 0.0, 0.0, 0.0, 0.0, 0.0, 0.0, 0.0, 0.0, 0.0, 0.0, 0.0, 0.0, 2.0, 0.0, 0.0, 0.0, 0.0, 0.0, 0.0, 0.0, 0.0, 1.0, 1.0, 0.0, 0.0, 0.0, 1.0, 2.0, 4.0, 0.0, 0.0, 1.0, 0.0, 0.0, 1.0, 2.0], "bins": [-5508.96337890625, -5408.09521484375, -5307.2275390625, -5206.359375, -5105.49169921875, -5004.62353515625, -4903.755859375, -4802.8876953125, -4702.01953125, -4601.1513671875, -4500.28369140625, -4399.41552734375, -4298.5478515625, -4197.6796875, -4096.81201171875, -3995.94384765625, -3895.076171875, -3794.208251953125, -3693.34033203125, -3592.472412109375, -3491.6044921875, -3390.736328125, -3289.868408203125, -3189.00048828125, -3088.132568359375, -2987.2646484375, -2886.396728515625, -2785.52880859375, -2684.66064453125, -2583.792724609375, -2482.9248046875, -2382.056884765625, -2281.18896484375, -2180.321044921875, -2079.453125, -1978.5850830078125, -1877.7171630859375, -1776.8492431640625, -1675.981201171875, -1575.11328125, -1474.245361328125, -1373.37744140625, -1272.509521484375, -1171.6414794921875, -1070.7735595703125, -969.9056396484375, -869.0376586914062, -768.169677734375, -667.3017578125, -566.433837890625, -465.56585693359375, -364.6979064941406, -263.8299560546875, -162.96200561523438, -62.09405517578125, 38.77392578125, 139.641845703125, 240.50979614257812, 341.37774658203125, 442.2456970214844, 543.1136474609375, 643.9815673828125, 744.8495483398438, 845.717529296875, 946.58544921875]}, "gradients/decoder.conv.13.bias": {"_type": "histogram", "values": [1.0, 0.0, 0.0, 0.0, 0.0, 0.0, 0.0, 0.0, 1.0, 0.0, 1.0, 0.0, 0.0, 0.0, 0.0, 0.0, 0.0, 0.0, 0.0, 1.0, 0.0, 1.0, 0.0, 0.0, 0.0, 0.0, 0.0, 0.0, 0.0, 2.0, 3.0, 1.0, 0.0, 0.0, 0.0, 2.0, 0.0, 0.0, 0.0, 0.0, 0.0, 1.0, 1.0, 0.0, 0.0, 0.0, 0.0, 0.0, 0.0, 0.0, 0.0, 0.0, 0.0, 0.0, 0.0, 0.0, 0.0, 0.0, 0.0, 0.0, 0.0, 0.0, 0.0, 1.0], "bins": [-4769.494140625, -4602.42724609375, -4435.35986328125, -4268.29296875, -4101.2255859375, -3934.15869140625, -3767.091552734375, -3600.0244140625, -3432.957275390625, -3265.89013671875, -3098.822998046875, -2931.755859375, -2764.68896484375, -2597.62158203125, -2430.5546875, -2263.487548828125, -2096.42041015625, -1929.353271484375, -1762.2861328125, -1595.2191162109375, -1428.1519775390625, -1261.0848388671875, -1094.017822265625, -926.95068359375, -759.883544921875, -592.81640625, -425.74932861328125, -258.6822204589844, -91.6151123046875, 75.4520263671875, 242.51910400390625, 409.586181640625, 576.6533203125, 743.720458984375, 910.7875366210938, 1077.8546142578125, 1244.9217529296875, 1411.9888916015625, 1579.055908203125, 1746.123046875, 1913.190185546875, 2080.25732421875, 2247.324462890625, 2414.3916015625, 2581.45849609375, 2748.52587890625, 2915.5927734375, 3082.659912109375, 3249.72705078125, 3416.794189453125, 3583.861328125, 3750.928466796875, 3917.99560546875, 4085.0625, 4252.1298828125, 4419.19677734375, 4586.263671875, 4753.33056640625, 4920.39794921875, 5087.46484375, 5254.5322265625, 5421.59912109375, 5588.66650390625, 5755.7333984375, 5922.80078125]}, "gradients/decoder.conv.12.weight": {"_type": "histogram", "values": [2.0, 2.0, 0.0, 0.0, 3.0, 1.0, 8.0, 0.0, 4.0, 4.0, 3.0, 3.0, 1.0, 2.0, 7.0, 6.0, 0.0, 3.0, 4.0, 5.0, 4.0, 2.0, 2.0, 2.0, 2.0, 4.0, 1.0, 5.0, 6.0, 8.0, 16.0, 13.0, 29.0, 36.0, 69.0, 59.0, 82.0, 169.0, 441.0, 1216.0, 3241.0, 1685.0, 580.0, 185.0, 97.0, 53.0, 35.0, 24.0, 19.0, 15.0, 12.0, 3.0, 5.0, 2.0, 0.0, 1.0, 2.0, 5.0, 2.0, 0.0, 0.0, 0.0, 0.0, 2.0], "bins": [-2586.0, -2522.359375, -2458.71875, -2395.078125, -2331.4375, -2267.796875, -2204.15625, -2140.515625, -2076.875, -2013.234375, -1949.59375, -1885.953125, -1822.3125, -1758.671875, -1695.03125, -1631.390625, -1567.75, -1504.109375, -1440.46875, -1376.828125, -1313.1875, -1249.546875, -1185.90625, -1122.265625, -1058.625, -994.984375, -931.34375, -867.703125, -804.0625, -740.421875, -676.78125, -613.140625, -549.5, -485.859375, -422.21875, -358.578125, -294.9375, -231.296875, -167.65625, -104.015625, -40.375, 23.265625, 86.90625, 150.546875, 214.1875, 277.828125, 341.46875, 405.109375, 468.75, 532.390625, 596.03125, 659.671875, 723.3125, 786.953125, 850.59375, 914.234375, 977.875, 1041.515625, 1105.15625, 1168.796875, 1232.4375, 1296.078125, 1359.71875, 1423.359375, 1487.0]}, "gradients/decoder.conv.10.weight": {"_type": "histogram", "values": [1.0, 0.0, 0.0, 0.0, 0.0, 0.0, 0.0, 0.0, 0.0, 0.0, 1.0, 0.0, 0.0, 1.0, 0.0, 1.0, 0.0, 0.0, 0.0, 0.0, 0.0, 0.0, 0.0, 0.0, 0.0, 0.0, 0.0, 0.0, 0.0, 0.0, 1.0, 0.0, 1.0, 1.0, 0.0, 2.0, 0.0, 1.0, 6.0, 1.0, 3.0, 1.0, 1.0, 0.0, 2.0, 2.0, 0.0, 2.0, 0.0, 0.0, 0.0, 0.0, 1.0, 1.0, 0.0, 0.0, 1.0, 0.0, 0.0, 0.0, 0.0, 0.0, 0.0, 1.0], "bins": [-1444.3079833984375, -1406.6871337890625, -1369.066162109375, -1331.4453125, -1293.824462890625, -1256.2034912109375, -1218.5826416015625, -1180.961669921875, -1143.3408203125, -1105.719970703125, -1068.0989990234375, -1030.4781494140625, -992.8572387695312, -955.236328125, -917.615478515625, -879.9945678710938, -842.3737182617188, -804.7528076171875, -767.1319580078125, -729.5110473632812, -691.89013671875, -654.269287109375, -616.6483764648438, -579.0274658203125, -541.4066162109375, -503.7857360839844, -466.1648254394531, -428.5439453125, -390.92303466796875, -353.3021545410156, -315.6812744140625, -278.06036376953125, -240.43951416015625, -202.81861877441406, -165.19772338867188, -127.57684326171875, -89.95594787597656, -52.335052490234375, -14.71417236328125, 22.90673828125, 60.527618408203125, 98.14851379394531, 135.7694091796875, 173.39028930664062, 211.0111846923828, 248.632080078125, 286.2529602050781, 323.8738708496094, 361.4947509765625, 399.1156311035156, 436.7365417480469, 474.357421875, 511.97833251953125, 549.5992431640625, 587.2200927734375, 624.8410034179688, 662.4619140625, 700.0828247070312, 737.7036743164062, 775.3245849609375, 812.9454956054688, 850.56640625, 888.187255859375, 925.8081665039062, 963.4290161132812]}, "gradients/decoder.conv.10.bias": {"_type": "histogram", "values": [1.0, 0.0, 0.0, 0.0, 0.0, 0.0, 1.0, 0.0, 1.0, 1.0, 0.0, 0.0, 0.0, 0.0, 1.0, 0.0, 0.0, 0.0, 0.0, 0.0, 0.0, 1.0, 0.0, 1.0, 1.0, 0.0, 0.0, 1.0, 0.0, 1.0, 1.0, 2.0, 1.0, 2.0, 0.0, 0.0, 1.0, 1.0, 2.0, 2.0, 2.0, 0.0, 2.0, 0.0, 1.0, 1.0, 0.0, 0.0, 0.0, 0.0, 1.0, 1.0, 0.0, 0.0, 0.0, 0.0, 1.0, 0.0, 0.0, 0.0, 0.0, 0.0, 0.0, 1.0], "bins": [-770.9544067382812, -747.2339477539062, -723.5135498046875, -699.7930908203125, -676.0726318359375, -652.3521728515625, -628.6317138671875, -604.9113159179688, -581.1908569335938, -557.4703979492188, -533.75, -510.029541015625, -486.30908203125, -462.588623046875, -438.8681945800781, -415.14776611328125, -391.42730712890625, -367.70684814453125, -343.9864196777344, -320.2659912109375, -296.5455322265625, -272.8250732421875, -249.10464477539062, -225.3842010498047, -201.66375732421875, -177.9433135986328, -154.22286987304688, -130.50242614746094, -106.781982421875, -83.06153869628906, -59.341094970703125, -35.62065124511719, -11.900146484375, 11.820297241210938, 35.540740966796875, 59.26118469238281, 82.98162841796875, 106.70207214355469, 130.42251586914062, 154.14295959472656, 177.8634033203125, 201.58384704589844, 225.30429077148438, 249.0247344970703, 272.74517822265625, 296.46563720703125, 320.1860656738281, 343.906494140625, 367.626953125, 391.347412109375, 415.0678405761719, 438.78826904296875, 462.50872802734375, 486.22918701171875, 509.9496154785156, 533.6700439453125, 557.3905029296875, 581.1109619140625, 604.8314208984375, 628.5518188476562, 652.2722778320312, 675.9927368164062, 699.713134765625, 723.43359375, 747.154052734375]}, "gradients/decoder.conv.9.weight": {"_type": "histogram", "values": [2.0, 4.0, 1.0, 0.0, 1.0, 1.0, 3.0, 6.0, 8.0, 9.0, 12.0, 9.0, 14.0, 16.0, 15.0, 32.0, 40.0, 45.0, 50.0, 83.0, 89.0, 108.0, 169.0, 147.0, 228.0, 282.0, 379.0, 563.0, 877.0, 1281.0, 2071.0, 3851.0, 8066.0, 6566.0, 3097.0, 1550.0, 900.0, 583.0, 438.0, 347.0, 241.0, 169.0, 119.0, 91.0, 63.0, 34.0, 30.0, 23.0, 18.0, 12.0, 5.0, 6.0, 3.0, 2.0, 1.0, 2.0, 1.0, 1.0, 0.0, 0.0, 1.0, 1.0, 1.0, 1.0], "bins": [-256.5, -248.693359375, -240.88671875, -233.080078125, -225.2734375, -217.466796875, -209.66015625, -201.853515625, -194.046875, -186.240234375, -178.43359375, -170.626953125, -162.8203125, -155.013671875, -147.20703125, -139.400390625, -131.59375, -123.787109375, -115.98046875, -108.173828125, -100.3671875, -92.560546875, -84.75390625, -76.947265625, -69.140625, -61.333984375, -53.52734375, -45.720703125, -37.9140625, -30.107421875, -22.30078125, -14.494140625, -6.6875, 1.119140625, 8.92578125, 16.732421875, 24.5390625, 32.345703125, 40.15234375, 47.958984375, 55.765625, 63.572265625, 71.37890625, 79.185546875, 86.9921875, 94.798828125, 102.60546875, 110.412109375, 118.21875, 126.025390625, 133.83203125, 141.638671875, 149.4453125, 157.251953125, 165.05859375, 172.865234375, 180.671875, 188.478515625, 196.28515625, 204.091796875, 211.8984375, 219.705078125, 227.51171875, 235.318359375, 243.125]}, "gradients/decoder.conv.7.weight": {"_type": "histogram", "values": [1.0, 0.0, 0.0, 1.0, 0.0, 0.0, 0.0, 0.0, 0.0, 0.0, 0.0, 0.0, 0.0, 0.0, 1.0, 1.0, 3.0, 1.0, 1.0, 1.0, 2.0, 2.0, 0.0, 4.0, 1.0, 2.0, 0.0, 2.0, 4.0, 3.0, 6.0, 1.0, 5.0, 2.0, 4.0, 2.0, 1.0, 0.0, 0.0, 3.0, 0.0, 2.0, 2.0, 0.0, 0.0, 0.0, 0.0, 0.0, 1.0, 1.0, 1.0, 0.0, 0.0, 1.0, 0.0, 0.0, 0.0, 0.0, 0.0, 0.0, 0.0, 0.0, 0.0, 2.0], "bins": [-494.3556823730469, -478.3223876953125, -462.28912353515625, -446.255859375, -430.2225646972656, -414.18927001953125, -398.156005859375, -382.12274169921875, -366.0894470214844, -350.05615234375, -334.02288818359375, -317.9896240234375, -301.9563293457031, -285.92303466796875, -269.8897705078125, -253.8564910888672, -237.82321166992188, -221.78993225097656, -205.75665283203125, -189.72337341308594, -173.69009399414062, -157.6568145751953, -141.62353515625, -125.59025573730469, -109.55697631835938, -93.52369689941406, -77.49041748046875, -61.45713806152344, -45.423858642578125, -29.390579223632812, -13.3572998046875, 2.6759796142578125, 18.70928955078125, 34.74256896972656, 50.775848388671875, 66.80912780761719, 82.8424072265625, 98.87568664550781, 114.90896606445312, 130.94224548339844, 146.97552490234375, 163.00880432128906, 179.04208374023438, 195.0753631591797, 211.108642578125, 227.1419219970703, 243.17520141601562, 259.20849609375, 275.24176025390625, 291.2750244140625, 307.3083190917969, 323.34161376953125, 339.3748779296875, 355.40814208984375, 371.4414367675781, 387.4747314453125, 403.50799560546875, 419.541259765625, 435.5745544433594, 451.60784912109375, 467.64111328125, 483.67437744140625, 499.7076721191406, 515.740966796875, 531.7742309570312]}, "gradients/decoder.conv.7.bias": {"_type": "histogram", "values": [1.0, 0.0, 1.0, 0.0, 0.0, 0.0, 0.0, 0.0, 0.0, 0.0, 0.0, 0.0, 0.0, 0.0, 1.0, 3.0, 1.0, 2.0, 0.0, 2.0, 0.0, 4.0, 1.0, 1.0, 1.0, 0.0, 1.0, 3.0, 3.0, 2.0, 1.0, 3.0, 3.0, 2.0, 1.0, 3.0, 1.0, 1.0, 3.0, 0.0, 3.0, 2.0, 1.0, 1.0, 0.0, 1.0, 1.0, 2.0, 1.0, 1.0, 2.0, 1.0, 0.0, 0.0, 0.0, 1.0, 0.0, 0.0, 0.0, 0.0, 0.0, 0.0, 0.0, 2.0], "bins": [-302.9862365722656, -293.862548828125, -284.7388610839844, -275.61517333984375, -266.4914855957031, -257.3677978515625, -248.2440948486328, -239.1204071044922, -229.99671936035156, -220.87303161621094, -211.7493438720703, -202.6256561279297, -193.501953125, -184.37826538085938, -175.25457763671875, -166.13088989257812, -157.0072021484375, -147.88351440429688, -138.75982666015625, -129.63613891601562, -120.51244354248047, -111.38875579833984, -102.26506042480469, -93.14137268066406, -84.01768493652344, -74.89399719238281, -65.77030944824219, -56.64661407470703, -47.522926330566406, -38.39923858642578, -29.27554702758789, -20.15185546875, -11.0281982421875, -1.9045085906982422, 7.219181060791016, 16.342870712280273, 25.46656036376953, 34.590248107910156, 43.71393966674805, 52.83763122558594, 61.96131896972656, 71.08500671386719, 80.20869445800781, 89.33238983154297, 98.4560775756836, 107.57976531982422, 116.70346069335938, 125.8271484375, 134.95083618164062, 144.07452392578125, 153.19821166992188, 162.3218994140625, 171.44558715820312, 180.56927490234375, 189.69297790527344, 198.81666564941406, 207.9403533935547, 217.0640411376953, 226.18772888183594, 235.31141662597656, 244.43511962890625, 253.55880737304688, 262.6824951171875, 271.8061828613281, 280.92987060546875]}, "gradients/decoder.conv.6.weight": {"_type": "histogram", "values": [2.0, 4.0, 3.0, 2.0, 2.0, 1.0, 4.0, 5.0, 4.0, 7.0, 6.0, 17.0, 20.0, 26.0, 28.0, 31.0, 50.0, 64.0, 76.0, 101.0, 160.0, 196.0, 319.0, 501.0, 712.0, 998.0, 1527.0, 2180.0, 3399.0, 5495.0, 8948.0, 15651.0, 28919.0, 24121.0, 14099.0, 8424.0, 5267.0, 3388.0, 2104.0, 1421.0, 859.0, 572.0, 437.0, 253.0, 193.0, 139.0, 86.0, 68.0, 44.0, 44.0, 21.0, 15.0, 9.0, 10.0, 4.0, 5.0, 9.0, 6.0, 2.0, 4.0, 5.0, 2.0, 2.0, 1.0], "bins": [-92.5, -89.6923828125, -86.884765625, -84.0771484375, -81.26953125, -78.4619140625, -75.654296875, -72.8466796875, -70.0390625, -67.2314453125, -64.423828125, -61.6162109375, -58.80859375, -56.0009765625, -53.193359375, -50.3857421875, -47.578125, -44.7705078125, -41.962890625, -39.1552734375, -36.34765625, -33.5400390625, -30.732421875, -27.9248046875, -25.1171875, -22.3095703125, -19.501953125, -16.6943359375, -13.88671875, -11.0791015625, -8.271484375, -5.4638671875, -2.65625, 0.1513671875, 2.958984375, 5.7666015625, 8.57421875, 11.3818359375, 14.189453125, 16.9970703125, 19.8046875, 22.6123046875, 25.419921875, 28.2275390625, 31.03515625, 33.8427734375, 36.650390625, 39.4580078125, 42.265625, 45.0732421875, 47.880859375, 50.6884765625, 53.49609375, 56.3037109375, 59.111328125, 61.9189453125, 64.7265625, 67.5341796875, 70.341796875, 73.1494140625, 75.95703125, 78.7646484375, 81.572265625, 84.3798828125, 87.1875]}, "gradients/decoder.conv.4.weight": {"_type": "histogram", "values": [1.0, 0.0, 0.0, 0.0, 0.0, 0.0, 0.0, 0.0, 0.0, 0.0, 0.0, 0.0, 0.0, 1.0, 1.0, 0.0, 0.0, 2.0, 0.0, 1.0, 1.0, 0.0, 3.0, 5.0, 1.0, 3.0, 6.0, 4.0, 4.0, 3.0, 5.0, 6.0, 4.0, 8.0, 12.0, 11.0, 7.0, 11.0, 6.0, 1.0, 1.0, 3.0, 2.0, 2.0, 2.0, 2.0, 1.0, 1.0, 2.0, 0.0, 1.0, 0.0, 2.0, 0.0, 0.0, 1.0, 0.0, 0.0, 0.0, 0.0, 0.0, 0.0, 0.0, 1.0], "bins": [-300.22503662109375, -291.3755187988281, -282.5260009765625, -273.67645263671875, -264.8269348144531, -255.9774169921875, -247.1278839111328, -238.27835083007812, -229.4288330078125, -220.57931518554688, -211.7297821044922, -202.8802490234375, -194.03073120117188, -185.18121337890625, -176.33168029785156, -167.48214721679688, -158.63262939453125, -149.78311157226562, -140.93357849121094, -132.08404541015625, -123.23452758789062, -114.38500213623047, -105.53547668457031, -96.68595123291016, -87.83642578125, -78.98690032958984, -70.13737487792969, -61.28784942626953, -52.438323974609375, -43.58879852294922, -34.73927307128906, -25.889747619628906, -17.04022216796875, -8.190696716308594, 0.6588287353515625, 9.508354187011719, 18.357879638671875, 27.20740509033203, 36.05693054199219, 44.906455993652344, 53.7559814453125, 62.605506896972656, 71.45503234863281, 80.30455780029297, 89.15408325195312, 98.00360870361328, 106.85313415527344, 115.7026596069336, 124.55218505859375, 133.40170288085938, 142.25123596191406, 151.10076904296875, 159.95028686523438, 168.7998046875, 177.6493377685547, 186.49887084960938, 195.348388671875, 204.19790649414062, 213.0474395751953, 221.89697265625, 230.74649047851562, 239.59600830078125, 248.44554138183594, 257.2950744628906, 266.14459228515625]}, "gradients/decoder.conv.4.bias": {"_type": "histogram", "values": [1.0, 0.0, 0.0, 0.0, 0.0, 0.0, 0.0, 0.0, 0.0, 0.0, 0.0, 0.0, 1.0, 1.0, 1.0, 1.0, 3.0, 0.0, 0.0, 3.0, 0.0, 5.0, 4.0, 0.0, 7.0, 5.0, 3.0, 5.0, 2.0, 3.0, 8.0, 10.0, 7.0, 9.0, 7.0, 3.0, 8.0, 5.0, 6.0, 2.0, 3.0, 3.0, 3.0, 1.0, 2.0, 2.0, 0.0, 0.0, 0.0, 1.0, 0.0, 2.0, 0.0, 0.0, 0.0, 0.0, 0.0, 0.0, 0.0, 0.0, 0.0, 0.0, 0.0, 1.0], "bins": [-212.17515563964844, -205.554443359375, -198.93373107910156, -192.31301879882812, -185.6923065185547, -179.07159423828125, -172.45086669921875, -165.83016967773438, -159.20944213867188, -152.58872985839844, -145.968017578125, -139.34730529785156, -132.72659301757812, -126.10588073730469, -119.48516082763672, -112.86444854736328, -106.24374389648438, -99.62303161621094, -93.0023193359375, -86.38160705566406, -79.76089477539062, -73.14018249511719, -66.51946258544922, -59.89875030517578, -53.278038024902344, -46.657325744628906, -40.03661346435547, -33.415897369384766, -26.795185089111328, -20.17447280883789, -13.553756713867188, -6.93304443359375, -0.3123321533203125, 6.308381080627441, 12.929094314575195, 19.549808502197266, 26.170520782470703, 32.79123306274414, 39.411949157714844, 46.03266143798828, 52.65337371826172, 59.274085998535156, 65.8947982788086, 72.51551818847656, 79.13623046875, 85.75694274902344, 92.37765502929688, 98.99836730957031, 105.61907958984375, 112.23979187011719, 118.86050415039062, 125.48121643066406, 132.1019287109375, 138.72264099121094, 145.34335327148438, 151.96408081054688, 158.58477783203125, 165.2054901123047, 171.82620239257812, 178.44691467285156, 185.067626953125, 191.68833923339844, 198.30905151367188, 204.92977905273438, 211.5504913330078]}, "gradients/decoder.conv.3.weight": {"_type": "histogram", "values": [3.0, 0.0, 0.0, 1.0, 4.0, 0.0, 6.0, 9.0, 15.0, 27.0, 41.0, 60.0, 83.0, 114.0, 166.0, 234.0, 299.0, 396.0, 457.0, 586.0, 883.0, 1297.0, 1887.0, 2847.0, 4492.0, 6867.0, 11366.0, 19466.0, 34812.0, 63436.0, 113486.0, 110789.0, 58634.0, 33172.0, 19165.0, 11869.0, 7748.0, 5351.0, 3915.0, 2819.0, 1998.0, 1521.0, 1047.0, 808.0, 564.0, 416.0, 291.0, 228.0, 168.0, 134.0, 86.0, 60.0, 39.0, 33.0, 27.0, 25.0, 9.0, 10.0, 8.0, 3.0, 7.0, 2.0, 1.0, 1.0], "bins": [-48.09375, -46.546875, -45.0, -43.453125, -41.90625, -40.359375, -38.8125, -37.265625, -35.71875, -34.171875, -32.625, -31.078125, -29.53125, -27.984375, -26.4375, -24.890625, -23.34375, -21.796875, -20.25, -18.703125, -17.15625, -15.609375, -14.0625, -12.515625, -10.96875, -9.421875, -7.875, -6.328125, -4.78125, -3.234375, -1.6875, -0.140625, 1.40625, 2.953125, 4.5, 6.046875, 7.59375, 9.140625, 10.6875, 12.234375, 13.78125, 15.328125, 16.875, 18.421875, 19.96875, 21.515625, 23.0625, 24.609375, 26.15625, 27.703125, 29.25, 30.796875, 32.34375, 33.890625, 35.4375, 36.984375, 38.53125, 40.078125, 41.625, 43.171875, 44.71875, 46.265625, 47.8125, 49.359375, 50.90625]}, "gradients/decoder.conv.1.weight": {"_type": "histogram", "values": [1.0, 0.0, 0.0, 0.0, 0.0, 0.0, 0.0, 0.0, 0.0, 1.0, 1.0, 0.0, 0.0, 1.0, 1.0, 0.0, 2.0, 2.0, 1.0, 3.0, 1.0, 1.0, 5.0, 4.0, 8.0, 9.0, 10.0, 5.0, 7.0, 11.0, 10.0, 13.0, 8.0, 14.0, 15.0, 9.0, 13.0, 6.0, 10.0, 12.0, 8.0, 8.0, 3.0, 4.0, 8.0, 5.0, 9.0, 4.0, 5.0, 4.0, 3.0, 5.0, 0.0, 2.0, 1.0, 0.0, 0.0, 1.0, 0.0, 0.0, 0.0, 0.0, 0.0, 2.0], "bins": [-172.24673461914062, -167.3333740234375, -162.42002868652344, -157.5066680908203, -152.59332275390625, -147.67996215820312, -142.76661682128906, -137.85325622558594, -132.93991088867188, -128.02655029296875, -123.11320495605469, -118.1998519897461, -113.2864990234375, -108.37313842773438, -103.45978546142578, -98.54643249511719, -93.63307189941406, -88.71971893310547, -83.80636596679688, -78.89301300048828, -73.97966003417969, -69.06629943847656, -64.15294647216797, -59.239593505859375, -54.32624053955078, -49.41288757324219, -44.499534606933594, -39.586177825927734, -34.67282485961914, -29.759471893310547, -24.84611701965332, -19.932762145996094, -15.0194091796875, -10.10605525970459, -5.19270133972168, -0.27934741973876953, 4.634006500244141, 9.547359466552734, 14.460714340209961, 19.374069213867188, 24.28742218017578, 29.200775146484375, 34.11412811279297, 39.02748489379883, 43.94083786010742, 48.854190826416016, 53.767547607421875, 58.68090057373047, 63.59425354003906, 68.50760650634766, 73.42095947265625, 78.33431243896484, 83.24766540527344, 88.16102600097656, 93.07437896728516, 97.98773193359375, 102.90108489990234, 107.81443786621094, 112.72779083251953, 117.64114379882812, 122.55450439453125, 127.46784973144531, 132.38121032714844, 137.2945556640625, 142.20791625976562]}, "gradients/decoder.conv.1.bias": {"_type": "histogram", "values": [2.0, 0.0, 0.0, 0.0, 0.0, 0.0, 0.0, 0.0, 0.0, 0.0, 1.0, 0.0, 0.0, 1.0, 0.0, 3.0, 2.0, 1.0, 3.0, 4.0, 3.0, 3.0, 6.0, 5.0, 7.0, 10.0, 6.0, 13.0, 9.0, 11.0, 8.0, 11.0, 12.0, 8.0, 18.0, 7.0, 13.0, 8.0, 7.0, 7.0, 8.0, 6.0, 2.0, 7.0, 7.0, 7.0, 8.0, 6.0, 4.0, 1.0, 1.0, 3.0, 1.0, 3.0, 1.0, 1.0, 0.0, 0.0, 0.0, 0.0, 0.0, 0.0, 0.0, 1.0], "bins": [-155.3681640625, -150.75172424316406, -146.13526916503906, -141.51882934570312, -136.90237426757812, -132.2859344482422, -127.66948699951172, -123.05303955078125, -118.43659210205078, -113.82014465332031, -109.20369720458984, -104.58724975585938, -99.97080993652344, -95.35435485839844, -90.7379150390625, -86.12146759033203, -81.50502014160156, -76.8885726928711, -72.27212524414062, -67.65567779541016, -63.03923416137695, -58.422786712646484, -53.80634307861328, -49.18989562988281, -44.573448181152344, -39.957000732421875, -35.340553283691406, -30.724109649658203, -26.107662200927734, -21.491214752197266, -16.87476921081543, -12.258323669433594, -7.6418609619140625, -3.02541446685791, 1.5910320281982422, 6.2074785232543945, 10.823925018310547, 15.440372467041016, 20.05681800842285, 24.673263549804688, 29.289710998535156, 33.906158447265625, 38.522605895996094, 43.1390495300293, 47.755496978759766, 52.371944427490234, 56.98838806152344, 61.604835510253906, 66.22128295898438, 70.83773040771484, 75.45417785644531, 80.07062530517578, 84.68707275390625, 89.30351257324219, 93.91996002197266, 98.53640747070312, 103.1528549194336, 107.76930236816406, 112.38574981689453, 117.002197265625, 121.61863708496094, 126.23509216308594, 130.85153198242188, 135.46798706054688, 140.0844268798828]}, "gradients/decoder.conv.0.weight": {"_type": "histogram", "values": [5.0, 0.0, 2.0, 4.0, 5.0, 8.0, 12.0, 11.0, 24.0, 41.0, 63.0, 77.0, 113.0, 149.0, 265.0, 409.0, 637.0, 1081.0, 2081.0, 3883.0, 7854.0, 17270.0, 41385.0, 116024.0, 394690.0, 1904229.0, 5423141.0, 1118826.0, 262390.0, 82701.0, 31380.0, 13555.0, 6617.0, 3384.0, 1865.0, 1083.0, 664.0, 403.0, 242.0, 179.0, 108.0, 77.0, 56.0, 35.0, 34.0, 25.0, 23.0, 14.0, 9.0, 19.0, 6.0, 3.0, 5.0, 3.0, 4.0, 2.0, 4.0, 1.0, 0.0, 1.0, 1.0, 0.0, 1.0, 1.0], "bins": [-10.2734375, -9.8836669921875, -9.493896484375, -9.1041259765625, -8.71435546875, -8.3245849609375, -7.934814453125, -7.5450439453125, -7.1552734375, -6.7655029296875, -6.375732421875, -5.9859619140625, -5.59619140625, -5.2064208984375, -4.816650390625, -4.4268798828125, -4.037109375, -3.6473388671875, -3.257568359375, -2.8677978515625, -2.47802734375, -2.0882568359375, -1.698486328125, -1.3087158203125, -0.9189453125, -0.5291748046875, -0.139404296875, 0.2503662109375, 0.64013671875, 1.0299072265625, 1.419677734375, 1.8094482421875, 2.19921875, 2.5889892578125, 2.978759765625, 3.3685302734375, 3.75830078125, 4.1480712890625, 4.537841796875, 4.9276123046875, 5.3173828125, 5.7071533203125, 6.096923828125, 6.4866943359375, 6.87646484375, 7.2662353515625, 7.656005859375, 8.0457763671875, 8.435546875, 8.8253173828125, 9.215087890625, 9.6048583984375, 9.99462890625, 10.3843994140625, 10.774169921875, 11.1639404296875, 11.5537109375, 11.9434814453125, 12.333251953125, 12.7230224609375, 13.11279296875, 13.5025634765625, 13.892333984375, 14.2821044921875, 14.671875]}, "gradients/fc.weight": {"_type": "histogram", "values": [2.0, 1.0, 4.0, 2.0, 1.0, 2.0, 4.0, 5.0, 11.0, 5.0, 16.0, 12.0, 15.0, 16.0, 18.0, 35.0, 50.0, 66.0, 97.0, 123.0, 175.0, 215.0, 349.0, 474.0, 630.0, 962.0, 1416.0, 2130.0, 3400.0, 5618.0, 9444.0, 17060.0, 33691.0, 65853.0, 56153.0, 27575.0, 14415.0, 7988.0, 4917.0, 2997.0, 1901.0, 1246.0, 890.0, 650.0, 426.0, 316.0, 197.0, 141.0, 114.0, 74.0, 63.0, 40.0, 36.0, 17.0, 23.0, 16.0, 12.0, 8.0, 8.0, 5.0, 5.0, 3.0, 2.0, 4.0], "bins": [-49.40625, -47.94677734375, -46.4873046875, -45.02783203125, -43.568359375, -42.10888671875, -40.6494140625, -39.18994140625, -37.73046875, -36.27099609375, -34.8115234375, -33.35205078125, -31.892578125, -30.43310546875, -28.9736328125, -27.51416015625, -26.0546875, -24.59521484375, -23.1357421875, -21.67626953125, -20.216796875, -18.75732421875, -17.2978515625, -15.83837890625, -14.37890625, -12.91943359375, -11.4599609375, -10.00048828125, -8.541015625, -7.08154296875, -5.6220703125, -4.16259765625, -2.703125, -1.24365234375, 0.2158203125, 1.67529296875, 3.134765625, 4.59423828125, 6.0537109375, 7.51318359375, 8.97265625, 10.43212890625, 11.8916015625, 13.35107421875, 14.810546875, 16.27001953125, 17.7294921875, 19.18896484375, 20.6484375, 22.10791015625, 23.5673828125, 25.02685546875, 26.486328125, 27.94580078125, 29.4052734375, 30.86474609375, 32.32421875, 33.78369140625, 35.2431640625, 36.70263671875, 38.162109375, 39.62158203125, 41.0810546875, 42.54052734375, 44.0]}, "gradients/fc.bias": {"_type": "histogram", "values": [1.0, 0.0, 0.0, 1.0, 0.0, 0.0, 1.0, 0.0, 1.0, 1.0, 2.0, 2.0, 3.0, 1.0, 2.0, 6.0, 3.0, 7.0, 12.0, 15.0, 20.0, 18.0, 28.0, 27.0, 24.0, 30.0, 38.0, 38.0, 53.0, 50.0, 64.0, 50.0, 66.0, 55.0, 49.0, 44.0, 33.0, 45.0, 38.0, 22.0, 36.0, 20.0, 17.0, 14.0, 14.0, 15.0, 13.0, 12.0, 10.0, 5.0, 4.0, 2.0, 1.0, 3.0, 1.0, 1.0, 3.0, 1.0, 0.0, 0.0, 0.0, 1.0, 0.0, 1.0], "bins": [-5.0078125, -4.85516357421875, -4.7025146484375, -4.54986572265625, -4.397216796875, -4.24456787109375, -4.0919189453125, -3.93927001953125, -3.78662109375, -3.63397216796875, -3.4813232421875, -3.32867431640625, -3.176025390625, -3.02337646484375, -2.8707275390625, -2.71807861328125, -2.5654296875, -2.41278076171875, -2.2601318359375, -2.10748291015625, -1.954833984375, -1.80218505859375, -1.6495361328125, -1.49688720703125, -1.34423828125, -1.19158935546875, -1.0389404296875, -0.88629150390625, -0.733642578125, -0.58099365234375, -0.4283447265625, -0.27569580078125, -0.123046875, 0.02960205078125, 0.1822509765625, 0.33489990234375, 0.487548828125, 0.64019775390625, 0.7928466796875, 0.94549560546875, 1.09814453125, 1.25079345703125, 1.4034423828125, 1.55609130859375, 1.708740234375, 1.86138916015625, 2.0140380859375, 2.16668701171875, 2.3193359375, 2.47198486328125, 2.6246337890625, 2.77728271484375, 2.929931640625, 3.08258056640625, 3.2352294921875, 3.38787841796875, 3.54052734375, 3.69317626953125, 3.8458251953125, 3.99847412109375, 4.151123046875, 4.30377197265625, 4.4564208984375, 4.60906982421875, 4.76171875]}, "gradients/graph_1obs_encoder.fc2.weight": {"_type": "histogram", "values": [1.0, 0.0, 0.0, 1.0, 0.0, 0.0, 1.0, 2.0, 3.0, 4.0, 5.0, 5.0, 12.0, 19.0, 19.0, 14.0, 22.0, 44.0, 51.0, 56.0, 92.0, 153.0, 222.0, 331.0, 516.0, 799.0, 1374.0, 2405.0, 4787.0, 9206.0, 68039.0, 26404.0, 7392.0, 3803.0, 2001.0, 1187.0, 673.0, 427.0, 294.0, 198.0, 151.0, 88.0, 68.0, 46.0, 41.0, 28.0, 16.0, 19.0, 7.0, 15.0, 5.0, 8.0, 5.0, 3.0, 1.0, 2.0, 1.0, 4.0, 0.0, 1.0, 0.0, 0.0, 0.0, 1.0], "bins": [-130.125, -125.908203125, -121.69140625, -117.474609375, -113.2578125, -109.041015625, -104.82421875, -100.607421875, -96.390625, -92.173828125, -87.95703125, -83.740234375, -79.5234375, -75.306640625, -71.08984375, -66.873046875, -62.65625, -58.439453125, -54.22265625, -50.005859375, -45.7890625, -41.572265625, -37.35546875, -33.138671875, -28.921875, -24.705078125, -20.48828125, -16.271484375, -12.0546875, -7.837890625, -3.62109375, 0.595703125, 4.8125, 9.029296875, 13.24609375, 17.462890625, 21.6796875, 25.896484375, 30.11328125, 34.330078125, 38.546875, 42.763671875, 46.98046875, 51.197265625, 55.4140625, 59.630859375, 63.84765625, 68.064453125, 72.28125, 76.498046875, 80.71484375, 84.931640625, 89.1484375, 93.365234375, 97.58203125, 101.798828125, 106.015625, 110.232421875, 114.44921875, 118.666015625, 122.8828125, 127.099609375, 131.31640625, 135.533203125, 139.75]}, "gradients/graph_1obs_encoder.fc2.bias": {"_type": "histogram", "values": [2.0, 0.0, 0.0, 1.0, 0.0, 0.0, 0.0, 0.0, 3.0, 2.0, 1.0, 1.0, 1.0, 2.0, 1.0, 2.0, 2.0, 4.0, 5.0, 3.0, 6.0, 3.0, 5.0, 13.0, 8.0, 10.0, 12.0, 11.0, 20.0, 64.0, 209.0, 23.0, 12.0, 12.0, 5.0, 12.0, 4.0, 7.0, 5.0, 8.0, 2.0, 5.0, 2.0, 4.0, 4.0, 2.0, 3.0, 3.0, 0.0, 1.0, 0.0, 1.0, 0.0, 0.0, 0.0, 2.0, 0.0, 0.0, 1.0, 1.0, 0.0, 0.0, 1.0, 1.0], "bins": [-31.53125, -30.48828125, -29.4453125, -28.40234375, -27.359375, -26.31640625, -25.2734375, -24.23046875, -23.1875, -22.14453125, -21.1015625, -20.05859375, -19.015625, -17.97265625, -16.9296875, -15.88671875, -14.84375, -13.80078125, -12.7578125, -11.71484375, -10.671875, -9.62890625, -8.5859375, -7.54296875, -6.5, -5.45703125, -4.4140625, -3.37109375, -2.328125, -1.28515625, -0.2421875, 0.80078125, 1.84375, 2.88671875, 3.9296875, 4.97265625, 6.015625, 7.05859375, 8.1015625, 9.14453125, 10.1875, 11.23046875, 12.2734375, 13.31640625, 14.359375, 15.40234375, 16.4453125, 17.48828125, 18.53125, 19.57421875, 20.6171875, 21.66015625, 22.703125, 23.74609375, 24.7890625, 25.83203125, 26.875, 27.91796875, 28.9609375, 30.00390625, 31.046875, 32.08984375, 33.1328125, 34.17578125, 35.21875]}, "gradients/graph_1obs_encoder.fc1.weight": {"_type": "histogram", "values": [1.0, 0.0, 0.0, 0.0, 0.0, 1.0, 1.0, 1.0, 6.0, 3.0, 4.0, 7.0, 10.0, 16.0, 18.0, 39.0, 47.0, 70.0, 90.0, 162.0, 227.0, 368.0, 544.0, 882.0, 1225.0, 2009.0, 3168.0, 4998.0, 8008.0, 13085.0, 20721.0, 33158.0, 51016.0, 68897.0, 43989.0, 27456.0, 16589.0, 10379.0, 6487.0, 4249.0, 2885.0, 1964.0, 1303.0, 1020.0, 657.0, 503.0, 342.0, 284.0, 220.0, 136.0, 106.0, 82.0, 68.0, 50.0, 30.0, 29.0, 23.0, 16.0, 10.0, 9.0, 3.0, 4.0, 2.0, 3.0], "bins": [-53.34375, -51.73291015625, -50.1220703125, -48.51123046875, -46.900390625, -45.28955078125, -43.6787109375, -42.06787109375, -40.45703125, -38.84619140625, -37.2353515625, -35.62451171875, -34.013671875, -32.40283203125, -30.7919921875, -29.18115234375, -27.5703125, -25.95947265625, -24.3486328125, -22.73779296875, -21.126953125, -19.51611328125, -17.9052734375, -16.29443359375, -14.68359375, -13.07275390625, -11.4619140625, -9.85107421875, -8.240234375, -6.62939453125, -5.0185546875, -3.40771484375, -1.796875, -0.18603515625, 1.4248046875, 3.03564453125, 4.646484375, 6.25732421875, 7.8681640625, 9.47900390625, 11.08984375, 12.70068359375, 14.3115234375, 15.92236328125, 17.533203125, 19.14404296875, 20.7548828125, 22.36572265625, 23.9765625, 25.58740234375, 27.1982421875, 28.80908203125, 30.419921875, 32.03076171875, 33.6416015625, 35.25244140625, 36.86328125, 38.47412109375, 40.0849609375, 41.69580078125, 43.306640625, 44.91748046875, 46.5283203125, 48.13916015625, 49.75]}, "gradients/graph_1obs_encoder.fc1.bias": {"_type": "histogram", "values": [1.0, 0.0, 0.0, 0.0, 0.0, 0.0, 1.0, 1.0, 4.0, 2.0, 0.0, 3.0, 0.0, 3.0, 1.0, 3.0, 7.0, 3.0, 9.0, 5.0, 9.0, 12.0, 8.0, 19.0, 11.0, 16.0, 19.0, 10.0, 16.0, 12.0, 12.0, 9.0, 8.0, 11.0, 6.0, 5.0, 5.0, 4.0, 2.0, 5.0, 4.0, 1.0, 2.0, 0.0, 2.0, 0.0, 0.0, 1.0, 0.0, 0.0, 0.0, 0.0, 0.0, 2.0, 0.0, 0.0, 0.0, 1.0, 0.0, 0.0, 0.0, 0.0, 0.0, 1.0], "bins": [-40.3125, -38.74658203125, -37.1806640625, -35.61474609375, -34.048828125, -32.48291015625, -30.9169921875, -29.35107421875, -27.78515625, -26.21923828125, -24.6533203125, -23.08740234375, -21.521484375, -19.95556640625, -18.3896484375, -16.82373046875, -15.2578125, -13.69189453125, -12.1259765625, -10.56005859375, -8.994140625, -7.42822265625, -5.8623046875, -4.29638671875, -2.73046875, -1.16455078125, 0.4013671875, 1.96728515625, 3.533203125, 5.09912109375, 6.6650390625, 8.23095703125, 9.796875, 11.36279296875, 12.9287109375, 14.49462890625, 16.060546875, 17.62646484375, 19.1923828125, 20.75830078125, 22.32421875, 23.89013671875, 25.4560546875, 27.02197265625, 28.587890625, 30.15380859375, 31.7197265625, 33.28564453125, 34.8515625, 36.41748046875, 37.9833984375, 39.54931640625, 41.115234375, 42.68115234375, 44.2470703125, 45.81298828125, 47.37890625, 48.94482421875, 50.5107421875, 52.07666015625, 53.642578125, 55.20849609375, 56.7744140625, 58.34033203125, 59.90625]}, "gradients/graph_1stochastic_state_model.fc2.weight": {"_type": "histogram", "values": [1.0, 1.0, 0.0, 2.0, 3.0, 2.0, 1.0, 5.0, 11.0, 26.0, 22.0, 44.0, 55.0, 79.0, 127.0, 167.0, 209.0, 364.0, 456.0, 683.0, 933.0, 1357.0, 1840.0, 2626.0, 3420.0, 4705.0, 7419.0, 13947.0, 24082.0, 25755.0, 16196.0, 8544.0, 5252.0, 3576.0, 2609.0, 1907.0, 1362.0, 945.0, 684.0, 479.0, 326.0, 237.0, 180.0, 115.0, 94.0, 66.0, 48.0, 29.0, 25.0, 16.0, 13.0, 8.0, 3.0, 5.0, 3.0, 3.0, 1.0, 2.0, 1.0, 0.0, 0.0, 0.0, 0.0, 1.0], "bins": [-1.93359375, -1.866943359375, -1.80029296875, -1.733642578125, -1.6669921875, -1.600341796875, -1.53369140625, -1.467041015625, -1.400390625, -1.333740234375, -1.26708984375, -1.200439453125, -1.1337890625, -1.067138671875, -1.00048828125, -0.933837890625, -0.8671875, -0.800537109375, -0.73388671875, -0.667236328125, -0.6005859375, -0.533935546875, -0.46728515625, -0.400634765625, -0.333984375, -0.267333984375, -0.20068359375, -0.134033203125, -0.0673828125, -0.000732421875, 0.06591796875, 0.132568359375, 0.19921875, 0.265869140625, 0.33251953125, 0.399169921875, 0.4658203125, 0.532470703125, 0.59912109375, 0.665771484375, 0.732421875, 0.799072265625, 0.86572265625, 0.932373046875, 0.9990234375, 1.065673828125, 1.13232421875, 1.198974609375, 1.265625, 1.332275390625, 1.39892578125, 1.465576171875, 1.5322265625, 1.598876953125, 1.66552734375, 1.732177734375, 1.798828125, 1.865478515625, 1.93212890625, 1.998779296875, 2.0654296875, 2.132080078125, 2.19873046875, 2.265380859375, 2.33203125]}, "gradients/graph_1stochastic_state_model.fc2.bias": {"_type": "histogram", "values": [1.0, 1.0, 3.0, 1.0, 2.0, 1.0, 3.0, 6.0, 5.0, 3.0, 0.0, 2.0, 5.0, 5.0, 3.0, 6.0, 5.0, 7.0, 8.0, 7.0, 5.0, 5.0, 17.0, 12.0, 21.0, 19.0, 54.0, 62.0, 57.0, 48.0, 38.0, 15.0, 10.0, 7.0, 12.0, 6.0, 6.0, 5.0, 7.0, 3.0, 2.0, 3.0, 0.0, 1.0, 2.0, 4.0, 3.0, 4.0, 2.0, 1.0, 1.0, 0.0, 1.0, 0.0, 1.0, 1.0, 0.0, 0.0, 0.0, 0.0, 0.0, 1.0, 1.0, 1.0], "bins": [-1.5107421875, -1.4537506103515625, -1.396759033203125, -1.3397674560546875, -1.28277587890625, -1.2257843017578125, -1.168792724609375, -1.1118011474609375, -1.0548095703125, -0.9978179931640625, -0.940826416015625, -0.8838348388671875, -0.82684326171875, -0.7698516845703125, -0.712860107421875, -0.6558685302734375, -0.598876953125, -0.5418853759765625, -0.484893798828125, -0.4279022216796875, -0.37091064453125, -0.3139190673828125, -0.256927490234375, -0.1999359130859375, -0.1429443359375, -0.0859527587890625, -0.028961181640625, 0.0280303955078125, 0.08502197265625, 0.1420135498046875, 0.199005126953125, 0.2559967041015625, 0.31298828125, 0.3699798583984375, 0.426971435546875, 0.4839630126953125, 0.54095458984375, 0.5979461669921875, 0.654937744140625, 0.7119293212890625, 0.7689208984375, 0.8259124755859375, 0.882904052734375, 0.9398956298828125, 0.99688720703125, 1.0538787841796875, 1.110870361328125, 1.1678619384765625, 1.224853515625, 1.2818450927734375, 1.338836669921875, 1.3958282470703125, 1.45281982421875, 1.5098114013671875, 1.566802978515625, 1.6237945556640625, 1.6807861328125, 1.7377777099609375, 1.794769287109375, 1.8517608642578125, 1.90875244140625, 1.9657440185546875, 2.022735595703125, 2.0797271728515625, 2.13671875]}, "gradients/graph_1stochastic_state_model.fc1.weight": {"_type": "histogram", "values": [1.0, 0.0, 0.0, 0.0, 0.0, 0.0, 0.0, 3.0, 4.0, 4.0, 7.0, 3.0, 5.0, 12.0, 15.0, 25.0, 42.0, 67.0, 86.0, 139.0, 232.0, 322.0, 478.0, 684.0, 1042.0, 1517.0, 2241.0, 2922.0, 4014.0, 5160.0, 6174.0, 6909.0, 6793.0, 6363.0, 5515.0, 4269.0, 3315.0, 2327.0, 1577.0, 1128.0, 733.0, 451.0, 327.0, 206.0, 126.0, 84.0, 76.0, 36.0, 31.0, 18.0, 16.0, 11.0, 10.0, 4.0, 4.0, 3.0, 0.0, 2.0, 0.0, 1.0, 1.0, 0.0, 0.0, 1.0], "bins": [-3.306640625, -3.2037353515625, -3.100830078125, -2.9979248046875, -2.89501953125, -2.7921142578125, -2.689208984375, -2.5863037109375, -2.4833984375, -2.3804931640625, -2.277587890625, -2.1746826171875, -2.07177734375, -1.9688720703125, -1.865966796875, -1.7630615234375, -1.66015625, -1.5572509765625, -1.454345703125, -1.3514404296875, -1.24853515625, -1.1456298828125, -1.042724609375, -0.9398193359375, -0.8369140625, -0.7340087890625, -0.631103515625, -0.5281982421875, -0.42529296875, -0.3223876953125, -0.219482421875, -0.1165771484375, -0.013671875, 0.0892333984375, 0.192138671875, 0.2950439453125, 0.39794921875, 0.5008544921875, 0.603759765625, 0.7066650390625, 0.8095703125, 0.9124755859375, 1.015380859375, 1.1182861328125, 1.22119140625, 1.3240966796875, 1.427001953125, 1.5299072265625, 1.6328125, 1.7357177734375, 1.838623046875, 1.9415283203125, 2.04443359375, 2.1473388671875, 2.250244140625, 2.3531494140625, 2.4560546875, 2.5589599609375, 2.661865234375, 2.7647705078125, 2.86767578125, 2.9705810546875, 3.073486328125, 3.1763916015625, 3.279296875]}, "gradients/graph_1stochastic_state_model.fc1.bias": {"_type": "histogram", "values": [1.0, 1.0, 0.0, 0.0, 0.0, 0.0, 0.0, 0.0, 1.0, 2.0, 4.0, 2.0, 3.0, 6.0, 5.0, 2.0, 4.0, 6.0, 10.0, 10.0, 6.0, 8.0, 8.0, 13.0, 10.0, 10.0, 7.0, 6.0, 9.0, 9.0, 7.0, 13.0, 6.0, 6.0, 13.0, 7.0, 4.0, 3.0, 4.0, 7.0, 5.0, 3.0, 6.0, 5.0, 1.0, 1.0, 2.0, 5.0, 2.0, 3.0, 2.0, 0.0, 2.0, 0.0, 1.0, 1.0, 0.0, 1.0, 1.0, 0.0, 0.0, 1.0, 0.0, 1.0], "bins": [-3.314453125, -3.167633056640625, -3.02081298828125, -2.873992919921875, -2.7271728515625, -2.580352783203125, -2.43353271484375, -2.286712646484375, -2.139892578125, -1.993072509765625, -1.84625244140625, -1.699432373046875, -1.5526123046875, -1.405792236328125, -1.25897216796875, -1.112152099609375, -0.96533203125, -0.818511962890625, -0.67169189453125, -0.524871826171875, -0.3780517578125, -0.231231689453125, -0.08441162109375, 0.062408447265625, 0.209228515625, 0.356048583984375, 0.50286865234375, 0.649688720703125, 0.7965087890625, 0.943328857421875, 1.09014892578125, 1.236968994140625, 1.3837890625, 1.530609130859375, 1.67742919921875, 1.824249267578125, 1.9710693359375, 2.117889404296875, 2.26470947265625, 2.411529541015625, 2.558349609375, 2.705169677734375, 2.85198974609375, 2.998809814453125, 3.1456298828125, 3.292449951171875, 3.43927001953125, 3.586090087890625, 3.73291015625, 3.879730224609375, 4.02655029296875, 4.173370361328125, 4.3201904296875, 4.467010498046875, 4.61383056640625, 4.760650634765625, 4.907470703125, 5.054290771484375, 5.20111083984375, 5.347930908203125, 5.4947509765625, 5.641571044921875, 5.78839111328125, 5.935211181640625, 6.08203125]}, "gradients/graph_1rnn.weight_ih": {"_type": "histogram", "values": [1.0, 0.0, 1.0, 2.0, 2.0, 0.0, 3.0, 4.0, 5.0, 8.0, 3.0, 15.0, 17.0, 21.0, 31.0, 52.0, 68.0, 99.0, 133.0, 226.0, 304.0, 394.0, 556.0, 819.0, 1239.0, 1736.0, 2285.0, 3187.0, 4233.0, 5920.0, 10298.0, 28971.0, 72015.0, 32444.0, 10733.0, 5909.0, 4136.0, 2927.0, 2267.0, 1605.0, 1185.0, 828.0, 600.0, 415.0, 291.0, 195.0, 131.0, 86.0, 65.0, 48.0, 37.0, 11.0, 7.0, 15.0, 10.0, 7.0, 2.0, 1.0, 2.0, 1.0, 0.0, 1.0, 0.0, 1.0], "bins": [-13.0859375, -12.68359375, -12.28125, -11.87890625, -11.4765625, -11.07421875, -10.671875, -10.26953125, -9.8671875, -9.46484375, -9.0625, -8.66015625, -8.2578125, -7.85546875, -7.453125, -7.05078125, -6.6484375, -6.24609375, -5.84375, -5.44140625, -5.0390625, -4.63671875, -4.234375, -3.83203125, -3.4296875, -3.02734375, -2.625, -2.22265625, -1.8203125, -1.41796875, -1.015625, -0.61328125, -0.2109375, 0.19140625, 0.59375, 0.99609375, 1.3984375, 1.80078125, 2.203125, 2.60546875, 3.0078125, 3.41015625, 3.8125, 4.21484375, 4.6171875, 5.01953125, 5.421875, 5.82421875, 6.2265625, 6.62890625, 7.03125, 7.43359375, 7.8359375, 8.23828125, 8.640625, 9.04296875, 9.4453125, 9.84765625, 10.25, 10.65234375, 11.0546875, 11.45703125, 11.859375, 12.26171875, 12.6640625]}, "gradients/graph_1rnn.weight_hh": {"_type": "histogram", "values": [1.0, 0.0, 0.0, 0.0, 4.0, 1.0, 0.0, 0.0, 1.0, 4.0, 4.0, 4.0, 9.0, 10.0, 6.0, 22.0, 26.0, 34.0, 45.0, 59.0, 81.0, 124.0, 167.0, 261.0, 343.0, 531.0, 735.0, 1078.0, 1594.0, 2239.0, 3222.0, 5001.0, 8414.0, 16315.0, 36751.0, 53672.0, 30329.0, 13976.0, 7252.0, 4635.0, 2976.0, 2073.0, 1361.0, 989.0, 676.0, 448.0, 356.0, 235.0, 158.0, 120.0, 66.0, 63.0, 40.0, 27.0, 23.0, 13.0, 9.0, 6.0, 5.0, 4.0, 5.0, 1.0, 0.0, 4.0], "bins": [-3.810546875, -3.702850341796875, -3.59515380859375, -3.487457275390625, -3.3797607421875, -3.272064208984375, -3.16436767578125, -3.056671142578125, -2.948974609375, -2.841278076171875, -2.73358154296875, -2.625885009765625, -2.5181884765625, -2.410491943359375, -2.30279541015625, -2.195098876953125, -2.08740234375, -1.979705810546875, -1.87200927734375, -1.764312744140625, -1.6566162109375, -1.548919677734375, -1.44122314453125, -1.333526611328125, -1.225830078125, -1.118133544921875, -1.01043701171875, -0.902740478515625, -0.7950439453125, -0.687347412109375, -0.57965087890625, -0.471954345703125, -0.3642578125, -0.256561279296875, -0.14886474609375, -0.041168212890625, 0.0665283203125, 0.174224853515625, 0.28192138671875, 0.389617919921875, 0.497314453125, 0.605010986328125, 0.71270751953125, 0.820404052734375, 0.9281005859375, 1.035797119140625, 1.14349365234375, 1.251190185546875, 1.35888671875, 1.466583251953125, 1.57427978515625, 1.681976318359375, 1.7896728515625, 1.897369384765625, 2.00506591796875, 2.112762451171875, 2.220458984375, 2.328155517578125, 2.43585205078125, 2.543548583984375, 2.6512451171875, 2.758941650390625, 2.86663818359375, 2.974334716796875, 3.08203125]}, "gradients/graph_1rnn.bias_ih": {"_type": "histogram", "values": [1.0, 0.0, 0.0, 1.0, 0.0, 2.0, 1.0, 0.0, 0.0, 4.0, 4.0, 1.0, 5.0, 3.0, 6.0, 7.0, 3.0, 9.0, 8.0, 9.0, 9.0, 10.0, 17.0, 27.0, 92.0, 187.0, 163.0, 51.0, 25.0, 17.0, 11.0, 16.0, 13.0, 12.0, 7.0, 6.0, 3.0, 3.0, 5.0, 3.0, 8.0, 1.0, 5.0, 3.0, 2.0, 1.0, 1.0, 1.0, 2.0, 2.0, 0.0, 0.0, 0.0, 0.0, 0.0, 0.0, 0.0, 0.0, 0.0, 0.0, 0.0, 0.0, 0.0, 1.0], "bins": [-6.2890625, -6.0465087890625, -5.803955078125, -5.5614013671875, -5.31884765625, -5.0762939453125, -4.833740234375, -4.5911865234375, -4.3486328125, -4.1060791015625, -3.863525390625, -3.6209716796875, -3.37841796875, -3.1358642578125, -2.893310546875, -2.6507568359375, -2.408203125, -2.1656494140625, -1.923095703125, -1.6805419921875, -1.43798828125, -1.1954345703125, -0.952880859375, -0.7103271484375, -0.4677734375, -0.2252197265625, 0.017333984375, 0.2598876953125, 0.50244140625, 0.7449951171875, 0.987548828125, 1.2301025390625, 1.47265625, 1.7152099609375, 1.957763671875, 2.2003173828125, 2.44287109375, 2.6854248046875, 2.927978515625, 3.1705322265625, 3.4130859375, 3.6556396484375, 3.898193359375, 4.1407470703125, 4.38330078125, 4.6258544921875, 4.868408203125, 5.1109619140625, 5.353515625, 5.5960693359375, 5.838623046875, 6.0811767578125, 6.32373046875, 6.5662841796875, 6.808837890625, 7.0513916015625, 7.2939453125, 7.5364990234375, 7.779052734375, 8.0216064453125, 8.26416015625, 8.5067138671875, 8.749267578125, 8.9918212890625, 9.234375]}, "gradients/graph_1rnn.bias_hh": {"_type": "histogram", "values": [1.0, 0.0, 0.0, 0.0, 0.0, 0.0, 0.0, 0.0, 0.0, 1.0, 0.0, 1.0, 0.0, 1.0, 3.0, 5.0, 3.0, 7.0, 2.0, 11.0, 3.0, 3.0, 11.0, 21.0, 18.0, 27.0, 84.0, 151.0, 157.0, 87.0, 44.0, 26.0, 21.0, 14.0, 14.0, 8.0, 6.0, 7.0, 6.0, 4.0, 4.0, 2.0, 4.0, 3.0, 3.0, 0.0, 0.0, 1.0, 2.0, 0.0, 0.0, 1.0, 0.0, 0.0, 0.0, 0.0, 0.0, 0.0, 0.0, 0.0, 0.0, 0.0, 0.0, 1.0], "bins": [-5.41015625, -5.21905517578125, -5.0279541015625, -4.83685302734375, -4.645751953125, -4.45465087890625, -4.2635498046875, -4.07244873046875, -3.88134765625, -3.69024658203125, -3.4991455078125, -3.30804443359375, -3.116943359375, -2.92584228515625, -2.7347412109375, -2.54364013671875, -2.3525390625, -2.16143798828125, -1.9703369140625, -1.77923583984375, -1.588134765625, -1.39703369140625, -1.2059326171875, -1.01483154296875, -0.82373046875, -0.63262939453125, -0.4415283203125, -0.25042724609375, -0.059326171875, 0.13177490234375, 0.3228759765625, 0.51397705078125, 0.705078125, 0.89617919921875, 1.0872802734375, 1.27838134765625, 1.469482421875, 1.66058349609375, 1.8516845703125, 2.04278564453125, 2.23388671875, 2.42498779296875, 2.6160888671875, 2.80718994140625, 2.998291015625, 3.18939208984375, 3.3804931640625, 3.57159423828125, 3.7626953125, 3.95379638671875, 4.1448974609375, 4.33599853515625, 4.527099609375, 4.71820068359375, 4.9093017578125, 5.10040283203125, 5.29150390625, 5.48260498046875, 5.6737060546875, 5.86480712890625, 6.055908203125, 6.24700927734375, 6.4381103515625, 6.62921142578125, 6.8203125]}, "gradients/graph_1fc_embed_state_action.weight": {"_type": "histogram", "values": [1.0, 1.0, 0.0, 1.0, 0.0, 0.0, 0.0, 0.0, 0.0, 0.0, 1.0, 1.0, 4.0, 6.0, 3.0, 6.0, 10.0, 8.0, 19.0, 37.0, 39.0, 55.0, 75.0, 118.0, 188.0, 259.0, 422.0, 631.0, 948.0, 1637.0, 2840.0, 5124.0, 9600.0, 16709.0, 12763.0, 6770.0, 3570.0, 2020.0, 1201.0, 788.0, 453.0, 318.0, 238.0, 130.0, 93.0, 71.0, 61.0, 24.0, 25.0, 15.0, 13.0, 12.0, 3.0, 3.0, 6.0, 2.0, 2.0, 0.0, 1.0, 0.0, 0.0, 0.0, 1.0, 2.0], "bins": [-33.375, -32.3857421875, -31.396484375, -30.4072265625, -29.41796875, -28.4287109375, -27.439453125, -26.4501953125, -25.4609375, -24.4716796875, -23.482421875, -22.4931640625, -21.50390625, -20.5146484375, -19.525390625, -18.5361328125, -17.546875, -16.5576171875, -15.568359375, -14.5791015625, -13.58984375, -12.6005859375, -11.611328125, -10.6220703125, -9.6328125, -8.6435546875, -7.654296875, -6.6650390625, -5.67578125, -4.6865234375, -3.697265625, -2.7080078125, -1.71875, -0.7294921875, 0.259765625, 1.2490234375, 2.23828125, 3.2275390625, 4.216796875, 5.2060546875, 6.1953125, 7.1845703125, 8.173828125, 9.1630859375, 10.15234375, 11.1416015625, 12.130859375, 13.1201171875, 14.109375, 15.0986328125, 16.087890625, 17.0771484375, 18.06640625, 19.0556640625, 20.044921875, 21.0341796875, 22.0234375, 23.0126953125, 24.001953125, 24.9912109375, 25.98046875, 26.9697265625, 27.958984375, 28.9482421875, 29.9375]}, "gradients/graph_1fc_embed_state_action.bias": {"_type": "histogram", "values": [1.0, 0.0, 0.0, 0.0, 0.0, 1.0, 0.0, 0.0, 0.0, 2.0, 0.0, 3.0, 2.0, 2.0, 1.0, 4.0, 4.0, 3.0, 3.0, 5.0, 6.0, 5.0, 8.0, 10.0, 13.0, 10.0, 11.0, 14.0, 15.0, 11.0, 18.0, 10.0, 11.0, 10.0, 7.0, 8.0, 10.0, 7.0, 6.0, 7.0, 4.0, 6.0, 3.0, 1.0, 2.0, 5.0, 0.0, 2.0, 2.0, 0.0, 0.0, 1.0, 0.0, 1.0, 0.0, 0.0, 0.0, 0.0, 0.0, 0.0, 0.0, 0.0, 0.0, 1.0], "bins": [-3.1328125, -3.01611328125, -2.8994140625, -2.78271484375, -2.666015625, -2.54931640625, -2.4326171875, -2.31591796875, -2.19921875, -2.08251953125, -1.9658203125, -1.84912109375, -1.732421875, -1.61572265625, -1.4990234375, -1.38232421875, -1.265625, -1.14892578125, -1.0322265625, -0.91552734375, -0.798828125, -0.68212890625, -0.5654296875, -0.44873046875, -0.33203125, -0.21533203125, -0.0986328125, 0.01806640625, 0.134765625, 0.25146484375, 0.3681640625, 0.48486328125, 0.6015625, 0.71826171875, 0.8349609375, 0.95166015625, 1.068359375, 1.18505859375, 1.3017578125, 1.41845703125, 1.53515625, 1.65185546875, 1.7685546875, 1.88525390625, 2.001953125, 2.11865234375, 2.2353515625, 2.35205078125, 2.46875, 2.58544921875, 2.7021484375, 2.81884765625, 2.935546875, 3.05224609375, 3.1689453125, 3.28564453125, 3.40234375, 3.51904296875, 3.6357421875, 3.75244140625, 3.869140625, 3.98583984375, 4.1025390625, 4.21923828125, 4.3359375]}, "gradients/graph_3conv.16.weight": {"_type": "histogram", "values": [1.0, 0.0, 0.0, 0.0, 0.0, 0.0, 1.0, 2.0, 0.0, 1.0, 1.0, 2.0, 0.0, 1.0, 0.0, 2.0, 4.0, 4.0, 1.0, 7.0, 4.0, 7.0, 7.0, 4.0, 7.0, 7.0, 11.0, 7.0, 8.0, 9.0, 9.0, 15.0, 12.0, 8.0, 8.0, 6.0, 10.0, 10.0, 7.0, 10.0, 6.0, 5.0, 4.0, 4.0, 4.0, 2.0, 4.0, 5.0, 3.0, 4.0, 1.0, 3.0, 3.0, 2.0, 1.0, 3.0, 4.0, 1.0, 0.0, 2.0, 0.0, 1.0, 0.0, 1.0], "bins": [-74.4336929321289, -72.1995849609375, -69.96546936035156, -67.73136138916016, -65.49725341796875, -63.263145446777344, -61.02903366088867, -58.794921875, -56.560813903808594, -54.32670593261719, -52.092594146728516, -49.858482360839844, -47.62437438964844, -45.39026641845703, -43.15615463256836, -40.92204284667969, -38.68793487548828, -36.453826904296875, -34.2197151184082, -31.985605239868164, -29.751495361328125, -27.517385482788086, -25.283275604248047, -23.049165725708008, -20.81505584716797, -18.58094596862793, -16.34683609008789, -14.112726211547852, -11.878616333007812, -9.644506454467773, -7.410396575927734, -5.176286697387695, -2.9421768188476562, -0.7080669403076172, 1.5260429382324219, 3.760152816772461, 5.9942626953125, 8.228372573852539, 10.462482452392578, 12.696592330932617, 14.930702209472656, 17.164812088012695, 19.398921966552734, 21.633031845092773, 23.867141723632812, 26.10125160217285, 28.33536148071289, 30.56947135925293, 32.80358123779297, 35.037689208984375, 37.27180099487305, 39.50591278076172, 41.740020751953125, 43.97412872314453, 46.2082405090332, 48.442352294921875, 50.67646026611328, 52.91056823730469, 55.14468002319336, 57.37879180908203, 59.61289978027344, 61.847007751464844, 64.08111572265625, 66.31523132324219, 68.5493392944336]}, "gradients/graph_3conv.16.bias": {"_type": "histogram", "values": [1.0, 1.0, 0.0, 0.0, 0.0, 0.0, 0.0, 1.0, 1.0, 1.0, 0.0, 0.0, 0.0, 0.0, 1.0, 1.0, 1.0, 3.0, 7.0, 1.0, 10.0, 9.0, 8.0, 9.0, 6.0, 10.0, 12.0, 11.0, 13.0, 10.0, 12.0, 15.0, 7.0, 13.0, 9.0, 12.0, 9.0, 8.0, 7.0, 6.0, 1.0, 5.0, 7.0, 2.0, 2.0, 3.0, 2.0, 2.0, 3.0, 0.0, 3.0, 2.0, 3.0, 1.0, 1.0, 2.0, 1.0, 0.0, 0.0, 0.0, 0.0, 0.0, 0.0, 1.0], "bins": [-88.56724548339844, -85.74085235595703, -82.91445922851562, -80.08806610107422, -77.26167297363281, -74.43528747558594, -71.60889434814453, -68.78250122070312, -65.95610809326172, -63.12971496582031, -60.303321838378906, -57.476932525634766, -54.65053939819336, -51.82414627075195, -48.99775695800781, -46.171363830566406, -43.344970703125, -40.518577575683594, -37.69218444824219, -34.86579513549805, -32.03940200805664, -29.213008880615234, -26.38661766052246, -23.560226440429688, -20.73383331298828, -17.907440185546875, -15.081048965454102, -12.254656791687012, -9.428264617919922, -6.601872444152832, -3.775480270385742, -0.9490890502929688, 1.8773040771484375, 4.703696250915527, 7.530088424682617, 10.356480598449707, 13.182872772216797, 16.009265899658203, 18.835657119750977, 21.66204833984375, 24.488441467285156, 27.314834594726562, 30.141225814819336, 32.96761703491211, 35.794010162353516, 38.62040328979492, 41.44679260253906, 44.27318572998047, 47.099578857421875, 49.92597198486328, 52.75236511230469, 55.57875442504883, 58.405147552490234, 61.23154067993164, 64.05792999267578, 66.88432312011719, 69.7107162475586, 72.537109375, 75.3635025024414, 78.18989562988281, 81.01628112792969, 83.8426742553711, 86.6690673828125, 89.4954605102539, 92.32185363769531]}, "gradients/graph_3conv.15.weight": {"_type": "histogram", "values": [1.0, 1.0, 1.0, 1.0, 1.0, 3.0, 4.0, 11.0, 5.0, 13.0, 12.0, 36.0, 35.0, 48.0, 86.0, 121.0, 153.0, 241.0, 361.0, 566.0, 804.0, 1295.0, 1806.0, 2879.0, 4369.0, 6965.0, 10988.0, 18409.0, 31485.0, 55937.0, 98905.0, 122263.0, 68776.0, 37607.0, 21664.0, 13086.0, 8203.0, 5351.0, 3605.0, 2433.0, 1670.0, 1177.0, 862.0, 605.0, 442.0, 285.0, 213.0, 148.0, 98.0, 83.0, 48.0, 30.0, 34.0, 21.0, 21.0, 6.0, 3.0, 3.0, 5.0, 0.0, 0.0, 2.0, 1.0, 1.0], "bins": [-17.109375, -16.56103515625, -16.0126953125, -15.46435546875, -14.916015625, -14.36767578125, -13.8193359375, -13.27099609375, -12.72265625, -12.17431640625, -11.6259765625, -11.07763671875, -10.529296875, -9.98095703125, -9.4326171875, -8.88427734375, -8.3359375, -7.78759765625, -7.2392578125, -6.69091796875, -6.142578125, -5.59423828125, -5.0458984375, -4.49755859375, -3.94921875, -3.40087890625, -2.8525390625, -2.30419921875, -1.755859375, -1.20751953125, -0.6591796875, -0.11083984375, 0.4375, 0.98583984375, 1.5341796875, 2.08251953125, 2.630859375, 3.17919921875, 3.7275390625, 4.27587890625, 4.82421875, 5.37255859375, 5.9208984375, 6.46923828125, 7.017578125, 7.56591796875, 8.1142578125, 8.66259765625, 9.2109375, 9.75927734375, 10.3076171875, 10.85595703125, 11.404296875, 11.95263671875, 12.5009765625, 13.04931640625, 13.59765625, 14.14599609375, 14.6943359375, 15.24267578125, 15.791015625, 16.33935546875, 16.8876953125, 17.43603515625, 17.984375]}, "gradients/graph_3conv.13.weight": {"_type": "histogram", "values": [1.0, 1.0, 1.0, 0.0, 0.0, 0.0, 1.0, 1.0, 0.0, 2.0, 1.0, 1.0, 0.0, 0.0, 3.0, 0.0, 2.0, 4.0, 3.0, 3.0, 3.0, 2.0, 6.0, 6.0, 16.0, 5.0, 10.0, 7.0, 6.0, 4.0, 2.0, 2.0, 4.0, 1.0, 3.0, 4.0, 5.0, 4.0, 1.0, 0.0, 1.0, 2.0, 1.0, 0.0, 1.0, 1.0, 2.0, 1.0, 0.0, 0.0, 2.0, 0.0, 0.0, 0.0, 0.0, 0.0, 0.0, 0.0, 0.0, 1.0, 0.0, 0.0, 0.0, 1.0], "bins": [-59.01923751831055, -56.86503601074219, -54.71083068847656, -52.5566291809082, -50.402427673339844, -48.24822235107422, -46.09402084350586, -43.9398193359375, -41.785614013671875, -39.631412506103516, -37.47720718383789, -35.32300567626953, -33.168800354003906, -31.014598846435547, -28.860397338867188, -26.706193923950195, -24.551990509033203, -22.39778709411621, -20.24358367919922, -18.08938217163086, -15.935178756713867, -13.780975341796875, -11.6267728805542, -9.472570419311523, -7.318367004394531, -5.164164066314697, -3.0099611282348633, -0.8557581901550293, 1.2984447479248047, 3.452648162841797, 5.606850624084473, 7.761053085327148, 9.915252685546875, 12.069456100463867, 14.223658561706543, 16.37786102294922, 18.53206443786621, 20.686267852783203, 22.840469360351562, 24.994672775268555, 27.148876190185547, 29.30307960510254, 31.45728302001953, 33.61148452758789, 35.76568603515625, 37.919891357421875, 40.074092864990234, 42.228294372558594, 44.38249969482422, 46.53670120239258, 48.6909065246582, 50.84510803222656, 52.99931335449219, 55.15351486206055, 57.307716369628906, 59.46192169189453, 61.61612319946289, 63.77032470703125, 65.92453002929688, 68.0787353515625, 70.2329330444336, 72.38713836669922, 74.54134368896484, 76.69554138183594, 78.84974670410156]}, "gradients/graph_3conv.13.bias": {"_type": "histogram", "values": [2.0, 0.0, 0.0, 2.0, 0.0, 0.0, 1.0, 0.0, 0.0, 0.0, 0.0, 0.0, 0.0, 1.0, 1.0, 0.0, 3.0, 1.0, 1.0, 1.0, 1.0, 1.0, 3.0, 3.0, 3.0, 5.0, 11.0, 10.0, 10.0, 8.0, 1.0, 7.0, 7.0, 7.0, 5.0, 4.0, 2.0, 5.0, 3.0, 2.0, 0.0, 2.0, 1.0, 0.0, 0.0, 1.0, 1.0, 1.0, 1.0, 0.0, 0.0, 1.0, 0.0, 1.0, 2.0, 0.0, 1.0, 0.0, 1.0, 0.0, 0.0, 1.0, 1.0, 2.0], "bins": [-55.41501235961914, -53.65164566040039, -51.888275146484375, -50.124908447265625, -48.361541748046875, -46.598175048828125, -44.834808349609375, -43.07143783569336, -41.30807113647461, -39.54470443725586, -37.781333923339844, -36.017967224121094, -34.254600524902344, -32.491233825683594, -30.72786521911621, -28.964496612548828, -27.201129913330078, -25.437763214111328, -23.674394607543945, -21.911026000976562, -20.147659301757812, -18.384292602539062, -16.62092399597168, -14.857556343078613, -13.094188690185547, -11.33082103729248, -9.567453384399414, -7.804085731506348, -6.040718078613281, -4.277350425720215, -2.5139827728271484, -0.750615119934082, 1.01275634765625, 2.7761240005493164, 4.539491653442383, 6.302859306335449, 8.066226959228516, 9.829594612121582, 11.592962265014648, 13.356329917907715, 15.119697570800781, 16.88306427001953, 18.646432876586914, 20.409801483154297, 22.173168182373047, 23.936534881591797, 25.69990348815918, 27.463272094726562, 29.226638793945312, 30.990005493164062, 32.75337219238281, 34.51674270629883, 36.28010940551758, 38.04347610473633, 39.806846618652344, 41.570213317871094, 43.333580017089844, 45.096946716308594, 46.860313415527344, 48.62368392944336, 50.38705062866211, 52.15041732788086, 53.913787841796875, 55.677154541015625, 57.440521240234375]}, "gradients/graph_3conv.12.weight": {"_type": "histogram", "values": [1.0, 0.0, 1.0, 4.0, 1.0, 2.0, 10.0, 9.0, 19.0, 11.0, 10.0, 19.0, 38.0, 47.0, 58.0, 90.0, 90.0, 128.0, 173.0, 273.0, 358.0, 587.0, 910.0, 1430.0, 2079.0, 3408.0, 5126.0, 7210.0, 10238.0, 15565.0, 27658.0, 23664.0, 13065.0, 6785.0, 3963.0, 2487.0, 1661.0, 1095.0, 780.0, 548.0, 383.0, 268.0, 176.0, 149.0, 113.0, 82.0, 75.0, 58.0, 35.0, 24.0, 19.0, 20.0, 11.0, 15.0, 9.0, 7.0, 3.0, 6.0, 1.0, 6.0, 4.0, 4.0, 2.0, 1.0], "bins": [-36.5, -35.31005859375, -34.1201171875, -32.93017578125, -31.740234375, -30.55029296875, -29.3603515625, -28.17041015625, -26.98046875, -25.79052734375, -24.6005859375, -23.41064453125, -22.220703125, -21.03076171875, -19.8408203125, -18.65087890625, -17.4609375, -16.27099609375, -15.0810546875, -13.89111328125, -12.701171875, -11.51123046875, -10.3212890625, -9.13134765625, -7.94140625, -6.75146484375, -5.5615234375, -4.37158203125, -3.181640625, -1.99169921875, -0.8017578125, 0.38818359375, 1.578125, 2.76806640625, 3.9580078125, 5.14794921875, 6.337890625, 7.52783203125, 8.7177734375, 9.90771484375, 11.09765625, 12.28759765625, 13.4775390625, 14.66748046875, 15.857421875, 17.04736328125, 18.2373046875, 19.42724609375, 20.6171875, 21.80712890625, 22.9970703125, 24.18701171875, 25.376953125, 26.56689453125, 27.7568359375, 28.94677734375, 30.13671875, 31.32666015625, 32.5166015625, 33.70654296875, 34.896484375, 36.08642578125, 37.2763671875, 38.46630859375, 39.65625]}, "gradients/graph_3conv.10.weight": {"_type": "histogram", "values": [1.0, 0.0, 0.0, 0.0, 0.0, 0.0, 0.0, 0.0, 0.0, 0.0, 0.0, 0.0, 0.0, 0.0, 0.0, 0.0, 0.0, 0.0, 0.0, 0.0, 0.0, 0.0, 0.0, 0.0, 0.0, 1.0, 0.0, 0.0, 1.0, 0.0, 3.0, 1.0, 2.0, 4.0, 3.0, 2.0, 9.0, 6.0, 8.0, 5.0, 6.0, 0.0, 2.0, 1.0, 2.0, 1.0, 1.0, 0.0, 0.0, 2.0, 0.0, 2.0, 0.0, 0.0, 0.0, 0.0, 0.0, 0.0, 0.0, 0.0, 0.0, 0.0, 0.0, 1.0], "bins": [-165.85769653320312, -161.4812774658203, -157.10487365722656, -152.72845458984375, -148.35205078125, -143.9756317138672, -139.59922790527344, -135.22280883789062, -130.84640502929688, -126.4699935913086, -122.09358215332031, -117.71717071533203, -113.34075927734375, -108.96434020996094, -104.58792877197266, -100.21151733398438, -95.83509826660156, -91.45868682861328, -87.082275390625, -82.70586395263672, -78.32945251464844, -73.95303344726562, -69.57662200927734, -65.20021057128906, -60.82379913330078, -56.4473876953125, -52.07097625732422, -47.69456100463867, -43.31814956665039, -38.94173812866211, -34.56532287597656, -30.18891143798828, -25.812515258789062, -21.43610382080078, -17.059690475463867, -12.68327808380127, -8.306865692138672, -3.9304542541503906, 0.44595909118652344, 4.8223724365234375, 9.198783874511719, 13.575196266174316, 17.951608657836914, 22.328022003173828, 26.70443344116211, 31.08084487915039, 35.45726013183594, 39.83367156982422, 44.2100830078125, 48.58649444580078, 52.96290588378906, 57.33932113647461, 61.71573257446289, 66.09214782714844, 70.46855926513672, 74.844970703125, 79.22138214111328, 83.59779357910156, 87.97420501708984, 92.35061645507812, 96.72703552246094, 101.10343933105469, 105.4798583984375, 109.85626983642578, 114.23268127441406]}, "gradients/graph_3conv.10.bias": {"_type": "histogram", "values": [1.0, 0.0, 0.0, 0.0, 0.0, 0.0, 0.0, 0.0, 0.0, 0.0, 0.0, 0.0, 0.0, 0.0, 0.0, 0.0, 0.0, 0.0, 0.0, 0.0, 0.0, 0.0, 0.0, 0.0, 0.0, 0.0, 1.0, 3.0, 2.0, 4.0, 2.0, 4.0, 5.0, 4.0, 7.0, 4.0, 5.0, 2.0, 5.0, 1.0, 1.0, 4.0, 2.0, 1.0, 2.0, 3.0, 0.0, 0.0, 0.0, 0.0, 0.0, 0.0, 0.0, 0.0, 0.0, 0.0, 0.0, 0.0, 0.0, 0.0, 0.0, 0.0, 0.0, 1.0], "bins": [-119.95148468017578, -116.52323913574219, -113.09498596191406, -109.66674041748047, -106.23848724365234, -102.81024169921875, -99.38198852539062, -95.95374298095703, -92.5254898071289, -89.09724426269531, -85.66899108886719, -82.2407455444336, -78.81249237060547, -75.38424682617188, -71.95599365234375, -68.52774810791016, -65.09950256347656, -61.6712532043457, -58.243003845214844, -54.814754486083984, -51.386505126953125, -47.95825958251953, -44.530006408691406, -41.10176086425781, -37.67350769042969, -34.24525833129883, -30.81700897216797, -27.38875961303711, -23.96051025390625, -20.532262802124023, -17.104013442993164, -13.675764083862305, -10.247512817382812, -6.819263458251953, -3.391014575958252, 0.03723430633544922, 3.4654836654663086, 6.893732070922852, 10.321981430053711, 13.75023078918457, 17.17848014831543, 20.60672950744629, 24.03497886657715, 27.463226318359375, 30.891475677490234, 34.319725036621094, 37.74797439575195, 41.17622375488281, 44.60447311401367, 48.03272247314453, 51.46097183227539, 54.88922119140625, 58.31747055053711, 61.74571990966797, 65.17396545410156, 68.60221862792969, 72.03046417236328, 75.45870971679688, 78.886962890625, 82.3152084350586, 85.74346160888672, 89.17170715332031, 92.59996032714844, 96.02820587158203, 99.45645904541016]}, "gradients/graph_3conv.9.weight": {"_type": "histogram", "values": [2.0, 0.0, 2.0, 2.0, 3.0, 8.0, 7.0, 4.0, 5.0, 12.0, 20.0, 18.0, 20.0, 31.0, 38.0, 62.0, 48.0, 70.0, 84.0, 148.0, 211.0, 254.0, 275.0, 378.0, 364.0, 412.0, 539.0, 886.0, 1447.0, 2451.0, 3832.0, 5027.0, 4574.0, 3440.0, 2390.0, 1534.0, 1070.0, 756.0, 591.0, 410.0, 372.0, 252.0, 175.0, 115.0, 81.0, 76.0, 49.0, 42.0, 29.0, 31.0, 22.0, 17.0, 18.0, 21.0, 9.0, 11.0, 6.0, 3.0, 5.0, 1.0, 1.0, 1.0, 3.0, 3.0], "bins": [-62.0, -60.05517578125, -58.1103515625, -56.16552734375, -54.220703125, -52.27587890625, -50.3310546875, -48.38623046875, -46.44140625, -44.49658203125, -42.5517578125, -40.60693359375, -38.662109375, -36.71728515625, -34.7724609375, -32.82763671875, -30.8828125, -28.93798828125, -26.9931640625, -25.04833984375, -23.103515625, -21.15869140625, -19.2138671875, -17.26904296875, -15.32421875, -13.37939453125, -11.4345703125, -9.48974609375, -7.544921875, -5.60009765625, -3.6552734375, -1.71044921875, 0.234375, 2.17919921875, 4.1240234375, 6.06884765625, 8.013671875, 9.95849609375, 11.9033203125, 13.84814453125, 15.79296875, 17.73779296875, 19.6826171875, 21.62744140625, 23.572265625, 25.51708984375, 27.4619140625, 29.40673828125, 31.3515625, 33.29638671875, 35.2412109375, 37.18603515625, 39.130859375, 41.07568359375, 43.0205078125, 44.96533203125, 46.91015625, 48.85498046875, 50.7998046875, 52.74462890625, 54.689453125, 56.63427734375, 58.5791015625, 60.52392578125, 62.46875]}, "gradients/graph_3conv.7.weight": {"_type": "histogram", "values": [1.0, 0.0, 0.0, 0.0, 0.0, 1.0, 0.0, 0.0, 1.0, 0.0, 0.0, 1.0, 0.0, 1.0, 0.0, 2.0, 0.0, 5.0, 3.0, 3.0, 2.0, 1.0, 0.0, 3.0, 1.0, 1.0, 1.0, 1.0, 0.0, 1.0, 0.0, 0.0, 0.0, 1.0, 0.0, 0.0, 0.0, 0.0, 0.0, 0.0, 1.0, 0.0, 0.0, 0.0, 0.0, 0.0, 0.0, 0.0, 0.0, 0.0, 0.0, 0.0, 0.0, 0.0, 0.0, 0.0, 0.0, 0.0, 0.0, 0.0, 0.0, 0.0, 0.0, 1.0], "bins": [-60.27378463745117, -57.43717575073242, -54.60056686401367, -51.763954162597656, -48.927345275878906, -46.090736389160156, -43.254127502441406, -40.417518615722656, -37.580909729003906, -34.744300842285156, -31.907690048217773, -29.071081161499023, -26.23447036743164, -23.39786148071289, -20.56125259399414, -17.724641799926758, -14.888031005859375, -12.051421165466309, -9.214811325073242, -6.378202438354492, -3.541592597961426, -0.7049827575683594, 2.1316261291503906, 4.968236923217773, 7.804845809936523, 10.64145565032959, 13.478065490722656, 16.314674377441406, 19.151283264160156, 21.98789405822754, 24.82450294494629, 27.661113739013672, 30.497718811035156, 33.334327697753906, 36.170936584472656, 39.007545471191406, 41.84415817260742, 44.68076705932617, 47.51737594604492, 50.35398864746094, 53.19059753417969, 56.02720642089844, 58.86381530761719, 61.70042419433594, 64.53703308105469, 67.37364196777344, 70.21025085449219, 73.04686737060547, 75.88346862792969, 78.72007751464844, 81.55668640136719, 84.39329528808594, 87.22990417480469, 90.06651306152344, 92.90312194824219, 95.73973846435547, 98.57634735107422, 101.41295623779297, 104.24956512451172, 107.08617401123047, 109.92278289794922, 112.7593994140625, 115.59600830078125, 118.4326171875, 121.26922607421875]}, "gradients/graph_3conv.7.bias": {"_type": "histogram", "values": [1.0, 0.0, 0.0, 0.0, 1.0, 0.0, 0.0, 0.0, 0.0, 2.0, 1.0, 1.0, 2.0, 1.0, 2.0, 1.0, 1.0, 1.0, 0.0, 0.0, 4.0, 3.0, 0.0, 2.0, 1.0, 0.0, 1.0, 0.0, 0.0, 0.0, 0.0, 2.0, 1.0, 0.0, 1.0, 0.0, 0.0, 1.0, 0.0, 0.0, 0.0, 0.0, 0.0, 0.0, 0.0, 0.0, 1.0, 0.0, 0.0, 0.0, 0.0, 0.0, 0.0, 0.0, 0.0, 0.0, 0.0, 0.0, 0.0, 0.0, 0.0, 0.0, 0.0, 1.0], "bins": [-52.88352966308594, -50.586326599121094, -48.28912353515625, -45.99191665649414, -43.6947135925293, -41.39751052856445, -39.100303649902344, -36.8031005859375, -34.505897521972656, -32.20869445800781, -29.911489486694336, -27.61428451538086, -25.317081451416016, -23.019878387451172, -20.722673416137695, -18.42546844482422, -16.128265380859375, -13.831061363220215, -11.533857345581055, -9.236653327941895, -6.939449310302734, -4.642245292663574, -2.345041275024414, -0.0478363037109375, 2.2493667602539062, 4.546570777893066, 6.843774795532227, 9.140978813171387, 11.438182830810547, 13.735386848449707, 16.032590866088867, 18.329795837402344, 20.62700653076172, 22.924209594726562, 25.22141456604004, 27.518619537353516, 29.81582260131836, 32.1130256652832, 34.41023254394531, 36.707435607910156, 39.004638671875, 41.301841735839844, 43.59904479980469, 45.8962516784668, 48.19345474243164, 50.490657806396484, 52.787864685058594, 55.08506774902344, 57.38227081298828, 59.679473876953125, 61.97667694091797, 64.27388000488281, 66.57109069824219, 68.86829376220703, 71.16549682617188, 73.46269989013672, 75.75990295410156, 78.0571060180664, 80.35430908203125, 82.6515121459961, 84.94871520996094, 87.24592590332031, 89.54312896728516, 91.84033203125, 94.13753509521484]}, "gradients/graph_3conv.6.weight": {"_type": "histogram", "values": [3.0, 2.0, 1.0, 0.0, 1.0, 1.0, 3.0, 5.0, 8.0, 11.0, 12.0, 15.0, 33.0, 35.0, 40.0, 65.0, 59.0, 70.0, 64.0, 77.0, 87.0, 94.0, 127.0, 133.0, 134.0, 172.0, 247.0, 306.0, 359.0, 401.0, 488.0, 539.0, 742.0, 738.0, 571.0, 433.0, 347.0, 317.0, 241.0, 194.0, 167.0, 118.0, 98.0, 70.0, 64.0, 61.0, 71.0, 62.0, 52.0, 36.0, 47.0, 31.0, 25.0, 31.0, 17.0, 23.0, 7.0, 11.0, 6.0, 9.0, 2.0, 4.0, 2.0, 3.0], "bins": [-68.75, -66.67626953125, -64.6025390625, -62.52880859375, -60.455078125, -58.38134765625, -56.3076171875, -54.23388671875, -52.16015625, -50.08642578125, -48.0126953125, -45.93896484375, -43.865234375, -41.79150390625, -39.7177734375, -37.64404296875, -35.5703125, -33.49658203125, -31.4228515625, -29.34912109375, -27.275390625, -25.20166015625, -23.1279296875, -21.05419921875, -18.98046875, -16.90673828125, -14.8330078125, -12.75927734375, -10.685546875, -8.61181640625, -6.5380859375, -4.46435546875, -2.390625, -0.31689453125, 1.7568359375, 3.83056640625, 5.904296875, 7.97802734375, 10.0517578125, 12.12548828125, 14.19921875, 16.27294921875, 18.3466796875, 20.42041015625, 22.494140625, 24.56787109375, 26.6416015625, 28.71533203125, 30.7890625, 32.86279296875, 34.9365234375, 37.01025390625, 39.083984375, 41.15771484375, 43.2314453125, 45.30517578125, 47.37890625, 49.45263671875, 51.5263671875, 53.60009765625, 55.673828125, 57.74755859375, 59.8212890625, 61.89501953125, 63.96875]}, "gradients/graph_3conv.4.weight": {"_type": "histogram", "values": [3.0, 0.0, 0.0, 0.0, 0.0, 0.0, 0.0, 0.0, 0.0, 0.0, 1.0, 0.0, 0.0, 0.0, 0.0, 0.0, 0.0, 1.0, 0.0, 0.0, 0.0, 0.0, 0.0, 1.0, 0.0, 0.0, 0.0, 0.0, 1.0, 0.0, 0.0, 2.0, 0.0, 0.0, 0.0, 0.0, 0.0, 0.0, 1.0, 0.0, 1.0, 0.0, 0.0, 2.0, 0.0, 0.0, 0.0, 1.0, 0.0, 0.0, 0.0, 0.0, 0.0, 0.0, 0.0, 0.0, 1.0, 0.0, 0.0, 0.0, 0.0, 0.0, 0.0, 1.0], "bins": [-68.46419525146484, -66.166748046875, -63.869300842285156, -61.57185363769531, -59.27440643310547, -56.976959228515625, -54.67951583862305, -52.3820686340332, -50.08462142944336, -47.787174224853516, -45.48972702026367, -43.19227981567383, -40.89483642578125, -38.597389221191406, -36.29994201660156, -34.00249481201172, -31.705047607421875, -29.40760040283203, -27.110153198242188, -24.812707901000977, -22.515260696411133, -20.21781349182129, -17.920368194580078, -15.622920989990234, -13.32547378540039, -11.028026580810547, -8.73058032989502, -6.433133602142334, -4.135686874389648, -1.8382396697998047, 0.45920658111572266, 2.75665283203125, 5.0540924072265625, 7.351539134979248, 9.648985862731934, 11.946432113647461, 14.243879318237305, 16.54132652282715, 18.83877182006836, 21.136219024658203, 23.433666229248047, 25.73111343383789, 28.028560638427734, 30.326005935668945, 32.623451232910156, 34.9208984375, 37.218345642089844, 39.51579284667969, 41.81324005126953, 44.110687255859375, 46.40813446044922, 48.70558166503906, 51.003028869628906, 53.30047607421875, 55.59791946411133, 57.89536666870117, 60.192813873291016, 62.49026107788086, 64.78770446777344, 67.08515167236328, 69.38259887695312, 71.68004608154297, 73.97749328613281, 76.27494049072266, 78.5723876953125]}, "gradients/graph_3conv.4.bias": {"_type": "histogram", "values": [1.0, 0.0, 0.0, 0.0, 0.0, 0.0, 0.0, 0.0, 0.0, 0.0, 0.0, 0.0, 0.0, 1.0, 0.0, 0.0, 0.0, 1.0, 0.0, 0.0, 0.0, 0.0, 0.0, 1.0, 1.0, 0.0, 0.0, 1.0, 0.0, 0.0, 0.0, 1.0, 0.0, 1.0, 1.0, 1.0, 0.0, 0.0, 0.0, 0.0, 0.0, 1.0, 1.0, 1.0, 0.0, 1.0, 0.0, 0.0, 0.0, 0.0, 0.0, 0.0, 0.0, 0.0, 0.0, 0.0, 1.0, 0.0, 0.0, 0.0, 0.0, 0.0, 0.0, 1.0], "bins": [-109.7367935180664, -107.29387664794922, -104.85095977783203, -102.40804290771484, -99.96512603759766, -97.52220916748047, -95.07929229736328, -92.63636779785156, -90.19345092773438, -87.75053405761719, -85.3076171875, -82.86470031738281, -80.42178344726562, -77.97886657714844, -75.53594970703125, -73.09303283691406, -70.65011596679688, -68.20719909667969, -65.7642822265625, -63.32136535644531, -60.878448486328125, -58.43553161621094, -55.992610931396484, -53.5496940612793, -51.10677719116211, -48.66386032104492, -46.220943450927734, -43.77802658081055, -41.335105895996094, -38.892189025878906, -36.44927215576172, -34.00635528564453, -31.563446044921875, -29.120529174804688, -26.6776123046875, -24.23469352722168, -21.791776657104492, -19.348859786987305, -16.905941009521484, -14.463024139404297, -12.02010726928711, -9.577190399169922, -7.134272575378418, -4.691355228424072, -2.2484378814697266, 0.19447898864746094, 2.637396812438965, 5.080314636230469, 7.523231506347656, 9.966148376464844, 12.409066200256348, 14.851984024047852, 17.29490089416504, 19.737817764282227, 22.180736541748047, 24.623653411865234, 27.066570281982422, 29.50948715209961, 31.952404022216797, 34.395320892333984, 36.83824157714844, 39.281158447265625, 41.72407531738281, 44.1669921875, 46.60990905761719]}, "gradients/graph_3conv.3.weight": {"_type": "histogram", "values": [2.0, 0.0, 0.0, 4.0, 2.0, 3.0, 4.0, 7.0, 8.0, 10.0, 15.0, 6.0, 14.0, 13.0, 13.0, 17.0, 30.0, 27.0, 44.0, 47.0, 74.0, 55.0, 74.0, 79.0, 128.0, 176.0, 162.0, 142.0, 121.0, 120.0, 92.0, 81.0, 64.0, 60.0, 60.0, 57.0, 33.0, 36.0, 29.0, 16.0, 18.0, 16.0, 5.0, 7.0, 9.0, 8.0, 9.0, 4.0, 9.0, 6.0, 4.0, 6.0, 3.0, 4.0, 5.0, 1.0, 2.0, 3.0, 0.0, 1.0, 1.0, 1.0, 0.0, 1.0], "bins": [-122.125, -117.453125, -112.78125, -108.109375, -103.4375, -98.765625, -94.09375, -89.421875, -84.75, -80.078125, -75.40625, -70.734375, -66.0625, -61.390625, -56.71875, -52.046875, -47.375, -42.703125, -38.03125, -33.359375, -28.6875, -24.015625, -19.34375, -14.671875, -10.0, -5.328125, -0.65625, 4.015625, 8.6875, 13.359375, 18.03125, 22.703125, 27.375, 32.046875, 36.71875, 41.390625, 46.0625, 50.734375, 55.40625, 60.078125, 64.75, 69.421875, 74.09375, 78.765625, 83.4375, 88.109375, 92.78125, 97.453125, 102.125, 106.796875, 111.46875, 116.140625, 120.8125, 125.484375, 130.15625, 134.828125, 139.5, 144.171875, 148.84375, 153.515625, 158.1875, 162.859375, 167.53125, 172.203125, 176.875]}, "gradients/graph_3conv.1.weight": {"_type": "histogram", "values": [1.0, 0.0, 0.0, 0.0, 0.0, 0.0, 0.0, 2.0, 0.0, 0.0, 0.0, 0.0, 0.0, 0.0, 0.0, 0.0, 0.0, 0.0, 0.0, 1.0, 0.0, 0.0, 0.0, 0.0, 0.0, 1.0, 0.0, 0.0, 0.0, 0.0, 0.0, 0.0, 0.0, 0.0, 0.0, 0.0, 0.0, 0.0, 0.0, 0.0, 0.0, 0.0, 0.0, 0.0, 0.0, 1.0, 0.0, 0.0, 0.0, 0.0, 0.0, 0.0, 0.0, 0.0, 1.0, 0.0, 0.0, 0.0, 0.0, 0.0, 0.0, 0.0, 0.0, 1.0], "bins": [-105.90058135986328, -102.14613342285156, -98.39169311523438, -94.63724517822266, -90.88279724121094, -87.12835693359375, -83.37390899658203, -79.61946105957031, -75.86502075195312, -72.1105728149414, -68.35613250732422, -64.6016845703125, -60.84723663330078, -57.09279251098633, -53.338348388671875, -49.583900451660156, -45.82945251464844, -42.075008392333984, -38.320560455322266, -34.56611633300781, -30.811670303344727, -27.05722427368164, -23.302780151367188, -19.5483341217041, -15.793888092041016, -12.03944206237793, -8.28499698638916, -4.530551910400391, -0.7761058807373047, 2.9783401489257812, 6.732784271240234, 10.48723030090332, 14.241683959960938, 17.996129989624023, 21.75057601928711, 25.505020141601562, 29.25946617126465, 33.013912200927734, 36.76835632324219, 40.522804260253906, 44.27724838256836, 48.03169250488281, 51.78614044189453, 55.540584564208984, 59.29502868652344, 63.049476623535156, 66.80392456054688, 70.55836486816406, 74.31281280517578, 78.0672607421875, 81.82170104980469, 85.5761489868164, 89.33059692382812, 93.08503723144531, 96.83948516845703, 100.59393310546875, 104.34837341308594, 108.10282135009766, 111.85726165771484, 115.61170959472656, 119.36615753173828, 123.12060546875, 126.87504577636719, 130.62948608398438, 134.38394165039062]}, "gradients/graph_3conv.1.bias": {"_type": "histogram", "values": [1.0, 0.0, 0.0, 0.0, 0.0, 0.0, 0.0, 0.0, 0.0, 0.0, 0.0, 0.0, 0.0, 0.0, 0.0, 0.0, 0.0, 0.0, 1.0, 1.0, 0.0, 0.0, 0.0, 1.0, 0.0, 0.0, 1.0, 0.0, 0.0, 1.0, 0.0, 0.0, 1.0, 0.0, 0.0, 0.0, 0.0, 0.0, 0.0, 0.0, 0.0, 0.0, 0.0, 0.0, 0.0, 0.0, 0.0, 0.0, 0.0, 0.0, 0.0, 0.0, 0.0, 0.0, 0.0, 0.0, 0.0, 0.0, 0.0, 0.0, 0.0, 0.0, 0.0, 1.0], "bins": [-150.77578735351562, -147.11019897460938, -143.44461059570312, -139.77902221679688, -136.11343383789062, -132.4478302001953, -128.78224182128906, -125.11665344238281, -121.45106506347656, -117.78547668457031, -114.11988830566406, -110.45429229736328, -106.78870391845703, -103.12311553955078, -99.45751953125, -95.79193115234375, -92.1263427734375, -88.46075439453125, -84.795166015625, -81.12957000732422, -77.46398162841797, -73.79839324951172, -70.13279724121094, -66.46720886230469, -62.80162048339844, -59.13603210449219, -55.47043991088867, -51.804847717285156, -48.139259338378906, -44.473670959472656, -40.80807876586914, -37.142486572265625, -33.476898193359375, -29.811307907104492, -26.14571762084961, -22.480127334594727, -18.814537048339844, -15.148946762084961, -11.483356475830078, -7.817766189575195, -4.1521759033203125, -0.4865856170654297, 3.179004669189453, 6.844594955444336, 10.510185241699219, 14.175775527954102, 17.841365814208984, 21.506956100463867, 25.17254638671875, 28.838136672973633, 32.503726959228516, 36.16931915283203, 39.83490753173828, 43.50049591064453, 47.16608810424805, 50.83168029785156, 54.49726867675781, 58.16285705566406, 61.82844924926758, 65.4940414428711, 69.15962982177734, 72.8252182006836, 76.49081420898438, 80.15640258789062, 83.82199096679688]}, "gradients/graph_3conv.0.weight": {"_type": "histogram", "values": [1.0, 2.0, 1.0, 2.0, 1.0, 2.0, 0.0, 2.0, 2.0, 4.0, 3.0, 4.0, 4.0, 5.0, 2.0, 6.0, 6.0, 3.0, 10.0, 6.0, 13.0, 7.0, 10.0, 11.0, 16.0, 18.0, 19.0, 18.0, 17.0, 22.0, 17.0, 19.0, 16.0, 5.0, 13.0, 13.0, 8.0, 7.0, 10.0, 4.0, 4.0, 5.0, 5.0, 6.0, 3.0, 6.0, 3.0, 5.0, 2.0, 2.0, 3.0, 2.0, 1.0, 1.0, 3.0, 0.0, 1.0, 1.0, 0.0, 0.0, 1.0, 0.0, 0.0, 1.0], "bins": [-186.625, -179.96875, -173.3125, -166.65625, -160.0, -153.34375, -146.6875, -140.03125, -133.375, -126.71875, -120.0625, -113.40625, -106.75, -100.09375, -93.4375, -86.78125, -80.125, -73.46875, -66.8125, -60.15625, -53.5, -46.84375, -40.1875, -33.53125, -26.875, -20.21875, -13.5625, -6.90625, -0.25, 6.40625, 13.0625, 19.71875, 26.375, 33.03125, 39.6875, 46.34375, 53.0, 59.65625, 66.3125, 72.96875, 79.625, 86.28125, 92.9375, 99.59375, 106.25, 112.90625, 119.5625, 126.21875, 132.875, 139.53125, 146.1875, 152.84375, 159.5, 166.15625, 172.8125, 179.46875, 186.125, 192.78125, 199.4375, 206.09375, 212.75, 219.40625, 226.0625, 232.71875, 239.375]}, "_wandb": {"runtime": 9556}}