{"observations_loss_sum/train": 1565.5882568359375, "_timestamp": 1670585063.0291128, "image_hsr_256/train": 1565.5882568359375, "reward_loss/train": 0.0, "kl_loss_sum/train": 56.77482604980469, "kl_loss/train": 56.77482604980469, "frame": 20000000, "_runtime": 6209.105887889862, "_step": 8000, "observations_loss_sum/validation": 4732.60009765625, "image_hsr_256/validation": 4732.60009765625, "reward_loss/validation": 0.0, "kl_loss_sum/validation": 73.43606567382812, "kl_loss/validation": 73.43606567382812, "gradients/decoder.conv.15.weight": {"_type": "histogram", "values": [3.0, 7.0, 10.0, 10.0, 10.0, 21.0, 5.0, 8.0, 8.0, 9.0, 10.0, 6.0, 6.0, 8.0, 4.0, 8.0, 9.0, 15.0, 10.0, 16.0, 19.0, 21.0, 26.0, 28.0, 44.0, 33.0, 36.0, 43.0, 50.0, 53.0, 34.0, 51.0, 63.0, 49.0, 48.0, 54.0, 65.0, 66.0, 44.0, 54.0, 57.0, 65.0, 70.0, 64.0, 89.0, 86.0, 58.0, 56.0, 24.0, 15.0, 8.0, 0.0, 1.0, 3.0, 5.0, 9.0, 13.0, 9.0, 9.0, 8.0, 4.0, 6.0, 3.0, 2.0], "bins": [-497.75, -488.013671875, -478.27734375, -468.541015625, -458.8046875, -449.068359375, -439.33203125, -429.595703125, -419.859375, -410.123046875, -400.38671875, -390.650390625, -380.9140625, -371.177734375, -361.44140625, -351.705078125, -341.96875, -332.232421875, -322.49609375, -312.759765625, -303.0234375, -293.287109375, -283.55078125, -273.814453125, -264.078125, -254.341796875, -244.60546875, -234.869140625, -225.1328125, -215.396484375, -205.66015625, -195.923828125, -186.1875, -176.451171875, -166.71484375, -156.978515625, -147.2421875, -137.505859375, -127.76953125, -118.033203125, -108.296875, -98.560546875, -88.82421875, -79.087890625, -69.3515625, -59.615234375, -49.87890625, -40.142578125, -30.40625, -20.669921875, -10.93359375, -1.197265625, 8.5390625, 18.275390625, 28.01171875, 37.748046875, 47.484375, 57.220703125, 66.95703125, 76.693359375, 86.4296875, 96.166015625, 105.90234375, 115.638671875, 125.375]}, "gradients/decoder.conv.15.bias": {"_type": "histogram", "values": [1.0, 0.0, 0.0, 0.0, 0.0, 0.0, 0.0, 0.0, 0.0, 0.0, 0.0, 0.0, 0.0, 0.0, 1.0, 0.0, 0.0, 0.0, 0.0, 0.0, 0.0, 0.0, 0.0, 0.0, 0.0, 0.0, 0.0, 0.0, 0.0, 0.0, 0.0, 0.0, 0.0, 0.0, 0.0, 0.0, 0.0, 0.0, 0.0, 0.0, 0.0, 0.0, 0.0, 0.0, 0.0, 0.0, 0.0, 0.0, 0.0, 0.0, 0.0, 0.0, 0.0, 0.0, 0.0, 0.0, 0.0, 0.0, 0.0, 0.0, 0.0, 0.0, 0.0, 1.0], "bins": [-2474.0, -2445.1328125, -2416.265625, -2387.3984375, -2358.53125, -2329.6640625, -2300.796875, -2271.9296875, -2243.0625, -2214.1953125, -2185.328125, -2156.4609375, -2127.59375, -2098.7265625, -2069.859375, -2040.9921875, -2012.125, -1983.2578125, -1954.390625, -1925.5234375, -1896.65625, -1867.7890625, -1838.921875, -1810.0546875, -1781.1875, -1752.3203125, -1723.453125, -1694.5859375, -1665.71875, -1636.8515625, -1607.984375, -1579.1171875, -1550.25, -1521.3828125, -1492.515625, -1463.6484375, -1434.78125, -1405.9140625, -1377.046875, -1348.1796875, -1319.3125, -1290.4453125, -1261.578125, -1232.7109375, -1203.84375, -1174.9765625, -1146.109375, -1117.2421875, -1088.375, -1059.5078125, -1030.640625, -1001.7734375, -972.90625, -944.0390625, -915.171875, -886.3046875, -857.4375, -828.5703125, -799.703125, -770.8359375, -741.96875, -713.1015625, -684.234375, -655.3671875, -626.5]}, "gradients/decoder.conv.13.weight": {"_type": "histogram", "values": [1.0, 0.0, 0.0, 0.0, 0.0, 0.0, 0.0, 0.0, 0.0, 1.0, 0.0, 1.0, 0.0, 0.0, 0.0, 0.0, 0.0, 0.0, 0.0, 1.0, 0.0, 0.0, 0.0, 0.0, 0.0, 0.0, 0.0, 0.0, 0.0, 1.0, 0.0, 0.0, 1.0, 0.0, 0.0, 0.0, 1.0, 0.0, 0.0, 0.0, 1.0, 0.0, 0.0, 2.0, 1.0, 0.0, 0.0, 0.0, 0.0, 0.0, 1.0, 2.0, 0.0, 0.0, 1.0, 0.0, 0.0, 0.0, 0.0, 0.0, 0.0, 0.0, 0.0, 1.0], "bins": [-1194.5657958984375, -1171.6881103515625, -1148.8104248046875, -1125.932861328125, -1103.05517578125, -1080.177490234375, -1057.2998046875, -1034.422119140625, -1011.54443359375, -988.666748046875, -965.7891235351562, -942.9114379882812, -920.0337524414062, -897.1561279296875, -874.2784423828125, -851.4007568359375, -828.5231323242188, -805.6454467773438, -782.767822265625, -759.89013671875, -737.012451171875, -714.134765625, -691.2571411132812, -668.3794555664062, -645.5018310546875, -622.6241455078125, -599.7465209960938, -576.8688354492188, -553.9911499023438, -531.113525390625, -508.23583984375, -485.358154296875, -462.4804992675781, -439.60284423828125, -416.72515869140625, -393.8475036621094, -370.9698486328125, -348.0921630859375, -325.2145080566406, -302.33685302734375, -279.45916748046875, -256.5815124511719, -233.70382690429688, -210.826171875, -187.94850158691406, -165.07083129882812, -142.19317626953125, -119.31550598144531, -96.43783569335938, -73.56016540527344, -50.68250274658203, -27.804840087890625, -4.9271697998046875, 17.95050048828125, 40.828155517578125, 63.70582580566406, 86.58349609375, 109.46116638183594, 132.33883666992188, 155.21649169921875, 178.0941619873047, 200.97183227539062, 223.8494873046875, 246.72715759277344, 269.6048278808594]}, "gradients/decoder.conv.13.bias": {"_type": "histogram", "values": [1.0, 1.0, 0.0, 1.0, 0.0, 0.0, 0.0, 0.0, 0.0, 0.0, 1.0, 0.0, 1.0, 0.0, 0.0, 0.0, 0.0, 1.0, 3.0, 0.0, 0.0, 0.0, 2.0, 0.0, 0.0, 1.0, 0.0, 1.0, 1.0, 0.0, 0.0, 0.0, 0.0, 0.0, 1.0, 0.0, 0.0, 0.0, 0.0, 0.0, 0.0, 0.0, 0.0, 0.0, 0.0, 0.0, 0.0, 0.0, 0.0, 0.0, 0.0, 0.0, 0.0, 0.0, 0.0, 0.0, 0.0, 0.0, 0.0, 0.0, 0.0, 0.0, 0.0, 1.0], "bins": [-2521.840576171875, -2430.283203125, -2338.725830078125, -2247.168212890625, -2155.61083984375, -2064.053466796875, -1972.49609375, -1880.9385986328125, -1789.381103515625, -1697.82373046875, -1606.2662353515625, -1514.7088623046875, -1423.1513671875, -1331.593994140625, -1240.03662109375, -1148.4791259765625, -1056.9217529296875, -965.3643188476562, -873.806884765625, -782.24951171875, -690.6920166015625, -599.1346435546875, -507.57720947265625, -416.019775390625, -324.46234130859375, -232.9049072265625, -141.3474884033203, -49.790069580078125, 41.767364501953125, 133.32479858398438, 224.8822021484375, 316.43963623046875, 407.9970703125, 499.55450439453125, 591.1119384765625, 682.6693115234375, 774.226806640625, 865.7841796875, 957.3416137695312, 1048.8990478515625, 1140.45654296875, 1232.013916015625, 1323.5714111328125, 1415.1287841796875, 1506.686279296875, 1598.24365234375, 1689.801025390625, 1781.3585205078125, 1872.9158935546875, 1964.4732666015625, 2056.03076171875, 2147.588134765625, 2239.1455078125, 2330.703125, 2422.260498046875, 2513.81787109375, 2605.375244140625, 2696.9326171875, 2788.489990234375, 2880.047607421875, 2971.60498046875, 3063.162353515625, 3154.7197265625, 3246.27734375, 3337.834716796875]}, "gradients/decoder.conv.12.weight": {"_type": "histogram", "values": [2.0, 0.0, 1.0, 1.0, 2.0, 0.0, 6.0, 6.0, 2.0, 2.0, 0.0, 1.0, 4.0, 1.0, 9.0, 3.0, 5.0, 6.0, 3.0, 0.0, 4.0, 3.0, 1.0, 2.0, 2.0, 3.0, 4.0, 3.0, 2.0, 0.0, 3.0, 5.0, 2.0, 4.0, 4.0, 5.0, 9.0, 4.0, 8.0, 14.0, 17.0, 18.0, 20.0, 28.0, 57.0, 124.0, 164.0, 284.0, 691.0, 1467.0, 2287.0, 1475.0, 738.0, 329.0, 132.0, 93.0, 49.0, 30.0, 18.0, 11.0, 14.0, 3.0, 3.0, 4.0], "bins": [-941.5, -922.80859375, -904.1171875, -885.42578125, -866.734375, -848.04296875, -829.3515625, -810.66015625, -791.96875, -773.27734375, -754.5859375, -735.89453125, -717.203125, -698.51171875, -679.8203125, -661.12890625, -642.4375, -623.74609375, -605.0546875, -586.36328125, -567.671875, -548.98046875, -530.2890625, -511.59765625, -492.90625, -474.21484375, -455.5234375, -436.83203125, -418.140625, -399.44921875, -380.7578125, -362.06640625, -343.375, -324.68359375, -305.9921875, -287.30078125, -268.609375, -249.91796875, -231.2265625, -212.53515625, -193.84375, -175.15234375, -156.4609375, -137.76953125, -119.078125, -100.38671875, -81.6953125, -63.00390625, -44.3125, -25.62109375, -6.9296875, 11.76171875, 30.453125, 49.14453125, 67.8359375, 86.52734375, 105.21875, 123.91015625, 142.6015625, 161.29296875, 179.984375, 198.67578125, 217.3671875, 236.05859375, 254.75]}, "gradients/decoder.conv.10.weight": {"_type": "histogram", "values": [1.0, 0.0, 1.0, 0.0, 0.0, 0.0, 0.0, 0.0, 0.0, 0.0, 0.0, 0.0, 0.0, 1.0, 0.0, 1.0, 0.0, 3.0, 3.0, 0.0, 1.0, 2.0, 3.0, 1.0, 3.0, 1.0, 2.0, 2.0, 0.0, 2.0, 1.0, 0.0, 0.0, 0.0, 0.0, 0.0, 0.0, 1.0, 1.0, 0.0, 0.0, 0.0, 0.0, 0.0, 0.0, 0.0, 0.0, 0.0, 0.0, 0.0, 0.0, 0.0, 1.0, 0.0, 0.0, 0.0, 0.0, 0.0, 0.0, 0.0, 0.0, 0.0, 0.0, 1.0], "bins": [-536.9061889648438, -515.5932006835938, -494.2802429199219, -472.9672546386719, -451.654296875, -430.34130859375, -409.0283203125, -387.71533203125, -366.4023742675781, -345.0893859863281, -323.77642822265625, -302.46343994140625, -281.15045166015625, -259.8374938964844, -238.52450561523438, -217.21153259277344, -195.8985595703125, -174.58558654785156, -153.27261352539062, -131.95962524414062, -110.64665222167969, -89.33367919921875, -68.02069854736328, -46.70771789550781, -25.394744873046875, -4.081768035888672, 17.23120880126953, 38.544185638427734, 59.85716247558594, 81.17013549804688, 102.48311614990234, 123.79609680175781, 145.10906982421875, 166.4220428466797, 187.73501586914062, 209.04800415039062, 230.36097717285156, 251.6739501953125, 272.9869384765625, 294.2999267578125, 315.6128845214844, 336.9258728027344, 358.23883056640625, 379.55181884765625, 400.86480712890625, 422.1777648925781, 443.4907531738281, 464.8037109375, 486.11669921875, 507.4296875, 528.74267578125, 550.0556030273438, 571.3685913085938, 592.6815795898438, 613.9945678710938, 635.3075561523438, 656.6204833984375, 677.9334716796875, 699.2464599609375, 720.5593872070312, 741.8723754882812, 763.1853637695312, 784.4983520507812, 805.8113403320312, 827.1243286132812]}, "gradients/decoder.conv.10.bias": {"_type": "histogram", "values": [1.0, 3.0, 0.0, 1.0, 1.0, 0.0, 0.0, 0.0, 0.0, 0.0, 0.0, 0.0, 0.0, 1.0, 1.0, 1.0, 2.0, 0.0, 0.0, 0.0, 1.0, 0.0, 0.0, 1.0, 1.0, 1.0, 0.0, 3.0, 0.0, 0.0, 0.0, 1.0, 1.0, 2.0, 1.0, 2.0, 1.0, 0.0, 1.0, 0.0, 0.0, 0.0, 1.0, 0.0, 0.0, 1.0, 0.0, 1.0, 0.0, 0.0, 0.0, 0.0, 0.0, 0.0, 0.0, 0.0, 0.0, 0.0, 1.0, 0.0, 0.0, 0.0, 0.0, 1.0], "bins": [-292.896484375, -285.11468505859375, -277.3328552246094, -269.5510559082031, -261.76922607421875, -253.98741149902344, -246.20559692382812, -238.42379760742188, -230.6419677734375, -222.8601531982422, -215.07833862304688, -207.29652404785156, -199.51470947265625, -191.73289489746094, -183.95108032226562, -176.16928100585938, -168.38746643066406, -160.60565185546875, -152.82383728027344, -145.04202270507812, -137.2602081298828, -129.4783935546875, -121.69658660888672, -113.9147720336914, -106.1329574584961, -98.35114288330078, -90.56932830810547, -82.78752136230469, -75.00570678710938, -67.22389221191406, -59.44207763671875, -51.66026306152344, -43.878448486328125, -36.09663391113281, -28.314821243286133, -20.533008575439453, -12.75119400024414, -4.969379425048828, 2.8124313354492188, 10.594245910644531, 18.376060485839844, 26.157875061035156, 33.93968963623047, 41.721500396728516, 49.50331497192383, 57.28512954711914, 65.06694030761719, 72.8487548828125, 80.63056945800781, 88.41238403320312, 96.19419860839844, 103.97601318359375, 111.75782775878906, 119.53964233398438, 127.32144927978516, 135.103271484375, 142.88507080078125, 150.66688537597656, 158.44869995117188, 166.2305145263672, 174.0123291015625, 181.7941436767578, 189.57595825195312, 197.35775756835938, 205.13958740234375]}, "gradients/decoder.conv.9.weight": {"_type": "histogram", "values": [3.0, 1.0, 2.0, 6.0, 7.0, 17.0, 20.0, 30.0, 33.0, 48.0, 54.0, 96.0, 109.0, 149.0, 210.0, 304.0, 485.0, 712.0, 1025.0, 1732.0, 2872.0, 5271.0, 7073.0, 4162.0, 2332.0, 1423.0, 946.0, 649.0, 508.0, 403.0, 348.0, 300.0, 248.0, 212.0, 147.0, 155.0, 140.0, 127.0, 84.0, 69.0, 50.0, 36.0, 42.0, 24.0, 24.0, 20.0, 13.0, 9.0, 11.0, 4.0, 5.0, 3.0, 5.0, 0.0, 2.0, 0.0, 1.0, 1.0, 0.0, 1.0, 1.0, 1.0, 2.0, 1.0], "bins": [-62.84375, -60.03173828125, -57.2197265625, -54.40771484375, -51.595703125, -48.78369140625, -45.9716796875, -43.15966796875, -40.34765625, -37.53564453125, -34.7236328125, -31.91162109375, -29.099609375, -26.28759765625, -23.4755859375, -20.66357421875, -17.8515625, -15.03955078125, -12.2275390625, -9.41552734375, -6.603515625, -3.79150390625, -0.9794921875, 1.83251953125, 4.64453125, 7.45654296875, 10.2685546875, 13.08056640625, 15.892578125, 18.70458984375, 21.5166015625, 24.32861328125, 27.140625, 29.95263671875, 32.7646484375, 35.57666015625, 38.388671875, 41.20068359375, 44.0126953125, 46.82470703125, 49.63671875, 52.44873046875, 55.2607421875, 58.07275390625, 60.884765625, 63.69677734375, 66.5087890625, 69.32080078125, 72.1328125, 74.94482421875, 77.7568359375, 80.56884765625, 83.380859375, 86.19287109375, 89.0048828125, 91.81689453125, 94.62890625, 97.44091796875, 100.2529296875, 103.06494140625, 105.876953125, 108.68896484375, 111.5009765625, 114.31298828125, 117.125]}, "gradients/decoder.conv.7.weight": {"_type": "histogram", "values": [1.0, 1.0, 0.0, 1.0, 0.0, 0.0, 0.0, 0.0, 0.0, 0.0, 1.0, 1.0, 1.0, 4.0, 0.0, 1.0, 1.0, 2.0, 0.0, 4.0, 1.0, 2.0, 1.0, 1.0, 1.0, 3.0, 0.0, 3.0, 6.0, 2.0, 2.0, 1.0, 6.0, 1.0, 3.0, 0.0, 2.0, 0.0, 0.0, 0.0, 1.0, 0.0, 0.0, 1.0, 2.0, 0.0, 0.0, 1.0, 0.0, 0.0, 1.0, 0.0, 1.0, 1.0, 0.0, 0.0, 0.0, 0.0, 0.0, 0.0, 0.0, 1.0, 1.0, 1.0], "bins": [-164.38107299804688, -158.81512451171875, -153.24917602539062, -147.6832275390625, -142.11729431152344, -136.5513458251953, -130.9853973388672, -125.41944885253906, -119.85350799560547, -114.28755950927734, -108.72161865234375, -103.15567016601562, -97.5897216796875, -92.0237808227539, -86.45783233642578, -80.89189147949219, -75.32594299316406, -69.75999450683594, -64.19405364990234, -58.62810516357422, -53.06216049194336, -47.4962158203125, -41.930267333984375, -36.364322662353516, -30.798377990722656, -25.232433319091797, -19.666486740112305, -14.100540161132812, -8.534595489501953, -2.9686508178710938, 2.5972976684570312, 8.16324234008789, 13.72918701171875, 19.29513168334961, 24.8610782623291, 30.427024841308594, 35.99296951293945, 41.55891418457031, 47.12486267089844, 52.6908073425293, 58.256752014160156, 63.822696685791016, 69.38864135742188, 74.95458984375, 80.52053833007812, 86.08647918701172, 91.65242767333984, 97.21836853027344, 102.78431701660156, 108.35026550292969, 113.91620635986328, 119.4821548461914, 125.048095703125, 130.61404418945312, 136.17999267578125, 141.74594116210938, 147.3118896484375, 152.87783813476562, 158.44378662109375, 164.00973510742188, 169.57566833496094, 175.14161682128906, 180.7075653076172, 186.2735137939453, 191.83944702148438]}, "gradients/decoder.conv.7.bias": {"_type": "histogram", "values": [2.0, 0.0, 0.0, 0.0, 2.0, 2.0, 0.0, 1.0, 1.0, 2.0, 1.0, 0.0, 0.0, 0.0, 0.0, 0.0, 1.0, 1.0, 1.0, 1.0, 0.0, 0.0, 1.0, 2.0, 1.0, 2.0, 2.0, 1.0, 2.0, 2.0, 3.0, 0.0, 1.0, 1.0, 1.0, 3.0, 1.0, 2.0, 2.0, 1.0, 2.0, 2.0, 0.0, 3.0, 0.0, 5.0, 0.0, 2.0, 2.0, 1.0, 0.0, 0.0, 1.0, 1.0, 0.0, 0.0, 0.0, 1.0, 0.0, 0.0, 0.0, 0.0, 0.0, 1.0], "bins": [-127.78968048095703, -124.45912170410156, -121.12857055664062, -117.79801177978516, -114.46746063232422, -111.13690185546875, -107.80635070800781, -104.47579193115234, -101.1452407836914, -97.81468200683594, -94.484130859375, -91.15357208251953, -87.8230209350586, -84.49246215820312, -81.16191101074219, -77.83135223388672, -74.50079345703125, -71.17023468017578, -67.83968353271484, -64.50912475585938, -61.17857360839844, -57.84801483154297, -54.51746368408203, -51.18690490722656, -47.856353759765625, -44.52579879760742, -41.19524383544922, -37.864688873291016, -34.53413391113281, -31.203577041625977, -27.873022079467773, -24.54246711730957, -21.2119140625, -17.881359100341797, -14.550804138183594, -11.220248222351074, -7.889693260192871, -4.559137344360352, -1.2285823822021484, 2.1019725799560547, 5.432527542114258, 8.763082504272461, 12.093637466430664, 15.424193382263184, 18.754749298095703, 22.085304260253906, 25.41585922241211, 28.746414184570312, 32.076969146728516, 35.40752410888672, 38.73807907104492, 42.068634033203125, 45.39918899536133, 48.72974395751953, 52.060302734375, 55.39085388183594, 58.721412658691406, 62.05196762084961, 65.38252258300781, 68.71308135986328, 72.04363250732422, 75.37419128417969, 78.70474243164062, 82.0353012084961, 85.36585235595703]}, "gradients/decoder.conv.6.weight": {"_type": "histogram", "values": [1.0, 1.0, 1.0, 1.0, 3.0, 0.0, 0.0, 2.0, 3.0, 5.0, 8.0, 4.0, 7.0, 5.0, 7.0, 9.0, 15.0, 11.0, 27.0, 32.0, 31.0, 51.0, 58.0, 56.0, 73.0, 111.0, 162.0, 243.0, 304.0, 426.0, 727.0, 1265.0, 2207.0, 4325.0, 8694.0, 18937.0, 42774.0, 25890.0, 11361.0, 5436.0, 2892.0, 1767.0, 978.0, 652.0, 435.0, 265.0, 189.0, 137.0, 113.0, 67.0, 60.0, 54.0, 39.0, 39.0, 30.0, 20.0, 12.0, 14.0, 6.0, 5.0, 6.0, 8.0, 4.0, 7.0], "bins": [-48.125, -46.8134765625, -45.501953125, -44.1904296875, -42.87890625, -41.5673828125, -40.255859375, -38.9443359375, -37.6328125, -36.3212890625, -35.009765625, -33.6982421875, -32.38671875, -31.0751953125, -29.763671875, -28.4521484375, -27.140625, -25.8291015625, -24.517578125, -23.2060546875, -21.89453125, -20.5830078125, -19.271484375, -17.9599609375, -16.6484375, -15.3369140625, -14.025390625, -12.7138671875, -11.40234375, -10.0908203125, -8.779296875, -7.4677734375, -6.15625, -4.8447265625, -3.533203125, -2.2216796875, -0.91015625, 0.4013671875, 1.712890625, 3.0244140625, 4.3359375, 5.6474609375, 6.958984375, 8.2705078125, 9.58203125, 10.8935546875, 12.205078125, 13.5166015625, 14.828125, 16.1396484375, 17.451171875, 18.7626953125, 20.07421875, 21.3857421875, 22.697265625, 24.0087890625, 25.3203125, 26.6318359375, 27.943359375, 29.2548828125, 30.56640625, 31.8779296875, 33.189453125, 34.5009765625, 35.8125]}, "gradients/decoder.conv.4.weight": {"_type": "histogram", "values": [1.0, 0.0, 0.0, 1.0, 0.0, 0.0, 1.0, 0.0, 0.0, 0.0, 1.0, 1.0, 0.0, 2.0, 1.0, 0.0, 1.0, 0.0, 2.0, 2.0, 0.0, 2.0, 2.0, 3.0, 4.0, 3.0, 4.0, 2.0, 7.0, 6.0, 7.0, 8.0, 8.0, 11.0, 10.0, 6.0, 10.0, 4.0, 2.0, 4.0, 1.0, 1.0, 1.0, 0.0, 1.0, 0.0, 0.0, 2.0, 1.0, 0.0, 0.0, 0.0, 0.0, 0.0, 0.0, 0.0, 0.0, 0.0, 0.0, 0.0, 1.0, 0.0, 1.0, 3.0], "bins": [-87.8392105102539, -85.14617156982422, -82.45313262939453, -79.76009368896484, -77.06706237792969, -74.3740234375, -71.68098449707031, -68.98794555664062, -66.29490661621094, -63.60186767578125, -60.90882873535156, -58.21579360961914, -55.52275466918945, -52.829715728759766, -50.136680603027344, -47.443641662597656, -44.75060272216797, -42.05756378173828, -39.364524841308594, -36.67148971557617, -33.978450775146484, -31.285411834716797, -28.592374801635742, -25.899337768554688, -23.206298828125, -20.513259887695312, -17.820222854614258, -15.127184867858887, -12.434146881103516, -9.741108894348145, -7.048070907592773, -4.355033874511719, -1.6620025634765625, 1.0310354232788086, 3.7240734100341797, 6.417111396789551, 9.110149383544922, 11.803187370300293, 14.496225357055664, 17.18926239013672, 19.882301330566406, 22.575340270996094, 25.26837730407715, 27.961414337158203, 30.65445327758789, 33.34749221801758, 36.04052734375, 38.73356628417969, 41.426605224609375, 44.11964416503906, 46.81268310546875, 49.50571823120117, 52.19875717163086, 54.89179611206055, 57.58483123779297, 60.277870178222656, 62.970909118652344, 65.66394805908203, 68.35698699951172, 71.0500259399414, 73.74305725097656, 76.43609619140625, 79.12913513183594, 81.82217407226562, 84.51521301269531]}, "gradients/decoder.conv.4.bias": {"_type": "histogram", "values": [1.0, 1.0, 1.0, 0.0, 0.0, 0.0, 0.0, 0.0, 1.0, 1.0, 2.0, 0.0, 0.0, 0.0, 4.0, 0.0, 1.0, 0.0, 1.0, 0.0, 1.0, 1.0, 1.0, 1.0, 0.0, 1.0, 0.0, 0.0, 2.0, 0.0, 4.0, 0.0, 0.0, 4.0, 2.0, 2.0, 2.0, 4.0, 4.0, 2.0, 4.0, 2.0, 3.0, 4.0, 6.0, 4.0, 8.0, 13.0, 4.0, 6.0, 7.0, 4.0, 5.0, 4.0, 2.0, 1.0, 1.0, 2.0, 1.0, 2.0, 0.0, 0.0, 0.0, 1.0], "bins": [-75.77308654785156, -74.15042877197266, -72.52777099609375, -70.90511322021484, -69.28245544433594, -67.65980529785156, -66.03714752197266, -64.41448974609375, -62.791831970214844, -61.16917419433594, -59.54651641845703, -57.92386245727539, -56.301204681396484, -54.67854690551758, -53.05589294433594, -51.43323516845703, -49.810577392578125, -48.18791961669922, -46.56526184082031, -44.94260787963867, -43.319950103759766, -41.69729232788086, -40.07463836669922, -38.45198059082031, -36.829322814941406, -35.2066650390625, -33.584007263183594, -31.961353302001953, -30.338695526123047, -28.71603775024414, -27.093381881713867, -25.470726013183594, -23.848068237304688, -22.22541046142578, -20.602754592895508, -18.980098724365234, -17.357440948486328, -15.734784126281738, -14.112127304077148, -12.489470481872559, -10.866813659667969, -9.244156837463379, -7.621500015258789, -5.998843193054199, -4.376186370849609, -2.7535295486450195, -1.1308727264404297, 0.49178409576416016, 2.11444091796875, 3.73709774017334, 5.35975456237793, 6.9824113845825195, 8.60506820678711, 10.2277250289917, 11.850381851196289, 13.473038673400879, 15.095695495605469, 16.718353271484375, 18.34100914001465, 19.963665008544922, 21.586322784423828, 23.208980560302734, 24.831636428833008, 26.45429229736328, 28.076950073242188]}, "gradients/decoder.conv.3.weight": {"_type": "histogram", "values": [2.0, 0.0, 0.0, 2.0, 2.0, 6.0, 6.0, 3.0, 17.0, 15.0, 31.0, 50.0, 51.0, 81.0, 98.0, 139.0, 156.0, 203.0, 231.0, 279.0, 355.0, 430.0, 520.0, 818.0, 1207.0, 1873.0, 3226.0, 5561.0, 9706.0, 17849.0, 35481.0, 81107.0, 171498.0, 85428.0, 43939.0, 24630.0, 14099.0, 8375.0, 5029.0, 3272.0, 2298.0, 1552.0, 1198.0, 825.0, 608.0, 473.0, 354.0, 279.0, 212.0, 168.0, 133.0, 99.0, 84.0, 72.0, 41.0, 32.0, 29.0, 22.0, 14.0, 11.0, 3.0, 2.0, 1.0, 3.0], "bins": [-20.859375, -20.218017578125, -19.57666015625, -18.935302734375, -18.2939453125, -17.652587890625, -17.01123046875, -16.369873046875, -15.728515625, -15.087158203125, -14.44580078125, -13.804443359375, -13.1630859375, -12.521728515625, -11.88037109375, -11.239013671875, -10.59765625, -9.956298828125, -9.31494140625, -8.673583984375, -8.0322265625, -7.390869140625, -6.74951171875, -6.108154296875, -5.466796875, -4.825439453125, -4.18408203125, -3.542724609375, -2.9013671875, -2.260009765625, -1.61865234375, -0.977294921875, -0.3359375, 0.305419921875, 0.94677734375, 1.588134765625, 2.2294921875, 2.870849609375, 3.51220703125, 4.153564453125, 4.794921875, 5.436279296875, 6.07763671875, 6.718994140625, 7.3603515625, 8.001708984375, 8.64306640625, 9.284423828125, 9.92578125, 10.567138671875, 11.20849609375, 11.849853515625, 12.4912109375, 13.132568359375, 13.77392578125, 14.415283203125, 15.056640625, 15.697998046875, 16.33935546875, 16.980712890625, 17.6220703125, 18.263427734375, 18.90478515625, 19.546142578125, 20.1875]}, "gradients/decoder.conv.1.weight": {"_type": "histogram", "values": [1.0, 0.0, 1.0, 0.0, 0.0, 0.0, 1.0, 1.0, 0.0, 2.0, 0.0, 0.0, 1.0, 0.0, 1.0, 2.0, 6.0, 3.0, 2.0, 6.0, 4.0, 3.0, 9.0, 6.0, 13.0, 5.0, 12.0, 9.0, 8.0, 11.0, 6.0, 13.0, 7.0, 7.0, 11.0, 12.0, 13.0, 15.0, 8.0, 6.0, 4.0, 7.0, 5.0, 6.0, 7.0, 2.0, 5.0, 0.0, 1.0, 6.0, 1.0, 3.0, 0.0, 0.0, 2.0, 0.0, 0.0, 0.0, 0.0, 0.0, 0.0, 1.0, 0.0, 1.0], "bins": [-54.19403839111328, -52.531192779541016, -50.868350982666016, -49.20550537109375, -47.54266357421875, -45.879817962646484, -44.21697235107422, -42.55413055419922, -40.89128875732422, -39.22844314575195, -37.56560134887695, -35.90275573730469, -34.23991394042969, -32.57706832885742, -30.91422462463379, -29.251380920410156, -27.58853530883789, -25.925691604614258, -24.262847900390625, -22.60000228881836, -20.93716049194336, -19.274314880371094, -17.61147117614746, -15.948627471923828, -14.285783767700195, -12.622940063476562, -10.96009635925293, -9.29725170135498, -7.634407997131348, -5.971564292907715, -4.308719635009766, -2.645875930786133, -0.9830284118652344, 0.6798155307769775, 2.3426594734191895, 4.0055036544799805, 5.668347358703613, 7.331191062927246, 8.994035720825195, 10.656879425048828, 12.319723129272461, 13.982566833496094, 15.645410537719727, 17.30825424194336, 18.971099853515625, 20.633941650390625, 22.29678726196289, 23.959630966186523, 25.622474670410156, 27.28531837463379, 28.948162078857422, 30.611007690429688, 32.27384948730469, 33.93669509887695, 35.59954071044922, 37.26238250732422, 38.92522430419922, 40.588069915771484, 42.250911712646484, 43.91375732421875, 45.57659912109375, 47.239444732666016, 48.90229034423828, 50.56513214111328, 52.22797775268555]}, "gradients/decoder.conv.1.bias": {"_type": "histogram", "values": [1.0, 0.0, 1.0, 0.0, 1.0, 0.0, 1.0, 1.0, 1.0, 0.0, 1.0, 3.0, 0.0, 2.0, 0.0, 4.0, 5.0, 7.0, 8.0, 6.0, 4.0, 12.0, 9.0, 6.0, 11.0, 9.0, 12.0, 10.0, 10.0, 9.0, 8.0, 7.0, 11.0, 13.0, 11.0, 5.0, 8.0, 12.0, 6.0, 8.0, 6.0, 8.0, 3.0, 1.0, 3.0, 0.0, 3.0, 3.0, 1.0, 1.0, 1.0, 0.0, 0.0, 0.0, 0.0, 1.0, 0.0, 0.0, 0.0, 1.0, 0.0, 0.0, 0.0, 1.0], "bins": [-50.782005310058594, -49.1429557800293, -47.503910064697266, -45.86486053466797, -44.22581481933594, -42.58676528930664, -40.947715759277344, -39.30867004394531, -37.66962432861328, -36.030574798583984, -34.39152908325195, -32.752479553222656, -31.113433837890625, -29.474384307861328, -27.835336685180664, -26.1962890625, -24.557239532470703, -22.91819190979004, -21.279144287109375, -19.640094757080078, -18.001049041748047, -16.36199951171875, -14.722951889038086, -13.083904266357422, -11.444856643676758, -9.805809020996094, -8.16676139831543, -6.527712821960449, -4.888665199279785, -3.249617576599121, -1.6105690002441406, 0.028478622436523438, 1.6675262451171875, 3.3065741062164307, 4.945621967315674, 6.584670066833496, 8.22371768951416, 9.862765312194824, 11.501813888549805, 13.140861511230469, 14.779909133911133, 16.418956756591797, 18.05800437927246, 19.697052001953125, 21.336101531982422, 22.975147247314453, 24.61419677734375, 26.253244400024414, 27.892292022705078, 29.531339645385742, 31.170387268066406, 32.8094367980957, 34.448482513427734, 36.08753204345703, 37.72657775878906, 39.36562728881836, 41.004676818847656, 42.64372634887695, 44.282772064208984, 45.92182159423828, 47.56086730957031, 49.19991683959961, 50.838966369628906, 52.47801208496094, 54.11705780029297]}, "gradients/decoder.conv.0.weight": {"_type": "histogram", "values": [1.0, 0.0, 0.0, 0.0, 0.0, 0.0, 0.0, 1.0, 1.0, 1.0, 0.0, 3.0, 4.0, 5.0, 9.0, 22.0, 20.0, 34.0, 50.0, 83.0, 130.0, 261.0, 511.0, 979.0, 2041.0, 4752.0, 13349.0, 46081.0, 225754.0, 2213386.0, 6340176.0, 462900.0, 84420.0, 24032.0, 9129.0, 3998.0, 1998.0, 1146.0, 674.0, 376.0, 263.0, 187.0, 109.0, 90.0, 54.0, 44.0, 26.0, 20.0, 17.0, 14.0, 14.0, 2.0, 3.0, 3.0, 3.0, 4.0, 1.0, 0.0, 1.0, 0.0, 0.0, 1.0, 0.0, 1.0], "bins": [-7.78125, -7.5234375, -7.265625, -7.0078125, -6.75, -6.4921875, -6.234375, -5.9765625, -5.71875, -5.4609375, -5.203125, -4.9453125, -4.6875, -4.4296875, -4.171875, -3.9140625, -3.65625, -3.3984375, -3.140625, -2.8828125, -2.625, -2.3671875, -2.109375, -1.8515625, -1.59375, -1.3359375, -1.078125, -0.8203125, -0.5625, -0.3046875, -0.046875, 0.2109375, 0.46875, 0.7265625, 0.984375, 1.2421875, 1.5, 1.7578125, 2.015625, 2.2734375, 2.53125, 2.7890625, 3.046875, 3.3046875, 3.5625, 3.8203125, 4.078125, 4.3359375, 4.59375, 4.8515625, 5.109375, 5.3671875, 5.625, 5.8828125, 6.140625, 6.3984375, 6.65625, 6.9140625, 7.171875, 7.4296875, 7.6875, 7.9453125, 8.203125, 8.4609375, 8.71875]}, "gradients/fc.weight": {"_type": "histogram", "values": [1.0, 0.0, 0.0, 0.0, 1.0, 1.0, 1.0, 2.0, 0.0, 1.0, 4.0, 3.0, 6.0, 4.0, 8.0, 5.0, 15.0, 16.0, 28.0, 22.0, 37.0, 52.0, 58.0, 91.0, 117.0, 183.0, 273.0, 397.0, 645.0, 1225.0, 2250.0, 6221.0, 36490.0, 185586.0, 48727.0, 7028.0, 2470.0, 1177.0, 645.0, 393.0, 261.0, 170.0, 101.0, 60.0, 39.0, 25.0, 18.0, 18.0, 12.0, 5.0, 2.0, 1.0, 4.0, 5.0, 3.0, 0.0, 2.0, 1.0, 1.0, 0.0, 0.0, 0.0, 0.0, 1.0], "bins": [-83.1875, -80.708984375, -78.23046875, -75.751953125, -73.2734375, -70.794921875, -68.31640625, -65.837890625, -63.359375, -60.880859375, -58.40234375, -55.923828125, -53.4453125, -50.966796875, -48.48828125, -46.009765625, -43.53125, -41.052734375, -38.57421875, -36.095703125, -33.6171875, -31.138671875, -28.66015625, -26.181640625, -23.703125, -21.224609375, -18.74609375, -16.267578125, -13.7890625, -11.310546875, -8.83203125, -6.353515625, -3.875, -1.396484375, 1.08203125, 3.560546875, 6.0390625, 8.517578125, 10.99609375, 13.474609375, 15.953125, 18.431640625, 20.91015625, 23.388671875, 25.8671875, 28.345703125, 30.82421875, 33.302734375, 35.78125, 38.259765625, 40.73828125, 43.216796875, 45.6953125, 48.173828125, 50.65234375, 53.130859375, 55.609375, 58.087890625, 60.56640625, 63.044921875, 65.5234375, 68.001953125, 70.48046875, 72.958984375, 75.4375]}, "gradients/fc.bias": {"_type": "histogram", "values": [2.0, 0.0, 2.0, 1.0, 3.0, 6.0, 0.0, 3.0, 6.0, 13.0, 7.0, 5.0, 9.0, 16.0, 22.0, 21.0, 20.0, 32.0, 20.0, 43.0, 55.0, 54.0, 64.0, 58.0, 51.0, 54.0, 66.0, 51.0, 55.0, 40.0, 48.0, 29.0, 32.0, 21.0, 17.0, 11.0, 9.0, 14.0, 12.0, 5.0, 6.0, 3.0, 5.0, 5.0, 4.0, 0.0, 1.0, 4.0, 5.0, 0.0, 2.0, 0.0, 2.0, 3.0, 1.0, 1.0, 2.0, 1.0, 0.0, 0.0, 0.0, 1.0, 0.0, 1.0], "bins": [-7.03515625, -6.76837158203125, -6.5015869140625, -6.23480224609375, -5.968017578125, -5.70123291015625, -5.4344482421875, -5.16766357421875, -4.90087890625, -4.63409423828125, -4.3673095703125, -4.10052490234375, -3.833740234375, -3.56695556640625, -3.3001708984375, -3.03338623046875, -2.7666015625, -2.49981689453125, -2.2330322265625, -1.96624755859375, -1.699462890625, -1.43267822265625, -1.1658935546875, -0.89910888671875, -0.63232421875, -0.36553955078125, -0.0987548828125, 0.16802978515625, 0.434814453125, 0.70159912109375, 0.9683837890625, 1.23516845703125, 1.501953125, 1.76873779296875, 2.0355224609375, 2.30230712890625, 2.569091796875, 2.83587646484375, 3.1026611328125, 3.36944580078125, 3.63623046875, 3.90301513671875, 4.1697998046875, 4.43658447265625, 4.703369140625, 4.97015380859375, 5.2369384765625, 5.50372314453125, 5.7705078125, 6.03729248046875, 6.3040771484375, 6.57086181640625, 6.837646484375, 7.10443115234375, 7.3712158203125, 7.63800048828125, 7.90478515625, 8.17156982421875, 8.4383544921875, 8.70513916015625, 8.971923828125, 9.23870849609375, 9.5054931640625, 9.77227783203125, 10.0390625]}, "gradients/graph_1obs_encoder.fc2.weight": {"_type": "histogram", "values": [1.0, 1.0, 0.0, 0.0, 0.0, 0.0, 0.0, 0.0, 0.0, 3.0, 2.0, 0.0, 2.0, 1.0, 1.0, 5.0, 4.0, 9.0, 8.0, 11.0, 8.0, 15.0, 21.0, 32.0, 38.0, 39.0, 62.0, 93.0, 105.0, 206.0, 275.0, 424.0, 566.0, 748.0, 962.0, 9222.0, 908.0, 833.0, 575.0, 398.0, 320.0, 118.0, 129.0, 78.0, 50.0, 38.0, 23.0, 9.0, 9.0, 6.0, 8.0, 7.0, 3.0, 1.0, 1.0, 0.0, 2.0, 1.0, 0.0, 1.0, 0.0, 1.0, 0.0, 1.0], "bins": [-202.375, -196.646484375, -190.91796875, -185.189453125, -179.4609375, -173.732421875, -168.00390625, -162.275390625, -156.546875, -150.818359375, -145.08984375, -139.361328125, -133.6328125, -127.904296875, -122.17578125, -116.447265625, -110.71875, -104.990234375, -99.26171875, -93.533203125, -87.8046875, -82.076171875, -76.34765625, -70.619140625, -64.890625, -59.162109375, -53.43359375, -47.705078125, -41.9765625, -36.248046875, -30.51953125, -24.791015625, -19.0625, -13.333984375, -7.60546875, -1.876953125, 3.8515625, 9.580078125, 15.30859375, 21.037109375, 26.765625, 32.494140625, 38.22265625, 43.951171875, 49.6796875, 55.408203125, 61.13671875, 66.865234375, 72.59375, 78.322265625, 84.05078125, 89.779296875, 95.5078125, 101.236328125, 106.96484375, 112.693359375, 118.421875, 124.150390625, 129.87890625, 135.607421875, 141.3359375, 147.064453125, 152.79296875, 158.521484375, 164.25]}, "gradients/graph_1obs_encoder.fc2.bias": {"_type": "histogram", "values": [1.0, 1.0, 1.0, 0.0, 0.0, 0.0, 0.0, 0.0, 1.0, 0.0, 3.0, 2.0, 0.0, 0.0, 0.0, 1.0, 0.0, 0.0, 1.0, 1.0, 2.0, 0.0, 2.0, 0.0, 0.0, 0.0, 3.0, 0.0, 0.0, 33.0, 0.0, 1.0, 0.0, 1.0, 1.0, 1.0, 0.0, 0.0, 0.0, 0.0, 0.0, 2.0, 0.0, 1.0, 3.0, 0.0, 1.0, 0.0, 0.0, 0.0, 0.0, 0.0, 0.0, 0.0, 0.0, 0.0, 0.0, 0.0, 0.0, 0.0, 0.0, 0.0, 0.0, 1.0], "bins": [-44.84375, -43.32763671875, -41.8115234375, -40.29541015625, -38.779296875, -37.26318359375, -35.7470703125, -34.23095703125, -32.71484375, -31.19873046875, -29.6826171875, -28.16650390625, -26.650390625, -25.13427734375, -23.6181640625, -22.10205078125, -20.5859375, -19.06982421875, -17.5537109375, -16.03759765625, -14.521484375, -13.00537109375, -11.4892578125, -9.97314453125, -8.45703125, -6.94091796875, -5.4248046875, -3.90869140625, -2.392578125, -0.87646484375, 0.6396484375, 2.15576171875, 3.671875, 5.18798828125, 6.7041015625, 8.22021484375, 9.736328125, 11.25244140625, 12.7685546875, 14.28466796875, 15.80078125, 17.31689453125, 18.8330078125, 20.34912109375, 21.865234375, 23.38134765625, 24.8974609375, 26.41357421875, 27.9296875, 29.44580078125, 30.9619140625, 32.47802734375, 33.994140625, 35.51025390625, 37.0263671875, 38.54248046875, 40.05859375, 41.57470703125, 43.0908203125, 44.60693359375, 46.123046875, 47.63916015625, 49.1552734375, 50.67138671875, 52.1875]}, "gradients/graph_1obs_encoder.fc1.weight": {"_type": "histogram", "values": [2.0, 5.0, 4.0, 3.0, 6.0, 8.0, 13.0, 13.0, 29.0, 46.0, 84.0, 151.0, 228.0, 346.0, 570.0, 983.0, 1604.0, 2490.0, 4370.0, 7433.0, 12698.0, 22195.0, 37613.0, 65980.0, 78088.0, 36933.0, 21698.0, 12969.0, 7591.0, 4616.0, 2929.0, 1879.0, 1240.0, 755.0, 551.0, 343.0, 274.0, 224.0, 124.0, 109.0, 91.0, 68.0, 54.0, 52.0, 42.0, 32.0, 27.0, 22.0, 13.0, 17.0, 9.0, 8.0, 13.0, 9.0, 7.0, 7.0, 2.0, 3.0, 2.0, 2.0, 1.0, 1.0, 0.0, 1.0], "bins": [-18.921875, -18.135009765625, -17.34814453125, -16.561279296875, -15.7744140625, -14.987548828125, -14.20068359375, -13.413818359375, -12.626953125, -11.840087890625, -11.05322265625, -10.266357421875, -9.4794921875, -8.692626953125, -7.90576171875, -7.118896484375, -6.33203125, -5.545166015625, -4.75830078125, -3.971435546875, -3.1845703125, -2.397705078125, -1.61083984375, -0.823974609375, -0.037109375, 0.749755859375, 1.53662109375, 2.323486328125, 3.1103515625, 3.897216796875, 4.68408203125, 5.470947265625, 6.2578125, 7.044677734375, 7.83154296875, 8.618408203125, 9.4052734375, 10.192138671875, 10.97900390625, 11.765869140625, 12.552734375, 13.339599609375, 14.12646484375, 14.913330078125, 15.7001953125, 16.487060546875, 17.27392578125, 18.060791015625, 18.84765625, 19.634521484375, 20.42138671875, 21.208251953125, 21.9951171875, 22.781982421875, 23.56884765625, 24.355712890625, 25.142578125, 25.929443359375, 26.71630859375, 27.503173828125, 28.2900390625, 29.076904296875, 29.86376953125, 30.650634765625, 31.4375]}, "gradients/graph_1obs_encoder.fc1.bias": {"_type": "histogram", "values": [1.0, 1.0, 0.0, 0.0, 1.0, 0.0, 1.0, 2.0, 3.0, 1.0, 5.0, 6.0, 5.0, 3.0, 5.0, 2.0, 4.0, 6.0, 6.0, 13.0, 10.0, 6.0, 14.0, 9.0, 12.0, 27.0, 11.0, 7.0, 13.0, 13.0, 10.0, 4.0, 6.0, 6.0, 6.0, 4.0, 4.0, 2.0, 5.0, 6.0, 5.0, 1.0, 0.0, 0.0, 1.0, 0.0, 1.0, 4.0, 0.0, 0.0, 0.0, 0.0, 0.0, 1.0, 2.0, 0.0, 0.0, 0.0, 0.0, 0.0, 0.0, 0.0, 0.0, 1.0], "bins": [-12.234375, -11.751953125, -11.26953125, -10.787109375, -10.3046875, -9.822265625, -9.33984375, -8.857421875, -8.375, -7.892578125, -7.41015625, -6.927734375, -6.4453125, -5.962890625, -5.48046875, -4.998046875, -4.515625, -4.033203125, -3.55078125, -3.068359375, -2.5859375, -2.103515625, -1.62109375, -1.138671875, -0.65625, -0.173828125, 0.30859375, 0.791015625, 1.2734375, 1.755859375, 2.23828125, 2.720703125, 3.203125, 3.685546875, 4.16796875, 4.650390625, 5.1328125, 5.615234375, 6.09765625, 6.580078125, 7.0625, 7.544921875, 8.02734375, 8.509765625, 8.9921875, 9.474609375, 9.95703125, 10.439453125, 10.921875, 11.404296875, 11.88671875, 12.369140625, 12.8515625, 13.333984375, 13.81640625, 14.298828125, 14.78125, 15.263671875, 15.74609375, 16.228515625, 16.7109375, 17.193359375, 17.67578125, 18.158203125, 18.640625]}, "gradients/graph_1stochastic_state_model.fc2.weight": {"_type": "histogram", "values": [1.0, 0.0, 0.0, 0.0, 0.0, 0.0, 0.0, 0.0, 0.0, 1.0, 0.0, 0.0, 0.0, 2.0, 0.0, 1.0, 2.0, 0.0, 4.0, 3.0, 10.0, 14.0, 18.0, 36.0, 38.0, 69.0, 107.0, 207.0, 329.0, 540.0, 833.0, 1476.0, 2630.0, 3221.0, 2727.0, 1618.0, 840.0, 548.0, 393.0, 219.0, 177.0, 115.0, 84.0, 39.0, 17.0, 23.0, 17.0, 14.0, 4.0, 3.0, 0.0, 0.0, 1.0, 0.0, 1.0, 0.0, 1.0, 0.0, 0.0, 0.0, 0.0, 0.0, 0.0, 1.0], "bins": [-2.166015625, -2.1016693115234375, -2.037322998046875, -1.9729766845703125, -1.90863037109375, -1.8442840576171875, -1.779937744140625, -1.7155914306640625, -1.6512451171875, -1.5868988037109375, -1.522552490234375, -1.4582061767578125, -1.39385986328125, -1.3295135498046875, -1.265167236328125, -1.2008209228515625, -1.136474609375, -1.0721282958984375, -1.007781982421875, -0.9434356689453125, -0.87908935546875, -0.8147430419921875, -0.750396728515625, -0.6860504150390625, -0.6217041015625, -0.5573577880859375, -0.493011474609375, -0.4286651611328125, -0.36431884765625, -0.2999725341796875, -0.235626220703125, -0.1712799072265625, -0.10693359375, -0.0425872802734375, 0.021759033203125, 0.0861053466796875, 0.15045166015625, 0.2147979736328125, 0.279144287109375, 0.3434906005859375, 0.4078369140625, 0.4721832275390625, 0.536529541015625, 0.6008758544921875, 0.66522216796875, 0.7295684814453125, 0.793914794921875, 0.8582611083984375, 0.922607421875, 0.9869537353515625, 1.051300048828125, 1.1156463623046875, 1.17999267578125, 1.2443389892578125, 1.308685302734375, 1.3730316162109375, 1.4373779296875, 1.5017242431640625, 1.566070556640625, 1.6304168701171875, 1.69476318359375, 1.7591094970703125, 1.823455810546875, 1.8878021240234375, 1.9521484375]}, "gradients/graph_1stochastic_state_model.fc2.bias": {"_type": "histogram", "values": [1.0, 0.0, 0.0, 0.0, 0.0, 0.0, 0.0, 0.0, 0.0, 0.0, 1.0, 1.0, 0.0, 1.0, 0.0, 1.0, 0.0, 1.0, 0.0, 1.0, 0.0, 1.0, 0.0, 1.0, 0.0, 0.0, 1.0, 1.0, 0.0, 4.0, 4.0, 4.0, 3.0, 8.0, 7.0, 2.0, 3.0, 2.0, 2.0, 3.0, 2.0, 0.0, 2.0, 0.0, 3.0, 0.0, 1.0, 1.0, 0.0, 0.0, 0.0, 1.0, 0.0, 0.0, 0.0, 0.0, 0.0, 0.0, 0.0, 0.0, 0.0, 0.0, 0.0, 1.0], "bins": [-1.0029296875, -0.97235107421875, -0.9417724609375, -0.91119384765625, -0.880615234375, -0.85003662109375, -0.8194580078125, -0.78887939453125, -0.75830078125, -0.72772216796875, -0.6971435546875, -0.66656494140625, -0.635986328125, -0.60540771484375, -0.5748291015625, -0.54425048828125, -0.513671875, -0.48309326171875, -0.4525146484375, -0.42193603515625, -0.391357421875, -0.36077880859375, -0.3302001953125, -0.29962158203125, -0.26904296875, -0.23846435546875, -0.2078857421875, -0.17730712890625, -0.146728515625, -0.11614990234375, -0.0855712890625, -0.05499267578125, -0.0244140625, 0.00616455078125, 0.0367431640625, 0.06732177734375, 0.097900390625, 0.12847900390625, 0.1590576171875, 0.18963623046875, 0.22021484375, 0.25079345703125, 0.2813720703125, 0.31195068359375, 0.342529296875, 0.37310791015625, 0.4036865234375, 0.43426513671875, 0.46484375, 0.49542236328125, 0.5260009765625, 0.55657958984375, 0.587158203125, 0.61773681640625, 0.6483154296875, 0.67889404296875, 0.70947265625, 0.74005126953125, 0.7706298828125, 0.80120849609375, 0.831787109375, 0.86236572265625, 0.8929443359375, 0.92352294921875, 0.9541015625]}, "gradients/graph_1stochastic_state_model.fc1.weight": {"_type": "histogram", "values": [1.0, 0.0, 1.0, 1.0, 3.0, 5.0, 4.0, 6.0, 8.0, 9.0, 17.0, 34.0, 53.0, 62.0, 90.0, 131.0, 154.0, 204.0, 229.0, 271.0, 435.0, 536.0, 716.0, 940.0, 1169.0, 1589.0, 1882.0, 2452.0, 3062.0, 3766.0, 4655.0, 5349.0, 5899.0, 5768.0, 5210.0, 4311.0, 3478.0, 2945.0, 2287.0, 1836.0, 1354.0, 1082.0, 787.0, 634.0, 487.0, 374.0, 276.0, 235.0, 179.0, 163.0, 113.0, 84.0, 55.0, 49.0, 42.0, 15.0, 15.0, 5.0, 6.0, 5.0, 2.0, 2.0, 3.0, 1.0], "bins": [-0.5185546875, -0.5027961730957031, -0.48703765869140625, -0.4712791442871094, -0.4555206298828125, -0.4397621154785156, -0.42400360107421875, -0.4082450866699219, -0.392486572265625, -0.3767280578613281, -0.36096954345703125, -0.3452110290527344, -0.3294525146484375, -0.3136940002441406, -0.29793548583984375, -0.2821769714355469, -0.26641845703125, -0.2506599426269531, -0.23490142822265625, -0.21914291381835938, -0.2033843994140625, -0.18762588500976562, -0.17186737060546875, -0.15610885620117188, -0.140350341796875, -0.12459182739257812, -0.10883331298828125, -0.09307479858398438, -0.0773162841796875, -0.061557769775390625, -0.04579925537109375, -0.030040740966796875, -0.0142822265625, 0.001476287841796875, 0.01723480224609375, 0.032993316650390625, 0.0487518310546875, 0.06451034545898438, 0.08026885986328125, 0.09602737426757812, 0.111785888671875, 0.12754440307617188, 0.14330291748046875, 0.15906143188476562, 0.1748199462890625, 0.19057846069335938, 0.20633697509765625, 0.22209548950195312, 0.23785400390625, 0.2536125183105469, 0.26937103271484375, 0.2851295471191406, 0.3008880615234375, 0.3166465759277344, 0.33240509033203125, 0.3481636047363281, 0.363922119140625, 0.3796806335449219, 0.39543914794921875, 0.4111976623535156, 0.4269561767578125, 0.4427146911621094, 0.45847320556640625, 0.4742317199707031, 0.489990234375]}, "gradients/graph_1stochastic_state_model.fc1.bias": {"_type": "histogram", "values": [1.0, 0.0, 0.0, 0.0, 0.0, 0.0, 0.0, 1.0, 0.0, 2.0, 1.0, 0.0, 1.0, 2.0, 3.0, 3.0, 1.0, 1.0, 1.0, 3.0, 3.0, 1.0, 8.0, 7.0, 5.0, 3.0, 7.0, 6.0, 5.0, 8.0, 16.0, 8.0, 9.0, 7.0, 8.0, 10.0, 11.0, 11.0, 2.0, 12.0, 11.0, 5.0, 8.0, 7.0, 5.0, 5.0, 5.0, 3.0, 4.0, 5.0, 7.0, 4.0, 2.0, 1.0, 1.0, 2.0, 3.0, 1.0, 2.0, 2.0, 1.0, 3.0, 0.0, 2.0], "bins": [-0.452880859375, -0.44001007080078125, -0.4271392822265625, -0.41426849365234375, -0.401397705078125, -0.38852691650390625, -0.3756561279296875, -0.36278533935546875, -0.34991455078125, -0.33704376220703125, -0.3241729736328125, -0.31130218505859375, -0.298431396484375, -0.28556060791015625, -0.2726898193359375, -0.25981903076171875, -0.2469482421875, -0.23407745361328125, -0.2212066650390625, -0.20833587646484375, -0.195465087890625, -0.18259429931640625, -0.1697235107421875, -0.15685272216796875, -0.14398193359375, -0.13111114501953125, -0.1182403564453125, -0.10536956787109375, -0.092498779296875, -0.07962799072265625, -0.0667572021484375, -0.05388641357421875, -0.041015625, -0.02814483642578125, -0.0152740478515625, -0.00240325927734375, 0.010467529296875, 0.02333831787109375, 0.0362091064453125, 0.04907989501953125, 0.06195068359375, 0.07482147216796875, 0.0876922607421875, 0.10056304931640625, 0.113433837890625, 0.12630462646484375, 0.1391754150390625, 0.15204620361328125, 0.1649169921875, 0.17778778076171875, 0.1906585693359375, 0.20352935791015625, 0.216400146484375, 0.22927093505859375, 0.2421417236328125, 0.25501251220703125, 0.26788330078125, 0.28075408935546875, 0.2936248779296875, 0.30649566650390625, 0.319366455078125, 0.33223724365234375, 0.3451080322265625, 0.35797882080078125, 0.370849609375]}, "gradients/graph_1rnn.weight_ih": {"_type": "histogram", "values": [1.0, 0.0, 0.0, 1.0, 0.0, 0.0, 0.0, 1.0, 1.0, 0.0, 0.0, 0.0, 1.0, 2.0, 1.0, 3.0, 4.0, 4.0, 4.0, 2.0, 4.0, 14.0, 6.0, 16.0, 19.0, 27.0, 39.0, 73.0, 84.0, 135.0, 227.0, 392.0, 660.0, 1143.0, 2198.0, 4354.0, 9044.0, 20582.0, 96188.0, 36263.0, 12975.0, 5747.0, 2754.0, 1539.0, 843.0, 473.0, 254.0, 169.0, 118.0, 82.0, 48.0, 28.0, 22.0, 20.0, 17.0, 2.0, 6.0, 5.0, 6.0, 3.0, 1.0, 1.0, 1.0, 1.0], "bins": [-21.96875, -21.4012451171875, -20.833740234375, -20.2662353515625, -19.69873046875, -19.1312255859375, -18.563720703125, -17.9962158203125, -17.4287109375, -16.8612060546875, -16.293701171875, -15.7261962890625, -15.15869140625, -14.5911865234375, -14.023681640625, -13.4561767578125, -12.888671875, -12.3211669921875, -11.753662109375, -11.1861572265625, -10.61865234375, -10.0511474609375, -9.483642578125, -8.9161376953125, -8.3486328125, -7.7811279296875, -7.213623046875, -6.6461181640625, -6.07861328125, -5.5111083984375, -4.943603515625, -4.3760986328125, -3.80859375, -3.2410888671875, -2.673583984375, -2.1060791015625, -1.53857421875, -0.9710693359375, -0.403564453125, 0.1639404296875, 0.7314453125, 1.2989501953125, 1.866455078125, 2.4339599609375, 3.00146484375, 3.5689697265625, 4.136474609375, 4.7039794921875, 5.271484375, 5.8389892578125, 6.406494140625, 6.9739990234375, 7.54150390625, 8.1090087890625, 8.676513671875, 9.2440185546875, 9.8115234375, 10.3790283203125, 10.946533203125, 11.5140380859375, 12.08154296875, 12.6490478515625, 13.216552734375, 13.7840576171875, 14.3515625]}, "gradients/graph_1rnn.weight_hh": {"_type": "histogram", "values": [6.0, 8.0, 9.0, 8.0, 11.0, 11.0, 13.0, 31.0, 27.0, 31.0, 30.0, 49.0, 59.0, 77.0, 93.0, 123.0, 199.0, 243.0, 317.0, 356.0, 473.0, 677.0, 932.0, 1356.0, 2016.0, 2788.0, 3960.0, 5600.0, 8548.0, 13390.0, 24392.0, 52864.0, 30266.0, 15818.0, 9721.0, 6374.0, 4376.0, 3035.0, 2412.0, 1599.0, 1139.0, 813.0, 561.0, 411.0, 305.0, 237.0, 207.0, 144.0, 103.0, 78.0, 62.0, 53.0, 41.0, 15.0, 27.0, 32.0, 24.0, 7.0, 12.0, 11.0, 14.0, 7.0, 4.0, 3.0], "bins": [-3.1484375, -3.048980712890625, -2.94952392578125, -2.850067138671875, -2.7506103515625, -2.651153564453125, -2.55169677734375, -2.452239990234375, -2.352783203125, -2.253326416015625, -2.15386962890625, -2.054412841796875, -1.9549560546875, -1.855499267578125, -1.75604248046875, -1.656585693359375, -1.55712890625, -1.457672119140625, -1.35821533203125, -1.258758544921875, -1.1593017578125, -1.059844970703125, -0.96038818359375, -0.860931396484375, -0.761474609375, -0.662017822265625, -0.56256103515625, -0.463104248046875, -0.3636474609375, -0.264190673828125, -0.16473388671875, -0.065277099609375, 0.0341796875, 0.133636474609375, 0.23309326171875, 0.332550048828125, 0.4320068359375, 0.531463623046875, 0.63092041015625, 0.730377197265625, 0.829833984375, 0.929290771484375, 1.02874755859375, 1.128204345703125, 1.2276611328125, 1.327117919921875, 1.42657470703125, 1.526031494140625, 1.62548828125, 1.724945068359375, 1.82440185546875, 1.923858642578125, 2.0233154296875, 2.122772216796875, 2.22222900390625, 2.321685791015625, 2.421142578125, 2.520599365234375, 2.62005615234375, 2.719512939453125, 2.8189697265625, 2.918426513671875, 3.01788330078125, 3.117340087890625, 3.216796875]}, "gradients/graph_1rnn.bias_ih": {"_type": "histogram", "values": [1.0, 0.0, 0.0, 0.0, 0.0, 0.0, 0.0, 0.0, 0.0, 0.0, 1.0, 1.0, 1.0, 2.0, 0.0, 1.0, 3.0, 0.0, 2.0, 4.0, 7.0, 11.0, 13.0, 7.0, 13.0, 22.0, 15.0, 34.0, 25.0, 65.0, 165.0, 142.0, 61.0, 41.0, 25.0, 18.0, 13.0, 11.0, 19.0, 10.0, 9.0, 5.0, 6.0, 1.0, 3.0, 2.0, 2.0, 0.0, 1.0, 2.0, 0.0, 0.0, 0.0, 0.0, 0.0, 2.0, 0.0, 0.0, 0.0, 0.0, 0.0, 1.0, 0.0, 1.0], "bins": [-6.13671875, -5.93817138671875, -5.7396240234375, -5.54107666015625, -5.342529296875, -5.14398193359375, -4.9454345703125, -4.74688720703125, -4.54833984375, -4.34979248046875, -4.1512451171875, -3.95269775390625, -3.754150390625, -3.55560302734375, -3.3570556640625, -3.15850830078125, -2.9599609375, -2.76141357421875, -2.5628662109375, -2.36431884765625, -2.165771484375, -1.96722412109375, -1.7686767578125, -1.57012939453125, -1.37158203125, -1.17303466796875, -0.9744873046875, -0.77593994140625, -0.577392578125, -0.37884521484375, -0.1802978515625, 0.01824951171875, 0.216796875, 0.41534423828125, 0.6138916015625, 0.81243896484375, 1.010986328125, 1.20953369140625, 1.4080810546875, 1.60662841796875, 1.80517578125, 2.00372314453125, 2.2022705078125, 2.40081787109375, 2.599365234375, 2.79791259765625, 2.9964599609375, 3.19500732421875, 3.3935546875, 3.59210205078125, 3.7906494140625, 3.98919677734375, 4.187744140625, 4.38629150390625, 4.5848388671875, 4.78338623046875, 4.98193359375, 5.18048095703125, 5.3790283203125, 5.57757568359375, 5.776123046875, 5.97467041015625, 6.1732177734375, 6.37176513671875, 6.5703125]}, "gradients/graph_1rnn.bias_hh": {"_type": "histogram", "values": [2.0, 0.0, 1.0, 1.0, 0.0, 1.0, 2.0, 1.0, 0.0, 1.0, 1.0, 1.0, 3.0, 5.0, 0.0, 5.0, 6.0, 11.0, 9.0, 10.0, 17.0, 16.0, 24.0, 37.0, 37.0, 83.0, 155.0, 96.0, 63.0, 45.0, 26.0, 25.0, 23.0, 13.0, 12.0, 7.0, 6.0, 4.0, 2.0, 5.0, 3.0, 0.0, 3.0, 0.0, 1.0, 2.0, 0.0, 0.0, 0.0, 1.0, 0.0, 0.0, 0.0, 0.0, 1.0, 0.0, 0.0, 0.0, 0.0, 0.0, 0.0, 0.0, 0.0, 1.0], "bins": [-3.203125, -3.08258056640625, -2.9620361328125, -2.84149169921875, -2.720947265625, -2.60040283203125, -2.4798583984375, -2.35931396484375, -2.23876953125, -2.11822509765625, -1.9976806640625, -1.87713623046875, -1.756591796875, -1.63604736328125, -1.5155029296875, -1.39495849609375, -1.2744140625, -1.15386962890625, -1.0333251953125, -0.91278076171875, -0.792236328125, -0.67169189453125, -0.5511474609375, -0.43060302734375, -0.31005859375, -0.18951416015625, -0.0689697265625, 0.05157470703125, 0.172119140625, 0.29266357421875, 0.4132080078125, 0.53375244140625, 0.654296875, 0.77484130859375, 0.8953857421875, 1.01593017578125, 1.136474609375, 1.25701904296875, 1.3775634765625, 1.49810791015625, 1.61865234375, 1.73919677734375, 1.8597412109375, 1.98028564453125, 2.100830078125, 2.22137451171875, 2.3419189453125, 2.46246337890625, 2.5830078125, 2.70355224609375, 2.8240966796875, 2.94464111328125, 3.065185546875, 3.18572998046875, 3.3062744140625, 3.42681884765625, 3.54736328125, 3.66790771484375, 3.7884521484375, 3.90899658203125, 4.029541015625, 4.15008544921875, 4.2706298828125, 4.39117431640625, 4.51171875]}, "gradients/graph_1fc_embed_state_action.weight": {"_type": "histogram", "values": [1.0, 0.0, 1.0, 0.0, 3.0, 3.0, 0.0, 2.0, 2.0, 2.0, 4.0, 7.0, 7.0, 12.0, 17.0, 18.0, 26.0, 38.0, 61.0, 72.0, 104.0, 131.0, 177.0, 262.0, 382.0, 499.0, 670.0, 948.0, 1879.0, 1112.0, 891.0, 728.0, 521.0, 380.0, 307.0, 217.0, 134.0, 114.0, 83.0, 45.0, 27.0, 26.0, 22.0, 12.0, 9.0, 4.0, 6.0, 3.0, 7.0, 0.0, 0.0, 0.0, 1.0, 1.0, 1.0, 0.0, 0.0, 2.0, 0.0, 0.0, 1.0, 0.0, 0.0, 2.0], "bins": [-32.21875, -31.103515625, -29.98828125, -28.873046875, -27.7578125, -26.642578125, -25.52734375, -24.412109375, -23.296875, -22.181640625, -21.06640625, -19.951171875, -18.8359375, -17.720703125, -16.60546875, -15.490234375, -14.375, -13.259765625, -12.14453125, -11.029296875, -9.9140625, -8.798828125, -7.68359375, -6.568359375, -5.453125, -4.337890625, -3.22265625, -2.107421875, -0.9921875, 0.123046875, 1.23828125, 2.353515625, 3.46875, 4.583984375, 5.69921875, 6.814453125, 7.9296875, 9.044921875, 10.16015625, 11.275390625, 12.390625, 13.505859375, 14.62109375, 15.736328125, 16.8515625, 17.966796875, 19.08203125, 20.197265625, 21.3125, 22.427734375, 23.54296875, 24.658203125, 25.7734375, 26.888671875, 28.00390625, 29.119140625, 30.234375, 31.349609375, 32.46484375, 33.580078125, 34.6953125, 35.810546875, 36.92578125, 38.041015625, 39.15625]}, "gradients/graph_1fc_embed_state_action.bias": {"_type": "histogram", "values": [2.0, 2.0, 0.0, 5.0, 0.0, 1.0, 1.0, 3.0, 1.0, 2.0, 1.0, 3.0, 3.0, 4.0, 4.0, 8.0, 4.0, 7.0, 9.0, 4.0, 4.0, 11.0, 8.0, 10.0, 14.0, 10.0, 7.0, 15.0, 6.0, 4.0, 9.0, 11.0, 9.0, 5.0, 4.0, 8.0, 7.0, 7.0, 3.0, 4.0, 3.0, 3.0, 4.0, 9.0, 4.0, 1.0, 2.0, 3.0, 0.0, 1.0, 0.0, 0.0, 2.0, 1.0, 1.0, 1.0, 0.0, 0.0, 0.0, 0.0, 0.0, 0.0, 0.0, 1.0], "bins": [-4.9453125, -4.74371337890625, -4.5421142578125, -4.34051513671875, -4.138916015625, -3.93731689453125, -3.7357177734375, -3.53411865234375, -3.33251953125, -3.13092041015625, -2.9293212890625, -2.72772216796875, -2.526123046875, -2.32452392578125, -2.1229248046875, -1.92132568359375, -1.7197265625, -1.51812744140625, -1.3165283203125, -1.11492919921875, -0.913330078125, -0.71173095703125, -0.5101318359375, -0.30853271484375, -0.10693359375, 0.09466552734375, 0.2962646484375, 0.49786376953125, 0.699462890625, 0.90106201171875, 1.1026611328125, 1.30426025390625, 1.505859375, 1.70745849609375, 1.9090576171875, 2.11065673828125, 2.312255859375, 2.51385498046875, 2.7154541015625, 2.91705322265625, 3.11865234375, 3.32025146484375, 3.5218505859375, 3.72344970703125, 3.925048828125, 4.12664794921875, 4.3282470703125, 4.52984619140625, 4.7314453125, 4.93304443359375, 5.1346435546875, 5.33624267578125, 5.537841796875, 5.73944091796875, 5.9410400390625, 6.14263916015625, 6.34423828125, 6.54583740234375, 6.7474365234375, 6.94903564453125, 7.150634765625, 7.35223388671875, 7.5538330078125, 7.75543212890625, 7.95703125]}, "gradients/graph_3conv.16.weight": {"_type": "histogram", "values": [1.0, 0.0, 0.0, 0.0, 0.0, 1.0, 0.0, 1.0, 0.0, 1.0, 0.0, 1.0, 1.0, 2.0, 3.0, 3.0, 2.0, 3.0, 3.0, 2.0, 7.0, 6.0, 5.0, 7.0, 9.0, 10.0, 15.0, 14.0, 12.0, 11.0, 11.0, 13.0, 17.0, 9.0, 13.0, 8.0, 5.0, 6.0, 8.0, 11.0, 5.0, 1.0, 5.0, 0.0, 5.0, 2.0, 2.0, 1.0, 3.0, 2.0, 1.0, 1.0, 1.0, 0.0, 0.0, 2.0, 0.0, 0.0, 1.0, 0.0, 0.0, 0.0, 1.0, 2.0], "bins": [-35.94935607910156, -34.80979537963867, -33.67023468017578, -32.530670166015625, -31.391109466552734, -30.251548767089844, -29.11198616027832, -27.972423553466797, -26.832862854003906, -25.693302154541016, -24.553739547729492, -23.41417694091797, -22.274616241455078, -21.135055541992188, -19.995492935180664, -18.85593032836914, -17.71636962890625, -16.57680892944336, -15.437246322631836, -14.297684669494629, -13.158123016357422, -12.018561363220215, -10.878999710083008, -9.7394380569458, -8.599876403808594, -7.460314750671387, -6.32075309753418, -5.181191444396973, -4.041629791259766, -2.9020681381225586, -1.7625064849853516, -0.6229448318481445, 0.5166168212890625, 1.6561784744262695, 2.7957401275634766, 3.9353017807006836, 5.074863433837891, 6.214425086975098, 7.353986740112305, 8.493548393249512, 9.633110046386719, 10.772671699523926, 11.912233352661133, 13.05179500579834, 14.191356658935547, 15.330918312072754, 16.47047996520996, 17.610042572021484, 18.749603271484375, 19.889163970947266, 21.02872657775879, 22.168289184570312, 23.307849884033203, 24.447410583496094, 25.586973190307617, 26.72653579711914, 27.86609649658203, 29.005657196044922, 30.145219802856445, 31.28478240966797, 32.42434310913086, 33.56390380859375, 34.703468322753906, 35.8430290222168, 36.98258972167969]}, "gradients/graph_3conv.16.bias": {"_type": "histogram", "values": [1.0, 0.0, 0.0, 0.0, 0.0, 0.0, 0.0, 0.0, 1.0, 0.0, 0.0, 0.0, 2.0, 0.0, 0.0, 3.0, 1.0, 1.0, 2.0, 0.0, 4.0, 3.0, 7.0, 2.0, 5.0, 2.0, 8.0, 9.0, 9.0, 10.0, 17.0, 8.0, 5.0, 13.0, 6.0, 12.0, 9.0, 12.0, 8.0, 9.0, 8.0, 5.0, 12.0, 8.0, 5.0, 5.0, 6.0, 3.0, 3.0, 5.0, 7.0, 3.0, 0.0, 1.0, 2.0, 2.0, 1.0, 3.0, 2.0, 0.0, 1.0, 3.0, 0.0, 2.0], "bins": [-47.67416763305664, -46.376075744628906, -45.077980041503906, -43.77988815307617, -42.48179626464844, -41.18370056152344, -39.8856086730957, -38.58751678466797, -37.28942108154297, -35.991329193115234, -34.693233489990234, -33.3951416015625, -32.097049713134766, -30.7989559173584, -29.50086212158203, -28.202770233154297, -26.904678344726562, -25.606584548950195, -24.30849266052246, -23.010398864746094, -21.71230697631836, -20.414213180541992, -19.116119384765625, -17.81802749633789, -16.519933700561523, -15.221840858459473, -13.923748016357422, -12.625654220581055, -11.327561378479004, -10.029468536376953, -8.731374740600586, -7.433281898498535, -6.135185241699219, -4.837092399597168, -3.538999080657959, -2.240906000137329, -0.9428129196166992, 0.35527992248535156, 1.6533732414245605, 2.9514665603637695, 4.24955940246582, 5.547652244567871, 6.84574556350708, 8.143838882446289, 9.44193172454834, 10.74002456665039, 12.038118362426758, 13.336211204528809, 14.63430404663086, 15.93239688873291, 17.23048973083496, 18.528583526611328, 19.826675415039062, 21.12476921081543, 22.422863006591797, 23.72095489501953, 25.0190486907959, 26.317142486572266, 27.615234375, 28.913328170776367, 30.211421966552734, 31.50951385498047, 32.8076057434082, 34.1057014465332, 35.40379333496094]}, "gradients/graph_3conv.15.weight": {"_type": "histogram", "values": [1.0, 0.0, 2.0, 2.0, 3.0, 1.0, 10.0, 3.0, 12.0, 17.0, 22.0, 25.0, 45.0, 81.0, 102.0, 166.0, 256.0, 361.0, 568.0, 833.0, 1369.0, 2044.0, 3269.0, 5490.0, 8906.0, 14841.0, 24359.0, 41965.0, 71579.0, 106973.0, 95948.0, 55923.0, 32093.0, 19392.0, 12135.0, 7881.0, 5117.0, 3606.0, 2419.0, 1745.0, 1225.0, 852.0, 670.0, 492.0, 340.0, 300.0, 200.0, 171.0, 122.0, 98.0, 62.0, 51.0, 34.0, 39.0, 16.0, 21.0, 9.0, 6.0, 5.0, 5.0, 0.0, 1.0, 4.0, 1.0], "bins": [-5.6875, -5.495361328125, -5.30322265625, -5.111083984375, -4.9189453125, -4.726806640625, -4.53466796875, -4.342529296875, -4.150390625, -3.958251953125, -3.76611328125, -3.573974609375, -3.3818359375, -3.189697265625, -2.99755859375, -2.805419921875, -2.61328125, -2.421142578125, -2.22900390625, -2.036865234375, -1.8447265625, -1.652587890625, -1.46044921875, -1.268310546875, -1.076171875, -0.884033203125, -0.69189453125, -0.499755859375, -0.3076171875, -0.115478515625, 0.07666015625, 0.268798828125, 0.4609375, 0.653076171875, 0.84521484375, 1.037353515625, 1.2294921875, 1.421630859375, 1.61376953125, 1.805908203125, 1.998046875, 2.190185546875, 2.38232421875, 2.574462890625, 2.7666015625, 2.958740234375, 3.15087890625, 3.343017578125, 3.53515625, 3.727294921875, 3.91943359375, 4.111572265625, 4.3037109375, 4.495849609375, 4.68798828125, 4.880126953125, 5.072265625, 5.264404296875, 5.45654296875, 5.648681640625, 5.8408203125, 6.032958984375, 6.22509765625, 6.417236328125, 6.609375]}, "gradients/graph_3conv.13.weight": {"_type": "histogram", "values": [1.0, 0.0, 0.0, 2.0, 0.0, 0.0, 0.0, 1.0, 0.0, 0.0, 1.0, 0.0, 0.0, 1.0, 0.0, 0.0, 1.0, 1.0, 2.0, 3.0, 0.0, 2.0, 2.0, 3.0, 2.0, 1.0, 2.0, 3.0, 2.0, 4.0, 3.0, 3.0, 7.0, 11.0, 3.0, 2.0, 6.0, 3.0, 5.0, 1.0, 2.0, 1.0, 3.0, 1.0, 2.0, 3.0, 3.0, 3.0, 1.0, 2.0, 1.0, 4.0, 4.0, 1.0, 3.0, 0.0, 2.0, 3.0, 1.0, 4.0, 1.0, 1.0, 3.0, 1.0], "bins": [-26.032907485961914, -25.350831985473633, -24.66875457763672, -23.986679077148438, -23.304603576660156, -22.622528076171875, -21.94045066833496, -21.25837516784668, -20.5762996673584, -19.894224166870117, -19.212146759033203, -18.530071258544922, -17.84799575805664, -17.16592025756836, -16.483842849731445, -15.801767349243164, -15.119690895080566, -14.437614440917969, -13.755538940429688, -13.07346248626709, -12.391386985778809, -11.709310531616211, -11.02723503112793, -10.345158576965332, -9.663082122802734, -8.981005668640137, -8.298930168151855, -7.616853713989258, -6.934778213500977, -6.252701759338379, -5.5706257820129395, -4.8885498046875, -4.206474304199219, -3.5243983268737793, -2.84232234954834, -2.1602461338043213, -1.4781701564788818, -0.7960941791534424, -0.11401796340942383, 0.5680580139160156, 1.250133991241455, 1.9322099685668945, 2.614285945892334, 3.2963621616363525, 3.978438138961792, 4.660513877868652, 5.34259033203125, 6.0246663093566895, 6.706742286682129, 7.388818264007568, 8.070894241333008, 8.752970695495605, 9.435046195983887, 10.117122650146484, 10.799198150634766, 11.481274604797363, 12.163351058959961, 12.845427513122559, 13.52750301361084, 14.209579467773438, 14.891654968261719, 15.573731422424316, 16.255807876586914, 16.937883377075195, 17.619958877563477]}, "gradients/graph_3conv.13.bias": {"_type": "histogram", "values": [1.0, 0.0, 0.0, 0.0, 0.0, 0.0, 1.0, 4.0, 2.0, 1.0, 2.0, 3.0, 0.0, 1.0, 4.0, 3.0, 6.0, 2.0, 2.0, 3.0, 4.0, 5.0, 8.0, 3.0, 6.0, 0.0, 5.0, 3.0, 6.0, 3.0, 2.0, 4.0, 6.0, 4.0, 3.0, 3.0, 1.0, 3.0, 1.0, 1.0, 2.0, 1.0, 0.0, 3.0, 2.0, 0.0, 1.0, 3.0, 3.0, 0.0, 1.0, 2.0, 0.0, 0.0, 0.0, 0.0, 0.0, 0.0, 0.0, 1.0, 1.0, 1.0, 0.0, 1.0], "bins": [-21.374052047729492, -20.761030197143555, -20.14801025390625, -19.534988403320312, -18.921966552734375, -18.308944702148438, -17.6959228515625, -17.082902908325195, -16.469881057739258, -15.85685920715332, -15.2438383102417, -14.630817413330078, -14.01779556274414, -13.404773712158203, -12.791752815246582, -12.178731918334961, -11.565710067749023, -10.952688217163086, -10.339667320251465, -9.726646423339844, -9.113624572753906, -8.500602722167969, -7.887581825256348, -7.274560451507568, -6.661539077758789, -6.04851770401001, -5.4354963302612305, -4.822474956512451, -4.209453582763672, -3.5964322090148926, -2.9834108352661133, -2.370389461517334, -1.7573699951171875, -1.1443486213684082, -0.5313272476196289, 0.08169412612915039, 0.6947154998779297, 1.307736873626709, 1.9207582473754883, 2.5337796211242676, 3.146800994873047, 3.759822368621826, 4.3728437423706055, 4.985865116119385, 5.598886489868164, 6.211907863616943, 6.824929237365723, 7.437950611114502, 8.050971984863281, 8.663993835449219, 9.27701473236084, 9.890035629272461, 10.503057479858398, 11.116079330444336, 11.729100227355957, 12.342121124267578, 12.955142974853516, 13.568164825439453, 14.181185722351074, 14.794206619262695, 15.407228469848633, 16.02025032043457, 16.633270263671875, 17.246292114257812, 17.85931396484375]}, "gradients/graph_3conv.12.weight": {"_type": "histogram", "values": [1.0, 0.0, 1.0, 0.0, 1.0, 3.0, 2.0, 5.0, 5.0, 5.0, 7.0, 18.0, 16.0, 14.0, 35.0, 61.0, 93.0, 103.0, 150.0, 222.0, 350.0, 519.0, 741.0, 1183.0, 2053.0, 2987.0, 4522.0, 7747.0, 14489.0, 23743.0, 26761.0, 19465.0, 9988.0, 5738.0, 3598.0, 2260.0, 1314.0, 911.0, 584.0, 394.0, 267.0, 194.0, 142.0, 103.0, 62.0, 48.0, 36.0, 39.0, 14.0, 20.0, 16.0, 4.0, 8.0, 8.0, 5.0, 6.0, 2.0, 2.0, 2.0, 0.0, 1.0, 1.0, 0.0, 3.0], "bins": [-10.203125, -9.8631591796875, -9.523193359375, -9.1832275390625, -8.84326171875, -8.5032958984375, -8.163330078125, -7.8233642578125, -7.4833984375, -7.1434326171875, -6.803466796875, -6.4635009765625, -6.12353515625, -5.7835693359375, -5.443603515625, -5.1036376953125, -4.763671875, -4.4237060546875, -4.083740234375, -3.7437744140625, -3.40380859375, -3.0638427734375, -2.723876953125, -2.3839111328125, -2.0439453125, -1.7039794921875, -1.364013671875, -1.0240478515625, -0.68408203125, -0.3441162109375, -0.004150390625, 0.3358154296875, 0.67578125, 1.0157470703125, 1.355712890625, 1.6956787109375, 2.03564453125, 2.3756103515625, 2.715576171875, 3.0555419921875, 3.3955078125, 3.7354736328125, 4.075439453125, 4.4154052734375, 4.75537109375, 5.0953369140625, 5.435302734375, 5.7752685546875, 6.115234375, 6.4552001953125, 6.795166015625, 7.1351318359375, 7.47509765625, 7.8150634765625, 8.155029296875, 8.4949951171875, 8.8349609375, 9.1749267578125, 9.514892578125, 9.8548583984375, 10.19482421875, 10.5347900390625, 10.874755859375, 11.2147216796875, 11.5546875]}, "gradients/graph_3conv.10.weight": {"_type": "histogram", "values": [1.0, 0.0, 0.0, 0.0, 0.0, 0.0, 1.0, 0.0, 0.0, 1.0, 1.0, 2.0, 3.0, 0.0, 2.0, 0.0, 0.0, 0.0, 2.0, 1.0, 1.0, 0.0, 0.0, 0.0, 0.0, 0.0, 1.0, 0.0, 0.0, 2.0, 3.0, 3.0, 2.0, 1.0, 2.0, 3.0, 1.0, 0.0, 2.0, 1.0, 3.0, 3.0, 1.0, 4.0, 2.0, 2.0, 1.0, 2.0, 4.0, 2.0, 1.0, 0.0, 0.0, 1.0, 0.0, 0.0, 1.0, 0.0, 0.0, 0.0, 0.0, 0.0, 0.0, 1.0], "bins": [-36.82037353515625, -35.721397399902344, -34.6224250793457, -33.5234489440918, -32.424476623535156, -31.32550048828125, -30.226524353027344, -29.12755012512207, -28.028575897216797, -26.929601669311523, -25.83062744140625, -24.731651306152344, -23.63267707824707, -22.533702850341797, -21.43472671508789, -20.335752487182617, -19.236778259277344, -18.13780403137207, -17.038829803466797, -15.93985366821289, -14.840879440307617, -13.741905212402344, -12.642930030822754, -11.543954849243164, -10.44498062133789, -9.346006393432617, -8.247031211853027, -7.148056507110596, -6.049081802368164, -4.950107097625732, -3.851132392883301, -2.752157688140869, -1.6531867980957031, -0.5542120933532715, 0.5447626113891602, 1.6437373161315918, 2.7427120208740234, 3.841686725616455, 4.940661430358887, 6.039636135101318, 7.13861083984375, 8.237585067749023, 9.336560249328613, 10.435535430908203, 11.534509658813477, 12.63348388671875, 13.73245906829834, 14.83143424987793, 15.930408477783203, 17.029382705688477, 18.12835693359375, 19.227333068847656, 20.32630729675293, 21.425281524658203, 22.52425765991211, 23.623231887817383, 24.722206115722656, 25.82118034362793, 26.920154571533203, 28.01913070678711, 29.118104934692383, 30.217079162597656, 31.316055297851562, 32.4150276184082, 33.51400375366211]}, "gradients/graph_3conv.10.bias": {"_type": "histogram", "values": [1.0, 0.0, 0.0, 0.0, 0.0, 1.0, 1.0, 0.0, 0.0, 2.0, 1.0, 0.0, 2.0, 0.0, 5.0, 2.0, 4.0, 0.0, 1.0, 2.0, 0.0, 3.0, 3.0, 0.0, 2.0, 1.0, 4.0, 3.0, 3.0, 2.0, 2.0, 1.0, 2.0, 3.0, 0.0, 1.0, 1.0, 0.0, 0.0, 0.0, 2.0, 1.0, 2.0, 1.0, 0.0, 1.0, 1.0, 0.0, 0.0, 1.0, 0.0, 0.0, 0.0, 1.0, 0.0, 0.0, 0.0, 0.0, 0.0, 0.0, 0.0, 0.0, 0.0, 1.0], "bins": [-29.872438430786133, -29.225465774536133, -28.578495025634766, -27.931522369384766, -27.284549713134766, -26.6375789642334, -25.9906063079834, -25.34363555908203, -24.69666290283203, -24.04969024658203, -23.402719497680664, -22.755746841430664, -22.108776092529297, -21.461803436279297, -20.814830780029297, -20.167858123779297, -19.52088737487793, -18.87391471862793, -18.226943969726562, -17.579971313476562, -16.932998657226562, -16.286027908325195, -15.639055252075195, -14.992083549499512, -14.345111846923828, -13.698140144348145, -13.051168441772461, -12.404195785522461, -11.757224082946777, -11.110252380371094, -10.463279724121094, -9.81630802154541, -9.169337272644043, -8.52236557006836, -7.875393390655518, -7.228421211242676, -6.581449508666992, -5.934477806091309, -5.287505626678467, -4.640533447265625, -3.9935617446899414, -3.3465898036956787, -2.699617862701416, -2.0526459217071533, -1.4056739807128906, -0.7587020397186279, -0.11173009872436523, 0.5352420806884766, 1.1822137832641602, 1.8291857242584229, 2.4761576652526855, 3.1231296062469482, 3.770101547241211, 4.4170732498168945, 5.064045429229736, 5.711017608642578, 6.357989311218262, 7.004961013793945, 7.651933193206787, 8.298905372619629, 8.945877075195312, 9.592848777770996, 10.23982048034668, 10.88679313659668, 11.533764839172363]}, "gradients/graph_3conv.9.weight": {"_type": "histogram", "values": [1.0, 1.0, 2.0, 1.0, 0.0, 3.0, 2.0, 0.0, 2.0, 1.0, 7.0, 5.0, 6.0, 15.0, 21.0, 25.0, 28.0, 37.0, 47.0, 56.0, 93.0, 150.0, 163.0, 237.0, 342.0, 378.0, 625.0, 1146.0, 2207.0, 3157.0, 3714.0, 3601.0, 3699.0, 3633.0, 2957.0, 1726.0, 1177.0, 887.0, 615.0, 434.0, 306.0, 262.0, 196.0, 169.0, 116.0, 93.0, 79.0, 70.0, 55.0, 51.0, 40.0, 29.0, 28.0, 18.0, 15.0, 7.0, 8.0, 8.0, 4.0, 7.0, 2.0, 2.0, 1.0, 1.0], "bins": [-11.0234375, -10.6685791015625, -10.313720703125, -9.9588623046875, -9.60400390625, -9.2491455078125, -8.894287109375, -8.5394287109375, -8.1845703125, -7.8297119140625, -7.474853515625, -7.1199951171875, -6.76513671875, -6.4102783203125, -6.055419921875, -5.7005615234375, -5.345703125, -4.9908447265625, -4.635986328125, -4.2811279296875, -3.92626953125, -3.5714111328125, -3.216552734375, -2.8616943359375, -2.5068359375, -2.1519775390625, -1.797119140625, -1.4422607421875, -1.08740234375, -0.7325439453125, -0.377685546875, -0.0228271484375, 0.33203125, 0.6868896484375, 1.041748046875, 1.3966064453125, 1.75146484375, 2.1063232421875, 2.461181640625, 2.8160400390625, 3.1708984375, 3.5257568359375, 3.880615234375, 4.2354736328125, 4.59033203125, 4.9451904296875, 5.300048828125, 5.6549072265625, 6.009765625, 6.3646240234375, 6.719482421875, 7.0743408203125, 7.42919921875, 7.7840576171875, 8.138916015625, 8.4937744140625, 8.8486328125, 9.2034912109375, 9.558349609375, 9.9132080078125, 10.26806640625, 10.6229248046875, 10.977783203125, 11.3326416015625, 11.6875]}, "gradients/graph_3conv.7.weight": {"_type": "histogram", "values": [2.0, 0.0, 0.0, 0.0, 0.0, 1.0, 0.0, 1.0, 0.0, 0.0, 0.0, 0.0, 0.0, 1.0, 0.0, 0.0, 0.0, 0.0, 0.0, 1.0, 0.0, 0.0, 0.0, 0.0, 0.0, 0.0, 0.0, 0.0, 0.0, 0.0, 0.0, 0.0, 0.0, 0.0, 0.0, 1.0, 1.0, 0.0, 1.0, 2.0, 1.0, 1.0, 0.0, 1.0, 1.0, 2.0, 1.0, 2.0, 1.0, 2.0, 0.0, 1.0, 2.0, 0.0, 0.0, 0.0, 1.0, 2.0, 1.0, 0.0, 0.0, 0.0, 1.0, 1.0], "bins": [-46.663299560546875, -45.462833404541016, -44.262367248535156, -43.06189727783203, -41.86143112182617, -40.66096496582031, -39.46049880981445, -38.260032653808594, -37.059566497802734, -35.859100341796875, -34.658634185791016, -33.458168029785156, -32.25769805908203, -31.057231903076172, -29.856765747070312, -28.656299591064453, -27.45583152770996, -26.2553653717041, -25.05489730834961, -23.85443115234375, -22.65396499633789, -21.45349884033203, -20.25303077697754, -19.05256462097168, -17.852096557617188, -16.651630401611328, -15.451163291931152, -14.250696182250977, -13.050230026245117, -11.849762916564941, -10.649295806884766, -9.448829650878906, -8.248363494873047, -7.047896862030029, -5.847430229187012, -4.646963119506836, -3.4464964866638184, -2.246029853820801, -1.045562744140625, 0.15490341186523438, 1.3553705215454102, 2.5558371543884277, 3.7563040256500244, 4.956770896911621, 6.157237529754639, 7.357704162597656, 8.558171272277832, 9.758637428283691, 10.959104537963867, 12.159571647644043, 13.360037803649902, 14.560504913330078, 15.760971069335938, 16.961437225341797, 18.16190528869629, 19.36237144470215, 20.56283950805664, 21.7633056640625, 22.963773727416992, 24.16423988342285, 25.36470603942871, 26.565174102783203, 27.765640258789062, 28.966106414794922, 30.16657257080078]}, "gradients/graph_3conv.7.bias": {"_type": "histogram", "values": [1.0, 0.0, 0.0, 0.0, 1.0, 0.0, 1.0, 1.0, 3.0, 0.0, 2.0, 2.0, 0.0, 1.0, 0.0, 1.0, 1.0, 0.0, 3.0, 1.0, 3.0, 1.0, 0.0, 0.0, 0.0, 1.0, 0.0, 1.0, 0.0, 1.0, 0.0, 0.0, 2.0, 0.0, 0.0, 0.0, 0.0, 0.0, 0.0, 0.0, 0.0, 0.0, 0.0, 1.0, 0.0, 0.0, 0.0, 0.0, 1.0, 1.0, 0.0, 0.0, 0.0, 0.0, 0.0, 0.0, 0.0, 0.0, 0.0, 0.0, 0.0, 1.0, 0.0, 1.0], "bins": [-36.777931213378906, -35.91991424560547, -35.06189727783203, -34.203880310058594, -33.34585952758789, -32.48784255981445, -31.629825592041016, -30.771808624267578, -29.91379165649414, -29.055774688720703, -28.197755813598633, -27.339738845825195, -26.481721878051758, -25.623703002929688, -24.76568603515625, -23.907669067382812, -23.049650192260742, -22.191633224487305, -21.333614349365234, -20.475597381591797, -19.61758041381836, -18.759563446044922, -17.90154457092285, -17.043527603149414, -16.185508728027344, -15.32749080657959, -14.469473838806152, -13.611455917358398, -12.753438949584961, -11.895421028137207, -11.037403106689453, -10.179386138916016, -9.321369171142578, -8.463351249694824, -7.605334281921387, -6.747316360473633, -5.889298915863037, -5.031281471252441, -4.1732635498046875, -3.315246105194092, -2.457228660583496, -1.5992110967636108, -0.7411935329437256, 0.11682415008544922, 0.9748415946960449, 1.8328590393066406, 2.6908769607543945, 3.5488944053649902, 4.406911849975586, 5.264929294586182, 6.122946739196777, 6.980964660644531, 7.838982105255127, 8.696999549865723, 9.555017471313477, 10.413034439086914, 11.271052360534668, 12.129070281982422, 12.98708724975586, 13.845105171203613, 14.703123092651367, 15.561140060424805, 16.419158935546875, 17.277175903320312, 18.13519287109375]}, "gradients/graph_3conv.6.weight": {"_type": "histogram", "values": [4.0, 3.0, 8.0, 10.0, 11.0, 13.0, 14.0, 32.0, 13.0, 15.0, 20.0, 27.0, 24.0, 24.0, 40.0, 55.0, 76.0, 103.0, 153.0, 205.0, 231.0, 269.0, 275.0, 286.0, 330.0, 331.0, 328.0, 371.0, 410.0, 378.0, 380.0, 427.0, 479.0, 459.0, 442.0, 428.0, 346.0, 226.0, 187.0, 124.0, 76.0, 88.0, 67.0, 55.0, 56.0, 45.0, 36.0, 30.0, 31.0, 22.0, 33.0, 21.0, 14.0, 12.0, 10.0, 16.0, 14.0, 4.0, 0.0, 1.0, 1.0, 1.0, 1.0, 1.0], "bins": [-11.546875, -11.1265869140625, -10.706298828125, -10.2860107421875, -9.86572265625, -9.4454345703125, -9.025146484375, -8.6048583984375, -8.1845703125, -7.7642822265625, -7.343994140625, -6.9237060546875, -6.50341796875, -6.0831298828125, -5.662841796875, -5.2425537109375, -4.822265625, -4.4019775390625, -3.981689453125, -3.5614013671875, -3.14111328125, -2.7208251953125, -2.300537109375, -1.8802490234375, -1.4599609375, -1.0396728515625, -0.619384765625, -0.1990966796875, 0.22119140625, 0.6414794921875, 1.061767578125, 1.4820556640625, 1.90234375, 2.3226318359375, 2.742919921875, 3.1632080078125, 3.58349609375, 4.0037841796875, 4.424072265625, 4.8443603515625, 5.2646484375, 5.6849365234375, 6.105224609375, 6.5255126953125, 6.94580078125, 7.3660888671875, 7.786376953125, 8.2066650390625, 8.626953125, 9.0472412109375, 9.467529296875, 9.8878173828125, 10.30810546875, 10.7283935546875, 11.148681640625, 11.5689697265625, 11.9892578125, 12.4095458984375, 12.829833984375, 13.2501220703125, 13.67041015625, 14.0906982421875, 14.510986328125, 14.9312744140625, 15.3515625]}, "gradients/graph_3conv.4.weight": {"_type": "histogram", "values": [1.0, 0.0, 1.0, 0.0, 0.0, 0.0, 0.0, 0.0, 0.0, 1.0, 1.0, 0.0, 0.0, 0.0, 0.0, 0.0, 0.0, 1.0, 0.0, 0.0, 0.0, 0.0, 0.0, 0.0, 0.0, 0.0, 0.0, 0.0, 0.0, 0.0, 0.0, 2.0, 0.0, 0.0, 0.0, 0.0, 2.0, 0.0, 0.0, 0.0, 0.0, 1.0, 0.0, 1.0, 0.0, 1.0, 0.0, 1.0, 0.0, 0.0, 1.0, 1.0, 0.0, 0.0, 0.0, 0.0, 0.0, 0.0, 0.0, 0.0, 0.0, 0.0, 0.0, 1.0], "bins": [-63.27763748168945, -61.2332763671875, -59.18891143798828, -57.14455032348633, -55.100189208984375, -53.05582809448242, -51.01146697998047, -48.96710205078125, -46.9227409362793, -44.878379821777344, -42.834014892578125, -40.78965377807617, -38.74529266357422, -36.700931549072266, -34.65657043457031, -32.612205505371094, -30.56784439086914, -28.523483276367188, -26.4791202545166, -24.434757232666016, -22.390396118164062, -20.34603500366211, -18.301671981811523, -16.257308959960938, -14.212947845458984, -12.168585777282715, -10.124223709106445, -8.079861640930176, -6.035499572753906, -3.9911375045776367, -1.9467754364013672, 0.09758663177490234, 2.1419525146484375, 4.186314582824707, 6.230676651000977, 8.275038719177246, 10.319400787353516, 12.363762855529785, 14.408124923706055, 16.45248794555664, 18.496849060058594, 20.541210174560547, 22.585573196411133, 24.62993621826172, 26.674297332763672, 28.718658447265625, 30.76302146911621, 32.8073844909668, 34.85174560546875, 36.8961067199707, 38.940467834472656, 40.984832763671875, 43.02919387817383, 45.07355499267578, 47.117919921875, 49.16228103637695, 51.206642150878906, 53.25100326538086, 55.29536437988281, 57.33972930908203, 59.384090423583984, 61.42845153808594, 63.472816467285156, 65.51717376708984, 67.56153869628906]}, "gradients/graph_3conv.4.bias": {"_type": "histogram", "values": [1.0, 0.0, 0.0, 0.0, 0.0, 0.0, 0.0, 0.0, 0.0, 1.0, 1.0, 0.0, 1.0, 0.0, 0.0, 0.0, 2.0, 0.0, 0.0, 0.0, 0.0, 0.0, 1.0, 0.0, 1.0, 1.0, 1.0, 0.0, 0.0, 1.0, 0.0, 1.0, 1.0, 0.0, 0.0, 0.0, 0.0, 0.0, 0.0, 0.0, 0.0, 1.0, 0.0, 0.0, 0.0, 0.0, 0.0, 0.0, 0.0, 0.0, 0.0, 0.0, 0.0, 0.0, 0.0, 0.0, 1.0, 0.0, 0.0, 0.0, 0.0, 0.0, 0.0, 1.0], "bins": [-61.73450469970703, -60.7258415222168, -59.71717834472656, -58.708518981933594, -57.69985580444336, -56.691192626953125, -55.682533264160156, -54.67387008666992, -53.66520690917969, -52.65654373168945, -51.64788055419922, -50.63922119140625, -49.630558013916016, -48.62189483642578, -47.61323547363281, -46.60457229614258, -45.595909118652344, -44.58724594116211, -43.578582763671875, -42.569923400878906, -41.56126022338867, -40.55259704589844, -39.54393768310547, -38.535274505615234, -37.526611328125, -36.517948150634766, -35.50928497314453, -34.50062561035156, -33.49196243286133, -32.483299255371094, -31.474637985229492, -30.46597671508789, -29.45731544494629, -28.448654174804688, -27.439990997314453, -26.43132781982422, -25.422666549682617, -24.414005279541016, -23.40534210205078, -22.396678924560547, -21.388017654418945, -20.379356384277344, -19.37069320678711, -18.362030029296875, -17.353368759155273, -16.344707489013672, -15.336044311523438, -14.32738208770752, -13.318719863891602, -12.310057640075684, -11.301395416259766, -10.292733192443848, -9.28407096862793, -8.275408744812012, -7.266746520996094, -6.258084297180176, -5.2494215965271, -4.240759372711182, -3.2320971488952637, -2.2234349250793457, -1.2147727012634277, -0.20611047744750977, 0.8025517463684082, 1.8112139701843262, 2.819876194000244]}, "gradients/graph_3conv.3.weight": {"_type": "histogram", "values": [3.0, 12.0, 9.0, 12.0, 13.0, 15.0, 21.0, 16.0, 25.0, 26.0, 45.0, 44.0, 43.0, 51.0, 59.0, 44.0, 52.0, 73.0, 75.0, 49.0, 35.0, 40.0, 41.0, 51.0, 37.0, 40.0, 67.0, 47.0, 57.0, 66.0, 64.0, 50.0, 48.0, 77.0, 116.0, 125.0, 98.0, 47.0, 27.0, 20.0, 17.0, 20.0, 15.0, 23.0, 10.0, 12.0, 14.0, 11.0, 5.0, 12.0, 10.0, 7.0, 14.0, 9.0, 4.0, 7.0, 2.0, 2.0, 1.0, 7.0, 1.0, 2.0, 1.0, 2.0], "bins": [-18.15625, -17.27001953125, -16.3837890625, -15.49755859375, -14.611328125, -13.72509765625, -12.8388671875, -11.95263671875, -11.06640625, -10.18017578125, -9.2939453125, -8.40771484375, -7.521484375, -6.63525390625, -5.7490234375, -4.86279296875, -3.9765625, -3.09033203125, -2.2041015625, -1.31787109375, -0.431640625, 0.45458984375, 1.3408203125, 2.22705078125, 3.11328125, 3.99951171875, 4.8857421875, 5.77197265625, 6.658203125, 7.54443359375, 8.4306640625, 9.31689453125, 10.203125, 11.08935546875, 11.9755859375, 12.86181640625, 13.748046875, 14.63427734375, 15.5205078125, 16.40673828125, 17.29296875, 18.17919921875, 19.0654296875, 19.95166015625, 20.837890625, 21.72412109375, 22.6103515625, 23.49658203125, 24.3828125, 25.26904296875, 26.1552734375, 27.04150390625, 27.927734375, 28.81396484375, 29.7001953125, 30.58642578125, 31.47265625, 32.35888671875, 33.2451171875, 34.13134765625, 35.017578125, 35.90380859375, 36.7900390625, 37.67626953125, 38.5625]}, "gradients/graph_3conv.1.weight": {"_type": "histogram", "values": [1.0, 0.0, 0.0, 1.0, 0.0, 0.0, 1.0, 0.0, 0.0, 1.0, 0.0, 0.0, 0.0, 0.0, 0.0, 0.0, 0.0, 0.0, 0.0, 0.0, 0.0, 0.0, 0.0, 0.0, 0.0, 0.0, 0.0, 0.0, 1.0, 0.0, 0.0, 0.0, 0.0, 0.0, 0.0, 0.0, 0.0, 0.0, 0.0, 0.0, 0.0, 1.0, 0.0, 0.0, 0.0, 0.0, 0.0, 0.0, 0.0, 0.0, 0.0, 0.0, 0.0, 0.0, 0.0, 0.0, 0.0, 0.0, 0.0, 0.0, 0.0, 1.0, 0.0, 1.0], "bins": [-87.25877380371094, -83.90164184570312, -80.54450988769531, -77.1873779296875, -73.83025360107422, -70.4731216430664, -67.1159896850586, -63.75885772705078, -60.401729583740234, -57.04459762573242, -53.687469482421875, -50.33033752441406, -46.97320556640625, -43.6160774230957, -40.25894546508789, -36.901817321777344, -33.54468536376953, -30.18755531311035, -26.830425262451172, -23.47329330444336, -20.11616325378418, -16.759033203125, -13.401901245117188, -10.044771194458008, -6.687641143798828, -3.3305106163024902, 0.026619911193847656, 3.3837509155273438, 6.740880966186523, 10.098011016845703, 13.455142974853516, 16.812273025512695, 20.169403076171875, 23.526533126831055, 26.883663177490234, 30.240795135498047, 33.597923278808594, 36.955055236816406, 40.31218719482422, 43.66931915283203, 47.02644729614258, 50.38357925415039, 53.74070739746094, 57.09783935546875, 60.45497131347656, 63.81209945678711, 67.16923522949219, 70.52635955810547, 73.88349151611328, 77.2406234741211, 80.5977554321289, 83.95487976074219, 87.31201171875, 90.66914367675781, 94.02627563476562, 97.38340759277344, 100.74053955078125, 104.09767150878906, 107.45480346679688, 110.81193542480469, 114.16905975341797, 117.52619171142578, 120.8833236694336, 124.2404556274414, 127.59757995605469]}, "gradients/graph_3conv.1.bias": {"_type": "histogram", "values": [1.0, 0.0, 0.0, 0.0, 0.0, 0.0, 0.0, 0.0, 0.0, 0.0, 0.0, 0.0, 0.0, 0.0, 1.0, 0.0, 0.0, 0.0, 0.0, 0.0, 0.0, 0.0, 0.0, 0.0, 0.0, 0.0, 0.0, 0.0, 0.0, 1.0, 0.0, 0.0, 0.0, 0.0, 0.0, 0.0, 0.0, 0.0, 0.0, 0.0, 0.0, 0.0, 0.0, 0.0, 1.0, 1.0, 0.0, 1.0, 0.0, 0.0, 0.0, 1.0, 0.0, 0.0, 0.0, 0.0, 0.0, 0.0, 0.0, 0.0, 0.0, 0.0, 0.0, 1.0], "bins": [-194.49790954589844, -191.3009490966797, -188.10397338867188, -184.90701293945312, -181.71005249023438, -178.51307678222656, -175.3161163330078, -172.11915588378906, -168.92218017578125, -165.7252197265625, -162.5282440185547, -159.33128356933594, -156.1343231201172, -152.93734741210938, -149.74038696289062, -146.54342651367188, -143.34646606445312, -140.14950561523438, -136.95252990722656, -133.7555694580078, -130.55860900878906, -127.36164093017578, -124.1646728515625, -120.96771240234375, -117.77073669433594, -114.57376861572266, -111.3768081665039, -108.17984008789062, -104.98287200927734, -101.7859115600586, -98.58894348144531, -95.39198303222656, -92.19502258300781, -88.99805450439453, -85.80109405517578, -82.6041259765625, -79.40715789794922, -76.21019744873047, -73.01322937011719, -69.81626892089844, -66.61929321289062, -63.42232894897461, -60.22536087036133, -57.02839660644531, -53.8314323425293, -50.63446807861328, -47.4375, -44.240535736083984, -41.04357147216797, -37.84660720825195, -34.64963912963867, -31.452674865722656, -28.25571060180664, -25.058744430541992, -21.861778259277344, -18.664813995361328, -15.467848777770996, -12.270883560180664, -9.073917388916016, -5.876952171325684, -2.6799869537353516, 0.5169782638549805, 3.713944435119629, 6.9109086990356445, 10.107874870300293]}, "gradients/graph_3conv.0.weight": {"_type": "histogram", "values": [4.0, 1.0, 3.0, 0.0, 1.0, 3.0, 1.0, 0.0, 3.0, 0.0, 0.0, 1.0, 3.0, 0.0, 1.0, 3.0, 1.0, 0.0, 5.0, 2.0, 4.0, 1.0, 3.0, 0.0, 0.0, 3.0, 1.0, 0.0, 2.0, 2.0, 0.0, 3.0, 8.0, 24.0, 34.0, 32.0, 39.0, 45.0, 31.0, 25.0, 11.0, 12.0, 13.0, 6.0, 3.0, 6.0, 4.0, 4.0, 5.0, 4.0, 1.0, 4.0, 3.0, 4.0, 1.0, 1.0, 2.0, 1.0, 2.0, 1.0, 0.0, 3.0, 1.0, 3.0], "bins": [-86.875, -84.5048828125, -82.134765625, -79.7646484375, -77.39453125, -75.0244140625, -72.654296875, -70.2841796875, -67.9140625, -65.5439453125, -63.173828125, -60.8037109375, -58.43359375, -56.0634765625, -53.693359375, -51.3232421875, -48.953125, -46.5830078125, -44.212890625, -41.8427734375, -39.47265625, -37.1025390625, -34.732421875, -32.3623046875, -29.9921875, -27.6220703125, -25.251953125, -22.8818359375, -20.51171875, -18.1416015625, -15.771484375, -13.4013671875, -11.03125, -8.6611328125, -6.291015625, -3.9208984375, -1.55078125, 0.8193359375, 3.189453125, 5.5595703125, 7.9296875, 10.2998046875, 12.669921875, 15.0400390625, 17.41015625, 19.7802734375, 22.150390625, 24.5205078125, 26.890625, 29.2607421875, 31.630859375, 34.0009765625, 36.37109375, 38.7412109375, 41.111328125, 43.4814453125, 45.8515625, 48.2216796875, 50.591796875, 52.9619140625, 55.33203125, 57.7021484375, 60.072265625, 62.4423828125, 64.8125]}, "_wandb": {"runtime": 6208}}