{"observations_loss_sum/train": 1659.9195556640625, "_timestamp": 1673412032.981328, "image_hsr_256/train": 1659.9195556640625, "reward_loss/train": 0.0, "kl_loss_sum/train": 93.14057159423828, "kl_loss/train": 93.14057159423828, "predict_pose_loss/train": -7.269337177276611, "frame": 20000000, "_runtime": 10004.639123916626, "_step": 8000, "observations_loss_sum/validation": 4425.810546875, "image_hsr_256/validation": 4425.810546875, "reward_loss/validation": 0.0, "kl_loss_sum/validation": 162.92288208007812, "kl_loss/validation": 162.92288208007812, "predict_pose_loss/validation": -1.6485470533370972, "gradients/graph_4fc3.weight": {"_type": "histogram", "values": [3.0, 2.0, 1.0, 5.0, 1.0, 0.0, 2.0, 0.0, 1.0, 2.0, 3.0, 4.0, 8.0, 6.0, 5.0, 8.0, 6.0, 4.0, 6.0, 14.0, 10.0, 16.0, 24.0, 22.0, 27.0, 48.0, 47.0, 133.0, 350.0, 2428.0, 145.0, 84.0, 39.0, 19.0, 21.0, 24.0, 12.0, 7.0, 5.0, 12.0, 9.0, 3.0, 4.0, 1.0, 1.0, 2.0, 0.0, 0.0, 2.0, 1.0, 0.0, 0.0, 1.0, 1.0, 0.0, 0.0, 1.0, 2.0, 0.0, 0.0, 1.0, 0.0, 0.0, 1.0], "bins": [-41.53125, -40.11083984375, -38.6904296875, -37.27001953125, -35.849609375, -34.42919921875, -33.0087890625, -31.58837890625, -30.16796875, -28.74755859375, -27.3271484375, -25.90673828125, -24.486328125, -23.06591796875, -21.6455078125, -20.22509765625, -18.8046875, -17.38427734375, -15.9638671875, -14.54345703125, -13.123046875, -11.70263671875, -10.2822265625, -8.86181640625, -7.44140625, -6.02099609375, -4.6005859375, -3.18017578125, -1.759765625, -0.33935546875, 1.0810546875, 2.50146484375, 3.921875, 5.34228515625, 6.7626953125, 8.18310546875, 9.603515625, 11.02392578125, 12.4443359375, 13.86474609375, 15.28515625, 16.70556640625, 18.1259765625, 19.54638671875, 20.966796875, 22.38720703125, 23.8076171875, 25.22802734375, 26.6484375, 28.06884765625, 29.4892578125, 30.90966796875, 32.330078125, 33.75048828125, 35.1708984375, 36.59130859375, 38.01171875, 39.43212890625, 40.8525390625, 42.27294921875, 43.693359375, 45.11376953125, 46.5341796875, 47.95458984375, 49.375]}, "gradients/graph_4fc3.bias": {"_type": "histogram", "values": [1.0, 0.0, 0.0, 0.0, 0.0, 0.0, 0.0, 0.0, 1.0, 0.0, 0.0, 1.0, 7.0, 0.0, 0.0, 0.0, 1.0, 0.0, 0.0, 0.0, 1.0, 0.0, 0.0, 0.0, 0.0, 0.0, 1.0, 0.0, 0.0, 0.0, 0.0, 0.0, 0.0, 0.0, 0.0, 0.0, 0.0, 0.0, 0.0, 0.0, 0.0, 0.0, 0.0, 0.0, 0.0, 0.0, 0.0, 0.0, 0.0, 0.0, 0.0, 0.0, 0.0, 0.0, 0.0, 0.0, 0.0, 0.0, 0.0, 0.0, 0.0, 0.0, 0.0, 1.0], "bins": [-10.2421875, -9.4171142578125, -8.592041015625, -7.7669677734375, -6.94189453125, -6.1168212890625, -5.291748046875, -4.4666748046875, -3.6416015625, -2.8165283203125, -1.991455078125, -1.1663818359375, -0.34130859375, 0.4837646484375, 1.308837890625, 2.1339111328125, 2.958984375, 3.7840576171875, 4.609130859375, 5.4342041015625, 6.25927734375, 7.0843505859375, 7.909423828125, 8.7344970703125, 9.5595703125, 10.3846435546875, 11.209716796875, 12.0347900390625, 12.85986328125, 13.6849365234375, 14.510009765625, 15.3350830078125, 16.16015625, 16.9852294921875, 17.810302734375, 18.6353759765625, 19.46044921875, 20.2855224609375, 21.110595703125, 21.9356689453125, 22.7607421875, 23.5858154296875, 24.410888671875, 25.2359619140625, 26.06103515625, 26.8861083984375, 27.711181640625, 28.5362548828125, 29.361328125, 30.1864013671875, 31.011474609375, 31.8365478515625, 32.66162109375, 33.4866943359375, 34.311767578125, 35.1368408203125, 35.9619140625, 36.7869873046875, 37.612060546875, 38.4371337890625, 39.26220703125, 40.0872802734375, 40.912353515625, 41.7374267578125, 42.5625]}, "gradients/graph_4fc2.weight": {"_type": "histogram", "values": [2.0, 0.0, 0.0, 0.0, 0.0, 0.0, 0.0, 0.0, 0.0, 0.0, 0.0, 0.0, 0.0, 0.0, 1.0, 1.0, 2.0, 2.0, 0.0, 3.0, 2.0, 0.0, 2.0, 2.0, 4.0, 3.0, 4.0, 6.0, 6.0, 4.0, 3.0, 12.0, 9.0, 11.0, 10.0, 21.0, 28.0, 32.0, 37.0, 35.0, 61.0, 83.0, 140.0, 212.0, 443.0, 1113.0, 5719.0, 50901.0, 4420.0, 1189.0, 451.0, 249.0, 130.0, 72.0, 41.0, 30.0, 18.0, 9.0, 3.0, 2.0, 1.0, 4.0, 2.0, 1.0], "bins": [-9.125, -8.93255615234375, -8.7401123046875, -8.54766845703125, -8.355224609375, -8.16278076171875, -7.9703369140625, -7.77789306640625, -7.58544921875, -7.39300537109375, -7.2005615234375, -7.00811767578125, -6.815673828125, -6.62322998046875, -6.4307861328125, -6.23834228515625, -6.0458984375, -5.85345458984375, -5.6610107421875, -5.46856689453125, -5.276123046875, -5.08367919921875, -4.8912353515625, -4.69879150390625, -4.50634765625, -4.31390380859375, -4.1214599609375, -3.92901611328125, -3.736572265625, -3.54412841796875, -3.3516845703125, -3.15924072265625, -2.966796875, -2.77435302734375, -2.5819091796875, -2.38946533203125, -2.197021484375, -2.00457763671875, -1.8121337890625, -1.61968994140625, -1.42724609375, -1.23480224609375, -1.0423583984375, -0.84991455078125, -0.657470703125, -0.46502685546875, -0.2725830078125, -0.08013916015625, 0.1123046875, 0.30474853515625, 0.4971923828125, 0.68963623046875, 0.882080078125, 1.07452392578125, 1.2669677734375, 1.45941162109375, 1.65185546875, 1.84429931640625, 2.0367431640625, 2.22918701171875, 2.421630859375, 2.61407470703125, 2.8065185546875, 2.99896240234375, 3.19140625]}, "gradients/graph_4fc2.bias": {"_type": "histogram", "values": [1.0, 0.0, 0.0, 0.0, 1.0, 0.0, 0.0, 0.0, 0.0, 0.0, 0.0, 0.0, 1.0, 0.0, 0.0, 0.0, 0.0, 2.0, 0.0, 1.0, 0.0, 0.0, 2.0, 0.0, 3.0, 2.0, 1.0, 2.0, 0.0, 1.0, 3.0, 2.0, 3.0, 3.0, 4.0, 5.0, 3.0, 11.0, 16.0, 32.0, 57.0, 42.0, 22.0, 10.0, 4.0, 4.0, 1.0, 2.0, 3.0, 1.0, 2.0, 4.0, 1.0, 1.0, 1.0, 0.0, 1.0, 0.0, 0.0, 0.0, 0.0, 0.0, 0.0, 1.0], "bins": [-3.068359375, -2.9928741455078125, -2.917388916015625, -2.8419036865234375, -2.76641845703125, -2.6909332275390625, -2.615447998046875, -2.5399627685546875, -2.4644775390625, -2.3889923095703125, -2.313507080078125, -2.2380218505859375, -2.16253662109375, -2.0870513916015625, -2.011566162109375, -1.9360809326171875, -1.860595703125, -1.7851104736328125, -1.709625244140625, -1.6341400146484375, -1.55865478515625, -1.4831695556640625, -1.407684326171875, -1.3321990966796875, -1.2567138671875, -1.1812286376953125, -1.105743408203125, -1.0302581787109375, -0.95477294921875, -0.8792877197265625, -0.803802490234375, -0.7283172607421875, -0.65283203125, -0.5773468017578125, -0.501861572265625, -0.4263763427734375, -0.35089111328125, -0.2754058837890625, -0.199920654296875, -0.1244354248046875, -0.0489501953125, 0.0265350341796875, 0.102020263671875, 0.1775054931640625, 0.25299072265625, 0.3284759521484375, 0.403961181640625, 0.4794464111328125, 0.554931640625, 0.6304168701171875, 0.705902099609375, 0.7813873291015625, 0.85687255859375, 0.9323577880859375, 1.007843017578125, 1.0833282470703125, 1.1588134765625, 1.2342987060546875, 1.309783935546875, 1.3852691650390625, 1.46075439453125, 1.5362396240234375, 1.611724853515625, 1.6872100830078125, 1.7626953125]}, "gradients/graph_4fc1.weight": {"_type": "histogram", "values": [1.0, 0.0, 0.0, 3.0, 1.0, 1.0, 1.0, 0.0, 2.0, 4.0, 3.0, 3.0, 4.0, 3.0, 5.0, 11.0, 8.0, 15.0, 22.0, 46.0, 58.0, 48.0, 108.0, 142.0, 233.0, 328.0, 531.0, 810.0, 1631.0, 4084.0, 11426.0, 21947.0, 14265.0, 5081.0, 1998.0, 974.0, 583.0, 369.0, 222.0, 172.0, 111.0, 81.0, 51.0, 42.0, 21.0, 21.0, 14.0, 18.0, 10.0, 5.0, 6.0, 5.0, 1.0, 1.0, 3.0, 2.0, 0.0, 0.0, 0.0, 0.0, 0.0, 0.0, 0.0, 1.0], "bins": [-1.900390625, -1.8403167724609375, -1.780242919921875, -1.7201690673828125, -1.66009521484375, -1.6000213623046875, -1.539947509765625, -1.4798736572265625, -1.4197998046875, -1.3597259521484375, -1.299652099609375, -1.2395782470703125, -1.17950439453125, -1.1194305419921875, -1.059356689453125, -0.9992828369140625, -0.939208984375, -0.8791351318359375, -0.819061279296875, -0.7589874267578125, -0.69891357421875, -0.6388397216796875, -0.578765869140625, -0.5186920166015625, -0.4586181640625, -0.3985443115234375, -0.338470458984375, -0.2783966064453125, -0.21832275390625, -0.1582489013671875, -0.098175048828125, -0.0381011962890625, 0.02197265625, 0.0820465087890625, 0.142120361328125, 0.2021942138671875, 0.26226806640625, 0.3223419189453125, 0.382415771484375, 0.4424896240234375, 0.5025634765625, 0.5626373291015625, 0.622711181640625, 0.6827850341796875, 0.74285888671875, 0.8029327392578125, 0.863006591796875, 0.9230804443359375, 0.983154296875, 1.0432281494140625, 1.103302001953125, 1.1633758544921875, 1.22344970703125, 1.2835235595703125, 1.343597412109375, 1.4036712646484375, 1.4637451171875, 1.5238189697265625, 1.583892822265625, 1.6439666748046875, 1.70404052734375, 1.7641143798828125, 1.824188232421875, 1.8842620849609375, 1.9443359375]}, "gradients/graph_4fc1.bias": {"_type": "histogram", "values": [2.0, 0.0, 0.0, 1.0, 1.0, 0.0, 1.0, 0.0, 0.0, 0.0, 1.0, 0.0, 1.0, 0.0, 0.0, 1.0, 1.0, 0.0, 1.0, 2.0, 1.0, 1.0, 1.0, 3.0, 2.0, 6.0, 13.0, 18.0, 26.0, 34.0, 50.0, 29.0, 16.0, 15.0, 4.0, 3.0, 5.0, 3.0, 0.0, 3.0, 2.0, 1.0, 0.0, 0.0, 1.0, 0.0, 1.0, 1.0, 2.0, 0.0, 0.0, 0.0, 1.0, 1.0, 0.0, 0.0, 0.0, 0.0, 0.0, 0.0, 0.0, 0.0, 0.0, 1.0], "bins": [-2.318359375, -2.240875244140625, -2.16339111328125, -2.085906982421875, -2.0084228515625, -1.930938720703125, -1.85345458984375, -1.775970458984375, -1.698486328125, -1.621002197265625, -1.54351806640625, -1.466033935546875, -1.3885498046875, -1.311065673828125, -1.23358154296875, -1.156097412109375, -1.07861328125, -1.001129150390625, -0.92364501953125, -0.846160888671875, -0.7686767578125, -0.691192626953125, -0.61370849609375, -0.536224365234375, -0.458740234375, -0.381256103515625, -0.30377197265625, -0.226287841796875, -0.1488037109375, -0.071319580078125, 0.00616455078125, 0.083648681640625, 0.1611328125, 0.238616943359375, 0.31610107421875, 0.393585205078125, 0.4710693359375, 0.548553466796875, 0.62603759765625, 0.703521728515625, 0.781005859375, 0.858489990234375, 0.93597412109375, 1.013458251953125, 1.0909423828125, 1.168426513671875, 1.24591064453125, 1.323394775390625, 1.40087890625, 1.478363037109375, 1.55584716796875, 1.633331298828125, 1.7108154296875, 1.788299560546875, 1.86578369140625, 1.943267822265625, 2.020751953125, 2.098236083984375, 2.17572021484375, 2.253204345703125, 2.3306884765625, 2.408172607421875, 2.48565673828125, 2.563140869140625, 2.640625]}, "gradients/decoder.conv.15.weight": {"_type": "histogram", "values": [1.0, 2.0, 1.0, 1.0, 2.0, 0.0, 2.0, 1.0, 1.0, 1.0, 3.0, 2.0, 3.0, 3.0, 10.0, 5.0, 5.0, 2.0, 4.0, 5.0, 8.0, 7.0, 9.0, 15.0, 18.0, 46.0, 46.0, 68.0, 110.0, 119.0, 142.0, 135.0, 144.0, 88.0, 68.0, 86.0, 75.0, 82.0, 68.0, 53.0, 64.0, 59.0, 46.0, 24.0, 18.0, 13.0, 9.0, 13.0, 7.0, 4.0, 0.0, 2.0, 2.0, 3.0, 0.0, 4.0, 7.0, 2.0, 1.0, 2.0, 1.0, 5.0, 0.0, 1.0], "bins": [-825.5, -799.65625, -773.8125, -747.96875, -722.125, -696.28125, -670.4375, -644.59375, -618.75, -592.90625, -567.0625, -541.21875, -515.375, -489.53125, -463.6875, -437.84375, -412.0, -386.15625, -360.3125, -334.46875, -308.625, -282.78125, -256.9375, -231.09375, -205.25, -179.40625, -153.5625, -127.71875, -101.875, -76.03125, -50.1875, -24.34375, 1.5, 27.34375, 53.1875, 79.03125, 104.875, 130.71875, 156.5625, 182.40625, 208.25, 234.09375, 259.9375, 285.78125, 311.625, 337.46875, 363.3125, 389.15625, 415.0, 440.84375, 466.6875, 492.53125, 518.375, 544.21875, 570.0625, 595.90625, 621.75, 647.59375, 673.4375, 699.28125, 725.125, 750.96875, 776.8125, 802.65625, 828.5]}, "gradients/decoder.conv.15.bias": {"_type": "histogram", "values": [1.0, 0.0, 0.0, 0.0, 0.0, 0.0, 0.0, 0.0, 0.0, 0.0, 0.0, 0.0, 0.0, 1.0, 0.0, 0.0, 0.0, 0.0, 0.0, 0.0, 0.0, 0.0, 0.0, 0.0, 0.0, 0.0, 0.0, 0.0, 0.0, 0.0, 0.0, 0.0, 0.0, 0.0, 0.0, 0.0, 0.0, 0.0, 0.0, 0.0, 0.0, 0.0, 0.0, 0.0, 0.0, 0.0, 0.0, 0.0, 0.0, 0.0, 0.0, 0.0, 0.0, 0.0, 0.0, 0.0, 0.0, 0.0, 0.0, 0.0, 0.0, 0.0, 0.0, 1.0], "bins": [3152.0, 3199.75, 3247.5, 3295.25, 3343.0, 3390.75, 3438.5, 3486.25, 3534.0, 3581.75, 3629.5, 3677.25, 3725.0, 3772.75, 3820.5, 3868.25, 3916.0, 3963.75, 4011.5, 4059.25, 4107.0, 4154.75, 4202.5, 4250.25, 4298.0, 4345.75, 4393.5, 4441.25, 4489.0, 4536.75, 4584.5, 4632.25, 4680.0, 4727.75, 4775.5, 4823.25, 4871.0, 4918.75, 4966.5, 5014.25, 5062.0, 5109.75, 5157.5, 5205.25, 5253.0, 5300.75, 5348.5, 5396.25, 5444.0, 5491.75, 5539.5, 5587.25, 5635.0, 5682.75, 5730.5, 5778.25, 5826.0, 5873.75, 5921.5, 5969.25, 6017.0, 6064.75, 6112.5, 6160.25, 6208.0]}, "gradients/decoder.conv.13.weight": {"_type": "histogram", "values": [1.0, 0.0, 0.0, 0.0, 0.0, 0.0, 0.0, 0.0, 0.0, 0.0, 0.0, 0.0, 0.0, 0.0, 0.0, 0.0, 0.0, 0.0, 0.0, 0.0, 0.0, 0.0, 0.0, 0.0, 0.0, 0.0, 0.0, 0.0, 0.0, 0.0, 0.0, 0.0, 0.0, 0.0, 0.0, 0.0, 0.0, 0.0, 0.0, 0.0, 1.0, 0.0, 0.0, 0.0, 1.0, 0.0, 0.0, 0.0, 0.0, 0.0, 1.0, 0.0, 4.0, 1.0, 2.0, 0.0, 1.0, 0.0, 1.0, 1.0, 0.0, 1.0, 0.0, 1.0], "bins": [-2050.43310546875, -2011.873046875, -1973.31298828125, -1934.7530517578125, -1896.1929931640625, -1857.6329345703125, -1819.0728759765625, -1780.512939453125, -1741.952880859375, -1703.392822265625, -1664.832763671875, -1626.2728271484375, -1587.7127685546875, -1549.1527099609375, -1510.5926513671875, -1472.03271484375, -1433.47265625, -1394.91259765625, -1356.3525390625, -1317.7926025390625, -1279.2325439453125, -1240.6724853515625, -1202.1124267578125, -1163.552490234375, -1124.9923095703125, -1086.4322509765625, -1047.8721923828125, -1009.3121948242188, -970.752197265625, -932.192138671875, -893.632080078125, -855.0720825195312, -816.51220703125, -777.9521484375, -739.3921508789062, -700.8320922851562, -662.2720947265625, -623.7120361328125, -585.1519775390625, -546.5919799804688, -508.03192138671875, -469.4718933105469, -430.911865234375, -392.351806640625, -353.79180908203125, -315.23175048828125, -276.6717224121094, -238.1116943359375, -199.55166625976562, -160.99163818359375, -122.43160247802734, -83.87156677246094, -45.31153869628906, -6.7515106201171875, 31.80853271484375, 70.36856079101562, 108.9285888671875, 147.48861694335938, 186.04864501953125, 224.6086883544922, 263.168701171875, 301.728759765625, 340.2887878417969, 378.84881591796875, 417.4088439941406]}, "gradients/decoder.conv.13.bias": {"_type": "histogram", "values": [1.0, 0.0, 0.0, 0.0, 0.0, 0.0, 0.0, 0.0, 0.0, 0.0, 0.0, 0.0, 0.0, 0.0, 0.0, 0.0, 0.0, 0.0, 0.0, 0.0, 0.0, 0.0, 0.0, 0.0, 1.0, 0.0, 0.0, 0.0, 0.0, 0.0, 0.0, 1.0, 0.0, 0.0, 0.0, 0.0, 0.0, 1.0, 0.0, 0.0, 0.0, 4.0, 0.0, 0.0, 1.0, 0.0, 0.0, 1.0, 0.0, 0.0, 0.0, 1.0, 2.0, 0.0, 0.0, 1.0, 0.0, 0.0, 0.0, 1.0, 0.0, 0.0, 0.0, 1.0], "bins": [-2814.050537109375, -2745.57373046875, -2677.0966796875, -2608.619873046875, -2540.142822265625, -2471.666015625, -2403.18896484375, -2334.712158203125, -2266.2353515625, -2197.758544921875, -2129.281494140625, -2060.8046875, -1992.3277587890625, -1923.850830078125, -1855.3739013671875, -1786.89697265625, -1718.4200439453125, -1649.943115234375, -1581.4661865234375, -1512.9892578125, -1444.512451171875, -1376.0355224609375, -1307.55859375, -1239.0816650390625, -1170.604736328125, -1102.1278076171875, -1033.65087890625, -965.1740112304688, -896.6971435546875, -828.22021484375, -759.7432861328125, -691.266357421875, -622.78955078125, -554.3126220703125, -485.83575439453125, -417.35882568359375, -348.8819274902344, -280.405029296875, -211.9281005859375, -143.45120239257812, -74.97430419921875, -6.497398376464844, 61.97950744628906, 130.4564208984375, 198.93331909179688, 267.41021728515625, 335.88714599609375, 404.3640441894531, 472.8409423828125, 541.31787109375, 609.7947387695312, 678.2716674804688, 746.74853515625, 815.2254638671875, 883.702392578125, 952.1793212890625, 1020.6561889648438, 1089.133056640625, 1157.6099853515625, 1226.0869140625, 1294.5638427734375, 1363.040771484375, 1431.517578125, 1499.9945068359375, 1568.471435546875]}, "gradients/decoder.conv.12.weight": {"_type": "histogram", "values": [3.0, 4.0, 2.0, 4.0, 3.0, 1.0, 3.0, 6.0, 2.0, 7.0, 10.0, 6.0, 6.0, 1.0, 1.0, 2.0, 3.0, 1.0, 1.0, 3.0, 2.0, 4.0, 2.0, 3.0, 0.0, 0.0, 1.0, 5.0, 8.0, 2.0, 0.0, 0.0, 2.0, 4.0, 14.0, 19.0, 23.0, 50.0, 19.0, 42.0, 81.0, 144.0, 225.0, 422.0, 781.0, 1079.0, 2147.0, 1350.0, 759.0, 346.0, 204.0, 120.0, 86.0, 63.0, 48.0, 26.0, 14.0, 12.0, 7.0, 4.0, 3.0, 0.0, 1.0, 1.0], "bins": [-1368.0, -1338.53125, -1309.0625, -1279.59375, -1250.125, -1220.65625, -1191.1875, -1161.71875, -1132.25, -1102.78125, -1073.3125, -1043.84375, -1014.375, -984.90625, -955.4375, -925.96875, -896.5, -867.03125, -837.5625, -808.09375, -778.625, -749.15625, -719.6875, -690.21875, -660.75, -631.28125, -601.8125, -572.34375, -542.875, -513.40625, -483.9375, -454.46875, -425.0, -395.53125, -366.0625, -336.59375, -307.125, -277.65625, -248.1875, -218.71875, -189.25, -159.78125, -130.3125, -100.84375, -71.375, -41.90625, -12.4375, 17.03125, 46.5, 75.96875, 105.4375, 134.90625, 164.375, 193.84375, 223.3125, 252.78125, 282.25, 311.71875, 341.1875, 370.65625, 400.125, 429.59375, 459.0625, 488.53125, 518.0]}, "gradients/decoder.conv.10.weight": {"_type": "histogram", "values": [2.0, 0.0, 0.0, 1.0, 0.0, 0.0, 0.0, 0.0, 0.0, 0.0, 0.0, 1.0, 1.0, 0.0, 0.0, 0.0, 0.0, 0.0, 0.0, 0.0, 0.0, 0.0, 0.0, 2.0, 0.0, 0.0, 0.0, 1.0, 1.0, 1.0, 3.0, 4.0, 0.0, 0.0, 1.0, 0.0, 2.0, 1.0, 1.0, 2.0, 0.0, 0.0, 0.0, 2.0, 1.0, 0.0, 1.0, 0.0, 0.0, 0.0, 0.0, 2.0, 0.0, 0.0, 0.0, 0.0, 0.0, 1.0, 0.0, 0.0, 0.0, 0.0, 0.0, 1.0], "bins": [-574.8760986328125, -557.5751342773438, -540.274169921875, -522.9732666015625, -505.6722717285156, -488.371337890625, -471.07037353515625, -453.7694091796875, -436.46844482421875, -419.16748046875, -401.8665466308594, -384.5655822753906, -367.2646179199219, -349.96368408203125, -332.6627197265625, -315.36175537109375, -298.0608215332031, -280.7598571777344, -263.45892333984375, -246.157958984375, -228.85699462890625, -211.55604553222656, -194.25509643554688, -176.95413208007812, -159.65318298339844, -142.35223388671875, -125.05126953125, -107.75032043457031, -90.4493637084961, -73.14840698242188, -55.84745788574219, -38.54650115966797, -21.24554443359375, -3.944589614868164, 13.356365203857422, 30.657318115234375, 47.958274841308594, 65.25923156738281, 82.5601806640625, 99.86113739013672, 117.16209411621094, 134.46304321289062, 151.76400756835938, 169.06495666503906, 186.36590576171875, 203.6668701171875, 220.9678192138672, 238.26876831054688, 255.56973266601562, 272.8706970214844, 290.171630859375, 307.47259521484375, 324.7735595703125, 342.07452392578125, 359.3754577636719, 376.6764221191406, 393.97735595703125, 411.2783203125, 428.5792541503906, 445.8802185058594, 463.1811828613281, 480.48211669921875, 497.7830810546875, 515.0840454101562, 532.385009765625]}, "gradients/decoder.conv.10.bias": {"_type": "histogram", "values": [1.0, 0.0, 1.0, 0.0, 0.0, 1.0, 0.0, 0.0, 0.0, 0.0, 0.0, 0.0, 0.0, 0.0, 0.0, 0.0, 0.0, 0.0, 0.0, 0.0, 0.0, 0.0, 0.0, 0.0, 0.0, 1.0, 0.0, 1.0, 0.0, 1.0, 0.0, 0.0, 1.0, 1.0, 0.0, 2.0, 0.0, 0.0, 2.0, 1.0, 0.0, 0.0, 2.0, 1.0, 1.0, 3.0, 0.0, 2.0, 0.0, 1.0, 0.0, 2.0, 1.0, 0.0, 1.0, 0.0, 0.0, 0.0, 1.0, 2.0, 1.0, 0.0, 0.0, 1.0], "bins": [-646.2803344726562, -631.7333374023438, -617.1863403320312, -602.6393432617188, -588.0923461914062, -573.5452880859375, -558.998291015625, -544.4512939453125, -529.904296875, -515.3572998046875, -500.810302734375, -486.2633056640625, -471.7162780761719, -457.1692810058594, -442.6222839355469, -428.0752868652344, -413.5282897949219, -398.9812927246094, -384.4342956542969, -369.88726806640625, -355.34027099609375, -340.79327392578125, -326.24627685546875, -311.69927978515625, -297.15228271484375, -282.60528564453125, -268.05828857421875, -253.5112762451172, -238.96426391601562, -224.41726684570312, -209.87026977539062, -195.32327270507812, -180.7762451171875, -166.229248046875, -151.68223571777344, -137.13523864746094, -122.5882339477539, -108.04122924804688, -93.49423217773438, -78.94722747802734, -64.40022277832031, -49.85321807861328, -35.306217193603516, -20.75921630859375, -6.212211608886719, 8.334793090820312, 22.881790161132812, 37.428794860839844, 51.975799560546875, 66.5228042602539, 81.06980895996094, 95.61680603027344, 110.16381072998047, 124.7108154296875, 139.2578125, 153.8048095703125, 168.35182189941406, 182.89881896972656, 197.44583129882812, 211.99282836914062, 226.53982543945312, 241.0868377685547, 255.6338348388672, 270.18084716796875, 284.72784423828125]}, "gradients/decoder.conv.9.weight": {"_type": "histogram", "values": [3.0, 3.0, 2.0, 2.0, 2.0, 5.0, 10.0, 18.0, 14.0, 28.0, 35.0, 33.0, 47.0, 60.0, 111.0, 221.0, 271.0, 442.0, 599.0, 1092.0, 2236.0, 5359.0, 10534.0, 5575.0, 2522.0, 1345.0, 758.0, 479.0, 299.0, 185.0, 139.0, 70.0, 54.0, 62.0, 25.0, 31.0, 21.0, 22.0, 14.0, 10.0, 4.0, 8.0, 4.0, 0.0, 1.0, 1.0, 0.0, 0.0, 0.0, 0.0, 0.0, 0.0, 0.0, 0.0, 0.0, 0.0, 1.0, 1.0, 0.0, 0.0, 5.0, 1.0, 1.0, 3.0], "bins": [-140.125, -133.892578125, -127.66015625, -121.427734375, -115.1953125, -108.962890625, -102.73046875, -96.498046875, -90.265625, -84.033203125, -77.80078125, -71.568359375, -65.3359375, -59.103515625, -52.87109375, -46.638671875, -40.40625, -34.173828125, -27.94140625, -21.708984375, -15.4765625, -9.244140625, -3.01171875, 3.220703125, 9.453125, 15.685546875, 21.91796875, 28.150390625, 34.3828125, 40.615234375, 46.84765625, 53.080078125, 59.3125, 65.544921875, 71.77734375, 78.009765625, 84.2421875, 90.474609375, 96.70703125, 102.939453125, 109.171875, 115.404296875, 121.63671875, 127.869140625, 134.1015625, 140.333984375, 146.56640625, 152.798828125, 159.03125, 165.263671875, 171.49609375, 177.728515625, 183.9609375, 190.193359375, 196.42578125, 202.658203125, 208.890625, 215.123046875, 221.35546875, 227.587890625, 233.8203125, 240.052734375, 246.28515625, 252.517578125, 258.75]}, "gradients/decoder.conv.7.weight": {"_type": "histogram", "values": [4.0, 0.0, 0.0, 1.0, 0.0, 0.0, 0.0, 0.0, 0.0, 2.0, 1.0, 1.0, 1.0, 2.0, 0.0, 3.0, 2.0, 2.0, 3.0, 1.0, 0.0, 1.0, 2.0, 2.0, 3.0, 7.0, 1.0, 2.0, 2.0, 1.0, 1.0, 1.0, 1.0, 2.0, 2.0, 1.0, 2.0, 0.0, 0.0, 1.0, 0.0, 2.0, 0.0, 0.0, 0.0, 0.0, 0.0, 0.0, 0.0, 0.0, 0.0, 0.0, 1.0, 0.0, 1.0, 0.0, 1.0, 0.0, 1.0, 1.0, 0.0, 1.0, 0.0, 1.0], "bins": [-137.90420532226562, -132.80799865722656, -127.7117919921875, -122.61558532714844, -117.51937866210938, -112.42317199707031, -107.32696533203125, -102.23075866699219, -97.13455200195312, -92.03834533691406, -86.942138671875, -81.84593200683594, -76.74972534179688, -71.65351867675781, -66.55731201171875, -61.46110534667969, -56.364898681640625, -51.26869201660156, -46.1724853515625, -41.07627868652344, -35.980072021484375, -30.883865356445312, -25.78765869140625, -20.691452026367188, -15.595245361328125, -10.499038696289062, -5.40283203125, -0.3066253662109375, 4.789581298828125, 9.885787963867188, 14.98199462890625, 20.078201293945312, 25.174407958984375, 30.270614624023438, 35.3668212890625, 40.46302795410156, 45.559234619140625, 50.65544128417969, 55.75164794921875, 60.84785461425781, 65.94406127929688, 71.04026794433594, 76.136474609375, 81.23268127441406, 86.32888793945312, 91.42509460449219, 96.52130126953125, 101.61750793457031, 106.71371459960938, 111.80992126464844, 116.9061279296875, 122.00233459472656, 127.09854125976562, 132.1947479248047, 137.29095458984375, 142.3871612548828, 147.48336791992188, 152.57957458496094, 157.67578125, 162.77198791503906, 167.86819458007812, 172.9644012451172, 178.06060791015625, 183.1568145751953, 188.25302124023438]}, "gradients/decoder.conv.7.bias": {"_type": "histogram", "values": [1.0, 0.0, 0.0, 0.0, 0.0, 0.0, 0.0, 0.0, 0.0, 3.0, 0.0, 0.0, 0.0, 0.0, 0.0, 2.0, 2.0, 3.0, 1.0, 2.0, 2.0, 1.0, 0.0, 5.0, 1.0, 1.0, 0.0, 1.0, 6.0, 2.0, 4.0, 1.0, 4.0, 1.0, 3.0, 0.0, 0.0, 3.0, 0.0, 0.0, 4.0, 0.0, 0.0, 0.0, 2.0, 0.0, 0.0, 3.0, 1.0, 1.0, 1.0, 0.0, 1.0, 1.0, 0.0, 0.0, 0.0, 0.0, 0.0, 0.0, 0.0, 0.0, 0.0, 1.0], "bins": [-137.83074951171875, -133.5815887451172, -129.33242797851562, -125.083251953125, -120.83409118652344, -116.58493041992188, -112.33576202392578, -108.08659362792969, -103.83743286132812, -99.58827209472656, -95.33910369873047, -91.08993530273438, -86.84077453613281, -82.59161376953125, -78.34244537353516, -74.09327697753906, -69.8441162109375, -65.59495544433594, -61.345787048339844, -57.096622467041016, -52.84745788574219, -48.59829330444336, -44.34912872314453, -40.0999641418457, -35.850799560546875, -31.601634979248047, -27.35247039794922, -23.10330581665039, -18.854141235351562, -14.604976654052734, -10.355812072753906, -6.106647491455078, -1.85748291015625, 2.391681671142578, 6.640846252441406, 10.890010833740234, 15.139175415039062, 19.38833999633789, 23.63750457763672, 27.886669158935547, 32.135833740234375, 36.3849983215332, 40.63416290283203, 44.88332748413086, 49.13249206542969, 53.381656646728516, 57.630821228027344, 61.87998580932617, 66.129150390625, 70.37831115722656, 74.62747955322266, 78.87664794921875, 83.12580871582031, 87.37496948242188, 91.62413787841797, 95.87330627441406, 100.12246704101562, 104.37162780761719, 108.62079620361328, 112.86996459960938, 117.11912536621094, 121.3682861328125, 125.6174545288086, 129.8666229248047, 134.11578369140625]}, "gradients/decoder.conv.6.weight": {"_type": "histogram", "values": [1.0, 0.0, 0.0, 0.0, 0.0, 2.0, 2.0, 2.0, 4.0, 9.0, 13.0, 12.0, 15.0, 23.0, 33.0, 45.0, 75.0, 116.0, 175.0, 229.0, 280.0, 385.0, 544.0, 879.0, 1289.0, 1941.0, 3080.0, 5315.0, 9283.0, 16613.0, 28295.0, 24442.0, 14223.0, 8450.0, 5164.0, 3367.0, 2171.0, 1446.0, 1010.0, 677.0, 454.0, 285.0, 197.0, 138.0, 108.0, 76.0, 51.0, 33.0, 32.0, 23.0, 12.0, 15.0, 12.0, 6.0, 5.0, 8.0, 1.0, 1.0, 2.0, 0.0, 2.0, 0.0, 0.0, 1.0], "bins": [-55.78125, -53.98193359375, -52.1826171875, -50.38330078125, -48.583984375, -46.78466796875, -44.9853515625, -43.18603515625, -41.38671875, -39.58740234375, -37.7880859375, -35.98876953125, -34.189453125, -32.39013671875, -30.5908203125, -28.79150390625, -26.9921875, -25.19287109375, -23.3935546875, -21.59423828125, -19.794921875, -17.99560546875, -16.1962890625, -14.39697265625, -12.59765625, -10.79833984375, -8.9990234375, -7.19970703125, -5.400390625, -3.60107421875, -1.8017578125, -0.00244140625, 1.796875, 3.59619140625, 5.3955078125, 7.19482421875, 8.994140625, 10.79345703125, 12.5927734375, 14.39208984375, 16.19140625, 17.99072265625, 19.7900390625, 21.58935546875, 23.388671875, 25.18798828125, 26.9873046875, 28.78662109375, 30.5859375, 32.38525390625, 34.1845703125, 35.98388671875, 37.783203125, 39.58251953125, 41.3818359375, 43.18115234375, 44.98046875, 46.77978515625, 48.5791015625, 50.37841796875, 52.177734375, 53.97705078125, 55.7763671875, 57.57568359375, 59.375]}, "gradients/decoder.conv.4.weight": {"_type": "histogram", "values": [1.0, 0.0, 1.0, 1.0, 0.0, 0.0, 0.0, 1.0, 1.0, 0.0, 1.0, 0.0, 2.0, 3.0, 0.0, 0.0, 0.0, 3.0, 3.0, 4.0, 5.0, 3.0, 2.0, 1.0, 7.0, 9.0, 6.0, 7.0, 7.0, 4.0, 7.0, 5.0, 4.0, 2.0, 5.0, 1.0, 2.0, 4.0, 2.0, 0.0, 3.0, 2.0, 3.0, 4.0, 3.0, 2.0, 1.0, 1.0, 1.0, 0.0, 0.0, 0.0, 0.0, 0.0, 0.0, 0.0, 0.0, 0.0, 0.0, 1.0, 0.0, 1.0, 1.0, 1.0], "bins": [-85.69123077392578, -82.79542541503906, -79.89962005615234, -77.00381469726562, -74.10801696777344, -71.21221160888672, -68.31640625, -65.42060089111328, -62.52479553222656, -59.628990173339844, -56.733184814453125, -53.83738327026367, -50.94157791137695, -48.045772552490234, -45.14997100830078, -42.25416564941406, -39.358360290527344, -36.462554931640625, -33.566749572753906, -30.670948028564453, -27.775142669677734, -24.879337310791016, -21.98353385925293, -19.087730407714844, -16.191925048828125, -13.296120643615723, -10.40031623840332, -7.504511833190918, -4.608707427978516, -1.7129030227661133, 1.182901382446289, 4.078704833984375, 6.9745025634765625, 9.870306968688965, 12.766111373901367, 15.66191577911377, 18.557720184326172, 21.45352554321289, 24.349328994750977, 27.245132446289062, 30.14093780517578, 33.0367431640625, 35.93254852294922, 38.82835006713867, 41.72415542602539, 44.61996078491211, 47.51576232910156, 50.41156768798828, 53.307373046875, 56.20317840576172, 59.09898376464844, 61.99478530883789, 64.89059448242188, 67.78639221191406, 70.68219757080078, 73.5780029296875, 76.47380828857422, 79.36961364746094, 82.26541900634766, 85.16122436523438, 88.05702209472656, 90.95282745361328, 93.8486328125, 96.74443817138672, 99.64024353027344]}, "gradients/decoder.conv.4.bias": {"_type": "histogram", "values": [1.0, 0.0, 0.0, 1.0, 0.0, 0.0, 0.0, 1.0, 0.0, 0.0, 2.0, 1.0, 2.0, 0.0, 0.0, 1.0, 1.0, 3.0, 3.0, 1.0, 2.0, 2.0, 5.0, 1.0, 6.0, 3.0, 2.0, 4.0, 5.0, 7.0, 6.0, 9.0, 3.0, 3.0, 5.0, 5.0, 3.0, 2.0, 1.0, 0.0, 5.0, 2.0, 5.0, 5.0, 1.0, 4.0, 2.0, 2.0, 2.0, 1.0, 0.0, 1.0, 1.0, 2.0, 1.0, 0.0, 0.0, 0.0, 0.0, 1.0, 0.0, 0.0, 1.0, 1.0], "bins": [-70.80960083007812, -68.63970947265625, -66.46981811523438, -64.2999267578125, -62.130035400390625, -59.96014404296875, -57.790252685546875, -55.620361328125, -53.450469970703125, -51.28057861328125, -49.110687255859375, -46.9407958984375, -44.770904541015625, -42.60101318359375, -40.431121826171875, -38.26123046875, -36.09134292602539, -33.921451568603516, -31.75156021118164, -29.581668853759766, -27.41177749633789, -25.241886138916016, -23.071996688842773, -20.9021053314209, -18.732213973999023, -16.56232261657715, -14.392431259155273, -12.222540855407715, -10.05264949798584, -7.882758140563965, -5.712867736816406, -3.5429763793945312, -1.3730850219726562, 0.7968060970306396, 2.9666972160339355, 5.136588096618652, 7.306479454040527, 9.476370811462402, 11.646261215209961, 13.816152572631836, 15.986043930053711, 18.155935287475586, 20.32582664489746, 22.495716094970703, 24.665607452392578, 26.835498809814453, 29.005390167236328, 31.175281524658203, 33.34517288208008, 35.51506423950195, 37.68495559692383, 39.8548469543457, 42.02473831176758, 44.19462966918945, 46.36451721191406, 48.53440856933594, 50.70429992675781, 52.87419128417969, 55.04408264160156, 57.21397399902344, 59.38386535644531, 61.55375671386719, 63.72364807128906, 65.89353942871094, 68.06343078613281]}, "gradients/decoder.conv.3.weight": {"_type": "histogram", "values": [1.0, 0.0, 3.0, 0.0, 1.0, 2.0, 4.0, 5.0, 3.0, 25.0, 37.0, 36.0, 86.0, 121.0, 190.0, 311.0, 463.0, 757.0, 1188.0, 2021.0, 3252.0, 5132.0, 8355.0, 13129.0, 21373.0, 34847.0, 56389.0, 89389.0, 98994.0, 67773.0, 43151.0, 26818.0, 16853.0, 10812.0, 7204.0, 4875.0, 3358.0, 2321.0, 1607.0, 1009.0, 745.0, 565.0, 368.0, 230.0, 147.0, 102.0, 80.0, 61.0, 31.0, 15.0, 26.0, 6.0, 7.0, 4.0, 2.0, 2.0, 1.0, 0.0, 0.0, 0.0, 0.0, 0.0, 0.0, 1.0], "bins": [-25.15625, -24.265869140625, -23.37548828125, -22.485107421875, -21.5947265625, -20.704345703125, -19.81396484375, -18.923583984375, -18.033203125, -17.142822265625, -16.25244140625, -15.362060546875, -14.4716796875, -13.581298828125, -12.69091796875, -11.800537109375, -10.91015625, -10.019775390625, -9.12939453125, -8.239013671875, -7.3486328125, -6.458251953125, -5.56787109375, -4.677490234375, -3.787109375, -2.896728515625, -2.00634765625, -1.115966796875, -0.2255859375, 0.664794921875, 1.55517578125, 2.445556640625, 3.3359375, 4.226318359375, 5.11669921875, 6.007080078125, 6.8974609375, 7.787841796875, 8.67822265625, 9.568603515625, 10.458984375, 11.349365234375, 12.23974609375, 13.130126953125, 14.0205078125, 14.910888671875, 15.80126953125, 16.691650390625, 17.58203125, 18.472412109375, 19.36279296875, 20.253173828125, 21.1435546875, 22.033935546875, 22.92431640625, 23.814697265625, 24.705078125, 25.595458984375, 26.48583984375, 27.376220703125, 28.2666015625, 29.156982421875, 30.04736328125, 30.937744140625, 31.828125]}, "gradients/decoder.conv.1.weight": {"_type": "histogram", "values": [2.0, 1.0, 1.0, 3.0, 2.0, 3.0, 3.0, 3.0, 3.0, 2.0, 6.0, 5.0, 5.0, 4.0, 3.0, 6.0, 9.0, 4.0, 7.0, 7.0, 9.0, 7.0, 8.0, 6.0, 8.0, 14.0, 8.0, 12.0, 6.0, 5.0, 9.0, 7.0, 6.0, 7.0, 5.0, 4.0, 7.0, 4.0, 6.0, 3.0, 4.0, 6.0, 4.0, 3.0, 3.0, 2.0, 1.0, 1.0, 4.0, 0.0, 1.0, 0.0, 1.0, 1.0, 2.0, 1.0, 1.0, 0.0, 0.0, 0.0, 0.0, 0.0, 0.0, 1.0], "bins": [-54.455081939697266, -52.354248046875, -50.25341033935547, -48.1525764465332, -46.05174255371094, -43.950904846191406, -41.85007095336914, -39.749237060546875, -37.648399353027344, -35.54756546020508, -33.44672775268555, -31.34589385986328, -29.245058059692383, -27.144222259521484, -25.04338836669922, -22.94255256652832, -20.841716766357422, -18.740880966186523, -16.640045166015625, -14.53921127319336, -12.438375473022461, -10.337539672851562, -8.23670482635498, -6.135869979858398, -4.0350341796875, -1.9341988563537598, 0.16663646697998047, 2.2674717903137207, 4.368307113647461, 6.469142913818359, 8.569977760314941, 10.670812606811523, 12.771644592285156, 14.872480392456055, 16.973316192626953, 19.07415008544922, 21.174985885620117, 23.275821685791016, 25.37665557861328, 27.47749137878418, 29.578327178955078, 31.679162979125977, 33.779998779296875, 35.88083267211914, 37.981666564941406, 40.08250427246094, 42.1833381652832, 44.28417205810547, 46.385009765625, 48.485843658447266, 50.5866813659668, 52.68751525878906, 54.788352966308594, 56.88918685913086, 58.990020751953125, 61.090858459472656, 63.19169235229492, 65.29252624511719, 67.39336395263672, 69.49420166015625, 71.59503173828125, 73.69586944580078, 75.79670715332031, 77.89753723144531, 79.99837493896484]}, "gradients/decoder.conv.1.bias": {"_type": "histogram", "values": [1.0, 0.0, 1.0, 1.0, 1.0, 2.0, 0.0, 2.0, 2.0, 2.0, 2.0, 5.0, 5.0, 3.0, 4.0, 2.0, 6.0, 13.0, 8.0, 15.0, 10.0, 11.0, 8.0, 3.0, 13.0, 6.0, 9.0, 9.0, 8.0, 5.0, 10.0, 9.0, 9.0, 4.0, 6.0, 4.0, 8.0, 5.0, 7.0, 4.0, 4.0, 5.0, 4.0, 5.0, 3.0, 3.0, 2.0, 0.0, 3.0, 1.0, 0.0, 1.0, 1.0, 0.0, 0.0, 0.0, 0.0, 0.0, 0.0, 0.0, 0.0, 0.0, 0.0, 1.0], "bins": [-58.29029083251953, -56.04308319091797, -53.79587173461914, -51.54866409301758, -49.30145263671875, -47.05424499511719, -44.807037353515625, -42.55982971191406, -40.312618255615234, -38.06541061401367, -35.818199157714844, -33.57099151611328, -31.323781967163086, -29.07657241821289, -26.829364776611328, -24.582155227661133, -22.334945678710938, -20.087736129760742, -17.840526580810547, -15.593318939208984, -13.346109390258789, -11.098899841308594, -8.851691246032715, -6.604482650756836, -4.357273101806641, -2.1100640296936035, 0.1371450424194336, 2.3843541145324707, 4.631563186645508, 6.878772735595703, 9.125981330871582, 11.373189926147461, 13.620391845703125, 15.86760139465332, 18.114810943603516, 20.362018585205078, 22.609228134155273, 24.85643768310547, 27.10364532470703, 29.350854873657227, 31.598064422607422, 33.845272064208984, 36.09248352050781, 38.339691162109375, 40.58689880371094, 42.834110260009766, 45.08131790161133, 47.328529357910156, 49.57573699951172, 51.82294464111328, 54.07015609741211, 56.31736373901367, 58.5645751953125, 60.81178283691406, 63.058990478515625, 65.30619812011719, 67.55340576171875, 69.80061340332031, 72.04782104492188, 74.29503631591797, 76.54224395751953, 78.7894515991211, 81.03665924072266, 83.28386688232422, 85.53108215332031]}, "gradients/decoder.conv.0.weight": {"_type": "histogram", "values": [1.0, 3.0, 8.0, 5.0, 5.0, 13.0, 17.0, 22.0, 36.0, 51.0, 54.0, 103.0, 168.0, 243.0, 394.0, 623.0, 1031.0, 1724.0, 3010.0, 5397.0, 10300.0, 20713.0, 44822.0, 108442.0, 306404.0, 1095567.0, 4831325.0, 2192551.0, 520760.0, 168166.0, 65566.0, 28953.0, 13752.0, 7219.0, 3859.0, 2201.0, 1329.0, 797.0, 504.0, 339.0, 219.0, 141.0, 100.0, 66.0, 50.0, 36.0, 11.0, 17.0, 19.0, 10.0, 13.0, 5.0, 6.0, 1.0, 2.0, 4.0, 2.0, 1.0, 0.0, 0.0, 0.0, 1.0, 0.0, 3.0], "bins": [-7.86328125, -7.56903076171875, -7.2747802734375, -6.98052978515625, -6.686279296875, -6.39202880859375, -6.0977783203125, -5.80352783203125, -5.50927734375, -5.21502685546875, -4.9207763671875, -4.62652587890625, -4.332275390625, -4.03802490234375, -3.7437744140625, -3.44952392578125, -3.1552734375, -2.86102294921875, -2.5667724609375, -2.27252197265625, -1.978271484375, -1.68402099609375, -1.3897705078125, -1.09552001953125, -0.80126953125, -0.50701904296875, -0.2127685546875, 0.08148193359375, 0.375732421875, 0.66998291015625, 0.9642333984375, 1.25848388671875, 1.552734375, 1.84698486328125, 2.1412353515625, 2.43548583984375, 2.729736328125, 3.02398681640625, 3.3182373046875, 3.61248779296875, 3.90673828125, 4.20098876953125, 4.4952392578125, 4.78948974609375, 5.083740234375, 5.37799072265625, 5.6722412109375, 5.96649169921875, 6.2607421875, 6.55499267578125, 6.8492431640625, 7.14349365234375, 7.437744140625, 7.73199462890625, 8.0262451171875, 8.32049560546875, 8.61474609375, 8.90899658203125, 9.2032470703125, 9.49749755859375, 9.791748046875, 10.08599853515625, 10.3802490234375, 10.67449951171875, 10.96875]}, "gradients/fc.weight": {"_type": "histogram", "values": [1.0, 1.0, 0.0, 1.0, 0.0, 1.0, 0.0, 2.0, 5.0, 3.0, 5.0, 6.0, 12.0, 22.0, 24.0, 41.0, 68.0, 76.0, 96.0, 156.0, 214.0, 298.0, 448.0, 763.0, 1138.0, 1785.0, 2877.0, 5028.0, 8682.0, 16707.0, 33950.0, 70040.0, 59473.0, 27684.0, 13856.0, 7314.0, 4259.0, 2474.0, 1628.0, 949.0, 672.0, 458.0, 279.0, 204.0, 152.0, 81.0, 68.0, 48.0, 32.0, 19.0, 13.0, 6.0, 4.0, 6.0, 4.0, 3.0, 3.0, 0.0, 1.0, 1.0, 1.0, 0.0, 1.0, 1.0], "bins": [-45.03125, -43.61767578125, -42.2041015625, -40.79052734375, -39.376953125, -37.96337890625, -36.5498046875, -35.13623046875, -33.72265625, -32.30908203125, -30.8955078125, -29.48193359375, -28.068359375, -26.65478515625, -25.2412109375, -23.82763671875, -22.4140625, -21.00048828125, -19.5869140625, -18.17333984375, -16.759765625, -15.34619140625, -13.9326171875, -12.51904296875, -11.10546875, -9.69189453125, -8.2783203125, -6.86474609375, -5.451171875, -4.03759765625, -2.6240234375, -1.21044921875, 0.203125, 1.61669921875, 3.0302734375, 4.44384765625, 5.857421875, 7.27099609375, 8.6845703125, 10.09814453125, 11.51171875, 12.92529296875, 14.3388671875, 15.75244140625, 17.166015625, 18.57958984375, 19.9931640625, 21.40673828125, 22.8203125, 24.23388671875, 25.6474609375, 27.06103515625, 28.474609375, 29.88818359375, 31.3017578125, 32.71533203125, 34.12890625, 35.54248046875, 36.9560546875, 38.36962890625, 39.783203125, 41.19677734375, 42.6103515625, 44.02392578125, 45.4375]}, "gradients/fc.bias": {"_type": "histogram", "values": [1.0, 0.0, 0.0, 0.0, 0.0, 0.0, 0.0, 0.0, 2.0, 3.0, 3.0, 3.0, 1.0, 1.0, 3.0, 5.0, 12.0, 11.0, 10.0, 10.0, 7.0, 12.0, 21.0, 24.0, 27.0, 27.0, 31.0, 45.0, 38.0, 35.0, 51.0, 38.0, 66.0, 53.0, 48.0, 65.0, 44.0, 66.0, 51.0, 35.0, 22.0, 24.0, 32.0, 14.0, 17.0, 14.0, 7.0, 7.0, 8.0, 6.0, 4.0, 3.0, 4.0, 2.0, 4.0, 3.0, 1.0, 0.0, 0.0, 0.0, 0.0, 1.0, 0.0, 2.0], "bins": [-3.787109375, -3.673919677734375, -3.56072998046875, -3.447540283203125, -3.3343505859375, -3.221160888671875, -3.10797119140625, -2.994781494140625, -2.881591796875, -2.768402099609375, -2.65521240234375, -2.542022705078125, -2.4288330078125, -2.315643310546875, -2.20245361328125, -2.089263916015625, -1.97607421875, -1.862884521484375, -1.74969482421875, -1.636505126953125, -1.5233154296875, -1.410125732421875, -1.29693603515625, -1.183746337890625, -1.070556640625, -0.957366943359375, -0.84417724609375, -0.730987548828125, -0.6177978515625, -0.504608154296875, -0.39141845703125, -0.278228759765625, -0.1650390625, -0.051849365234375, 0.06134033203125, 0.174530029296875, 0.2877197265625, 0.400909423828125, 0.51409912109375, 0.627288818359375, 0.740478515625, 0.853668212890625, 0.96685791015625, 1.080047607421875, 1.1932373046875, 1.306427001953125, 1.41961669921875, 1.532806396484375, 1.64599609375, 1.759185791015625, 1.87237548828125, 1.985565185546875, 2.0987548828125, 2.211944580078125, 2.32513427734375, 2.438323974609375, 2.551513671875, 2.664703369140625, 2.77789306640625, 2.891082763671875, 3.0042724609375, 3.117462158203125, 3.23065185546875, 3.343841552734375, 3.45703125]}, "gradients/graph_1obs_encoder.fc2.weight": {"_type": "histogram", "values": [2.0, 0.0, 0.0, 0.0, 1.0, 1.0, 3.0, 3.0, 1.0, 8.0, 8.0, 11.0, 14.0, 9.0, 19.0, 26.0, 34.0, 37.0, 81.0, 89.0, 132.0, 176.0, 247.0, 406.0, 523.0, 828.0, 1219.0, 1918.0, 3244.0, 5277.0, 8889.0, 61173.0, 27397.0, 7783.0, 4388.0, 2512.0, 1539.0, 975.0, 663.0, 429.0, 280.0, 207.0, 155.0, 93.0, 59.0, 50.0, 35.0, 35.0, 25.0, 13.0, 15.0, 7.0, 11.0, 6.0, 4.0, 2.0, 2.0, 2.0, 2.0, 0.0, 2.0, 0.0, 1.0, 1.0], "bins": [-95.0625, -92.0771484375, -89.091796875, -86.1064453125, -83.12109375, -80.1357421875, -77.150390625, -74.1650390625, -71.1796875, -68.1943359375, -65.208984375, -62.2236328125, -59.23828125, -56.2529296875, -53.267578125, -50.2822265625, -47.296875, -44.3115234375, -41.326171875, -38.3408203125, -35.35546875, -32.3701171875, -29.384765625, -26.3994140625, -23.4140625, -20.4287109375, -17.443359375, -14.4580078125, -11.47265625, -8.4873046875, -5.501953125, -2.5166015625, 0.46875, 3.4541015625, 6.439453125, 9.4248046875, 12.41015625, 15.3955078125, 18.380859375, 21.3662109375, 24.3515625, 27.3369140625, 30.322265625, 33.3076171875, 36.29296875, 39.2783203125, 42.263671875, 45.2490234375, 48.234375, 51.2197265625, 54.205078125, 57.1904296875, 60.17578125, 63.1611328125, 66.146484375, 69.1318359375, 72.1171875, 75.1025390625, 78.087890625, 81.0732421875, 84.05859375, 87.0439453125, 90.029296875, 93.0146484375, 96.0]}, "gradients/graph_1obs_encoder.fc2.bias": {"_type": "histogram", "values": [1.0, 0.0, 0.0, 1.0, 2.0, 0.0, 0.0, 1.0, 2.0, 2.0, 1.0, 1.0, 2.0, 2.0, 3.0, 1.0, 5.0, 10.0, 2.0, 6.0, 7.0, 6.0, 7.0, 14.0, 9.0, 12.0, 8.0, 15.0, 24.0, 148.0, 94.0, 28.0, 24.0, 7.0, 8.0, 9.0, 9.0, 9.0, 4.0, 2.0, 1.0, 3.0, 3.0, 3.0, 1.0, 1.0, 4.0, 2.0, 1.0, 1.0, 1.0, 0.0, 1.0, 0.0, 1.0, 0.0, 1.0, 0.0, 0.0, 1.0, 0.0, 0.0, 0.0, 1.0], "bins": [-19.09375, -18.450927734375, -17.80810546875, -17.165283203125, -16.5224609375, -15.879638671875, -15.23681640625, -14.593994140625, -13.951171875, -13.308349609375, -12.66552734375, -12.022705078125, -11.3798828125, -10.737060546875, -10.09423828125, -9.451416015625, -8.80859375, -8.165771484375, -7.52294921875, -6.880126953125, -6.2373046875, -5.594482421875, -4.95166015625, -4.308837890625, -3.666015625, -3.023193359375, -2.38037109375, -1.737548828125, -1.0947265625, -0.451904296875, 0.19091796875, 0.833740234375, 1.4765625, 2.119384765625, 2.76220703125, 3.405029296875, 4.0478515625, 4.690673828125, 5.33349609375, 5.976318359375, 6.619140625, 7.261962890625, 7.90478515625, 8.547607421875, 9.1904296875, 9.833251953125, 10.47607421875, 11.118896484375, 11.76171875, 12.404541015625, 13.04736328125, 13.690185546875, 14.3330078125, 14.975830078125, 15.61865234375, 16.261474609375, 16.904296875, 17.547119140625, 18.18994140625, 18.832763671875, 19.4755859375, 20.118408203125, 20.76123046875, 21.404052734375, 22.046875]}, "gradients/graph_1obs_encoder.fc1.weight": {"_type": "histogram", "values": [2.0, 1.0, 2.0, 1.0, 5.0, 3.0, 11.0, 11.0, 9.0, 19.0, 26.0, 43.0, 52.0, 76.0, 105.0, 155.0, 185.0, 313.0, 402.0, 649.0, 897.0, 1269.0, 1881.0, 2742.0, 4054.0, 6560.0, 10017.0, 15441.0, 24239.0, 37154.0, 61721.0, 54418.0, 36908.0, 24257.0, 15332.0, 10014.0, 6107.0, 4101.0, 2708.0, 1745.0, 1222.0, 872.0, 603.0, 386.0, 305.0, 193.0, 129.0, 95.0, 61.0, 41.0, 36.0, 26.0, 20.0, 9.0, 12.0, 9.0, 6.0, 8.0, 3.0, 1.0, 4.0, 0.0, 3.0, 1.0], "bins": [-39.21875, -37.953125, -36.6875, -35.421875, -34.15625, -32.890625, -31.625, -30.359375, -29.09375, -27.828125, -26.5625, -25.296875, -24.03125, -22.765625, -21.5, -20.234375, -18.96875, -17.703125, -16.4375, -15.171875, -13.90625, -12.640625, -11.375, -10.109375, -8.84375, -7.578125, -6.3125, -5.046875, -3.78125, -2.515625, -1.25, 0.015625, 1.28125, 2.546875, 3.8125, 5.078125, 6.34375, 7.609375, 8.875, 10.140625, 11.40625, 12.671875, 13.9375, 15.203125, 16.46875, 17.734375, 19.0, 20.265625, 21.53125, 22.796875, 24.0625, 25.328125, 26.59375, 27.859375, 29.125, 30.390625, 31.65625, 32.921875, 34.1875, 35.453125, 36.71875, 37.984375, 39.25, 40.515625, 41.78125]}, "gradients/graph_1obs_encoder.fc1.bias": {"_type": "histogram", "values": [1.0, 0.0, 0.0, 0.0, 0.0, 1.0, 3.0, 0.0, 1.0, 0.0, 2.0, 0.0, 0.0, 1.0, 1.0, 4.0, 0.0, 3.0, 1.0, 4.0, 7.0, 6.0, 9.0, 6.0, 7.0, 7.0, 10.0, 9.0, 13.0, 15.0, 13.0, 16.0, 16.0, 9.0, 8.0, 11.0, 6.0, 7.0, 5.0, 9.0, 5.0, 4.0, 4.0, 4.0, 1.0, 2.0, 1.0, 3.0, 1.0, 3.0, 4.0, 1.0, 1.0, 3.0, 1.0, 0.0, 1.0, 1.0, 0.0, 2.0, 0.0, 1.0, 1.0, 1.0], "bins": [-27.515625, -26.65869140625, -25.8017578125, -24.94482421875, -24.087890625, -23.23095703125, -22.3740234375, -21.51708984375, -20.66015625, -19.80322265625, -18.9462890625, -18.08935546875, -17.232421875, -16.37548828125, -15.5185546875, -14.66162109375, -13.8046875, -12.94775390625, -12.0908203125, -11.23388671875, -10.376953125, -9.52001953125, -8.6630859375, -7.80615234375, -6.94921875, -6.09228515625, -5.2353515625, -4.37841796875, -3.521484375, -2.66455078125, -1.8076171875, -0.95068359375, -0.09375, 0.76318359375, 1.6201171875, 2.47705078125, 3.333984375, 4.19091796875, 5.0478515625, 5.90478515625, 6.76171875, 7.61865234375, 8.4755859375, 9.33251953125, 10.189453125, 11.04638671875, 11.9033203125, 12.76025390625, 13.6171875, 14.47412109375, 15.3310546875, 16.18798828125, 17.044921875, 17.90185546875, 18.7587890625, 19.61572265625, 20.47265625, 21.32958984375, 22.1865234375, 23.04345703125, 23.900390625, 24.75732421875, 25.6142578125, 26.47119140625, 27.328125]}, "gradients/graph_1stochastic_state_model.fc2.weight": {"_type": "histogram", "values": [1.0, 0.0, 0.0, 1.0, 0.0, 0.0, 0.0, 0.0, 0.0, 2.0, 1.0, 1.0, 4.0, 2.0, 3.0, 6.0, 8.0, 17.0, 19.0, 18.0, 37.0, 42.0, 60.0, 97.0, 132.0, 204.0, 299.0, 443.0, 713.0, 1076.0, 1574.0, 2262.0, 3343.0, 4723.0, 7335.0, 12504.0, 21654.0, 26138.0, 18724.0, 10709.0, 6352.0, 3947.0, 2713.0, 1860.0, 1328.0, 946.0, 549.0, 392.0, 256.0, 205.0, 134.0, 78.0, 55.0, 34.0, 25.0, 18.0, 13.0, 4.0, 6.0, 1.0, 1.0, 1.0, 0.0, 2.0], "bins": [-2.646484375, -2.57568359375, -2.5048828125, -2.43408203125, -2.36328125, -2.29248046875, -2.2216796875, -2.15087890625, -2.080078125, -2.00927734375, -1.9384765625, -1.86767578125, -1.796875, -1.72607421875, -1.6552734375, -1.58447265625, -1.513671875, -1.44287109375, -1.3720703125, -1.30126953125, -1.23046875, -1.15966796875, -1.0888671875, -1.01806640625, -0.947265625, -0.87646484375, -0.8056640625, -0.73486328125, -0.6640625, -0.59326171875, -0.5224609375, -0.45166015625, -0.380859375, -0.31005859375, -0.2392578125, -0.16845703125, -0.09765625, -0.02685546875, 0.0439453125, 0.11474609375, 0.185546875, 0.25634765625, 0.3271484375, 0.39794921875, 0.46875, 0.53955078125, 0.6103515625, 0.68115234375, 0.751953125, 0.82275390625, 0.8935546875, 0.96435546875, 1.03515625, 1.10595703125, 1.1767578125, 1.24755859375, 1.318359375, 1.38916015625, 1.4599609375, 1.53076171875, 1.6015625, 1.67236328125, 1.7431640625, 1.81396484375, 1.884765625]}, "gradients/graph_1stochastic_state_model.fc2.bias": {"_type": "histogram", "values": [1.0, 0.0, 0.0, 0.0, 0.0, 0.0, 0.0, 0.0, 0.0, 0.0, 0.0, 2.0, 0.0, 1.0, 0.0, 1.0, 1.0, 1.0, 0.0, 0.0, 0.0, 4.0, 0.0, 3.0, 8.0, 2.0, 6.0, 7.0, 5.0, 5.0, 7.0, 12.0, 10.0, 15.0, 11.0, 28.0, 20.0, 28.0, 22.0, 32.0, 44.0, 37.0, 37.0, 33.0, 30.0, 16.0, 9.0, 15.0, 9.0, 7.0, 1.0, 10.0, 7.0, 3.0, 1.0, 1.0, 4.0, 5.0, 2.0, 1.0, 1.0, 3.0, 2.0, 2.0], "bins": [-1.595703125, -1.5555953979492188, -1.5154876708984375, -1.4753799438476562, -1.435272216796875, -1.3951644897460938, -1.3550567626953125, -1.3149490356445312, -1.27484130859375, -1.2347335815429688, -1.1946258544921875, -1.1545181274414062, -1.114410400390625, -1.0743026733398438, -1.0341949462890625, -0.9940872192382812, -0.9539794921875, -0.9138717651367188, -0.8737640380859375, -0.8336563110351562, -0.793548583984375, -0.7534408569335938, -0.7133331298828125, -0.6732254028320312, -0.63311767578125, -0.5930099487304688, -0.5529022216796875, -0.5127944946289062, -0.472686767578125, -0.43257904052734375, -0.3924713134765625, -0.35236358642578125, -0.312255859375, -0.27214813232421875, -0.2320404052734375, -0.19193267822265625, -0.151824951171875, -0.11171722412109375, -0.0716094970703125, -0.03150177001953125, 0.00860595703125, 0.04871368408203125, 0.0888214111328125, 0.12892913818359375, 0.169036865234375, 0.20914459228515625, 0.2492523193359375, 0.28936004638671875, 0.3294677734375, 0.36957550048828125, 0.4096832275390625, 0.44979095458984375, 0.489898681640625, 0.5300064086914062, 0.5701141357421875, 0.6102218627929688, 0.65032958984375, 0.6904373168945312, 0.7305450439453125, 0.7706527709960938, 0.810760498046875, 0.8508682250976562, 0.8909759521484375, 0.9310836791992188, 0.97119140625]}, "gradients/graph_1stochastic_state_model.fc1.weight": {"_type": "histogram", "values": [1.0, 1.0, 0.0, 2.0, 2.0, 2.0, 0.0, 2.0, 5.0, 6.0, 11.0, 7.0, 16.0, 29.0, 26.0, 46.0, 78.0, 88.0, 145.0, 196.0, 284.0, 403.0, 540.0, 816.0, 1149.0, 1567.0, 2066.0, 2811.0, 3392.0, 4350.0, 5125.0, 5741.0, 5902.0, 5719.0, 5203.0, 4635.0, 3778.0, 2987.0, 2250.0, 1709.0, 1272.0, 951.0, 614.0, 456.0, 306.0, 276.0, 185.0, 114.0, 69.0, 60.0, 34.0, 35.0, 25.0, 13.0, 11.0, 6.0, 5.0, 0.0, 4.0, 2.0, 3.0, 3.0, 1.0, 1.0], "bins": [-2.9609375, -2.8699951171875, -2.779052734375, -2.6881103515625, -2.59716796875, -2.5062255859375, -2.415283203125, -2.3243408203125, -2.2333984375, -2.1424560546875, -2.051513671875, -1.9605712890625, -1.86962890625, -1.7786865234375, -1.687744140625, -1.5968017578125, -1.505859375, -1.4149169921875, -1.323974609375, -1.2330322265625, -1.14208984375, -1.0511474609375, -0.960205078125, -0.8692626953125, -0.7783203125, -0.6873779296875, -0.596435546875, -0.5054931640625, -0.41455078125, -0.3236083984375, -0.232666015625, -0.1417236328125, -0.05078125, 0.0401611328125, 0.131103515625, 0.2220458984375, 0.31298828125, 0.4039306640625, 0.494873046875, 0.5858154296875, 0.6767578125, 0.7677001953125, 0.858642578125, 0.9495849609375, 1.04052734375, 1.1314697265625, 1.222412109375, 1.3133544921875, 1.404296875, 1.4952392578125, 1.586181640625, 1.6771240234375, 1.76806640625, 1.8590087890625, 1.949951171875, 2.0408935546875, 2.1318359375, 2.2227783203125, 2.313720703125, 2.4046630859375, 2.49560546875, 2.5865478515625, 2.677490234375, 2.7684326171875, 2.859375]}, "gradients/graph_1stochastic_state_model.fc1.bias": {"_type": "histogram", "values": [1.0, 0.0, 1.0, 0.0, 0.0, 5.0, 3.0, 2.0, 0.0, 2.0, 3.0, 6.0, 3.0, 10.0, 9.0, 4.0, 7.0, 9.0, 2.0, 4.0, 9.0, 7.0, 16.0, 6.0, 12.0, 8.0, 6.0, 8.0, 4.0, 8.0, 9.0, 12.0, 5.0, 9.0, 10.0, 9.0, 5.0, 6.0, 6.0, 2.0, 5.0, 4.0, 1.0, 5.0, 3.0, 2.0, 1.0, 0.0, 1.0, 0.0, 1.0, 1.0, 0.0, 1.0, 1.0, 0.0, 0.0, 0.0, 0.0, 0.0, 1.0, 0.0, 0.0, 1.0], "bins": [-2.23046875, -2.1356201171875, -2.040771484375, -1.9459228515625, -1.85107421875, -1.7562255859375, -1.661376953125, -1.5665283203125, -1.4716796875, -1.3768310546875, -1.281982421875, -1.1871337890625, -1.09228515625, -0.9974365234375, -0.902587890625, -0.8077392578125, -0.712890625, -0.6180419921875, -0.523193359375, -0.4283447265625, -0.33349609375, -0.2386474609375, -0.143798828125, -0.0489501953125, 0.0458984375, 0.1407470703125, 0.235595703125, 0.3304443359375, 0.42529296875, 0.5201416015625, 0.614990234375, 0.7098388671875, 0.8046875, 0.8995361328125, 0.994384765625, 1.0892333984375, 1.18408203125, 1.2789306640625, 1.373779296875, 1.4686279296875, 1.5634765625, 1.6583251953125, 1.753173828125, 1.8480224609375, 1.94287109375, 2.0377197265625, 2.132568359375, 2.2274169921875, 2.322265625, 2.4171142578125, 2.511962890625, 2.6068115234375, 2.70166015625, 2.7965087890625, 2.891357421875, 2.9862060546875, 3.0810546875, 3.1759033203125, 3.270751953125, 3.3656005859375, 3.46044921875, 3.5552978515625, 3.650146484375, 3.7449951171875, 3.83984375]}, "gradients/graph_1rnn.weight_ih": {"_type": "histogram", "values": [2.0, 1.0, 0.0, 2.0, 2.0, 0.0, 2.0, 8.0, 6.0, 11.0, 22.0, 28.0, 58.0, 80.0, 100.0, 169.0, 250.0, 367.0, 631.0, 887.0, 1400.0, 2160.0, 3023.0, 4840.0, 7776.0, 16933.0, 66257.0, 56282.0, 14941.0, 7195.0, 4423.0, 2962.0, 1993.0, 1277.0, 844.0, 563.0, 358.0, 252.0, 168.0, 108.0, 67.0, 51.0, 40.0, 28.0, 5.0, 9.0, 9.0, 5.0, 4.0, 3.0, 1.0, 0.0, 1.0, 1.0, 0.0, 1.0, 1.0, 0.0, 0.0, 0.0, 0.0, 0.0, 0.0, 1.0], "bins": [-13.1640625, -12.6754150390625, -12.186767578125, -11.6981201171875, -11.20947265625, -10.7208251953125, -10.232177734375, -9.7435302734375, -9.2548828125, -8.7662353515625, -8.277587890625, -7.7889404296875, -7.30029296875, -6.8116455078125, -6.322998046875, -5.8343505859375, -5.345703125, -4.8570556640625, -4.368408203125, -3.8797607421875, -3.39111328125, -2.9024658203125, -2.413818359375, -1.9251708984375, -1.4365234375, -0.9478759765625, -0.459228515625, 0.0294189453125, 0.51806640625, 1.0067138671875, 1.495361328125, 1.9840087890625, 2.47265625, 2.9613037109375, 3.449951171875, 3.9385986328125, 4.42724609375, 4.9158935546875, 5.404541015625, 5.8931884765625, 6.3818359375, 6.8704833984375, 7.359130859375, 7.8477783203125, 8.33642578125, 8.8250732421875, 9.313720703125, 9.8023681640625, 10.291015625, 10.7796630859375, 11.268310546875, 11.7569580078125, 12.24560546875, 12.7342529296875, 13.222900390625, 13.7115478515625, 14.2001953125, 14.6888427734375, 15.177490234375, 15.6661376953125, 16.15478515625, 16.6434326171875, 17.132080078125, 17.6207275390625, 18.109375]}, "gradients/graph_1rnn.weight_hh": {"_type": "histogram", "values": [1.0, 0.0, 1.0, 0.0, 0.0, 0.0, 7.0, 4.0, 1.0, 2.0, 4.0, 11.0, 18.0, 16.0, 26.0, 35.0, 55.0, 66.0, 92.0, 113.0, 156.0, 234.0, 309.0, 440.0, 616.0, 836.0, 1158.0, 1606.0, 2267.0, 3406.0, 5266.0, 8961.0, 17952.0, 38439.0, 52619.0, 27549.0, 13090.0, 7113.0, 4363.0, 2849.0, 1948.0, 1370.0, 1038.0, 698.0, 538.0, 363.0, 249.0, 211.0, 126.0, 98.0, 66.0, 66.0, 45.0, 25.0, 23.0, 16.0, 17.0, 10.0, 10.0, 4.0, 0.0, 3.0, 2.0, 1.0], "bins": [-3.517578125, -3.41497802734375, -3.3123779296875, -3.20977783203125, -3.107177734375, -3.00457763671875, -2.9019775390625, -2.79937744140625, -2.69677734375, -2.59417724609375, -2.4915771484375, -2.38897705078125, -2.286376953125, -2.18377685546875, -2.0811767578125, -1.97857666015625, -1.8759765625, -1.77337646484375, -1.6707763671875, -1.56817626953125, -1.465576171875, -1.36297607421875, -1.2603759765625, -1.15777587890625, -1.05517578125, -0.95257568359375, -0.8499755859375, -0.74737548828125, -0.644775390625, -0.54217529296875, -0.4395751953125, -0.33697509765625, -0.234375, -0.13177490234375, -0.0291748046875, 0.07342529296875, 0.176025390625, 0.27862548828125, 0.3812255859375, 0.48382568359375, 0.58642578125, 0.68902587890625, 0.7916259765625, 0.89422607421875, 0.996826171875, 1.09942626953125, 1.2020263671875, 1.30462646484375, 1.4072265625, 1.50982666015625, 1.6124267578125, 1.71502685546875, 1.817626953125, 1.92022705078125, 2.0228271484375, 2.12542724609375, 2.22802734375, 2.33062744140625, 2.4332275390625, 2.53582763671875, 2.638427734375, 2.74102783203125, 2.8436279296875, 2.94622802734375, 3.048828125]}, "gradients/graph_1rnn.bias_ih": {"_type": "histogram", "values": [2.0, 0.0, 0.0, 0.0, 0.0, 1.0, 0.0, 1.0, 1.0, 0.0, 1.0, 1.0, 2.0, 0.0, 0.0, 1.0, 2.0, 2.0, 4.0, 2.0, 7.0, 10.0, 6.0, 4.0, 0.0, 4.0, 4.0, 7.0, 8.0, 6.0, 13.0, 21.0, 24.0, 21.0, 58.0, 115.0, 154.0, 97.0, 42.0, 28.0, 18.0, 15.0, 9.0, 7.0, 15.0, 3.0, 7.0, 2.0, 7.0, 2.0, 3.0, 1.0, 5.0, 3.0, 3.0, 5.0, 1.0, 2.0, 2.0, 2.0, 3.0, 0.0, 2.0, 2.0], "bins": [-5.16015625, -5.018524169921875, -4.87689208984375, -4.735260009765625, -4.5936279296875, -4.451995849609375, -4.31036376953125, -4.168731689453125, -4.027099609375, -3.885467529296875, -3.74383544921875, -3.602203369140625, -3.4605712890625, -3.318939208984375, -3.17730712890625, -3.035675048828125, -2.89404296875, -2.752410888671875, -2.61077880859375, -2.469146728515625, -2.3275146484375, -2.185882568359375, -2.04425048828125, -1.902618408203125, -1.760986328125, -1.619354248046875, -1.47772216796875, -1.336090087890625, -1.1944580078125, -1.052825927734375, -0.91119384765625, -0.769561767578125, -0.6279296875, -0.486297607421875, -0.34466552734375, -0.203033447265625, -0.0614013671875, 0.080230712890625, 0.22186279296875, 0.363494873046875, 0.505126953125, 0.646759033203125, 0.78839111328125, 0.930023193359375, 1.0716552734375, 1.213287353515625, 1.35491943359375, 1.496551513671875, 1.63818359375, 1.779815673828125, 1.92144775390625, 2.063079833984375, 2.2047119140625, 2.346343994140625, 2.48797607421875, 2.629608154296875, 2.771240234375, 2.912872314453125, 3.05450439453125, 3.196136474609375, 3.3377685546875, 3.479400634765625, 3.62103271484375, 3.762664794921875, 3.904296875]}, "gradients/graph_1rnn.bias_hh": {"_type": "histogram", "values": [1.0, 0.0, 0.0, 0.0, 0.0, 0.0, 2.0, 1.0, 1.0, 2.0, 0.0, 2.0, 3.0, 4.0, 1.0, 6.0, 4.0, 4.0, 8.0, 6.0, 4.0, 16.0, 9.0, 15.0, 15.0, 15.0, 29.0, 59.0, 87.0, 105.0, 120.0, 72.0, 37.0, 27.0, 12.0, 20.0, 13.0, 10.0, 6.0, 14.0, 7.0, 3.0, 3.0, 4.0, 4.0, 2.0, 3.0, 0.0, 0.0, 1.0, 3.0, 1.0, 1.0, 2.0, 1.0, 1.0, 1.0, 0.0, 0.0, 0.0, 0.0, 0.0, 0.0, 1.0], "bins": [-3.14453125, -3.039215087890625, -2.93389892578125, -2.828582763671875, -2.7232666015625, -2.617950439453125, -2.51263427734375, -2.407318115234375, -2.302001953125, -2.196685791015625, -2.09136962890625, -1.986053466796875, -1.8807373046875, -1.775421142578125, -1.67010498046875, -1.564788818359375, -1.45947265625, -1.354156494140625, -1.24884033203125, -1.143524169921875, -1.0382080078125, -0.932891845703125, -0.82757568359375, -0.722259521484375, -0.616943359375, -0.511627197265625, -0.40631103515625, -0.300994873046875, -0.1956787109375, -0.090362548828125, 0.01495361328125, 0.120269775390625, 0.2255859375, 0.330902099609375, 0.43621826171875, 0.541534423828125, 0.6468505859375, 0.752166748046875, 0.85748291015625, 0.962799072265625, 1.068115234375, 1.173431396484375, 1.27874755859375, 1.384063720703125, 1.4893798828125, 1.594696044921875, 1.70001220703125, 1.805328369140625, 1.91064453125, 2.015960693359375, 2.12127685546875, 2.226593017578125, 2.3319091796875, 2.437225341796875, 2.54254150390625, 2.647857666015625, 2.753173828125, 2.858489990234375, 2.96380615234375, 3.069122314453125, 3.1744384765625, 3.279754638671875, 3.38507080078125, 3.490386962890625, 3.595703125]}, "gradients/graph_1fc_embed_state_action.weight": {"_type": "histogram", "values": [1.0, 1.0, 1.0, 1.0, 0.0, 1.0, 1.0, 1.0, 0.0, 1.0, 4.0, 7.0, 12.0, 11.0, 15.0, 31.0, 35.0, 46.0, 80.0, 119.0, 180.0, 305.0, 482.0, 848.0, 1414.0, 2595.0, 5223.0, 10661.0, 19438.0, 12683.0, 6180.0, 3007.0, 1588.0, 921.0, 537.0, 305.0, 210.0, 131.0, 77.0, 58.0, 28.0, 26.0, 19.0, 8.0, 10.0, 6.0, 6.0, 2.0, 3.0, 1.0, 1.0, 2.0, 0.0, 1.0, 1.0, 1.0, 0.0, 0.0, 0.0, 1.0, 0.0, 0.0, 0.0, 1.0], "bins": [-31.609375, -30.504638671875, -29.39990234375, -28.295166015625, -27.1904296875, -26.085693359375, -24.98095703125, -23.876220703125, -22.771484375, -21.666748046875, -20.56201171875, -19.457275390625, -18.3525390625, -17.247802734375, -16.14306640625, -15.038330078125, -13.93359375, -12.828857421875, -11.72412109375, -10.619384765625, -9.5146484375, -8.409912109375, -7.30517578125, -6.200439453125, -5.095703125, -3.990966796875, -2.88623046875, -1.781494140625, -0.6767578125, 0.427978515625, 1.53271484375, 2.637451171875, 3.7421875, 4.846923828125, 5.95166015625, 7.056396484375, 8.1611328125, 9.265869140625, 10.37060546875, 11.475341796875, 12.580078125, 13.684814453125, 14.78955078125, 15.894287109375, 16.9990234375, 18.103759765625, 19.20849609375, 20.313232421875, 21.41796875, 22.522705078125, 23.62744140625, 24.732177734375, 25.8369140625, 26.941650390625, 28.04638671875, 29.151123046875, 30.255859375, 31.360595703125, 32.46533203125, 33.570068359375, 34.6748046875, 35.779541015625, 36.88427734375, 37.989013671875, 39.09375]}, "gradients/graph_1fc_embed_state_action.bias": {"_type": "histogram", "values": [1.0, 1.0, 1.0, 1.0, 2.0, 1.0, 6.0, 4.0, 3.0, 6.0, 7.0, 6.0, 10.0, 6.0, 11.0, 13.0, 11.0, 16.0, 8.0, 15.0, 14.0, 15.0, 10.0, 13.0, 14.0, 15.0, 10.0, 6.0, 8.0, 0.0, 6.0, 0.0, 4.0, 4.0, 2.0, 1.0, 0.0, 0.0, 2.0, 1.0, 0.0, 0.0, 0.0, 0.0, 1.0, 0.0, 0.0, 0.0, 0.0, 0.0, 0.0, 0.0, 0.0, 0.0, 0.0, 0.0, 0.0, 0.0, 0.0, 0.0, 0.0, 0.0, 0.0, 1.0], "bins": [-2.0234375, -1.91131591796875, -1.7991943359375, -1.68707275390625, -1.574951171875, -1.46282958984375, -1.3507080078125, -1.23858642578125, -1.12646484375, -1.01434326171875, -0.9022216796875, -0.79010009765625, -0.677978515625, -0.56585693359375, -0.4537353515625, -0.34161376953125, -0.2294921875, -0.11737060546875, -0.0052490234375, 0.10687255859375, 0.218994140625, 0.33111572265625, 0.4432373046875, 0.55535888671875, 0.66748046875, 0.77960205078125, 0.8917236328125, 1.00384521484375, 1.115966796875, 1.22808837890625, 1.3402099609375, 1.45233154296875, 1.564453125, 1.67657470703125, 1.7886962890625, 1.90081787109375, 2.012939453125, 2.12506103515625, 2.2371826171875, 2.34930419921875, 2.46142578125, 2.57354736328125, 2.6856689453125, 2.79779052734375, 2.909912109375, 3.02203369140625, 3.1341552734375, 3.24627685546875, 3.3583984375, 3.47052001953125, 3.5826416015625, 3.69476318359375, 3.806884765625, 3.91900634765625, 4.0311279296875, 4.14324951171875, 4.25537109375, 4.36749267578125, 4.4796142578125, 4.59173583984375, 4.703857421875, 4.81597900390625, 4.9281005859375, 5.04022216796875, 5.15234375]}, "gradients/graph_3conv.16.weight": {"_type": "histogram", "values": [1.0, 1.0, 0.0, 0.0, 0.0, 1.0, 0.0, 0.0, 1.0, 0.0, 1.0, 0.0, 1.0, 2.0, 2.0, 2.0, 2.0, 3.0, 3.0, 1.0, 4.0, 4.0, 5.0, 6.0, 7.0, 6.0, 6.0, 7.0, 5.0, 6.0, 13.0, 16.0, 12.0, 8.0, 11.0, 10.0, 15.0, 10.0, 6.0, 5.0, 7.0, 8.0, 3.0, 6.0, 8.0, 2.0, 5.0, 2.0, 2.0, 3.0, 3.0, 2.0, 5.0, 5.0, 2.0, 3.0, 2.0, 0.0, 1.0, 1.0, 1.0, 0.0, 1.0, 1.0], "bins": [-57.281185150146484, -55.65879821777344, -54.036415100097656, -52.41402816772461, -50.79164123535156, -49.16925811767578, -47.546871185302734, -45.92448425292969, -44.302101135253906, -42.67971420288086, -41.05733108520508, -39.43494415283203, -37.812557220458984, -36.19017028808594, -34.567787170410156, -32.94540023803711, -31.323013305664062, -29.70062828063965, -28.0782413482666, -26.455856323242188, -24.83346939086914, -23.211084365844727, -21.588699340820312, -19.966312408447266, -18.34392738342285, -16.721542358398438, -15.09915542602539, -13.476770401000977, -11.854384422302246, -10.231998443603516, -8.609613418579102, -6.987227439880371, -5.364837646484375, -3.7424519062042236, -2.1200661659240723, -0.4976806640625, 1.1247053146362305, 2.747091293334961, 4.369476318359375, 5.9918622970581055, 7.614248275756836, 9.236634254455566, 10.859020233154297, 12.481405258178711, 14.103791236877441, 15.726177215576172, 17.348562240600586, 18.970947265625, 20.593334197998047, 22.21571922302246, 23.838106155395508, 25.460491180419922, 27.08287811279297, 28.705263137817383, 30.327648162841797, 31.950035095214844, 33.572418212890625, 35.19480514526367, 36.81718826293945, 38.4395751953125, 40.06196212768555, 41.684349060058594, 43.306732177734375, 44.92911911010742, 46.55150604248047]}, "gradients/graph_3conv.16.bias": {"_type": "histogram", "values": [1.0, 0.0, 1.0, 0.0, 1.0, 1.0, 1.0, 1.0, 4.0, 3.0, 2.0, 4.0, 3.0, 2.0, 5.0, 5.0, 4.0, 8.0, 8.0, 6.0, 7.0, 9.0, 14.0, 8.0, 13.0, 10.0, 8.0, 7.0, 13.0, 6.0, 12.0, 10.0, 8.0, 9.0, 5.0, 4.0, 5.0, 6.0, 4.0, 1.0, 5.0, 2.0, 1.0, 2.0, 1.0, 6.0, 4.0, 0.0, 3.0, 1.0, 1.0, 1.0, 1.0, 0.0, 2.0, 2.0, 2.0, 1.0, 0.0, 1.0, 0.0, 0.0, 0.0, 1.0], "bins": [-45.0977897644043, -43.47100067138672, -41.844215393066406, -40.217430114746094, -38.590641021728516, -36.96385192871094, -35.337066650390625, -33.71028137207031, -32.083492279052734, -30.45670509338379, -28.829917907714844, -27.2031307220459, -25.576343536376953, -23.949556350708008, -22.322769165039062, -20.695981979370117, -19.069194793701172, -17.442407608032227, -15.815620422363281, -14.188833236694336, -12.56204605102539, -10.935258865356445, -9.3084716796875, -7.681684494018555, -6.054897308349609, -4.428110122680664, -2.8013229370117188, -1.1745357513427734, 0.4522514343261719, 2.079038619995117, 3.7058258056640625, 5.332612991333008, 6.9593963623046875, 8.586183547973633, 10.212970733642578, 11.839757919311523, 13.466545104980469, 15.093332290649414, 16.72011947631836, 18.346906661987305, 19.97369384765625, 21.600481033325195, 23.22726821899414, 24.854055404663086, 26.48084259033203, 28.107629776000977, 29.734416961669922, 31.361204147338867, 32.98799133300781, 34.614776611328125, 36.2415657043457, 37.86835479736328, 39.495140075683594, 41.121925354003906, 42.748714447021484, 44.37550354003906, 46.002288818359375, 47.62907409667969, 49.255863189697266, 50.882652282714844, 52.509437561035156, 54.13622283935547, 55.76301193237305, 57.389801025390625, 59.01658630371094]}, "gradients/graph_3conv.15.weight": {"_type": "histogram", "values": [1.0, 0.0, 1.0, 2.0, 3.0, 0.0, 2.0, 3.0, 2.0, 3.0, 9.0, 11.0, 16.0, 22.0, 25.0, 45.0, 61.0, 91.0, 136.0, 170.0, 303.0, 429.0, 639.0, 874.0, 1259.0, 1965.0, 2990.0, 4574.0, 7133.0, 11804.0, 19384.0, 33927.0, 60839.0, 104624.0, 111140.0, 64383.0, 37111.0, 22008.0, 13589.0, 8749.0, 5390.0, 3502.0, 2327.0, 1646.0, 989.0, 674.0, 511.0, 290.0, 210.0, 116.0, 114.0, 82.0, 38.0, 19.0, 19.0, 10.0, 9.0, 6.0, 1.0, 3.0, 0.0, 4.0, 0.0, 1.0], "bins": [-16.484375, -16.0006103515625, -15.516845703125, -15.0330810546875, -14.54931640625, -14.0655517578125, -13.581787109375, -13.0980224609375, -12.6142578125, -12.1304931640625, -11.646728515625, -11.1629638671875, -10.67919921875, -10.1954345703125, -9.711669921875, -9.2279052734375, -8.744140625, -8.2603759765625, -7.776611328125, -7.2928466796875, -6.80908203125, -6.3253173828125, -5.841552734375, -5.3577880859375, -4.8740234375, -4.3902587890625, -3.906494140625, -3.4227294921875, -2.93896484375, -2.4552001953125, -1.971435546875, -1.4876708984375, -1.00390625, -0.5201416015625, -0.036376953125, 0.4473876953125, 0.93115234375, 1.4149169921875, 1.898681640625, 2.3824462890625, 2.8662109375, 3.3499755859375, 3.833740234375, 4.3175048828125, 4.80126953125, 5.2850341796875, 5.768798828125, 6.2525634765625, 6.736328125, 7.2200927734375, 7.703857421875, 8.1876220703125, 8.67138671875, 9.1551513671875, 9.638916015625, 10.1226806640625, 10.6064453125, 11.0902099609375, 11.573974609375, 12.0577392578125, 12.54150390625, 13.0252685546875, 13.509033203125, 13.9927978515625, 14.4765625]}, "gradients/graph_3conv.13.weight": {"_type": "histogram", "values": [1.0, 0.0, 1.0, 0.0, 0.0, 0.0, 0.0, 0.0, 0.0, 0.0, 0.0, 0.0, 0.0, 0.0, 1.0, 0.0, 1.0, 0.0, 0.0, 2.0, 1.0, 0.0, 1.0, 2.0, 0.0, 0.0, 1.0, 1.0, 0.0, 1.0, 2.0, 2.0, 0.0, 2.0, 3.0, 2.0, 1.0, 1.0, 4.0, 3.0, 4.0, 4.0, 2.0, 7.0, 11.0, 5.0, 9.0, 12.0, 5.0, 4.0, 3.0, 2.0, 3.0, 6.0, 2.0, 4.0, 2.0, 1.0, 3.0, 2.0, 1.0, 0.0, 1.0, 2.0], "bins": [-101.14608001708984, -98.84138488769531, -96.53668975830078, -94.23200225830078, -91.92730712890625, -89.62261199951172, -87.31791687011719, -85.01322174072266, -82.70852661132812, -80.4038314819336, -78.09913635253906, -75.79444885253906, -73.48975372314453, -71.18505859375, -68.88036346435547, -66.57566833496094, -64.27098083496094, -61.966285705566406, -59.66159439086914, -57.35689926147461, -55.052207946777344, -52.74751281738281, -50.44281768798828, -48.13812255859375, -45.833431243896484, -43.52873611450195, -41.22404479980469, -38.919349670410156, -36.614654541015625, -34.30996322631836, -32.00526809692383, -29.70057487487793, -27.395889282226562, -25.091196060180664, -22.786502838134766, -20.481807708740234, -18.177114486694336, -15.872421264648438, -13.567727088928223, -11.263032913208008, -8.95833969116211, -6.653645992279053, -4.348952293395996, -2.0442585945129395, 0.2604351043701172, 2.5651283264160156, 4.8698225021362305, 7.174516677856445, 9.479209899902344, 11.783903121948242, 14.088597297668457, 16.393291473388672, 18.69798469543457, 21.00267791748047, 23.307373046875, 25.6120662689209, 27.916759490966797, 30.221452713012695, 32.526145935058594, 34.830841064453125, 37.135536193847656, 39.44022750854492, 41.74492263793945, 44.04961395263672, 46.35430908203125]}, "gradients/graph_3conv.13.bias": {"_type": "histogram", "values": [1.0, 1.0, 0.0, 0.0, 0.0, 0.0, 0.0, 0.0, 1.0, 0.0, 1.0, 0.0, 0.0, 2.0, 0.0, 1.0, 1.0, 0.0, 2.0, 2.0, 1.0, 1.0, 4.0, 4.0, 6.0, 5.0, 9.0, 6.0, 8.0, 9.0, 12.0, 12.0, 6.0, 5.0, 3.0, 3.0, 2.0, 4.0, 2.0, 2.0, 0.0, 2.0, 2.0, 2.0, 3.0, 1.0, 0.0, 1.0, 0.0, 0.0, 0.0, 0.0, 0.0, 0.0, 0.0, 0.0, 0.0, 0.0, 0.0, 0.0, 0.0, 0.0, 0.0, 1.0], "bins": [-71.9645767211914, -69.63567352294922, -67.30677795410156, -64.97787475585938, -62.64897537231445, -60.32007598876953, -57.991172790527344, -55.66227340698242, -53.3333740234375, -51.00447463989258, -48.675575256347656, -46.34667205810547, -44.01777267456055, -41.688873291015625, -39.35997009277344, -37.031070709228516, -34.702171325683594, -32.37327194213867, -30.044370651245117, -27.715469360351562, -25.38656997680664, -23.05767059326172, -20.728769302368164, -18.39986801147461, -16.070968627929688, -13.74206829071045, -11.413167953491211, -9.084267616271973, -6.755367279052734, -4.426466941833496, -2.097566604614258, 0.23133468627929688, 2.5602264404296875, 4.889126777648926, 7.218027114868164, 9.546927452087402, 11.87582778930664, 14.204728126525879, 16.533628463745117, 18.862529754638672, 21.191429138183594, 23.520328521728516, 25.84922981262207, 28.178131103515625, 30.507030487060547, 32.83592987060547, 35.164833068847656, 37.49373245239258, 39.8226318359375, 42.15153121948242, 44.480430603027344, 46.80933380126953, 49.13823318481445, 51.467132568359375, 53.79603576660156, 56.124935150146484, 58.453834533691406, 60.78273391723633, 63.11163330078125, 65.44053649902344, 67.76943969726562, 70.09833526611328, 72.42723846435547, 74.75613403320312, 77.08503723144531]}, "gradients/graph_3conv.12.weight": {"_type": "histogram", "values": [2.0, 0.0, 5.0, 2.0, 5.0, 3.0, 7.0, 9.0, 3.0, 10.0, 13.0, 9.0, 11.0, 27.0, 24.0, 26.0, 38.0, 54.0, 65.0, 88.0, 111.0, 133.0, 195.0, 326.0, 493.0, 771.0, 1111.0, 1669.0, 2395.0, 3764.0, 6141.0, 9746.0, 14454.0, 22861.0, 23229.0, 12538.0, 8905.0, 6577.0, 4578.0, 3151.0, 2225.0, 1575.0, 1053.0, 785.0, 595.0, 387.0, 257.0, 167.0, 138.0, 110.0, 60.0, 49.0, 27.0, 23.0, 19.0, 13.0, 10.0, 9.0, 8.0, 6.0, 3.0, 1.0, 1.0, 2.0], "bins": [-32.0, -31.06005859375, -30.1201171875, -29.18017578125, -28.240234375, -27.30029296875, -26.3603515625, -25.42041015625, -24.48046875, -23.54052734375, -22.6005859375, -21.66064453125, -20.720703125, -19.78076171875, -18.8408203125, -17.90087890625, -16.9609375, -16.02099609375, -15.0810546875, -14.14111328125, -13.201171875, -12.26123046875, -11.3212890625, -10.38134765625, -9.44140625, -8.50146484375, -7.5615234375, -6.62158203125, -5.681640625, -4.74169921875, -3.8017578125, -2.86181640625, -1.921875, -0.98193359375, -0.0419921875, 0.89794921875, 1.837890625, 2.77783203125, 3.7177734375, 4.65771484375, 5.59765625, 6.53759765625, 7.4775390625, 8.41748046875, 9.357421875, 10.29736328125, 11.2373046875, 12.17724609375, 13.1171875, 14.05712890625, 14.9970703125, 15.93701171875, 16.876953125, 17.81689453125, 18.7568359375, 19.69677734375, 20.63671875, 21.57666015625, 22.5166015625, 23.45654296875, 24.396484375, 25.33642578125, 26.2763671875, 27.21630859375, 28.15625]}, "gradients/graph_3conv.10.weight": {"_type": "histogram", "values": [1.0, 0.0, 0.0, 0.0, 1.0, 0.0, 0.0, 0.0, 0.0, 0.0, 0.0, 0.0, 0.0, 0.0, 0.0, 0.0, 0.0, 0.0, 0.0, 0.0, 0.0, 1.0, 0.0, 0.0, 0.0, 0.0, 1.0, 0.0, 1.0, 1.0, 0.0, 1.0, 1.0, 2.0, 2.0, 0.0, 5.0, 5.0, 3.0, 6.0, 8.0, 1.0, 2.0, 5.0, 3.0, 3.0, 0.0, 0.0, 3.0, 1.0, 0.0, 2.0, 0.0, 1.0, 0.0, 1.0, 1.0, 0.0, 1.0, 0.0, 0.0, 0.0, 0.0, 1.0], "bins": [-159.58102416992188, -155.56985473632812, -151.55868530273438, -147.54751586914062, -143.53634643554688, -139.5251922607422, -135.51402282714844, -131.5028533935547, -127.49168395996094, -123.48051452636719, -119.46934509277344, -115.45818328857422, -111.44701385498047, -107.43584442138672, -103.4246826171875, -99.41351318359375, -95.40234375, -91.39117431640625, -87.3800048828125, -83.36884307861328, -79.35767364501953, -75.34650421142578, -71.33534240722656, -67.32417297363281, -63.31300354003906, -59.30183410644531, -55.29066848754883, -51.279502868652344, -47.268333435058594, -43.257164001464844, -39.24599838256836, -35.234832763671875, -31.223648071289062, -27.212480545043945, -23.201313018798828, -19.19014549255371, -15.178977966308594, -11.167810440063477, -7.156642913818359, -3.145475387573242, 0.865692138671875, 4.876859664916992, 8.88802719116211, 12.899194717407227, 16.910362243652344, 20.92152976989746, 24.932697296142578, 28.943864822387695, 32.95503234863281, 36.96620178222656, 40.97736740112305, 44.98853302001953, 48.99970245361328, 53.01087188720703, 57.022037506103516, 61.033203125, 65.04437255859375, 69.0555419921875, 73.06671142578125, 77.07787322998047, 81.08904266357422, 85.10021209716797, 89.11137390136719, 93.12254333496094, 97.13371276855469]}, "gradients/graph_3conv.10.bias": {"_type": "histogram", "values": [1.0, 0.0, 0.0, 0.0, 0.0, 1.0, 0.0, 0.0, 0.0, 0.0, 0.0, 0.0, 0.0, 0.0, 1.0, 1.0, 0.0, 2.0, 3.0, 1.0, 2.0, 4.0, 3.0, 3.0, 3.0, 2.0, 3.0, 0.0, 3.0, 6.0, 5.0, 2.0, 7.0, 1.0, 1.0, 0.0, 0.0, 2.0, 2.0, 0.0, 1.0, 1.0, 1.0, 0.0, 0.0, 0.0, 0.0, 0.0, 0.0, 0.0, 1.0, 0.0, 0.0, 0.0, 0.0, 0.0, 0.0, 0.0, 0.0, 0.0, 0.0, 0.0, 0.0, 1.0], "bins": [-80.41525268554688, -77.64920043945312, -74.88314819335938, -72.11709594726562, -69.35103607177734, -66.5849838256836, -63.818931579589844, -61.052879333496094, -58.28682327270508, -55.52077102661133, -52.75471496582031, -49.98866271972656, -47.22261047363281, -44.4565544128418, -41.69050216674805, -38.92444610595703, -36.15839385986328, -33.39234161376953, -30.626285552978516, -27.860233306884766, -25.094179153442383, -22.328125, -19.56207275390625, -16.796018600463867, -14.029964447021484, -11.263910293579102, -8.497857093811035, -5.731803894042969, -2.965749740600586, -0.19969558715820312, 2.566356658935547, 5.33241081237793, 8.098457336425781, 10.864511489868164, 13.63056468963623, 16.396617889404297, 19.16267204284668, 21.928726196289062, 24.694778442382812, 27.460832595825195, 30.226886749267578, 32.99293899536133, 35.758995056152344, 38.525047302246094, 41.291099548339844, 44.05715560913086, 46.82320785522461, 49.589263916015625, 52.355316162109375, 55.121368408203125, 57.88742446899414, 60.65347671508789, 63.419532775878906, 66.18558502197266, 68.9516372680664, 71.71768951416016, 74.48374938964844, 77.24980163574219, 80.01585388183594, 82.78190612792969, 85.54796600341797, 88.31401824951172, 91.08007049560547, 93.84612274169922, 96.61217498779297]}, "gradients/graph_3conv.9.weight": {"_type": "histogram", "values": [4.0, 1.0, 1.0, 2.0, 0.0, 3.0, 6.0, 9.0, 15.0, 32.0, 56.0, 53.0, 55.0, 80.0, 84.0, 111.0, 162.0, 226.0, 380.0, 500.0, 756.0, 1005.0, 1355.0, 1750.0, 2289.0, 2857.0, 3570.0, 4086.0, 3744.0, 2979.0, 1858.0, 1317.0, 817.0, 477.0, 356.0, 282.0, 275.0, 249.0, 170.0, 185.0, 172.0, 95.0, 80.0, 73.0, 43.0, 28.0, 28.0, 19.0, 11.0, 13.0, 9.0, 8.0, 6.0, 2.0, 3.0, 4.0, 5.0, 3.0, 4.0, 3.0, 0.0, 1.0, 0.0, 1.0], "bins": [-39.5625, -38.107421875, -36.65234375, -35.197265625, -33.7421875, -32.287109375, -30.83203125, -29.376953125, -27.921875, -26.466796875, -25.01171875, -23.556640625, -22.1015625, -20.646484375, -19.19140625, -17.736328125, -16.28125, -14.826171875, -13.37109375, -11.916015625, -10.4609375, -9.005859375, -7.55078125, -6.095703125, -4.640625, -3.185546875, -1.73046875, -0.275390625, 1.1796875, 2.634765625, 4.08984375, 5.544921875, 7.0, 8.455078125, 9.91015625, 11.365234375, 12.8203125, 14.275390625, 15.73046875, 17.185546875, 18.640625, 20.095703125, 21.55078125, 23.005859375, 24.4609375, 25.916015625, 27.37109375, 28.826171875, 30.28125, 31.736328125, 33.19140625, 34.646484375, 36.1015625, 37.556640625, 39.01171875, 40.466796875, 41.921875, 43.376953125, 44.83203125, 46.287109375, 47.7421875, 49.197265625, 50.65234375, 52.107421875, 53.5625]}, "gradients/graph_3conv.7.weight": {"_type": "histogram", "values": [1.0, 0.0, 0.0, 0.0, 0.0, 0.0, 0.0, 0.0, 0.0, 1.0, 0.0, 3.0, 0.0, 1.0, 0.0, 2.0, 0.0, 0.0, 1.0, 1.0, 1.0, 1.0, 0.0, 1.0, 0.0, 0.0, 1.0, 0.0, 0.0, 0.0, 1.0, 0.0, 2.0, 0.0, 1.0, 0.0, 0.0, 1.0, 0.0, 0.0, 0.0, 0.0, 0.0, 0.0, 1.0, 1.0, 2.0, 1.0, 2.0, 1.0, 1.0, 0.0, 0.0, 1.0, 0.0, 1.0, 0.0, 0.0, 0.0, 0.0, 1.0, 0.0, 0.0, 1.0], "bins": [-69.06600189208984, -66.93253326416016, -64.79906463623047, -62.66559600830078, -60.532127380371094, -58.398658752441406, -56.265193939208984, -54.1317253112793, -51.99825668334961, -49.86478805541992, -47.731319427490234, -45.59785079956055, -43.464385986328125, -41.33091735839844, -39.19744873046875, -37.06398010253906, -34.930511474609375, -32.79704284667969, -30.66357421875, -28.530107498168945, -26.396638870239258, -24.26317024230957, -22.129703521728516, -19.996234893798828, -17.86276626586914, -15.729297637939453, -13.595829963684082, -11.462362289428711, -9.328893661499023, -7.195425033569336, -5.061957359313965, -2.9284896850585938, -0.7950286865234375, 1.3384394645690918, 3.471907615661621, 5.60537576675415, 7.73884391784668, 9.872312545776367, 12.005780220031738, 14.13924789428711, 16.272716522216797, 18.406185150146484, 20.539653778076172, 22.673120498657227, 24.806589126586914, 26.9400577545166, 29.073524475097656, 31.206993103027344, 33.34046173095703, 35.47393035888672, 37.607398986816406, 39.740867614746094, 41.87433624267578, 44.00780487060547, 46.14126968383789, 48.27473831176758, 50.408206939697266, 52.54167556762695, 54.67514419555664, 56.80861282348633, 58.94207763671875, 61.07554626464844, 63.209014892578125, 65.34248352050781, 67.4759521484375]}, "gradients/graph_3conv.7.bias": {"_type": "histogram", "values": [3.0, 0.0, 1.0, 0.0, 0.0, 0.0, 0.0, 0.0, 0.0, 0.0, 1.0, 0.0, 0.0, 0.0, 3.0, 0.0, 1.0, 1.0, 0.0, 0.0, 1.0, 1.0, 0.0, 1.0, 2.0, 2.0, 0.0, 1.0, 1.0, 0.0, 1.0, 1.0, 0.0, 1.0, 0.0, 0.0, 0.0, 0.0, 1.0, 0.0, 0.0, 1.0, 1.0, 0.0, 0.0, 1.0, 2.0, 0.0, 0.0, 0.0, 0.0, 0.0, 0.0, 0.0, 1.0, 0.0, 0.0, 0.0, 1.0, 0.0, 0.0, 1.0, 0.0, 1.0], "bins": [-57.369720458984375, -56.059425354003906, -54.7491340637207, -53.438838958740234, -52.12854766845703, -50.81825256347656, -49.507957458496094, -48.197662353515625, -46.88737106323242, -45.57707595825195, -44.26678466796875, -42.95648956298828, -41.64619445800781, -40.33590316772461, -39.02560806274414, -37.71531677246094, -36.40502166748047, -35.0947265625, -33.7844352722168, -32.47414016723633, -31.163846969604492, -29.853553771972656, -28.543258666992188, -27.23296546936035, -25.922672271728516, -24.61237907409668, -23.302085876464844, -21.991790771484375, -20.68149757385254, -19.371204376220703, -18.060909271240234, -16.7506160736084, -15.440324783325195, -14.13003158569336, -12.819737434387207, -11.509443283081055, -10.199150085449219, -8.888856887817383, -7.5785627365112305, -6.268268585205078, -4.957975387573242, -3.647681713104248, -2.337388038635254, -1.0270943641662598, 0.2831993103027344, 1.5934929847717285, 2.9037866592407227, 4.214080810546875, 5.524374008178711, 6.834667682647705, 8.1449613571167, 9.455255508422852, 10.765548706054688, 12.075841903686523, 13.386136054992676, 14.696430206298828, 16.006723403930664, 17.3170166015625, 18.62731170654297, 19.937604904174805, 21.24789810180664, 22.558191299438477, 23.868484497070312, 25.17877960205078, 26.489072799682617]}, "gradients/graph_3conv.6.weight": {"_type": "histogram", "values": [3.0, 0.0, 11.0, 9.0, 28.0, 33.0, 23.0, 40.0, 41.0, 53.0, 92.0, 71.0, 79.0, 87.0, 117.0, 112.0, 115.0, 133.0, 197.0, 243.0, 388.0, 489.0, 568.0, 567.0, 598.0, 568.0, 536.0, 509.0, 476.0, 379.0, 302.0, 217.0, 163.0, 164.0, 104.0, 82.0, 54.0, 56.0, 39.0, 39.0, 39.0, 48.0, 42.0, 36.0, 38.0, 27.0, 17.0, 10.0, 16.0, 12.0, 17.0, 13.0, 23.0, 16.0, 8.0, 6.0, 9.0, 4.0, 7.0, 4.0, 6.0, 2.0, 3.0, 4.0], "bins": [-37.65625, -36.1396484375, -34.623046875, -33.1064453125, -31.58984375, -30.0732421875, -28.556640625, -27.0400390625, -25.5234375, -24.0068359375, -22.490234375, -20.9736328125, -19.45703125, -17.9404296875, -16.423828125, -14.9072265625, -13.390625, -11.8740234375, -10.357421875, -8.8408203125, -7.32421875, -5.8076171875, -4.291015625, -2.7744140625, -1.2578125, 0.2587890625, 1.775390625, 3.2919921875, 4.80859375, 6.3251953125, 7.841796875, 9.3583984375, 10.875, 12.3916015625, 13.908203125, 15.4248046875, 16.94140625, 18.4580078125, 19.974609375, 21.4912109375, 23.0078125, 24.5244140625, 26.041015625, 27.5576171875, 29.07421875, 30.5908203125, 32.107421875, 33.6240234375, 35.140625, 36.6572265625, 38.173828125, 39.6904296875, 41.20703125, 42.7236328125, 44.240234375, 45.7568359375, 47.2734375, 48.7900390625, 50.306640625, 51.8232421875, 53.33984375, 54.8564453125, 56.373046875, 57.8896484375, 59.40625]}, "gradients/graph_3conv.4.weight": {"_type": "histogram", "values": [1.0, 0.0, 0.0, 0.0, 0.0, 0.0, 0.0, 0.0, 0.0, 1.0, 1.0, 1.0, 0.0, 0.0, 0.0, 0.0, 0.0, 0.0, 0.0, 0.0, 0.0, 0.0, 0.0, 0.0, 0.0, 0.0, 0.0, 0.0, 0.0, 0.0, 0.0, 0.0, 0.0, 0.0, 0.0, 0.0, 2.0, 1.0, 0.0, 0.0, 1.0, 2.0, 0.0, 1.0, 0.0, 0.0, 0.0, 1.0, 0.0, 1.0, 0.0, 0.0, 0.0, 1.0, 0.0, 0.0, 1.0, 0.0, 0.0, 0.0, 0.0, 0.0, 0.0, 1.0], "bins": [-95.26589965820312, -92.58880615234375, -89.9117202758789, -87.23462677001953, -84.55754089355469, -81.88044738769531, -79.20335388183594, -76.52626037597656, -73.84917449951172, -71.17208099365234, -68.4949951171875, -65.81790161132812, -63.140811920166016, -60.463722229003906, -57.78662872314453, -55.10953903198242, -52.43244934082031, -49.7553596496582, -47.078269958496094, -44.40117645263672, -41.72408676147461, -39.0469970703125, -36.369903564453125, -33.692813873291016, -31.015724182128906, -28.338634490966797, -25.661542892456055, -22.984451293945312, -20.307361602783203, -17.630271911621094, -14.953180313110352, -12.27608871459961, -9.599006652832031, -6.9219160079956055, -4.24482536315918, -1.567734718322754, 1.1093559265136719, 3.7864465713500977, 6.463537216186523, 9.140628814697266, 11.817718505859375, 14.4948091506958, 17.171899795532227, 19.84899139404297, 22.526081085205078, 25.203170776367188, 27.88026237487793, 30.557353973388672, 33.23444366455078, 35.91153335571289, 38.588623046875, 41.265716552734375, 43.942806243896484, 46.619895935058594, 49.29698944091797, 51.97407913208008, 54.65116882324219, 57.3282585144043, 60.005348205566406, 62.68244171142578, 65.35952758789062, 68.03662109375, 70.71371459960938, 73.39080810546875, 76.0678939819336]}, "gradients/graph_3conv.4.bias": {"_type": "histogram", "values": [1.0, 0.0, 0.0, 0.0, 0.0, 0.0, 0.0, 0.0, 0.0, 1.0, 0.0, 0.0, 1.0, 0.0, 0.0, 0.0, 3.0, 0.0, 0.0, 1.0, 0.0, 0.0, 1.0, 0.0, 0.0, 0.0, 1.0, 1.0, 2.0, 1.0, 0.0, 0.0, 0.0, 0.0, 0.0, 0.0, 0.0, 0.0, 0.0, 0.0, 0.0, 0.0, 0.0, 0.0, 1.0, 0.0, 0.0, 0.0, 0.0, 0.0, 0.0, 0.0, 0.0, 1.0, 0.0, 0.0, 0.0, 0.0, 0.0, 0.0, 0.0, 0.0, 0.0, 1.0], "bins": [-93.92570495605469, -91.7508773803711, -89.57605743408203, -87.40122985839844, -85.22640991210938, -83.05158233642578, -80.87676239013672, -78.70193481445312, -76.52711486816406, -74.35228729248047, -72.1774673461914, -70.00263977050781, -67.82781982421875, -65.65299224853516, -63.47816848754883, -61.3033447265625, -59.128517150878906, -56.95369338989258, -54.77886962890625, -52.60404586791992, -50.429222106933594, -48.25439453125, -46.07957077026367, -43.904747009277344, -41.729923248291016, -39.55509948730469, -37.38027572631836, -35.20545196533203, -33.03062438964844, -30.855802536010742, -28.68097686767578, -26.506153106689453, -24.331321716308594, -22.156497955322266, -19.981674194335938, -17.806848526000977, -15.632024765014648, -13.45720100402832, -11.282376289367676, -9.107551574707031, -6.932727813720703, -4.757903575897217, -2.5830793380737305, -0.40825510025024414, 1.7665691375732422, 3.9413928985595703, 6.116217613220215, 8.29104232788086, 10.465866088867188, 12.640689849853516, 14.81551456451416, 16.990339279174805, 19.165163040161133, 21.33998680114746, 23.514812469482422, 25.68963623046875, 27.864459991455078, 30.039283752441406, 32.214107513427734, 34.38893127441406, 36.563758850097656, 38.73857879638672, 40.91340637207031, 43.08823013305664, 45.26305389404297]}, "gradients/graph_3conv.3.weight": {"_type": "histogram", "values": [2.0, 2.0, 1.0, 6.0, 8.0, 6.0, 15.0, 23.0, 24.0, 18.0, 32.0, 18.0, 30.0, 34.0, 48.0, 66.0, 68.0, 74.0, 98.0, 96.0, 97.0, 95.0, 139.0, 142.0, 126.0, 131.0, 107.0, 73.0, 70.0, 54.0, 54.0, 38.0, 44.0, 25.0, 18.0, 18.0, 29.0, 17.0, 14.0, 13.0, 6.0, 4.0, 6.0, 3.0, 4.0, 7.0, 12.0, 4.0, 1.0, 1.0, 8.0, 2.0, 3.0, 2.0, 0.0, 1.0, 0.0, 2.0, 1.0, 0.0, 1.0, 1.0, 1.0, 5.0], "bins": [-62.3125, -59.4873046875, -56.662109375, -53.8369140625, -51.01171875, -48.1865234375, -45.361328125, -42.5361328125, -39.7109375, -36.8857421875, -34.060546875, -31.2353515625, -28.41015625, -25.5849609375, -22.759765625, -19.9345703125, -17.109375, -14.2841796875, -11.458984375, -8.6337890625, -5.80859375, -2.9833984375, -0.158203125, 2.6669921875, 5.4921875, 8.3173828125, 11.142578125, 13.9677734375, 16.79296875, 19.6181640625, 22.443359375, 25.2685546875, 28.09375, 30.9189453125, 33.744140625, 36.5693359375, 39.39453125, 42.2197265625, 45.044921875, 47.8701171875, 50.6953125, 53.5205078125, 56.345703125, 59.1708984375, 61.99609375, 64.8212890625, 67.646484375, 70.4716796875, 73.296875, 76.1220703125, 78.947265625, 81.7724609375, 84.59765625, 87.4228515625, 90.248046875, 93.0732421875, 95.8984375, 98.7236328125, 101.548828125, 104.3740234375, 107.19921875, 110.0244140625, 112.849609375, 115.6748046875, 118.5]}, "gradients/graph_3conv.1.weight": {"_type": "histogram", "values": [1.0, 0.0, 0.0, 0.0, 0.0, 1.0, 2.0, 0.0, 0.0, 0.0, 0.0, 0.0, 0.0, 0.0, 0.0, 0.0, 0.0, 0.0, 0.0, 0.0, 0.0, 0.0, 0.0, 0.0, 1.0, 0.0, 0.0, 0.0, 0.0, 0.0, 0.0, 0.0, 0.0, 0.0, 0.0, 0.0, 0.0, 0.0, 0.0, 0.0, 0.0, 0.0, 0.0, 0.0, 0.0, 0.0, 0.0, 0.0, 0.0, 0.0, 0.0, 0.0, 0.0, 0.0, 0.0, 0.0, 0.0, 0.0, 0.0, 1.0, 0.0, 1.0, 0.0, 1.0], "bins": [-123.40387725830078, -119.1108627319336, -114.8178482055664, -110.52483367919922, -106.2318115234375, -101.93879699707031, -97.64578247070312, -93.35276794433594, -89.05975341796875, -84.76673889160156, -80.47372436523438, -76.18070983886719, -71.8876953125, -67.59468078613281, -63.301658630371094, -59.008644104003906, -54.71562957763672, -50.42261505126953, -46.129600524902344, -41.83658218383789, -37.5435676574707, -33.250553131103516, -28.957536697387695, -24.664520263671875, -20.371505737304688, -16.0784912109375, -11.78547477722168, -7.492459297180176, -3.199443817138672, 1.0935707092285156, 5.386587142944336, 9.679603576660156, 13.972610473632812, 18.265625, 22.55864143371582, 26.85165786743164, 31.144672393798828, 35.437686920166016, 39.73070526123047, 44.023719787597656, 48.316734313964844, 52.60974884033203, 56.90276336669922, 61.19578170776367, 65.48880004882812, 69.78181457519531, 74.0748291015625, 78.36784362792969, 82.66085815429688, 86.95387268066406, 91.24688720703125, 95.53990173339844, 99.83291625976562, 104.12593078613281, 108.41895294189453, 112.71196746826172, 117.0049819946289, 121.2979965209961, 125.59101104736328, 129.884033203125, 134.1770477294922, 138.47006225585938, 142.76307678222656, 147.05609130859375, 151.34910583496094]}, "gradients/graph_3conv.1.bias": {"_type": "histogram", "values": [1.0, 0.0, 0.0, 0.0, 0.0, 0.0, 0.0, 0.0, 0.0, 0.0, 0.0, 0.0, 0.0, 0.0, 0.0, 0.0, 0.0, 0.0, 0.0, 0.0, 0.0, 1.0, 0.0, 0.0, 0.0, 1.0, 0.0, 0.0, 0.0, 0.0, 0.0, 0.0, 0.0, 0.0, 0.0, 0.0, 0.0, 0.0, 0.0, 0.0, 0.0, 0.0, 0.0, 0.0, 0.0, 0.0, 0.0, 0.0, 0.0, 0.0, 1.0, 0.0, 0.0, 0.0, 0.0, 1.0, 1.0, 0.0, 1.0, 0.0, 0.0, 0.0, 0.0, 1.0], "bins": [-117.70716857910156, -116.71023559570312, -115.71329498291016, -114.71636199951172, -113.71942138671875, -112.72248840332031, -111.72555541992188, -110.7286148071289, -109.73168182373047, -108.73474884033203, -107.73780822753906, -106.74087524414062, -105.74393463134766, -104.74700164794922, -103.75006866455078, -102.75312805175781, -101.75619506835938, -100.75926208496094, -99.76232147216797, -98.76538848876953, -97.76844787597656, -96.77151489257812, -95.77458190917969, -94.77764129638672, -93.78070831298828, -92.78377532958984, -91.78683471679688, -90.78990173339844, -89.79296112060547, -88.79602813720703, -87.7990951538086, -86.80215454101562, -85.80522155761719, -84.80828857421875, -83.81134796142578, -82.81441497802734, -81.81747436523438, -80.82054138183594, -79.8236083984375, -78.82666778564453, -77.8297348022461, -76.83280181884766, -75.83586120605469, -74.83892822265625, -73.84198760986328, -72.84505462646484, -71.8481216430664, -70.85118103027344, -69.854248046875, -68.85731506347656, -67.8603744506836, -66.86344146728516, -65.86650085449219, -64.86956787109375, -63.87263107299805, -62.87569808959961, -61.87875747680664, -60.88182067871094, -59.884883880615234, -58.8879508972168, -57.891014099121094, -56.89407730102539, -55.89714050292969, -54.90020751953125, -53.90327072143555]}, "gradients/graph_3conv.0.weight": {"_type": "histogram", "values": [1.0, 1.0, 2.0, 2.0, 1.0, 1.0, 2.0, 1.0, 2.0, 1.0, 1.0, 2.0, 3.0, 1.0, 4.0, 2.0, 2.0, 2.0, 4.0, 7.0, 6.0, 6.0, 4.0, 2.0, 5.0, 9.0, 17.0, 7.0, 9.0, 4.0, 6.0, 8.0, 13.0, 8.0, 10.0, 17.0, 21.0, 15.0, 16.0, 14.0, 12.0, 13.0, 12.0, 13.0, 17.0, 17.0, 9.0, 5.0, 2.0, 1.0, 3.0, 2.0, 3.0, 2.0, 2.0, 6.0, 6.0, 5.0, 2.0, 1.0, 3.0, 3.0, 2.0, 4.0], "bins": [-125.0625, -121.8623046875, -118.662109375, -115.4619140625, -112.26171875, -109.0615234375, -105.861328125, -102.6611328125, -99.4609375, -96.2607421875, -93.060546875, -89.8603515625, -86.66015625, -83.4599609375, -80.259765625, -77.0595703125, -73.859375, -70.6591796875, -67.458984375, -64.2587890625, -61.05859375, -57.8583984375, -54.658203125, -51.4580078125, -48.2578125, -45.0576171875, -41.857421875, -38.6572265625, -35.45703125, -32.2568359375, -29.056640625, -25.8564453125, -22.65625, -19.4560546875, -16.255859375, -13.0556640625, -9.85546875, -6.6552734375, -3.455078125, -0.2548828125, 2.9453125, 6.1455078125, 9.345703125, 12.5458984375, 15.74609375, 18.9462890625, 22.146484375, 25.3466796875, 28.546875, 31.7470703125, 34.947265625, 38.1474609375, 41.34765625, 44.5478515625, 47.748046875, 50.9482421875, 54.1484375, 57.3486328125, 60.548828125, 63.7490234375, 66.94921875, 70.1494140625, 73.349609375, 76.5498046875, 79.75]}, "_wandb": {"runtime": 10004}}