{"observations_loss_sum/train": 1873.78662109375, "_timestamp": 1670953741.5637374, "image_hsr_256/train": 1873.78662109375, "reward_loss/train": 0.0, "kl_loss_sum/train": 91.9366226196289, "kl_loss/train": 91.9366226196289, "frame": 20000000, "_runtime": 9608.768341302872, "_step": 8000, "observations_loss_sum/validation": 4462.6494140625, "image_hsr_256/validation": 4462.6494140625, "reward_loss/validation": 0.0, "kl_loss_sum/validation": 153.10189819335938, "kl_loss/validation": 153.10189819335938, "gradients/decoder.conv.15.weight": {"_type": "histogram", "values": [1.0, 1.0, 2.0, 4.0, 4.0, 4.0, 8.0, 3.0, 11.0, 12.0, 18.0, 16.0, 25.0, 14.0, 23.0, 22.0, 18.0, 25.0, 31.0, 19.0, 30.0, 33.0, 26.0, 27.0, 27.0, 20.0, 8.0, 9.0, 8.0, 38.0, 41.0, 47.0, 29.0, 35.0, 39.0, 71.0, 66.0, 69.0, 65.0, 90.0, 44.0, 24.0, 29.0, 55.0, 38.0, 48.0, 53.0, 52.0, 65.0, 62.0, 42.0, 35.0, 34.0, 20.0, 15.0, 10.0, 9.0, 11.0, 5.0, 5.0, 4.0, 9.0, 9.0, 11.0], "bins": [-1120.0, -1091.796875, -1063.59375, -1035.390625, -1007.1875, -978.984375, -950.78125, -922.578125, -894.375, -866.171875, -837.96875, -809.765625, -781.5625, -753.359375, -725.15625, -696.953125, -668.75, -640.546875, -612.34375, -584.140625, -555.9375, -527.734375, -499.53125, -471.328125, -443.125, -414.921875, -386.71875, -358.515625, -330.3125, -302.109375, -273.90625, -245.703125, -217.5, -189.296875, -161.09375, -132.890625, -104.6875, -76.484375, -48.28125, -20.078125, 8.125, 36.328125, 64.53125, 92.734375, 120.9375, 149.140625, 177.34375, 205.546875, 233.75, 261.953125, 290.15625, 318.359375, 346.5625, 374.765625, 402.96875, 431.171875, 459.375, 487.578125, 515.78125, 543.984375, 572.1875, 600.390625, 628.59375, 656.796875, 685.0]}, "gradients/decoder.conv.15.bias": {"_type": "histogram", "values": [1.0, 0.0, 0.0, 0.0, 0.0, 0.0, 0.0, 0.0, 0.0, 0.0, 0.0, 0.0, 0.0, 0.0, 0.0, 0.0, 0.0, 0.0, 0.0, 0.0, 0.0, 0.0, 0.0, 0.0, 0.0, 0.0, 0.0, 0.0, 0.0, 0.0, 0.0, 0.0, 0.0, 0.0, 0.0, 0.0, 1.0, 0.0, 0.0, 0.0, 0.0, 0.0, 0.0, 0.0, 0.0, 0.0, 0.0, 0.0, 0.0, 0.0, 0.0, 0.0, 0.0, 0.0, 0.0, 0.0, 0.0, 0.0, 0.0, 0.0, 0.0, 0.0, 0.0, 1.0], "bins": [-7952.0, -7671.0, -7390.0, -7109.0, -6828.0, -6547.0, -6266.0, -5985.0, -5704.0, -5423.0, -5142.0, -4861.0, -4580.0, -4299.0, -4018.0, -3737.0, -3456.0, -3175.0, -2894.0, -2613.0, -2332.0, -2051.0, -1770.0, -1489.0, -1208.0, -927.0, -646.0, -365.0, -84.0, 197.0, 478.0, 759.0, 1040.0, 1321.0, 1602.0, 1883.0, 2164.0, 2445.0, 2726.0, 3007.0, 3288.0, 3569.0, 3850.0, 4131.0, 4412.0, 4693.0, 4974.0, 5255.0, 5536.0, 5817.0, 6098.0, 6379.0, 6660.0, 6941.0, 7222.0, 7503.0, 7784.0, 8065.0, 8346.0, 8627.0, 8908.0, 9189.0, 9470.0, 9751.0, 10032.0]}, "gradients/decoder.conv.13.weight": {"_type": "histogram", "values": [1.0, 0.0, 1.0, 0.0, 0.0, 0.0, 0.0, 1.0, 0.0, 1.0, 0.0, 0.0, 0.0, 2.0, 1.0, 0.0, 0.0, 0.0, 0.0, 0.0, 0.0, 0.0, 1.0, 0.0, 0.0, 0.0, 0.0, 1.0, 0.0, 0.0, 0.0, 0.0, 0.0, 0.0, 0.0, 1.0, 0.0, 2.0, 0.0, 1.0, 0.0, 0.0, 0.0, 0.0, 0.0, 0.0, 0.0, 0.0, 0.0, 0.0, 1.0, 0.0, 0.0, 0.0, 0.0, 0.0, 0.0, 0.0, 0.0, 0.0, 1.0, 0.0, 0.0, 1.0], "bins": [-1511.194580078125, -1467.241455078125, -1423.288330078125, -1379.335205078125, -1335.382080078125, -1291.428955078125, -1247.475830078125, -1203.522705078125, -1159.569580078125, -1115.616455078125, -1071.663330078125, -1027.710205078125, -983.757080078125, -939.803955078125, -895.8507690429688, -851.8976440429688, -807.9444580078125, -763.9913330078125, -720.0382080078125, -676.0850830078125, -632.1319580078125, -588.1788330078125, -544.2256469726562, -500.27252197265625, -456.31939697265625, -412.36627197265625, -368.41314697265625, -324.4599914550781, -280.5068664550781, -236.55374145507812, -192.6005859375, -148.6474609375, -104.6943359375, -60.74120330810547, -16.788070678710938, 27.165069580078125, 71.11819458007812, 115.07131958007812, 159.02447509765625, 202.97760009765625, 246.93072509765625, 290.88385009765625, 334.83697509765625, 378.7901306152344, 422.7432556152344, 466.6963806152344, 510.6495361328125, 554.6026611328125, 598.5557861328125, 642.5089111328125, 686.4620361328125, 730.4151611328125, 774.3682861328125, 818.3214111328125, 862.2745971679688, 906.2277221679688, 950.1808471679688, 994.1339721679688, 1038.087158203125, 1082.040283203125, 1125.993408203125, 1169.946533203125, 1213.899658203125, 1257.852783203125, 1301.805908203125]}, "gradients/decoder.conv.13.bias": {"_type": "histogram", "values": [1.0, 1.0, 0.0, 0.0, 0.0, 0.0, 1.0, 1.0, 0.0, 0.0, 0.0, 0.0, 1.0, 0.0, 0.0, 0.0, 0.0, 0.0, 1.0, 1.0, 0.0, 1.0, 0.0, 0.0, 0.0, 1.0, 0.0, 0.0, 0.0, 0.0, 0.0, 0.0, 0.0, 0.0, 0.0, 1.0, 1.0, 0.0, 0.0, 1.0, 0.0, 0.0, 0.0, 1.0, 0.0, 0.0, 0.0, 0.0, 0.0, 1.0, 0.0, 0.0, 0.0, 0.0, 0.0, 0.0, 0.0, 1.0, 0.0, 0.0, 0.0, 0.0, 0.0, 1.0], "bins": [-3246.03125, -3145.1728515625, -3044.314453125, -2943.455810546875, -2842.597412109375, -2741.739013671875, -2640.880615234375, -2540.02197265625, -2439.16357421875, -2338.30517578125, -2237.44677734375, -2136.588134765625, -2035.729736328125, -1934.871337890625, -1834.012939453125, -1733.1544189453125, -1632.2960205078125, -1531.4376220703125, -1430.5791015625, -1329.720703125, -1228.8621826171875, -1128.0037841796875, -1027.145263671875, -926.286865234375, -825.4284057617188, -724.5699462890625, -623.7114868164062, -522.85302734375, -421.9945983886719, -321.1361389160156, -220.2777099609375, -119.41925048828125, -18.560791015625, 82.29766082763672, 183.15611267089844, 284.0145568847656, 384.8730163574219, 485.7314758300781, 586.5899047851562, 687.4483642578125, 788.3068237304688, 889.165283203125, 990.0237426757812, 1090.8822021484375, 1191.7406005859375, 1292.59912109375, 1393.45751953125, 1494.31591796875, 1595.1744384765625, 1696.0328369140625, 1796.891357421875, 1897.749755859375, 1998.6082763671875, 2099.466796875, 2200.3251953125, 2301.18359375, 2402.0419921875, 2502.900390625, 2603.7587890625, 2704.617431640625, 2805.475830078125, 2906.334228515625, 3007.192626953125, 3108.05126953125, 3208.90966796875]}, "gradients/decoder.conv.12.weight": {"_type": "histogram", "values": [1.0, 3.0, 1.0, 1.0, 1.0, 3.0, 3.0, 7.0, 3.0, 2.0, 2.0, 2.0, 1.0, 1.0, 0.0, 1.0, 0.0, 1.0, 2.0, 1.0, 1.0, 0.0, 3.0, 4.0, 0.0, 2.0, 1.0, 3.0, 3.0, 3.0, 4.0, 4.0, 4.0, 4.0, 4.0, 4.0, 3.0, 6.0, 3.0, 10.0, 8.0, 24.0, 47.0, 58.0, 234.0, 695.0, 1630.0, 2916.0, 1496.0, 499.0, 183.0, 114.0, 71.0, 57.0, 15.0, 12.0, 7.0, 10.0, 3.0, 6.0, 2.0, 1.0, 1.0, 1.0], "bins": [-2634.0, -2578.546875, -2523.09375, -2467.640625, -2412.1875, -2356.734375, -2301.28125, -2245.828125, -2190.375, -2134.921875, -2079.46875, -2024.015625, -1968.5625, -1913.109375, -1857.65625, -1802.203125, -1746.75, -1691.296875, -1635.84375, -1580.390625, -1524.9375, -1469.484375, -1414.03125, -1358.578125, -1303.125, -1247.671875, -1192.21875, -1136.765625, -1081.3125, -1025.859375, -970.40625, -914.953125, -859.5, -804.046875, -748.59375, -693.140625, -637.6875, -582.234375, -526.78125, -471.328125, -415.875, -360.421875, -304.96875, -249.515625, -194.0625, -138.609375, -83.15625, -27.703125, 27.75, 83.203125, 138.65625, 194.109375, 249.5625, 305.015625, 360.46875, 415.921875, 471.375, 526.828125, 582.28125, 637.734375, 693.1875, 748.640625, 804.09375, 859.546875, 915.0]}, "gradients/decoder.conv.10.weight": {"_type": "histogram", "values": [1.0, 0.0, 0.0, 0.0, 0.0, 0.0, 0.0, 1.0, 1.0, 0.0, 0.0, 0.0, 0.0, 0.0, 0.0, 0.0, 2.0, 0.0, 0.0, 0.0, 0.0, 0.0, 0.0, 0.0, 1.0, 2.0, 1.0, 0.0, 3.0, 0.0, 0.0, 1.0, 2.0, 4.0, 2.0, 1.0, 1.0, 1.0, 0.0, 2.0, 1.0, 1.0, 0.0, 0.0, 2.0, 0.0, 0.0, 0.0, 0.0, 0.0, 0.0, 1.0, 0.0, 0.0, 0.0, 0.0, 0.0, 0.0, 0.0, 0.0, 0.0, 0.0, 0.0, 1.0], "bins": [-956.4300537109375, -926.575927734375, -896.7217407226562, -866.8676147460938, -837.0134887695312, -807.1593017578125, -777.30517578125, -747.4510498046875, -717.596923828125, -687.7427978515625, -657.8886108398438, -628.0344848632812, -598.1803588867188, -568.326171875, -538.4720458984375, -508.617919921875, -478.76373291015625, -448.9095764160156, -419.0554504394531, -389.2012939453125, -359.34716796875, -329.4930114746094, -299.63885498046875, -269.78472900390625, -239.93057250976562, -210.07643127441406, -180.2222900390625, -150.36813354492188, -120.51399230957031, -90.65985107421875, -60.805694580078125, -30.951553344726562, -1.09735107421875, 28.756793975830078, 58.610939025878906, 88.465087890625, 118.31922912597656, 148.17337036132812, 178.02752685546875, 207.8816680908203, 237.73580932617188, 267.5899658203125, 297.444091796875, 327.2982482910156, 357.15240478515625, 387.00653076171875, 416.8606872558594, 446.71484375, 476.5689697265625, 506.4231262207031, 536.2772827148438, 566.1314086914062, 595.9855346679688, 625.8397216796875, 655.69384765625, 685.5479736328125, 715.402099609375, 745.2562255859375, 775.1104125976562, 804.9645385742188, 834.8186645507812, 864.6728515625, 894.5269775390625, 924.381103515625, 954.2352905273438]}, "gradients/decoder.conv.10.bias": {"_type": "histogram", "values": [1.0, 0.0, 0.0, 0.0, 0.0, 0.0, 0.0, 0.0, 0.0, 0.0, 0.0, 0.0, 2.0, 0.0, 0.0, 1.0, 0.0, 2.0, 0.0, 2.0, 1.0, 1.0, 1.0, 0.0, 1.0, 0.0, 0.0, 2.0, 1.0, 1.0, 0.0, 0.0, 0.0, 1.0, 1.0, 2.0, 1.0, 1.0, 1.0, 2.0, 0.0, 1.0, 1.0, 1.0, 0.0, 0.0, 1.0, 0.0, 1.0, 1.0, 0.0, 0.0, 0.0, 0.0, 0.0, 0.0, 0.0, 0.0, 0.0, 0.0, 0.0, 0.0, 0.0, 1.0], "bins": [-699.852783203125, -679.0724487304688, -658.2921142578125, -637.5117797851562, -616.7314453125, -595.9511108398438, -575.1707763671875, -554.390380859375, -533.610107421875, -512.8297729492188, -492.0494384765625, -471.26910400390625, -450.48876953125, -429.70843505859375, -408.9280700683594, -388.1477355957031, -367.36737060546875, -346.5870361328125, -325.80670166015625, -305.0263671875, -284.24603271484375, -263.4656982421875, -242.68533325195312, -221.90499877929688, -201.12466430664062, -180.34432983398438, -159.56399536132812, -138.7836456298828, -118.00331115722656, -97.22297668457031, -76.44263458251953, -55.66229248046875, -34.88189697265625, -14.101558685302734, 6.678779602050781, 27.459117889404297, 48.23945617675781, 69.01979064941406, 89.80013275146484, 110.58047485351562, 131.36080932617188, 152.14114379882812, 172.92147827148438, 193.7018280029297, 214.48216247558594, 235.2624969482422, 256.0428466796875, 276.82318115234375, 297.603515625, 318.38385009765625, 339.1641845703125, 359.94451904296875, 380.724853515625, 401.50518798828125, 422.2855529785156, 443.0658874511719, 463.8462219238281, 484.6265563964844, 505.4068908691406, 526.187255859375, 546.9675903320312, 567.7479248046875, 588.5282592773438, 609.30859375, 630.0889282226562]}, "gradients/decoder.conv.9.weight": {"_type": "histogram", "values": [1.0, 0.0, 1.0, 2.0, 0.0, 2.0, 3.0, 1.0, 4.0, 6.0, 4.0, 2.0, 11.0, 9.0, 6.0, 11.0, 9.0, 13.0, 26.0, 18.0, 27.0, 28.0, 47.0, 66.0, 48.0, 74.0, 78.0, 117.0, 199.0, 268.0, 485.0, 1062.0, 2525.0, 5601.0, 7958.0, 6216.0, 3189.0, 1564.0, 977.0, 621.0, 461.0, 324.0, 232.0, 180.0, 94.0, 83.0, 42.0, 24.0, 20.0, 13.0, 4.0, 1.0, 3.0, 0.0, 1.0, 3.0, 0.0, 1.0, 1.0, 0.0, 0.0, 0.0, 0.0, 2.0], "bins": [-248.25, -241.0234375, -233.796875, -226.5703125, -219.34375, -212.1171875, -204.890625, -197.6640625, -190.4375, -183.2109375, -175.984375, -168.7578125, -161.53125, -154.3046875, -147.078125, -139.8515625, -132.625, -125.3984375, -118.171875, -110.9453125, -103.71875, -96.4921875, -89.265625, -82.0390625, -74.8125, -67.5859375, -60.359375, -53.1328125, -45.90625, -38.6796875, -31.453125, -24.2265625, -17.0, -9.7734375, -2.546875, 4.6796875, 11.90625, 19.1328125, 26.359375, 33.5859375, 40.8125, 48.0390625, 55.265625, 62.4921875, 69.71875, 76.9453125, 84.171875, 91.3984375, 98.625, 105.8515625, 113.078125, 120.3046875, 127.53125, 134.7578125, 141.984375, 149.2109375, 156.4375, 163.6640625, 170.890625, 178.1171875, 185.34375, 192.5703125, 199.796875, 207.0234375, 214.25]}, "gradients/decoder.conv.7.weight": {"_type": "histogram", "values": [1.0, 0.0, 0.0, 0.0, 0.0, 0.0, 0.0, 1.0, 0.0, 0.0, 0.0, 1.0, 0.0, 0.0, 0.0, 0.0, 0.0, 1.0, 1.0, 1.0, 0.0, 1.0, 0.0, 2.0, 3.0, 0.0, 3.0, 3.0, 3.0, 4.0, 2.0, 5.0, 5.0, 5.0, 3.0, 3.0, 1.0, 1.0, 0.0, 1.0, 2.0, 1.0, 1.0, 1.0, 1.0, 0.0, 0.0, 2.0, 1.0, 0.0, 2.0, 0.0, 0.0, 0.0, 1.0, 0.0, 0.0, 0.0, 0.0, 0.0, 0.0, 0.0, 0.0, 1.0], "bins": [-386.6487121582031, -374.84234619140625, -363.0359802246094, -351.2296142578125, -339.4232177734375, -327.6168518066406, -315.81048583984375, -304.0041198730469, -292.19775390625, -280.3913879394531, -268.58502197265625, -256.77862548828125, -244.97227478027344, -233.1658935546875, -221.35952758789062, -209.55316162109375, -197.7467803955078, -185.94041442871094, -174.134033203125, -162.32766723632812, -150.52130126953125, -138.71493530273438, -126.90855407714844, -115.10218811035156, -103.29581451416016, -91.48944091796875, -79.68307495117188, -67.87670135498047, -56.07033157348633, -44.26396179199219, -32.45758819580078, -20.651222229003906, -8.8448486328125, 2.961522102355957, 14.767892837524414, 26.574264526367188, 38.38063430786133, 50.18700408935547, 61.993377685546875, 73.79974365234375, 85.60611724853516, 97.41249084472656, 109.21885681152344, 121.02523040771484, 132.83160400390625, 144.63796997070312, 156.4443359375, 168.25070190429688, 180.0570831298828, 191.8634490966797, 203.66983032226562, 215.4761962890625, 227.28256225585938, 239.08892822265625, 250.8953094482422, 262.70166015625, 274.508056640625, 286.3144226074219, 298.12078857421875, 309.92718505859375, 321.7335510253906, 333.5399169921875, 345.3462829589844, 357.15264892578125, 368.9590148925781]}, "gradients/decoder.conv.7.bias": {"_type": "histogram", "values": [1.0, 0.0, 2.0, 0.0, 1.0, 0.0, 0.0, 2.0, 1.0, 0.0, 2.0, 0.0, 1.0, 0.0, 0.0, 1.0, 0.0, 2.0, 2.0, 2.0, 4.0, 0.0, 1.0, 4.0, 3.0, 5.0, 2.0, 5.0, 3.0, 4.0, 1.0, 0.0, 1.0, 1.0, 2.0, 3.0, 0.0, 0.0, 1.0, 0.0, 0.0, 0.0, 1.0, 1.0, 1.0, 1.0, 0.0, 0.0, 1.0, 0.0, 0.0, 0.0, 0.0, 0.0, 0.0, 0.0, 0.0, 0.0, 0.0, 0.0, 0.0, 0.0, 1.0, 1.0], "bins": [-204.82469177246094, -197.56442260742188, -190.3041534423828, -183.04388427734375, -175.7836151123047, -168.52334594726562, -161.2630615234375, -154.0028076171875, -146.74252319335938, -139.4822540283203, -132.22198486328125, -124.96171569824219, -117.70144653320312, -110.44117736816406, -103.18090057373047, -95.9206314086914, -88.66036987304688, -81.40010070800781, -74.13983154296875, -66.87956237792969, -59.61928939819336, -52.3590202331543, -45.09874725341797, -37.838478088378906, -30.578208923339844, -23.31793975830078, -16.057668685913086, -8.79739761352539, -1.5371284484863281, 5.723140716552734, 12.983413696289062, 20.243682861328125, 27.503936767578125, 34.76420593261719, 42.02447509765625, 49.28474807739258, 56.54501724243164, 63.8052864074707, 71.06555938720703, 78.3258285522461, 85.58609771728516, 92.84636688232422, 100.10663604736328, 107.36691284179688, 114.62718200683594, 121.887451171875, 129.14772033691406, 136.40798950195312, 143.6682586669922, 150.92852783203125, 158.1887969970703, 165.44906616210938, 172.70933532714844, 179.9696044921875, 187.22988891601562, 194.49014282226562, 201.75042724609375, 209.0106964111328, 216.27096557617188, 223.53123474121094, 230.79150390625, 238.05177307128906, 245.31204223632812, 252.57232666015625, 259.83258056640625]}, "gradients/decoder.conv.6.weight": {"_type": "histogram", "values": [1.0, 0.0, 1.0, 0.0, 1.0, 3.0, 0.0, 1.0, 0.0, 3.0, 1.0, 2.0, 1.0, 4.0, 3.0, 2.0, 7.0, 7.0, 7.0, 11.0, 19.0, 11.0, 14.0, 30.0, 42.0, 48.0, 91.0, 76.0, 101.0, 142.0, 242.0, 324.0, 459.0, 724.0, 1175.0, 1823.0, 3025.0, 5294.0, 9766.0, 23025.0, 41286.0, 21287.0, 10430.0, 5252.0, 2789.0, 1426.0, 853.0, 490.0, 293.0, 192.0, 114.0, 69.0, 44.0, 24.0, 12.0, 9.0, 7.0, 1.0, 6.0, 0.0, 0.0, 0.0, 1.0, 1.0], "bins": [-128.0, -124.8271484375, -121.654296875, -118.4814453125, -115.30859375, -112.1357421875, -108.962890625, -105.7900390625, -102.6171875, -99.4443359375, -96.271484375, -93.0986328125, -89.92578125, -86.7529296875, -83.580078125, -80.4072265625, -77.234375, -74.0615234375, -70.888671875, -67.7158203125, -64.54296875, -61.3701171875, -58.197265625, -55.0244140625, -51.8515625, -48.6787109375, -45.505859375, -42.3330078125, -39.16015625, -35.9873046875, -32.814453125, -29.6416015625, -26.46875, -23.2958984375, -20.123046875, -16.9501953125, -13.77734375, -10.6044921875, -7.431640625, -4.2587890625, -1.0859375, 2.0869140625, 5.259765625, 8.4326171875, 11.60546875, 14.7783203125, 17.951171875, 21.1240234375, 24.296875, 27.4697265625, 30.642578125, 33.8154296875, 36.98828125, 40.1611328125, 43.333984375, 46.5068359375, 49.6796875, 52.8525390625, 56.025390625, 59.1982421875, 62.37109375, 65.5439453125, 68.716796875, 71.8896484375, 75.0625]}, "gradients/decoder.conv.4.weight": {"_type": "histogram", "values": [1.0, 0.0, 0.0, 0.0, 1.0, 1.0, 0.0, 0.0, 2.0, 0.0, 0.0, 0.0, 0.0, 0.0, 2.0, 0.0, 2.0, 1.0, 1.0, 3.0, 2.0, 3.0, 2.0, 7.0, 6.0, 3.0, 7.0, 6.0, 2.0, 7.0, 2.0, 13.0, 8.0, 7.0, 8.0, 0.0, 3.0, 3.0, 6.0, 3.0, 1.0, 2.0, 2.0, 1.0, 1.0, 2.0, 2.0, 0.0, 0.0, 2.0, 0.0, 0.0, 1.0, 0.0, 0.0, 0.0, 0.0, 0.0, 0.0, 1.0, 0.0, 0.0, 0.0, 1.0], "bins": [-181.3876953125, -175.5595703125, -169.73146057128906, -163.90333557128906, -158.07522583007812, -152.24710083007812, -146.41897583007812, -140.5908660888672, -134.7627410888672, -128.9346160888672, -123.10650634765625, -117.27838134765625, -111.45026397705078, -105.62214660644531, -99.79402923583984, -93.96591186523438, -88.1377944946289, -82.30967712402344, -76.48155975341797, -70.6534423828125, -64.8253173828125, -58.99720001220703, -53.16908264160156, -47.34096145629883, -41.51284408569336, -35.68472671508789, -29.856605529785156, -24.028488159179688, -18.200368881225586, -12.372249603271484, -6.544132232666016, -0.7160110473632812, 5.1121063232421875, 10.940225601196289, 16.76834487915039, 22.59646224975586, 28.42458152770996, 34.25270080566406, 40.08081817626953, 45.908939361572266, 51.737056732177734, 57.5651741027832, 63.39329528808594, 69.2214126586914, 75.04953002929688, 80.87765502929688, 86.70576477050781, 92.53388977050781, 98.36200714111328, 104.19012451171875, 110.01824188232422, 115.84635925292969, 121.67448425292969, 127.50260162353516, 133.33071899414062, 139.15884399414062, 144.98695373535156, 150.81507873535156, 156.6431884765625, 162.4713134765625, 168.29942321777344, 174.12754821777344, 179.95565795898438, 185.78378295898438, 191.61190795898438]}, "gradients/decoder.conv.4.bias": {"_type": "histogram", "values": [1.0, 0.0, 0.0, 1.0, 0.0, 0.0, 0.0, 0.0, 0.0, 1.0, 0.0, 2.0, 0.0, 0.0, 0.0, 0.0, 1.0, 1.0, 3.0, 4.0, 0.0, 2.0, 3.0, 2.0, 4.0, 1.0, 5.0, 2.0, 7.0, 7.0, 5.0, 6.0, 6.0, 5.0, 4.0, 4.0, 3.0, 4.0, 4.0, 5.0, 4.0, 2.0, 4.0, 4.0, 3.0, 2.0, 2.0, 4.0, 1.0, 1.0, 1.0, 0.0, 1.0, 1.0, 0.0, 0.0, 0.0, 1.0, 0.0, 1.0, 1.0, 0.0, 0.0, 2.0], "bins": [-162.5096893310547, -157.88967895507812, -153.26968383789062, -148.64967346191406, -144.0296630859375, -139.40966796875, -134.78965759277344, -130.16964721679688, -125.54965209960938, -120.92964935302734, -116.30963897705078, -111.68963623046875, -107.06963348388672, -102.44963073730469, -97.82962036132812, -93.2096176147461, -88.58960723876953, -83.9696044921875, -79.34959411621094, -74.7295913696289, -70.10958862304688, -65.48957824707031, -60.86957550048828, -56.24957275390625, -51.62956619262695, -47.009559631347656, -42.389556884765625, -37.76955032348633, -33.14954376220703, -28.529541015625, -23.909534454345703, -19.289531707763672, -14.669525146484375, -10.049520492553711, -5.4295148849487305, -0.80950927734375, 3.810495376586914, 8.430500030517578, 13.050506591796875, 17.670509338378906, 22.290515899658203, 26.910520553588867, 31.53052520751953, 36.15053176879883, 40.770538330078125, 45.390541076660156, 50.01054763793945, 54.630550384521484, 59.25055694580078, 63.87056350708008, 68.49057006835938, 73.1105728149414, 77.73057556152344, 82.3505859375, 86.97058868408203, 91.59059143066406, 96.21060180664062, 100.83060455322266, 105.45061492919922, 110.07061767578125, 114.69062042236328, 119.31062316894531, 123.93063354492188, 128.55062866210938, 133.17063903808594]}, "gradients/decoder.conv.3.weight": {"_type": "histogram", "values": [1.0, 1.0, 0.0, 3.0, 3.0, 9.0, 13.0, 21.0, 29.0, 51.0, 59.0, 102.0, 162.0, 211.0, 326.0, 409.0, 659.0, 870.0, 1133.0, 1512.0, 2008.0, 2721.0, 3395.0, 4418.0, 5828.0, 8267.0, 12660.0, 19556.0, 31655.0, 54540.0, 94545.0, 114768.0, 61855.0, 34256.0, 20530.0, 13293.0, 9095.0, 6247.0, 4404.0, 3065.0, 2363.0, 1882.0, 1492.0, 1182.0, 939.0, 727.0, 677.0, 532.0, 467.0, 358.0, 259.0, 215.0, 162.0, 120.0, 80.0, 54.0, 40.0, 16.0, 17.0, 12.0, 2.0, 6.0, 5.0, 1.0], "bins": [-65.625, -63.51171875, -61.3984375, -59.28515625, -57.171875, -55.05859375, -52.9453125, -50.83203125, -48.71875, -46.60546875, -44.4921875, -42.37890625, -40.265625, -38.15234375, -36.0390625, -33.92578125, -31.8125, -29.69921875, -27.5859375, -25.47265625, -23.359375, -21.24609375, -19.1328125, -17.01953125, -14.90625, -12.79296875, -10.6796875, -8.56640625, -6.453125, -4.33984375, -2.2265625, -0.11328125, 2.0, 4.11328125, 6.2265625, 8.33984375, 10.453125, 12.56640625, 14.6796875, 16.79296875, 18.90625, 21.01953125, 23.1328125, 25.24609375, 27.359375, 29.47265625, 31.5859375, 33.69921875, 35.8125, 37.92578125, 40.0390625, 42.15234375, 44.265625, 46.37890625, 48.4921875, 50.60546875, 52.71875, 54.83203125, 56.9453125, 59.05859375, 61.171875, 63.28515625, 65.3984375, 67.51171875, 69.625]}, "gradients/decoder.conv.1.weight": {"_type": "histogram", "values": [1.0, 0.0, 0.0, 1.0, 0.0, 0.0, 1.0, 1.0, 1.0, 1.0, 1.0, 3.0, 0.0, 2.0, 1.0, 4.0, 2.0, 3.0, 6.0, 3.0, 2.0, 6.0, 4.0, 8.0, 11.0, 4.0, 3.0, 5.0, 10.0, 8.0, 10.0, 10.0, 5.0, 12.0, 4.0, 5.0, 5.0, 8.0, 12.0, 9.0, 9.0, 6.0, 8.0, 7.0, 4.0, 7.0, 3.0, 6.0, 6.0, 4.0, 3.0, 3.0, 3.0, 2.0, 3.0, 0.0, 2.0, 1.0, 2.0, 0.0, 1.0, 2.0, 0.0, 2.0], "bins": [-263.1136169433594, -255.46035766601562, -247.80711364746094, -240.1538543701172, -232.50059509277344, -224.84735107421875, -217.194091796875, -209.54083251953125, -201.8875732421875, -194.23431396484375, -186.58106994628906, -178.9278106689453, -171.27455139160156, -163.62130737304688, -155.96804809570312, -148.31478881835938, -140.6615447998047, -133.00828552246094, -125.35503387451172, -117.7017822265625, -110.04852294921875, -102.39527130126953, -94.74201965332031, -87.08876037597656, -79.43550872802734, -71.78225708007812, -64.12899780273438, -56.475746154785156, -48.82249069213867, -41.16923522949219, -33.51598358154297, -25.862728118896484, -18.209457397460938, -10.55620288848877, -2.9029483795166016, 4.75030517578125, 12.403560638427734, 20.05681610107422, 27.710067749023438, 35.36332321166992, 43.016578674316406, 50.66983413696289, 58.323089599609375, 65.9763412475586, 73.62959289550781, 81.28285217285156, 88.93610382080078, 96.58935546875, 104.24261474609375, 111.89586639404297, 119.54912567138672, 127.20237731933594, 134.8556365966797, 142.50888061523438, 150.16213989257812, 157.81539916992188, 165.46865844726562, 173.12191772460938, 180.77516174316406, 188.4284210205078, 196.08168029785156, 203.73492431640625, 211.38818359375, 219.04144287109375, 226.69468688964844]}, "gradients/decoder.conv.1.bias": {"_type": "histogram", "values": [1.0, 0.0, 0.0, 0.0, 1.0, 1.0, 0.0, 1.0, 2.0, 1.0, 2.0, 0.0, 1.0, 4.0, 2.0, 0.0, 1.0, 3.0, 3.0, 9.0, 9.0, 1.0, 8.0, 11.0, 5.0, 7.0, 6.0, 12.0, 5.0, 9.0, 7.0, 5.0, 4.0, 9.0, 9.0, 9.0, 6.0, 9.0, 10.0, 7.0, 13.0, 5.0, 5.0, 5.0, 5.0, 4.0, 4.0, 5.0, 8.0, 7.0, 2.0, 0.0, 2.0, 0.0, 3.0, 1.0, 3.0, 1.0, 0.0, 1.0, 0.0, 0.0, 1.0, 1.0], "bins": [-276.5865478515625, -268.2818908691406, -259.97723388671875, -251.67257690429688, -243.367919921875, -235.06326293945312, -226.75860595703125, -218.45394897460938, -210.1492919921875, -201.84463500976562, -193.53997802734375, -185.23532104492188, -176.9306640625, -168.62600708007812, -160.32135009765625, -152.01669311523438, -143.7120361328125, -135.40737915039062, -127.10272216796875, -118.79806518554688, -110.493408203125, -102.18875122070312, -93.88409423828125, -85.57943725585938, -77.2747802734375, -68.97012329101562, -60.66546630859375, -52.360809326171875, -44.05615234375, -35.751495361328125, -27.44683837890625, -19.142181396484375, -10.837509155273438, -2.5328521728515625, 5.7718048095703125, 14.076461791992188, 22.381118774414062, 30.685775756835938, 38.99043273925781, 47.29508972167969, 55.59974670410156, 63.90440368652344, 72.20906066894531, 80.51371765136719, 88.81837463378906, 97.12303161621094, 105.42768859863281, 113.73234558105469, 122.03700256347656, 130.34165954589844, 138.6463165283203, 146.9509735107422, 155.25563049316406, 163.56028747558594, 171.8649444580078, 180.1696014404297, 188.47425842285156, 196.77891540527344, 205.0835723876953, 213.3882293701172, 221.69288635253906, 229.99754333496094, 238.3022003173828, 246.6068572998047, 254.91151428222656]}, "gradients/decoder.conv.0.weight": {"_type": "histogram", "values": [4.0, 1.0, 1.0, 1.0, 2.0, 4.0, 4.0, 9.0, 11.0, 15.0, 31.0, 47.0, 78.0, 84.0, 188.0, 258.0, 394.0, 641.0, 1039.0, 1878.0, 3275.0, 5998.0, 11655.0, 23295.0, 49916.0, 117564.0, 312795.0, 1031225.0, 4321945.0, 2568927.0, 623778.0, 204727.0, 81196.0, 36637.0, 17912.0, 9189.0, 5036.0, 2816.0, 1756.0, 1033.0, 636.0, 374.0, 253.0, 182.0, 110.0, 73.0, 62.0, 40.0, 31.0, 18.0, 12.0, 6.0, 4.0, 2.0, 3.0, 4.0, 4.0, 1.0, 2.0, 0.0, 0.0, 1.0, 0.0, 1.0], "bins": [-9.0546875, -8.7403564453125, -8.426025390625, -8.1116943359375, -7.79736328125, -7.4830322265625, -7.168701171875, -6.8543701171875, -6.5400390625, -6.2257080078125, -5.911376953125, -5.5970458984375, -5.28271484375, -4.9683837890625, -4.654052734375, -4.3397216796875, -4.025390625, -3.7110595703125, -3.396728515625, -3.0823974609375, -2.76806640625, -2.4537353515625, -2.139404296875, -1.8250732421875, -1.5107421875, -1.1964111328125, -0.882080078125, -0.5677490234375, -0.25341796875, 0.0609130859375, 0.375244140625, 0.6895751953125, 1.00390625, 1.3182373046875, 1.632568359375, 1.9468994140625, 2.26123046875, 2.5755615234375, 2.889892578125, 3.2042236328125, 3.5185546875, 3.8328857421875, 4.147216796875, 4.4615478515625, 4.77587890625, 5.0902099609375, 5.404541015625, 5.7188720703125, 6.033203125, 6.3475341796875, 6.661865234375, 6.9761962890625, 7.29052734375, 7.6048583984375, 7.919189453125, 8.2335205078125, 8.5478515625, 8.8621826171875, 9.176513671875, 9.4908447265625, 9.80517578125, 10.1195068359375, 10.433837890625, 10.7481689453125, 11.0625]}, "gradients/fc.weight": {"_type": "histogram", "values": [1.0, 3.0, 1.0, 0.0, 3.0, 2.0, 5.0, 5.0, 6.0, 10.0, 4.0, 10.0, 29.0, 45.0, 60.0, 77.0, 111.0, 141.0, 227.0, 339.0, 504.0, 894.0, 1470.0, 2739.0, 5474.0, 11580.0, 27870.0, 76450.0, 79999.0, 29042.0, 12035.0, 5648.0, 2968.0, 1659.0, 990.0, 612.0, 381.0, 266.0, 162.0, 97.0, 65.0, 43.0, 36.0, 24.0, 14.0, 14.0, 6.0, 9.0, 1.0, 4.0, 1.0, 2.0, 1.0, 1.0, 1.0, 0.0, 2.0, 0.0, 0.0, 0.0, 0.0, 0.0, 0.0, 1.0], "bins": [-48.25, -46.5283203125, -44.806640625, -43.0849609375, -41.36328125, -39.6416015625, -37.919921875, -36.1982421875, -34.4765625, -32.7548828125, -31.033203125, -29.3115234375, -27.58984375, -25.8681640625, -24.146484375, -22.4248046875, -20.703125, -18.9814453125, -17.259765625, -15.5380859375, -13.81640625, -12.0947265625, -10.373046875, -8.6513671875, -6.9296875, -5.2080078125, -3.486328125, -1.7646484375, -0.04296875, 1.6787109375, 3.400390625, 5.1220703125, 6.84375, 8.5654296875, 10.287109375, 12.0087890625, 13.73046875, 15.4521484375, 17.173828125, 18.8955078125, 20.6171875, 22.3388671875, 24.060546875, 25.7822265625, 27.50390625, 29.2255859375, 30.947265625, 32.6689453125, 34.390625, 36.1123046875, 37.833984375, 39.5556640625, 41.27734375, 42.9990234375, 44.720703125, 46.4423828125, 48.1640625, 49.8857421875, 51.607421875, 53.3291015625, 55.05078125, 56.7724609375, 58.494140625, 60.2158203125, 61.9375]}, "gradients/fc.bias": {"_type": "histogram", "values": [1.0, 0.0, 0.0, 0.0, 0.0, 1.0, 0.0, 1.0, 1.0, 0.0, 0.0, 1.0, 2.0, 1.0, 2.0, 3.0, 5.0, 4.0, 7.0, 5.0, 12.0, 13.0, 26.0, 20.0, 15.0, 25.0, 32.0, 37.0, 43.0, 40.0, 55.0, 48.0, 37.0, 38.0, 57.0, 48.0, 38.0, 51.0, 54.0, 35.0, 35.0, 25.0, 31.0, 25.0, 23.0, 25.0, 20.0, 12.0, 10.0, 9.0, 8.0, 4.0, 8.0, 9.0, 9.0, 2.0, 1.0, 3.0, 2.0, 3.0, 1.0, 0.0, 0.0, 1.0], "bins": [-3.25, -3.159515380859375, -3.06903076171875, -2.978546142578125, -2.8880615234375, -2.797576904296875, -2.70709228515625, -2.616607666015625, -2.526123046875, -2.435638427734375, -2.34515380859375, -2.254669189453125, -2.1641845703125, -2.073699951171875, -1.98321533203125, -1.892730712890625, -1.80224609375, -1.711761474609375, -1.62127685546875, -1.530792236328125, -1.4403076171875, -1.349822998046875, -1.25933837890625, -1.168853759765625, -1.078369140625, -0.987884521484375, -0.89739990234375, -0.806915283203125, -0.7164306640625, -0.625946044921875, -0.53546142578125, -0.444976806640625, -0.3544921875, -0.264007568359375, -0.17352294921875, -0.083038330078125, 0.0074462890625, 0.097930908203125, 0.18841552734375, 0.278900146484375, 0.369384765625, 0.459869384765625, 0.55035400390625, 0.640838623046875, 0.7313232421875, 0.821807861328125, 0.91229248046875, 1.002777099609375, 1.09326171875, 1.183746337890625, 1.27423095703125, 1.364715576171875, 1.4552001953125, 1.545684814453125, 1.63616943359375, 1.726654052734375, 1.817138671875, 1.907623291015625, 1.99810791015625, 2.088592529296875, 2.1790771484375, 2.269561767578125, 2.36004638671875, 2.450531005859375, 2.541015625]}, "gradients/graph_1obs_encoder.fc2.weight": {"_type": "histogram", "values": [1.0, 2.0, 0.0, 3.0, 4.0, 1.0, 2.0, 5.0, 12.0, 7.0, 11.0, 13.0, 33.0, 35.0, 55.0, 69.0, 125.0, 206.0, 313.0, 528.0, 922.0, 1786.0, 3326.0, 7190.0, 20736.0, 76079.0, 10069.0, 4602.0, 2213.0, 1147.0, 607.0, 345.0, 211.0, 135.0, 74.0, 66.0, 42.0, 32.0, 15.0, 11.0, 14.0, 8.0, 7.0, 6.0, 0.0, 0.0, 0.0, 2.0, 0.0, 0.0, 0.0, 0.0, 0.0, 1.0, 0.0, 0.0, 0.0, 0.0, 0.0, 0.0, 0.0, 0.0, 0.0, 1.0], "bins": [-101.0625, -97.0556640625, -93.048828125, -89.0419921875, -85.03515625, -81.0283203125, -77.021484375, -73.0146484375, -69.0078125, -65.0009765625, -60.994140625, -56.9873046875, -52.98046875, -48.9736328125, -44.966796875, -40.9599609375, -36.953125, -32.9462890625, -28.939453125, -24.9326171875, -20.92578125, -16.9189453125, -12.912109375, -8.9052734375, -4.8984375, -0.8916015625, 3.115234375, 7.1220703125, 11.12890625, 15.1357421875, 19.142578125, 23.1494140625, 27.15625, 31.1630859375, 35.169921875, 39.1767578125, 43.18359375, 47.1904296875, 51.197265625, 55.2041015625, 59.2109375, 63.2177734375, 67.224609375, 71.2314453125, 75.23828125, 79.2451171875, 83.251953125, 87.2587890625, 91.265625, 95.2724609375, 99.279296875, 103.2861328125, 107.29296875, 111.2998046875, 115.306640625, 119.3134765625, 123.3203125, 127.3271484375, 131.333984375, 135.3408203125, 139.34765625, 143.3544921875, 147.361328125, 151.3681640625, 155.375]}, "gradients/graph_1obs_encoder.fc2.bias": {"_type": "histogram", "values": [1.0, 0.0, 0.0, 0.0, 0.0, 2.0, 1.0, 0.0, 1.0, 0.0, 0.0, 5.0, 1.0, 2.0, 2.0, 5.0, 2.0, 1.0, 5.0, 4.0, 5.0, 7.0, 0.0, 8.0, 4.0, 8.0, 12.0, 5.0, 5.0, 5.0, 15.0, 17.0, 50.0, 186.0, 42.0, 15.0, 9.0, 8.0, 5.0, 4.0, 10.0, 5.0, 7.0, 13.0, 6.0, 4.0, 3.0, 1.0, 3.0, 0.0, 3.0, 3.0, 1.0, 3.0, 3.0, 0.0, 0.0, 2.0, 2.0, 0.0, 0.0, 0.0, 0.0, 1.0], "bins": [-23.625, -22.91748046875, -22.2099609375, -21.50244140625, -20.794921875, -20.08740234375, -19.3798828125, -18.67236328125, -17.96484375, -17.25732421875, -16.5498046875, -15.84228515625, -15.134765625, -14.42724609375, -13.7197265625, -13.01220703125, -12.3046875, -11.59716796875, -10.8896484375, -10.18212890625, -9.474609375, -8.76708984375, -8.0595703125, -7.35205078125, -6.64453125, -5.93701171875, -5.2294921875, -4.52197265625, -3.814453125, -3.10693359375, -2.3994140625, -1.69189453125, -0.984375, -0.27685546875, 0.4306640625, 1.13818359375, 1.845703125, 2.55322265625, 3.2607421875, 3.96826171875, 4.67578125, 5.38330078125, 6.0908203125, 6.79833984375, 7.505859375, 8.21337890625, 8.9208984375, 9.62841796875, 10.3359375, 11.04345703125, 11.7509765625, 12.45849609375, 13.166015625, 13.87353515625, 14.5810546875, 15.28857421875, 15.99609375, 16.70361328125, 17.4111328125, 18.11865234375, 18.826171875, 19.53369140625, 20.2412109375, 20.94873046875, 21.65625]}, "gradients/graph_1obs_encoder.fc1.weight": {"_type": "histogram", "values": [3.0, 4.0, 4.0, 8.0, 3.0, 7.0, 12.0, 16.0, 26.0, 39.0, 36.0, 59.0, 90.0, 120.0, 194.0, 219.0, 323.0, 453.0, 732.0, 1165.0, 1836.0, 2730.0, 4377.0, 6773.0, 10769.0, 17347.0, 28231.0, 45928.0, 81926.0, 44999.0, 29019.0, 18355.0, 11578.0, 7258.0, 4612.0, 2938.0, 1788.0, 1188.0, 826.0, 524.0, 350.0, 241.0, 173.0, 108.0, 79.0, 68.0, 40.0, 25.0, 22.0, 14.0, 10.0, 7.0, 11.0, 7.0, 2.0, 2.0, 2.0, 1.0, 0.0, 0.0, 1.0, 0.0, 0.0, 2.0], "bins": [-43.0, -41.4716796875, -39.943359375, -38.4150390625, -36.88671875, -35.3583984375, -33.830078125, -32.3017578125, -30.7734375, -29.2451171875, -27.716796875, -26.1884765625, -24.66015625, -23.1318359375, -21.603515625, -20.0751953125, -18.546875, -17.0185546875, -15.490234375, -13.9619140625, -12.43359375, -10.9052734375, -9.376953125, -7.8486328125, -6.3203125, -4.7919921875, -3.263671875, -1.7353515625, -0.20703125, 1.3212890625, 2.849609375, 4.3779296875, 5.90625, 7.4345703125, 8.962890625, 10.4912109375, 12.01953125, 13.5478515625, 15.076171875, 16.6044921875, 18.1328125, 19.6611328125, 21.189453125, 22.7177734375, 24.24609375, 25.7744140625, 27.302734375, 28.8310546875, 30.359375, 31.8876953125, 33.416015625, 34.9443359375, 36.47265625, 38.0009765625, 39.529296875, 41.0576171875, 42.5859375, 44.1142578125, 45.642578125, 47.1708984375, 48.69921875, 50.2275390625, 51.755859375, 53.2841796875, 54.8125]}, "gradients/graph_1obs_encoder.fc1.bias": {"_type": "histogram", "values": [1.0, 0.0, 0.0, 0.0, 0.0, 0.0, 0.0, 1.0, 0.0, 0.0, 0.0, 1.0, 3.0, 3.0, 3.0, 4.0, 4.0, 2.0, 5.0, 4.0, 6.0, 7.0, 8.0, 13.0, 14.0, 9.0, 29.0, 12.0, 11.0, 14.0, 15.0, 14.0, 11.0, 10.0, 8.0, 7.0, 11.0, 6.0, 3.0, 6.0, 2.0, 3.0, 2.0, 2.0, 0.0, 0.0, 0.0, 0.0, 0.0, 0.0, 1.0, 0.0, 0.0, 0.0, 0.0, 0.0, 0.0, 0.0, 0.0, 0.0, 0.0, 0.0, 0.0, 1.0], "bins": [-38.6875, -37.21923828125, -35.7509765625, -34.28271484375, -32.814453125, -31.34619140625, -29.8779296875, -28.40966796875, -26.94140625, -25.47314453125, -24.0048828125, -22.53662109375, -21.068359375, -19.60009765625, -18.1318359375, -16.66357421875, -15.1953125, -13.72705078125, -12.2587890625, -10.79052734375, -9.322265625, -7.85400390625, -6.3857421875, -4.91748046875, -3.44921875, -1.98095703125, -0.5126953125, 0.95556640625, 2.423828125, 3.89208984375, 5.3603515625, 6.82861328125, 8.296875, 9.76513671875, 11.2333984375, 12.70166015625, 14.169921875, 15.63818359375, 17.1064453125, 18.57470703125, 20.04296875, 21.51123046875, 22.9794921875, 24.44775390625, 25.916015625, 27.38427734375, 28.8525390625, 30.32080078125, 31.7890625, 33.25732421875, 34.7255859375, 36.19384765625, 37.662109375, 39.13037109375, 40.5986328125, 42.06689453125, 43.53515625, 45.00341796875, 46.4716796875, 47.93994140625, 49.408203125, 50.87646484375, 52.3447265625, 53.81298828125, 55.28125]}, "gradients/graph_1stochastic_state_model.fc2.weight": {"_type": "histogram", "values": [1.0, 0.0, 0.0, 1.0, 0.0, 0.0, 2.0, 5.0, 5.0, 9.0, 12.0, 15.0, 19.0, 30.0, 47.0, 71.0, 76.0, 112.0, 169.0, 245.0, 414.0, 488.0, 755.0, 1080.0, 1482.0, 2210.0, 2994.0, 4448.0, 6365.0, 10413.0, 16701.0, 22341.0, 20443.0, 13242.0, 8247.0, 5381.0, 3648.0, 2509.0, 1976.0, 1415.0, 1035.0, 730.0, 562.0, 434.0, 254.0, 190.0, 126.0, 107.0, 64.0, 65.0, 38.0, 32.0, 23.0, 14.0, 8.0, 4.0, 6.0, 2.0, 1.0, 2.0, 2.0, 0.0, 1.0, 1.0], "bins": [-1.955078125, -1.8937835693359375, -1.832489013671875, -1.7711944580078125, -1.70989990234375, -1.6486053466796875, -1.587310791015625, -1.5260162353515625, -1.4647216796875, -1.4034271240234375, -1.342132568359375, -1.2808380126953125, -1.21954345703125, -1.1582489013671875, -1.096954345703125, -1.0356597900390625, -0.974365234375, -0.9130706787109375, -0.851776123046875, -0.7904815673828125, -0.72918701171875, -0.6678924560546875, -0.606597900390625, -0.5453033447265625, -0.4840087890625, -0.4227142333984375, -0.361419677734375, -0.3001251220703125, -0.23883056640625, -0.1775360107421875, -0.116241455078125, -0.0549468994140625, 0.00634765625, 0.0676422119140625, 0.128936767578125, 0.1902313232421875, 0.25152587890625, 0.3128204345703125, 0.374114990234375, 0.4354095458984375, 0.4967041015625, 0.5579986572265625, 0.619293212890625, 0.6805877685546875, 0.74188232421875, 0.8031768798828125, 0.864471435546875, 0.9257659912109375, 0.987060546875, 1.0483551025390625, 1.109649658203125, 1.1709442138671875, 1.23223876953125, 1.2935333251953125, 1.354827880859375, 1.4161224365234375, 1.4774169921875, 1.5387115478515625, 1.600006103515625, 1.6613006591796875, 1.72259521484375, 1.7838897705078125, 1.845184326171875, 1.9064788818359375, 1.9677734375]}, "gradients/graph_1stochastic_state_model.fc2.bias": {"_type": "histogram", "values": [1.0, 0.0, 1.0, 0.0, 0.0, 1.0, 1.0, 0.0, 0.0, 2.0, 2.0, 1.0, 2.0, 2.0, 4.0, 0.0, 4.0, 5.0, 6.0, 4.0, 4.0, 5.0, 5.0, 8.0, 7.0, 9.0, 7.0, 16.0, 25.0, 27.0, 37.0, 37.0, 48.0, 46.0, 32.0, 30.0, 26.0, 11.0, 11.0, 6.0, 5.0, 12.0, 6.0, 10.0, 4.0, 3.0, 3.0, 4.0, 4.0, 6.0, 4.0, 8.0, 0.0, 0.0, 2.0, 1.0, 2.0, 2.0, 1.0, 0.0, 1.0, 0.0, 0.0, 1.0], "bins": [-1.498046875, -1.451507568359375, -1.40496826171875, -1.358428955078125, -1.3118896484375, -1.265350341796875, -1.21881103515625, -1.172271728515625, -1.125732421875, -1.079193115234375, -1.03265380859375, -0.986114501953125, -0.9395751953125, -0.893035888671875, -0.84649658203125, -0.799957275390625, -0.75341796875, -0.706878662109375, -0.66033935546875, -0.613800048828125, -0.5672607421875, -0.520721435546875, -0.47418212890625, -0.427642822265625, -0.381103515625, -0.334564208984375, -0.28802490234375, -0.241485595703125, -0.1949462890625, -0.148406982421875, -0.10186767578125, -0.055328369140625, -0.0087890625, 0.037750244140625, 0.08428955078125, 0.130828857421875, 0.1773681640625, 0.223907470703125, 0.27044677734375, 0.316986083984375, 0.363525390625, 0.410064697265625, 0.45660400390625, 0.503143310546875, 0.5496826171875, 0.596221923828125, 0.64276123046875, 0.689300537109375, 0.73583984375, 0.782379150390625, 0.82891845703125, 0.875457763671875, 0.9219970703125, 0.968536376953125, 1.01507568359375, 1.061614990234375, 1.108154296875, 1.154693603515625, 1.20123291015625, 1.247772216796875, 1.2943115234375, 1.340850830078125, 1.38739013671875, 1.433929443359375, 1.48046875]}, "gradients/graph_1stochastic_state_model.fc1.weight": {"_type": "histogram", "values": [4.0, 3.0, 0.0, 5.0, 2.0, 2.0, 9.0, 12.0, 14.0, 30.0, 34.0, 49.0, 77.0, 105.0, 168.0, 239.0, 281.0, 471.0, 696.0, 1016.0, 1595.0, 2422.0, 3597.0, 5276.0, 7613.0, 10083.0, 9570.0, 6831.0, 4796.0, 3371.0, 2218.0, 1570.0, 1034.0, 650.0, 469.0, 310.0, 203.0, 167.0, 94.0, 89.0, 86.0, 56.0, 44.0, 38.0, 20.0, 23.0, 20.0, 10.0, 19.0, 10.0, 9.0, 1.0, 4.0, 2.0, 0.0, 0.0, 2.0, 3.0, 3.0, 4.0, 2.0, 2.0, 1.0, 2.0], "bins": [-3.337890625, -3.209197998046875, -3.08050537109375, -2.951812744140625, -2.8231201171875, -2.694427490234375, -2.56573486328125, -2.437042236328125, -2.308349609375, -2.179656982421875, -2.05096435546875, -1.922271728515625, -1.7935791015625, -1.664886474609375, -1.53619384765625, -1.407501220703125, -1.27880859375, -1.150115966796875, -1.02142333984375, -0.892730712890625, -0.7640380859375, -0.635345458984375, -0.50665283203125, -0.377960205078125, -0.249267578125, -0.120574951171875, 0.00811767578125, 0.136810302734375, 0.2655029296875, 0.394195556640625, 0.52288818359375, 0.651580810546875, 0.7802734375, 0.908966064453125, 1.03765869140625, 1.166351318359375, 1.2950439453125, 1.423736572265625, 1.55242919921875, 1.681121826171875, 1.809814453125, 1.938507080078125, 2.06719970703125, 2.195892333984375, 2.3245849609375, 2.453277587890625, 2.58197021484375, 2.710662841796875, 2.83935546875, 2.968048095703125, 3.09674072265625, 3.225433349609375, 3.3541259765625, 3.482818603515625, 3.61151123046875, 3.740203857421875, 3.868896484375, 3.997589111328125, 4.12628173828125, 4.254974365234375, 4.3836669921875, 4.512359619140625, 4.64105224609375, 4.769744873046875, 4.8984375]}, "gradients/graph_1stochastic_state_model.fc1.bias": {"_type": "histogram", "values": [1.0, 0.0, 1.0, 0.0, 0.0, 1.0, 2.0, 1.0, 0.0, 2.0, 3.0, 3.0, 4.0, 7.0, 6.0, 4.0, 5.0, 5.0, 2.0, 7.0, 7.0, 9.0, 9.0, 4.0, 6.0, 10.0, 5.0, 5.0, 6.0, 9.0, 8.0, 4.0, 7.0, 5.0, 13.0, 7.0, 2.0, 7.0, 7.0, 10.0, 9.0, 4.0, 8.0, 8.0, 4.0, 6.0, 1.0, 4.0, 3.0, 4.0, 3.0, 0.0, 1.0, 1.0, 0.0, 0.0, 0.0, 1.0, 0.0, 2.0, 1.0, 1.0, 0.0, 1.0], "bins": [-3.259765625, -3.131805419921875, -3.00384521484375, -2.875885009765625, -2.7479248046875, -2.619964599609375, -2.49200439453125, -2.364044189453125, -2.236083984375, -2.108123779296875, -1.98016357421875, -1.852203369140625, -1.7242431640625, -1.596282958984375, -1.46832275390625, -1.340362548828125, -1.21240234375, -1.084442138671875, -0.95648193359375, -0.828521728515625, -0.7005615234375, -0.572601318359375, -0.44464111328125, -0.316680908203125, -0.188720703125, -0.060760498046875, 0.06719970703125, 0.195159912109375, 0.3231201171875, 0.451080322265625, 0.57904052734375, 0.707000732421875, 0.8349609375, 0.962921142578125, 1.09088134765625, 1.218841552734375, 1.3468017578125, 1.474761962890625, 1.60272216796875, 1.730682373046875, 1.858642578125, 1.986602783203125, 2.11456298828125, 2.242523193359375, 2.3704833984375, 2.498443603515625, 2.62640380859375, 2.754364013671875, 2.88232421875, 3.010284423828125, 3.13824462890625, 3.266204833984375, 3.3941650390625, 3.522125244140625, 3.65008544921875, 3.778045654296875, 3.906005859375, 4.033966064453125, 4.16192626953125, 4.289886474609375, 4.4178466796875, 4.545806884765625, 4.67376708984375, 4.801727294921875, 4.9296875]}, "gradients/graph_1rnn.weight_ih": {"_type": "histogram", "values": [1.0, 0.0, 0.0, 0.0, 0.0, 0.0, 2.0, 1.0, 2.0, 2.0, 4.0, 8.0, 10.0, 11.0, 14.0, 18.0, 26.0, 26.0, 47.0, 84.0, 123.0, 200.0, 349.0, 623.0, 998.0, 1933.0, 3669.0, 7813.0, 27779.0, 117922.0, 20556.0, 7141.0, 3372.0, 1630.0, 902.0, 449.0, 277.0, 186.0, 128.0, 81.0, 65.0, 48.0, 21.0, 15.0, 11.0, 21.0, 7.0, 6.0, 2.0, 5.0, 7.0, 3.0, 2.0, 2.0, 3.0, 0.0, 0.0, 0.0, 0.0, 0.0, 0.0, 1.0, 1.0, 1.0], "bins": [-27.875, -26.9267578125, -25.978515625, -25.0302734375, -24.08203125, -23.1337890625, -22.185546875, -21.2373046875, -20.2890625, -19.3408203125, -18.392578125, -17.4443359375, -16.49609375, -15.5478515625, -14.599609375, -13.6513671875, -12.703125, -11.7548828125, -10.806640625, -9.8583984375, -8.91015625, -7.9619140625, -7.013671875, -6.0654296875, -5.1171875, -4.1689453125, -3.220703125, -2.2724609375, -1.32421875, -0.3759765625, 0.572265625, 1.5205078125, 2.46875, 3.4169921875, 4.365234375, 5.3134765625, 6.26171875, 7.2099609375, 8.158203125, 9.1064453125, 10.0546875, 11.0029296875, 11.951171875, 12.8994140625, 13.84765625, 14.7958984375, 15.744140625, 16.6923828125, 17.640625, 18.5888671875, 19.537109375, 20.4853515625, 21.43359375, 22.3818359375, 23.330078125, 24.2783203125, 25.2265625, 26.1748046875, 27.123046875, 28.0712890625, 29.01953125, 29.9677734375, 30.916015625, 31.8642578125, 32.8125]}, "gradients/graph_1rnn.weight_hh": {"_type": "histogram", "values": [1.0, 0.0, 0.0, 0.0, 0.0, 0.0, 1.0, 4.0, 11.0, 17.0, 11.0, 21.0, 26.0, 34.0, 71.0, 114.0, 188.0, 308.0, 492.0, 917.0, 1727.0, 3926.0, 11425.0, 69366.0, 87717.0, 12131.0, 3994.0, 1746.0, 935.0, 551.0, 310.0, 205.0, 122.0, 68.0, 52.0, 30.0, 17.0, 17.0, 18.0, 10.0, 5.0, 0.0, 3.0, 2.0, 2.0, 2.0, 0.0, 3.0, 5.0, 0.0, 0.0, 0.0, 0.0, 0.0, 0.0, 0.0, 0.0, 0.0, 0.0, 0.0, 0.0, 1.0, 0.0, 2.0], "bins": [-5.30078125, -5.08013916015625, -4.8594970703125, -4.63885498046875, -4.418212890625, -4.19757080078125, -3.9769287109375, -3.75628662109375, -3.53564453125, -3.31500244140625, -3.0943603515625, -2.87371826171875, -2.653076171875, -2.43243408203125, -2.2117919921875, -1.99114990234375, -1.7705078125, -1.54986572265625, -1.3292236328125, -1.10858154296875, -0.887939453125, -0.66729736328125, -0.4466552734375, -0.22601318359375, -0.00537109375, 0.21527099609375, 0.4359130859375, 0.65655517578125, 0.877197265625, 1.09783935546875, 1.3184814453125, 1.53912353515625, 1.759765625, 1.98040771484375, 2.2010498046875, 2.42169189453125, 2.642333984375, 2.86297607421875, 3.0836181640625, 3.30426025390625, 3.52490234375, 3.74554443359375, 3.9661865234375, 4.18682861328125, 4.407470703125, 4.62811279296875, 4.8487548828125, 5.06939697265625, 5.2900390625, 5.51068115234375, 5.7313232421875, 5.95196533203125, 6.172607421875, 6.39324951171875, 6.6138916015625, 6.83453369140625, 7.05517578125, 7.27581787109375, 7.4964599609375, 7.71710205078125, 7.937744140625, 8.15838623046875, 8.3790283203125, 8.59967041015625, 8.8203125]}, "gradients/graph_1rnn.bias_ih": {"_type": "histogram", "values": [1.0, 0.0, 1.0, 0.0, 1.0, 0.0, 1.0, 0.0, 0.0, 0.0, 2.0, 1.0, 2.0, 1.0, 2.0, 1.0, 0.0, 2.0, 3.0, 1.0, 1.0, 9.0, 2.0, 3.0, 9.0, 9.0, 8.0, 18.0, 21.0, 33.0, 53.0, 330.0, 120.0, 30.0, 7.0, 14.0, 13.0, 6.0, 9.0, 7.0, 4.0, 6.0, 8.0, 3.0, 4.0, 5.0, 3.0, 1.0, 3.0, 1.0, 2.0, 0.0, 2.0, 3.0, 0.0, 0.0, 0.0, 0.0, 0.0, 0.0, 0.0, 0.0, 0.0, 2.0], "bins": [-13.578125, -13.151123046875, -12.72412109375, -12.297119140625, -11.8701171875, -11.443115234375, -11.01611328125, -10.589111328125, -10.162109375, -9.735107421875, -9.30810546875, -8.881103515625, -8.4541015625, -8.027099609375, -7.60009765625, -7.173095703125, -6.74609375, -6.319091796875, -5.89208984375, -5.465087890625, -5.0380859375, -4.611083984375, -4.18408203125, -3.757080078125, -3.330078125, -2.903076171875, -2.47607421875, -2.049072265625, -1.6220703125, -1.195068359375, -0.76806640625, -0.341064453125, 0.0859375, 0.512939453125, 0.93994140625, 1.366943359375, 1.7939453125, 2.220947265625, 2.64794921875, 3.074951171875, 3.501953125, 3.928955078125, 4.35595703125, 4.782958984375, 5.2099609375, 5.636962890625, 6.06396484375, 6.490966796875, 6.91796875, 7.344970703125, 7.77197265625, 8.198974609375, 8.6259765625, 9.052978515625, 9.47998046875, 9.906982421875, 10.333984375, 10.760986328125, 11.18798828125, 11.614990234375, 12.0419921875, 12.468994140625, 12.89599609375, 13.322998046875, 13.75]}, "gradients/graph_1rnn.bias_hh": {"_type": "histogram", "values": [1.0, 0.0, 0.0, 0.0, 0.0, 0.0, 0.0, 0.0, 1.0, 0.0, 1.0, 1.0, 2.0, 1.0, 0.0, 2.0, 3.0, 10.0, 1.0, 3.0, 5.0, 3.0, 6.0, 12.0, 12.0, 13.0, 22.0, 40.0, 43.0, 162.0, 248.0, 48.0, 25.0, 19.0, 11.0, 10.0, 11.0, 5.0, 8.0, 3.0, 4.0, 6.0, 6.0, 5.0, 3.0, 1.0, 2.0, 2.0, 1.0, 0.0, 3.0, 0.0, 0.0, 0.0, 0.0, 0.0, 0.0, 0.0, 1.0, 0.0, 0.0, 0.0, 0.0, 2.0], "bins": [-8.09375, -7.825439453125, -7.55712890625, -7.288818359375, -7.0205078125, -6.752197265625, -6.48388671875, -6.215576171875, -5.947265625, -5.678955078125, -5.41064453125, -5.142333984375, -4.8740234375, -4.605712890625, -4.33740234375, -4.069091796875, -3.80078125, -3.532470703125, -3.26416015625, -2.995849609375, -2.7275390625, -2.459228515625, -2.19091796875, -1.922607421875, -1.654296875, -1.385986328125, -1.11767578125, -0.849365234375, -0.5810546875, -0.312744140625, -0.04443359375, 0.223876953125, 0.4921875, 0.760498046875, 1.02880859375, 1.297119140625, 1.5654296875, 1.833740234375, 2.10205078125, 2.370361328125, 2.638671875, 2.906982421875, 3.17529296875, 3.443603515625, 3.7119140625, 3.980224609375, 4.24853515625, 4.516845703125, 4.78515625, 5.053466796875, 5.32177734375, 5.590087890625, 5.8583984375, 6.126708984375, 6.39501953125, 6.663330078125, 6.931640625, 7.199951171875, 7.46826171875, 7.736572265625, 8.0048828125, 8.273193359375, 8.54150390625, 8.809814453125, 9.078125]}, "gradients/graph_1fc_embed_state_action.weight": {"_type": "histogram", "values": [1.0, 0.0, 2.0, 0.0, 0.0, 2.0, 1.0, 2.0, 0.0, 1.0, 0.0, 2.0, 1.0, 6.0, 4.0, 2.0, 8.0, 11.0, 8.0, 15.0, 18.0, 25.0, 38.0, 63.0, 92.0, 135.0, 224.0, 371.0, 660.0, 1256.0, 2802.0, 7361.0, 25519.0, 16637.0, 5759.0, 2408.0, 1088.0, 517.0, 290.0, 151.0, 111.0, 71.0, 37.0, 34.0, 23.0, 12.0, 5.0, 6.0, 3.0, 2.0, 4.0, 1.0, 0.0, 1.0, 0.0, 0.0, 0.0, 1.0, 0.0, 0.0, 0.0, 0.0, 0.0, 1.0], "bins": [-49.625, -48.11376953125, -46.6025390625, -45.09130859375, -43.580078125, -42.06884765625, -40.5576171875, -39.04638671875, -37.53515625, -36.02392578125, -34.5126953125, -33.00146484375, -31.490234375, -29.97900390625, -28.4677734375, -26.95654296875, -25.4453125, -23.93408203125, -22.4228515625, -20.91162109375, -19.400390625, -17.88916015625, -16.3779296875, -14.86669921875, -13.35546875, -11.84423828125, -10.3330078125, -8.82177734375, -7.310546875, -5.79931640625, -4.2880859375, -2.77685546875, -1.265625, 0.24560546875, 1.7568359375, 3.26806640625, 4.779296875, 6.29052734375, 7.8017578125, 9.31298828125, 10.82421875, 12.33544921875, 13.8466796875, 15.35791015625, 16.869140625, 18.38037109375, 19.8916015625, 21.40283203125, 22.9140625, 24.42529296875, 25.9365234375, 27.44775390625, 28.958984375, 30.47021484375, 31.9814453125, 33.49267578125, 35.00390625, 36.51513671875, 38.0263671875, 39.53759765625, 41.048828125, 42.56005859375, 44.0712890625, 45.58251953125, 47.09375]}, "gradients/graph_1fc_embed_state_action.bias": {"_type": "histogram", "values": [1.0, 0.0, 1.0, 2.0, 1.0, 2.0, 1.0, 1.0, 4.0, 2.0, 2.0, 4.0, 5.0, 6.0, 7.0, 6.0, 5.0, 6.0, 7.0, 8.0, 8.0, 8.0, 5.0, 7.0, 5.0, 7.0, 9.0, 5.0, 7.0, 3.0, 11.0, 6.0, 10.0, 6.0, 10.0, 4.0, 11.0, 2.0, 9.0, 5.0, 8.0, 3.0, 2.0, 0.0, 5.0, 6.0, 1.0, 5.0, 3.0, 2.0, 2.0, 3.0, 0.0, 0.0, 3.0, 1.0, 0.0, 0.0, 0.0, 0.0, 0.0, 2.0, 0.0, 1.0], "bins": [-5.6640625, -5.430908203125, -5.19775390625, -4.964599609375, -4.7314453125, -4.498291015625, -4.26513671875, -4.031982421875, -3.798828125, -3.565673828125, -3.33251953125, -3.099365234375, -2.8662109375, -2.633056640625, -2.39990234375, -2.166748046875, -1.93359375, -1.700439453125, -1.46728515625, -1.234130859375, -1.0009765625, -0.767822265625, -0.53466796875, -0.301513671875, -0.068359375, 0.164794921875, 0.39794921875, 0.631103515625, 0.8642578125, 1.097412109375, 1.33056640625, 1.563720703125, 1.796875, 2.030029296875, 2.26318359375, 2.496337890625, 2.7294921875, 2.962646484375, 3.19580078125, 3.428955078125, 3.662109375, 3.895263671875, 4.12841796875, 4.361572265625, 4.5947265625, 4.827880859375, 5.06103515625, 5.294189453125, 5.52734375, 5.760498046875, 5.99365234375, 6.226806640625, 6.4599609375, 6.693115234375, 6.92626953125, 7.159423828125, 7.392578125, 7.625732421875, 7.85888671875, 8.092041015625, 8.3251953125, 8.558349609375, 8.79150390625, 9.024658203125, 9.2578125]}, "gradients/graph_3conv.16.weight": {"_type": "histogram", "values": [1.0, 0.0, 0.0, 0.0, 1.0, 0.0, 2.0, 2.0, 0.0, 1.0, 3.0, 3.0, 5.0, 11.0, 8.0, 5.0, 4.0, 10.0, 4.0, 4.0, 9.0, 8.0, 13.0, 9.0, 5.0, 7.0, 14.0, 5.0, 8.0, 10.0, 5.0, 8.0, 8.0, 8.0, 10.0, 3.0, 8.0, 7.0, 8.0, 8.0, 6.0, 5.0, 5.0, 3.0, 4.0, 1.0, 1.0, 1.0, 1.0, 2.0, 0.0, 0.0, 0.0, 1.0, 0.0, 0.0, 0.0, 0.0, 0.0, 0.0, 0.0, 0.0, 0.0, 1.0], "bins": [-74.1390380859375, -71.44406127929688, -68.74908447265625, -66.05410766601562, -63.359127044677734, -60.66415023803711, -57.96916961669922, -55.274192810058594, -52.57921600341797, -49.884239196777344, -47.18926239013672, -44.49428176879883, -41.7993049621582, -39.10432815551758, -36.40934753417969, -33.71437072753906, -31.019393920898438, -28.324417114257812, -25.629438400268555, -22.934459686279297, -20.239482879638672, -17.544506072998047, -14.849527359008789, -12.154548645019531, -9.459571838378906, -6.764594078063965, -4.069616317749023, -1.374638557434082, 1.3203392028808594, 4.015316963195801, 6.710294723510742, 9.4052734375, 12.100257873535156, 14.795235633850098, 17.49021339416504, 20.185192108154297, 22.880168914794922, 25.575145721435547, 28.270124435424805, 30.965103149414062, 33.66007995605469, 36.35505676269531, 39.05003356933594, 41.74501419067383, 44.43999099731445, 47.13496780395508, 49.82994842529297, 52.524925231933594, 55.21990203857422, 57.914878845214844, 60.60985565185547, 63.30483627319336, 65.99981689453125, 68.69479370117188, 71.3897705078125, 74.08474731445312, 76.77972412109375, 79.47470092773438, 82.169677734375, 84.86465454101562, 87.55963134765625, 90.2546157836914, 92.94959259033203, 95.64456939697266, 98.33954620361328]}, "gradients/graph_3conv.16.bias": {"_type": "histogram", "values": [1.0, 1.0, 3.0, 1.0, 2.0, 1.0, 2.0, 1.0, 3.0, 1.0, 5.0, 3.0, 8.0, 5.0, 7.0, 7.0, 11.0, 11.0, 6.0, 9.0, 8.0, 12.0, 11.0, 5.0, 7.0, 12.0, 10.0, 4.0, 8.0, 8.0, 4.0, 6.0, 3.0, 3.0, 11.0, 8.0, 5.0, 7.0, 2.0, 6.0, 2.0, 4.0, 3.0, 5.0, 2.0, 1.0, 3.0, 2.0, 3.0, 0.0, 0.0, 1.0, 1.0, 0.0, 0.0, 0.0, 0.0, 0.0, 0.0, 0.0, 0.0, 0.0, 0.0, 1.0], "bins": [-71.7024154663086, -68.93438720703125, -66.1663589477539, -63.3983268737793, -60.63029479980469, -57.862266540527344, -55.09423828125, -52.326210021972656, -49.55817794799805, -46.7901496887207, -44.022117614746094, -41.25408935546875, -38.486061096191406, -35.7180290222168, -32.95000076293945, -30.181970596313477, -27.4139404296875, -24.645910263061523, -21.877880096435547, -19.109851837158203, -16.341821670532227, -13.57379150390625, -10.805763244628906, -8.03773307800293, -5.269702911376953, -2.5016732215881348, 0.2663564682006836, 3.0343856811523438, 5.80241584777832, 8.570446014404297, 11.33847427368164, 14.106504440307617, 16.874526977539062, 19.64255714416504, 22.410587310791016, 25.17861557006836, 27.946645736694336, 30.714675903320312, 33.482704162597656, 36.250732421875, 39.01876449584961, 41.78679275512695, 44.55482482910156, 47.322853088378906, 50.09088134765625, 52.85891342163086, 55.6269416809082, 58.39497375488281, 61.163002014160156, 63.9310302734375, 66.69905853271484, 69.46708679199219, 72.23512268066406, 75.0031509399414, 77.77117919921875, 80.5392074584961, 83.30723571777344, 86.07526397705078, 88.84329223632812, 91.611328125, 94.37935638427734, 97.14738464355469, 99.91541290283203, 102.68344116210938, 105.45147705078125]}, "gradients/graph_3conv.15.weight": {"_type": "histogram", "values": [1.0, 0.0, 0.0, 1.0, 0.0, 0.0, 1.0, 1.0, 2.0, 4.0, 6.0, 11.0, 11.0, 16.0, 19.0, 29.0, 35.0, 66.0, 107.0, 190.0, 295.0, 499.0, 756.0, 1155.0, 1782.0, 2735.0, 4530.0, 7325.0, 12728.0, 21734.0, 38416.0, 68607.0, 118540.0, 109540.0, 57001.0, 31342.0, 18069.0, 10860.0, 6505.0, 3997.0, 2637.0, 1689.0, 1048.0, 713.0, 421.0, 293.0, 192.0, 112.0, 87.0, 67.0, 28.0, 22.0, 20.0, 15.0, 11.0, 8.0, 4.0, 2.0, 1.0, 0.0, 1.0, 0.0, 0.0, 1.0], "bins": [-15.9921875, -15.5045166015625, -15.016845703125, -14.5291748046875, -14.04150390625, -13.5538330078125, -13.066162109375, -12.5784912109375, -12.0908203125, -11.6031494140625, -11.115478515625, -10.6278076171875, -10.14013671875, -9.6524658203125, -9.164794921875, -8.6771240234375, -8.189453125, -7.7017822265625, -7.214111328125, -6.7264404296875, -6.23876953125, -5.7510986328125, -5.263427734375, -4.7757568359375, -4.2880859375, -3.8004150390625, -3.312744140625, -2.8250732421875, -2.33740234375, -1.8497314453125, -1.362060546875, -0.8743896484375, -0.38671875, 0.1009521484375, 0.588623046875, 1.0762939453125, 1.56396484375, 2.0516357421875, 2.539306640625, 3.0269775390625, 3.5146484375, 4.0023193359375, 4.489990234375, 4.9776611328125, 5.46533203125, 5.9530029296875, 6.440673828125, 6.9283447265625, 7.416015625, 7.9036865234375, 8.391357421875, 8.8790283203125, 9.36669921875, 9.8543701171875, 10.342041015625, 10.8297119140625, 11.3173828125, 11.8050537109375, 12.292724609375, 12.7803955078125, 13.26806640625, 13.7557373046875, 14.243408203125, 14.7310791015625, 15.21875]}, "gradients/graph_3conv.13.weight": {"_type": "histogram", "values": [1.0, 1.0, 0.0, 0.0, 0.0, 0.0, 1.0, 1.0, 0.0, 0.0, 1.0, 0.0, 3.0, 2.0, 1.0, 2.0, 2.0, 0.0, 3.0, 4.0, 2.0, 5.0, 3.0, 7.0, 7.0, 5.0, 5.0, 6.0, 12.0, 3.0, 4.0, 6.0, 4.0, 4.0, 1.0, 0.0, 2.0, 2.0, 5.0, 2.0, 2.0, 5.0, 2.0, 2.0, 1.0, 0.0, 1.0, 0.0, 1.0, 1.0, 0.0, 1.0, 0.0, 0.0, 0.0, 0.0, 1.0, 3.0, 0.0, 0.0, 0.0, 0.0, 0.0, 1.0], "bins": [-41.36293029785156, -40.00194549560547, -38.64096450805664, -37.27997970581055, -35.91899871826172, -34.558013916015625, -33.19702911376953, -31.836048126220703, -30.475065231323242, -29.11408233642578, -27.75309944152832, -26.39211654663086, -25.031131744384766, -23.670150756835938, -22.309165954589844, -20.948183059692383, -19.587200164794922, -18.22621726989746, -16.865234375, -15.504250526428223, -14.143267631530762, -12.7822847366333, -11.421300888061523, -10.060317993164062, -8.699335098266602, -7.338352203369141, -5.9773688316345215, -4.616385459899902, -3.2554025650024414, -1.8944196701049805, -0.5334358215332031, 0.8275470733642578, 2.1885337829589844, 3.5495169162750244, 4.9105000495910645, 6.271483421325684, 7.6324663162231445, 8.993449211120605, 10.354433059692383, 11.715415954589844, 13.076398849487305, 14.437381744384766, 15.798364639282227, 17.159347534179688, 18.52033233642578, 19.88131332397461, 21.242298126220703, 22.603281021118164, 23.964263916015625, 25.325246810913086, 26.686229705810547, 28.04721450805664, 29.40819549560547, 30.769180297851562, 32.130165100097656, 33.491146087646484, 34.85212707519531, 36.213111877441406, 37.574092864990234, 38.93507766723633, 40.296058654785156, 41.65704345703125, 43.018028259277344, 44.37900924682617, 45.739994049072266]}, "gradients/graph_3conv.13.bias": {"_type": "histogram", "values": [2.0, 0.0, 0.0, 0.0, 0.0, 0.0, 0.0, 1.0, 0.0, 0.0, 0.0, 1.0, 1.0, 1.0, 1.0, 0.0, 2.0, 1.0, 2.0, 1.0, 1.0, 0.0, 5.0, 3.0, 4.0, 5.0, 5.0, 2.0, 6.0, 8.0, 8.0, 7.0, 8.0, 3.0, 6.0, 1.0, 3.0, 5.0, 1.0, 2.0, 3.0, 2.0, 1.0, 3.0, 1.0, 2.0, 1.0, 2.0, 2.0, 2.0, 2.0, 1.0, 2.0, 1.0, 1.0, 1.0, 1.0, 0.0, 0.0, 1.0, 0.0, 0.0, 2.0, 1.0], "bins": [-37.387855529785156, -36.41396713256836, -35.4400749206543, -34.4661865234375, -33.49229431152344, -32.51840591430664, -31.54451560974121, -30.57062530517578, -29.596736907958984, -28.622846603393555, -27.648956298828125, -26.675067901611328, -25.7011775970459, -24.72728729248047, -23.75339698791504, -22.77950668334961, -21.80561637878418, -20.83172607421875, -19.85783576965332, -18.88394546508789, -17.910057067871094, -16.936166763305664, -15.962276458740234, -14.988386154174805, -14.014496803283691, -13.040606498718262, -12.066717147827148, -11.092826843261719, -10.118936538696289, -9.145047187805176, -8.171156883239746, -7.197267055511475, -6.22337532043457, -5.249485492706299, -4.275595664978027, -3.3017053604125977, -2.327815532684326, -1.3539257049560547, -0.380035400390625, 0.5938544273376465, 1.567744255065918, 2.5416340827941895, 3.51552414894104, 4.489414215087891, 5.463304042816162, 6.437193870544434, 7.411084175109863, 8.384973526000977, 9.358863830566406, 10.332754135131836, 11.30664348602295, 12.280533790588379, 13.254423141479492, 14.228313446044922, 15.202203750610352, 16.17609405517578, 17.149982452392578, 18.123872756958008, 19.097763061523438, 20.071651458740234, 21.045541763305664, 22.019432067871094, 22.993322372436523, 23.967212677001953, 24.941102981567383]}, "gradients/graph_3conv.12.weight": {"_type": "histogram", "values": [1.0, 0.0, 3.0, 3.0, 1.0, 3.0, 5.0, 14.0, 16.0, 18.0, 48.0, 74.0, 81.0, 104.0, 153.0, 177.0, 251.0, 353.0, 559.0, 811.0, 1284.0, 1983.0, 3151.0, 5031.0, 8880.0, 14937.0, 24857.0, 33959.0, 14989.0, 7494.0, 4155.0, 2531.0, 1692.0, 1089.0, 736.0, 531.0, 359.0, 218.0, 151.0, 100.0, 60.0, 50.0, 37.0, 29.0, 20.0, 15.0, 8.0, 9.0, 14.0, 7.0, 3.0, 5.0, 6.0, 3.0, 2.0, 0.0, 0.0, 0.0, 0.0, 0.0, 0.0, 1.0, 0.0, 1.0], "bins": [-18.03125, -17.365966796875, -16.70068359375, -16.035400390625, -15.3701171875, -14.704833984375, -14.03955078125, -13.374267578125, -12.708984375, -12.043701171875, -11.37841796875, -10.713134765625, -10.0478515625, -9.382568359375, -8.71728515625, -8.052001953125, -7.38671875, -6.721435546875, -6.05615234375, -5.390869140625, -4.7255859375, -4.060302734375, -3.39501953125, -2.729736328125, -2.064453125, -1.399169921875, -0.73388671875, -0.068603515625, 0.5966796875, 1.261962890625, 1.92724609375, 2.592529296875, 3.2578125, 3.923095703125, 4.58837890625, 5.253662109375, 5.9189453125, 6.584228515625, 7.24951171875, 7.914794921875, 8.580078125, 9.245361328125, 9.91064453125, 10.575927734375, 11.2412109375, 11.906494140625, 12.57177734375, 13.237060546875, 13.90234375, 14.567626953125, 15.23291015625, 15.898193359375, 16.5634765625, 17.228759765625, 17.89404296875, 18.559326171875, 19.224609375, 19.889892578125, 20.55517578125, 21.220458984375, 21.8857421875, 22.551025390625, 23.21630859375, 23.881591796875, 24.546875]}, "gradients/graph_3conv.10.weight": {"_type": "histogram", "values": [2.0, 0.0, 0.0, 0.0, 1.0, 2.0, 2.0, 1.0, 1.0, 3.0, 3.0, 3.0, 5.0, 1.0, 0.0, 5.0, 0.0, 2.0, 2.0, 9.0, 1.0, 4.0, 3.0, 3.0, 1.0, 0.0, 1.0, 2.0, 2.0, 0.0, 0.0, 0.0, 0.0, 0.0, 1.0, 0.0, 0.0, 0.0, 0.0, 0.0, 0.0, 0.0, 0.0, 0.0, 0.0, 0.0, 0.0, 0.0, 0.0, 1.0, 1.0, 0.0, 0.0, 0.0, 0.0, 0.0, 0.0, 0.0, 0.0, 0.0, 1.0, 0.0, 0.0, 1.0], "bins": [-32.2842903137207, -30.643627166748047, -29.002962112426758, -27.36229705810547, -25.721633911132812, -24.080970764160156, -22.440305709838867, -20.799640655517578, -19.158977508544922, -17.518314361572266, -15.877649307250977, -14.236985206604004, -12.596321105957031, -10.955657005310059, -9.314992904663086, -7.674328804016113, -6.033664703369141, -4.393000602722168, -2.7523365020751953, -1.1116724014282227, 0.52899169921875, 2.1696557998657227, 3.8103199005126953, 5.450984001159668, 7.091648101806641, 8.732312202453613, 10.372976303100586, 12.013640403747559, 13.654304504394531, 15.294968605041504, 16.935632705688477, 18.576297760009766, 20.216964721679688, 21.857627868652344, 23.498292922973633, 25.138957977294922, 26.779621124267578, 28.420284271240234, 30.060949325561523, 31.701614379882812, 33.34227752685547, 34.982940673828125, 36.62360382080078, 38.2642707824707, 39.90493392944336, 41.545597076416016, 43.18626403808594, 44.826927185058594, 46.46759033203125, 48.108253479003906, 49.74891662597656, 51.389583587646484, 53.03024673461914, 54.6709098815918, 56.31157684326172, 57.952239990234375, 59.59290313720703, 61.23356628417969, 62.874229431152344, 64.514892578125, 66.15556335449219, 67.79622650146484, 69.4368896484375, 71.07755279541016, 72.71821594238281]}, "gradients/graph_3conv.10.bias": {"_type": "histogram", "values": [1.0, 0.0, 0.0, 0.0, 0.0, 0.0, 1.0, 0.0, 1.0, 1.0, 1.0, 1.0, 0.0, 2.0, 2.0, 3.0, 5.0, 2.0, 2.0, 3.0, 3.0, 1.0, 0.0, 1.0, 0.0, 1.0, 2.0, 4.0, 1.0, 5.0, 1.0, 1.0, 1.0, 3.0, 0.0, 0.0, 1.0, 2.0, 1.0, 2.0, 0.0, 1.0, 2.0, 1.0, 0.0, 0.0, 1.0, 1.0, 0.0, 0.0, 0.0, 0.0, 0.0, 0.0, 1.0, 0.0, 0.0, 1.0, 0.0, 0.0, 0.0, 0.0, 0.0, 1.0], "bins": [-39.91141128540039, -38.63222885131836, -37.353050231933594, -36.07386779785156, -34.79468536376953, -33.515506744384766, -32.236324310302734, -30.957143783569336, -29.677963256835938, -28.39878273010254, -27.11960220336914, -25.84041976928711, -24.56123924255371, -23.282058715820312, -22.00287628173828, -20.723695755004883, -19.444515228271484, -18.165334701538086, -16.886154174804688, -15.606971740722656, -14.327791213989258, -13.04861068725586, -11.769429206848145, -10.49024772644043, -9.211067199707031, -7.931886196136475, -6.652705192565918, -5.373524188995361, -4.094343185424805, -2.815162181854248, -1.5359811782836914, -0.25679969787597656, 1.0223846435546875, 2.301565647125244, 3.580746650695801, 4.859927654266357, 6.139108657836914, 7.418289661407471, 8.697470664978027, 9.976652145385742, 11.25583267211914, 12.535013198852539, 13.814194679260254, 15.093376159667969, 16.372556686401367, 17.651737213134766, 18.930919647216797, 20.210100173950195, 21.489280700683594, 22.768461227416992, 24.04764175415039, 25.326824188232422, 26.60600471496582, 27.88518524169922, 29.16436767578125, 30.44354820251465, 31.722728729248047, 33.00191116333008, 34.281089782714844, 35.560272216796875, 36.839454650878906, 38.11863327026367, 39.3978157043457, 40.67699432373047, 41.9561767578125]}, "gradients/graph_3conv.9.weight": {"_type": "histogram", "values": [1.0, 0.0, 1.0, 0.0, 0.0, 0.0, 1.0, 0.0, 1.0, 2.0, 1.0, 1.0, 3.0, 1.0, 8.0, 6.0, 6.0, 22.0, 28.0, 68.0, 101.0, 128.0, 185.0, 239.0, 374.0, 658.0, 1418.0, 2504.0, 5210.0, 9556.0, 6198.0, 2638.0, 1480.0, 686.0, 328.0, 285.0, 174.0, 165.0, 113.0, 77.0, 39.0, 25.0, 10.0, 10.0, 3.0, 6.0, 1.0, 0.0, 1.0, 1.0, 0.0, 0.0, 0.0, 0.0, 0.0, 1.0, 0.0, 0.0, 0.0, 0.0, 0.0, 0.0, 1.0, 3.0], "bins": [-38.53125, -37.2265625, -35.921875, -34.6171875, -33.3125, -32.0078125, -30.703125, -29.3984375, -28.09375, -26.7890625, -25.484375, -24.1796875, -22.875, -21.5703125, -20.265625, -18.9609375, -17.65625, -16.3515625, -15.046875, -13.7421875, -12.4375, -11.1328125, -9.828125, -8.5234375, -7.21875, -5.9140625, -4.609375, -3.3046875, -2.0, -0.6953125, 0.609375, 1.9140625, 3.21875, 4.5234375, 5.828125, 7.1328125, 8.4375, 9.7421875, 11.046875, 12.3515625, 13.65625, 14.9609375, 16.265625, 17.5703125, 18.875, 20.1796875, 21.484375, 22.7890625, 24.09375, 25.3984375, 26.703125, 28.0078125, 29.3125, 30.6171875, 31.921875, 33.2265625, 34.53125, 35.8359375, 37.140625, 38.4453125, 39.75, 41.0546875, 42.359375, 43.6640625, 44.96875]}, "gradients/graph_3conv.7.weight": {"_type": "histogram", "values": [2.0, 0.0, 0.0, 0.0, 0.0, 1.0, 0.0, 1.0, 2.0, 1.0, 0.0, 1.0, 0.0, 2.0, 0.0, 1.0, 0.0, 0.0, 2.0, 1.0, 1.0, 2.0, 1.0, 1.0, 2.0, 1.0, 2.0, 0.0, 1.0, 0.0, 1.0, 0.0, 1.0, 1.0, 0.0, 1.0, 1.0, 0.0, 0.0, 0.0, 1.0, 0.0, 0.0, 0.0, 0.0, 0.0, 0.0, 0.0, 0.0, 0.0, 0.0, 0.0, 0.0, 0.0, 0.0, 0.0, 0.0, 0.0, 0.0, 0.0, 0.0, 0.0, 0.0, 1.0], "bins": [-28.581363677978516, -27.25774574279785, -25.934127807617188, -24.610509872436523, -23.28689193725586, -21.963272094726562, -20.6396541595459, -19.316036224365234, -17.99241828918457, -16.668800354003906, -15.345182418823242, -14.021563529968262, -12.697945594787598, -11.374327659606934, -10.050708770751953, -8.727090835571289, -7.403472900390625, -6.079854965209961, -4.756236553192139, -3.4326183795928955, -2.1090002059936523, -0.7853822708129883, 0.538236141204834, 1.8618545532226562, 3.1854724884033203, 4.509090423583984, 5.832708835601807, 7.156327247619629, 8.479945182800293, 9.803563117980957, 11.127182006835938, 12.450799942016602, 13.7744140625, 15.098031997680664, 16.421649932861328, 17.745267868041992, 19.068885803222656, 20.392505645751953, 21.716123580932617, 23.03974151611328, 24.363359451293945, 25.68697738647461, 27.010595321655273, 28.334213256835938, 29.657833099365234, 30.981449127197266, 32.30506896972656, 33.628684997558594, 34.95230484008789, 36.27592468261719, 37.59954071044922, 38.923160552978516, 40.24677658081055, 41.570396423339844, 42.894012451171875, 44.21763229370117, 45.54125213623047, 46.864871978759766, 48.1884880065918, 49.512107849121094, 50.835723876953125, 52.15934371948242, 53.48295974731445, 54.80657958984375, 56.13019561767578]}, "gradients/graph_3conv.7.bias": {"_type": "histogram", "values": [1.0, 0.0, 0.0, 2.0, 0.0, 1.0, 1.0, 0.0, 1.0, 0.0, 0.0, 0.0, 0.0, 0.0, 2.0, 0.0, 0.0, 2.0, 0.0, 1.0, 3.0, 0.0, 1.0, 0.0, 1.0, 1.0, 1.0, 0.0, 1.0, 0.0, 0.0, 1.0, 1.0, 3.0, 0.0, 0.0, 0.0, 1.0, 0.0, 1.0, 0.0, 0.0, 0.0, 0.0, 0.0, 0.0, 0.0, 1.0, 1.0, 0.0, 2.0, 0.0, 0.0, 0.0, 0.0, 0.0, 1.0, 0.0, 0.0, 0.0, 0.0, 0.0, 0.0, 1.0], "bins": [-28.94439125061035, -28.184112548828125, -27.4238338470459, -26.663555145263672, -25.903276443481445, -25.14299774169922, -24.382719039916992, -23.622440338134766, -22.86216163635254, -22.101882934570312, -21.341604232788086, -20.58132553100586, -19.821046829223633, -19.060768127441406, -18.30048942565918, -17.540210723876953, -16.779930114746094, -16.019651412963867, -15.25937271118164, -14.499094009399414, -13.738815307617188, -12.978536605834961, -12.218257904052734, -11.457979202270508, -10.697700500488281, -9.937421798706055, -9.177143096923828, -8.416864395141602, -7.656585693359375, -6.896306991577148, -6.136027812957764, -5.375749111175537, -4.615470886230469, -3.855192184448242, -3.0949134826660156, -2.33463454246521, -1.5743558406829834, -0.8140771389007568, -0.05379819869995117, 0.7064805030822754, 1.466759204864502, 2.2270379066467285, 2.987316608428955, 3.7475955486297607, 4.507874488830566, 5.268153190612793, 6.0284318923950195, 6.788710594177246, 7.548989295959473, 8.3092679977417, 9.069546699523926, 9.829825401306152, 10.590104103088379, 11.350382804870605, 12.110662460327148, 12.870941162109375, 13.631219863891602, 14.391498565673828, 15.151777267456055, 15.912055969238281, 16.672334671020508, 17.432613372802734, 18.19289207458496, 18.953170776367188, 19.713449478149414]}, "gradients/graph_3conv.6.weight": {"_type": "histogram", "values": [1.0, 1.0, 0.0, 0.0, 1.0, 0.0, 1.0, 1.0, 0.0, 1.0, 0.0, 1.0, 1.0, 3.0, 2.0, 4.0, 6.0, 8.0, 11.0, 13.0, 15.0, 31.0, 28.0, 54.0, 61.0, 85.0, 104.0, 127.0, 184.0, 270.0, 390.0, 522.0, 581.0, 727.0, 777.0, 735.0, 701.0, 688.0, 506.0, 350.0, 292.0, 170.0, 133.0, 121.0, 77.0, 52.0, 51.0, 40.0, 42.0, 39.0, 28.0, 23.0, 22.0, 18.0, 15.0, 20.0, 14.0, 8.0, 13.0, 9.0, 4.0, 6.0, 2.0, 2.0], "bins": [-32.0, -31.08203125, -30.1640625, -29.24609375, -28.328125, -27.41015625, -26.4921875, -25.57421875, -24.65625, -23.73828125, -22.8203125, -21.90234375, -20.984375, -20.06640625, -19.1484375, -18.23046875, -17.3125, -16.39453125, -15.4765625, -14.55859375, -13.640625, -12.72265625, -11.8046875, -10.88671875, -9.96875, -9.05078125, -8.1328125, -7.21484375, -6.296875, -5.37890625, -4.4609375, -3.54296875, -2.625, -1.70703125, -0.7890625, 0.12890625, 1.046875, 1.96484375, 2.8828125, 3.80078125, 4.71875, 5.63671875, 6.5546875, 7.47265625, 8.390625, 9.30859375, 10.2265625, 11.14453125, 12.0625, 12.98046875, 13.8984375, 14.81640625, 15.734375, 16.65234375, 17.5703125, 18.48828125, 19.40625, 20.32421875, 21.2421875, 22.16015625, 23.078125, 23.99609375, 24.9140625, 25.83203125, 26.75]}, "gradients/graph_3conv.4.weight": {"_type": "histogram", "values": [1.0, 0.0, 1.0, 0.0, 1.0, 0.0, 0.0, 0.0, 0.0, 0.0, 1.0, 1.0, 0.0, 1.0, 0.0, 0.0, 0.0, 0.0, 0.0, 0.0, 0.0, 1.0, 0.0, 1.0, 0.0, 0.0, 1.0, 0.0, 1.0, 0.0, 0.0, 0.0, 0.0, 0.0, 0.0, 0.0, 0.0, 1.0, 0.0, 0.0, 0.0, 0.0, 1.0, 0.0, 0.0, 0.0, 0.0, 0.0, 0.0, 1.0, 0.0, 1.0, 0.0, 0.0, 0.0, 0.0, 0.0, 0.0, 0.0, 0.0, 0.0, 0.0, 0.0, 2.0], "bins": [-52.36052322387695, -50.4669075012207, -48.57328796386719, -46.67967224121094, -44.78605270385742, -42.89243698120117, -40.998817443847656, -39.105201721191406, -37.211585998535156, -35.317970275878906, -33.42435073852539, -31.53073501586914, -29.637115478515625, -27.743499755859375, -25.849882125854492, -23.95626449584961, -22.062644958496094, -20.16902732849121, -18.275409698486328, -16.381793975830078, -14.488175392150879, -12.594557762145996, -10.70094108581543, -8.807323455810547, -6.913705825805664, -5.020088195800781, -3.1264710426330566, -1.232853889465332, 0.6607637405395508, 2.5543813705444336, 4.447998046875, 6.341615676879883, 8.2352294921875, 10.128847122192383, 12.022464752197266, 13.916081428527832, 15.809699058532715, 17.70331573486328, 19.596933364868164, 21.490550994873047, 23.38416862487793, 25.277786254882812, 27.171403884887695, 29.065021514892578, 30.958637237548828, 32.852256774902344, 34.745872497558594, 36.639488220214844, 38.53310775756836, 40.42672348022461, 42.320343017578125, 44.213958740234375, 46.10757827758789, 48.00119400024414, 49.894813537597656, 51.788429260253906, 53.682044982910156, 55.575660705566406, 57.46928024291992, 59.36289596557617, 61.25651550292969, 63.15013122558594, 65.04374694824219, 66.93736267089844, 68.83098602294922]}, "gradients/graph_3conv.4.bias": {"_type": "histogram", "values": [1.0, 0.0, 0.0, 0.0, 0.0, 0.0, 0.0, 0.0, 0.0, 0.0, 0.0, 0.0, 0.0, 0.0, 1.0, 0.0, 0.0, 1.0, 0.0, 0.0, 0.0, 1.0, 0.0, 1.0, 2.0, 1.0, 1.0, 0.0, 1.0, 1.0, 1.0, 1.0, 0.0, 0.0, 0.0, 0.0, 0.0, 0.0, 0.0, 0.0, 0.0, 0.0, 0.0, 1.0, 0.0, 0.0, 0.0, 0.0, 0.0, 0.0, 0.0, 0.0, 0.0, 0.0, 0.0, 0.0, 0.0, 0.0, 1.0, 0.0, 0.0, 0.0, 0.0, 1.0], "bins": [-48.424766540527344, -47.074684143066406, -45.72460174560547, -44.37451934814453, -43.024436950683594, -41.674354553222656, -40.32427215576172, -38.97418975830078, -37.624107360839844, -36.274024963378906, -34.92394256591797, -33.57386016845703, -32.223777770996094, -30.873695373535156, -29.523611068725586, -28.17352867126465, -26.823444366455078, -25.47336196899414, -24.123279571533203, -22.773197174072266, -21.423114776611328, -20.07303237915039, -18.72294807434082, -17.372865676879883, -16.022783279418945, -14.672700881958008, -13.32261848449707, -11.972535133361816, -10.622452735900879, -9.272370338439941, -7.9222869873046875, -6.57220458984375, -5.222118377685547, -3.8720357418060303, -2.5219531059265137, -1.171870231628418, 0.17821216583251953, 1.528294563293457, 2.878377914428711, 4.228460311889648, 5.578542709350586, 6.928625106811523, 8.278707504272461, 9.628790855407715, 10.978873252868652, 12.32895565032959, 13.679039001464844, 15.029121398925781, 16.37920379638672, 17.729286193847656, 19.079368591308594, 20.42945098876953, 21.77953338623047, 23.129615783691406, 24.479700088500977, 25.829782485961914, 27.17986488342285, 28.52994728088379, 29.880029678344727, 31.230113983154297, 32.580196380615234, 33.93027877807617, 35.28036117553711, 36.63044357299805, 37.980525970458984]}, "gradients/graph_3conv.3.weight": {"_type": "histogram", "values": [3.0, 2.0, 6.0, 2.0, 2.0, 8.0, 10.0, 9.0, 13.0, 11.0, 16.0, 13.0, 24.0, 29.0, 24.0, 41.0, 68.0, 78.0, 98.0, 124.0, 138.0, 156.0, 118.0, 108.0, 125.0, 93.0, 118.0, 87.0, 96.0, 53.0, 59.0, 38.0, 32.0, 31.0, 31.0, 24.0, 26.0, 22.0, 12.0, 11.0, 8.0, 13.0, 10.0, 11.0, 5.0, 7.0, 5.0, 3.0, 3.0, 5.0, 1.0, 3.0, 0.0, 4.0, 1.0, 1.0, 3.0, 1.0, 1.0, 2.0, 0.0, 1.0, 0.0, 1.0], "bins": [-39.90625, -38.34619140625, -36.7861328125, -35.22607421875, -33.666015625, -32.10595703125, -30.5458984375, -28.98583984375, -27.42578125, -25.86572265625, -24.3056640625, -22.74560546875, -21.185546875, -19.62548828125, -18.0654296875, -16.50537109375, -14.9453125, -13.38525390625, -11.8251953125, -10.26513671875, -8.705078125, -7.14501953125, -5.5849609375, -4.02490234375, -2.46484375, -0.90478515625, 0.6552734375, 2.21533203125, 3.775390625, 5.33544921875, 6.8955078125, 8.45556640625, 10.015625, 11.57568359375, 13.1357421875, 14.69580078125, 16.255859375, 17.81591796875, 19.3759765625, 20.93603515625, 22.49609375, 24.05615234375, 25.6162109375, 27.17626953125, 28.736328125, 30.29638671875, 31.8564453125, 33.41650390625, 34.9765625, 36.53662109375, 38.0966796875, 39.65673828125, 41.216796875, 42.77685546875, 44.3369140625, 45.89697265625, 47.45703125, 49.01708984375, 50.5771484375, 52.13720703125, 53.697265625, 55.25732421875, 56.8173828125, 58.37744140625, 59.9375]}, "gradients/graph_3conv.1.weight": {"_type": "histogram", "values": [1.0, 0.0, 1.0, 0.0, 0.0, 0.0, 0.0, 0.0, 0.0, 0.0, 0.0, 1.0, 0.0, 0.0, 0.0, 0.0, 0.0, 0.0, 0.0, 0.0, 0.0, 0.0, 0.0, 0.0, 0.0, 0.0, 0.0, 0.0, 0.0, 0.0, 0.0, 0.0, 0.0, 0.0, 0.0, 0.0, 0.0, 0.0, 0.0, 0.0, 0.0, 0.0, 0.0, 0.0, 0.0, 0.0, 0.0, 1.0, 0.0, 0.0, 0.0, 0.0, 2.0, 0.0, 0.0, 0.0, 0.0, 0.0, 0.0, 1.0, 0.0, 0.0, 0.0, 1.0], "bins": [-86.2458724975586, -83.89321899414062, -81.54056549072266, -79.18790435791016, -76.83525085449219, -74.48259735107422, -72.12994384765625, -69.77729034423828, -67.42463684082031, -65.07198333740234, -62.71932601928711, -60.36667251586914, -58.014015197753906, -55.66136169433594, -53.30870819091797, -50.9560546875, -48.6033935546875, -46.25074005126953, -43.8980827331543, -41.54542922973633, -39.192771911621094, -36.840118408203125, -34.487464904785156, -32.13481140136719, -29.782154083251953, -27.42949867248535, -25.07684326171875, -22.72418975830078, -20.37153434753418, -18.018878936767578, -15.666224479675293, -13.313570022583008, -10.960922241210938, -8.608266830444336, -6.255612373352051, -3.9029574394226074, -1.550302505493164, 0.8023529052734375, 3.1550073623657227, 5.507661819458008, 7.860317230224609, 10.212972640991211, 12.565627098083496, 14.918281555175781, 17.270936965942383, 19.623592376708984, 21.976245880126953, 24.328901290893555, 26.681556701660156, 29.034212112426758, 31.38686752319336, 33.73952102661133, 36.09217834472656, 38.44483184814453, 40.7974853515625, 43.15013885498047, 45.5027961730957, 47.85544967651367, 50.208106994628906, 52.560760498046875, 54.913414001464844, 57.26607131958008, 59.61872482299805, 61.97138214111328, 64.32403564453125]}, "gradients/graph_3conv.1.bias": {"_type": "histogram", "values": [1.0, 0.0, 0.0, 0.0, 0.0, 0.0, 1.0, 0.0, 0.0, 0.0, 0.0, 0.0, 0.0, 0.0, 0.0, 0.0, 0.0, 0.0, 0.0, 0.0, 1.0, 0.0, 0.0, 0.0, 0.0, 0.0, 0.0, 0.0, 0.0, 0.0, 0.0, 0.0, 0.0, 1.0, 0.0, 0.0, 0.0, 0.0, 1.0, 0.0, 0.0, 0.0, 0.0, 0.0, 0.0, 0.0, 0.0, 0.0, 0.0, 0.0, 0.0, 1.0, 1.0, 0.0, 0.0, 0.0, 0.0, 0.0, 0.0, 0.0, 0.0, 0.0, 0.0, 1.0], "bins": [-75.01887512207031, -72.71612548828125, -70.41337585449219, -68.1106185913086, -65.80786895751953, -63.50511932373047, -61.202369689941406, -58.89961624145508, -56.59686279296875, -54.29411315917969, -51.99135971069336, -49.6886100769043, -47.38585662841797, -45.083106994628906, -42.780357360839844, -40.477603912353516, -38.17485427856445, -35.87210464477539, -33.56935119628906, -31.2666015625, -28.963848114013672, -26.66109848022461, -24.358346939086914, -22.05559539794922, -19.752843856811523, -17.450092315673828, -15.147340774536133, -12.844590187072754, -10.541838645935059, -8.239087104797363, -5.936336517333984, -3.633584976196289, -1.3308334350585938, 0.9719178676605225, 3.2746691703796387, 5.577420234680176, 7.880171775817871, 10.182923316955566, 12.485673904418945, 14.78842544555664, 17.091176986694336, 19.39392852783203, 21.696680068969727, 23.999431610107422, 26.302181243896484, 28.604934692382812, 30.907684326171875, 33.21043395996094, 35.513187408447266, 37.81593704223633, 40.118690490722656, 42.42144012451172, 44.72419357299805, 47.02694320678711, 49.32969665527344, 51.6324462890625, 53.93519592285156, 56.237945556640625, 58.54069900512695, 60.843448638916016, 63.146202087402344, 65.4489517211914, 67.75170135498047, 70.05445861816406, 72.35720825195312]}, "gradients/graph_3conv.0.weight": {"_type": "histogram", "values": [2.0, 1.0, 3.0, 1.0, 0.0, 0.0, 1.0, 2.0, 1.0, 6.0, 2.0, 5.0, 3.0, 1.0, 4.0, 1.0, 1.0, 1.0, 2.0, 0.0, 1.0, 3.0, 4.0, 2.0, 2.0, 5.0, 6.0, 9.0, 4.0, 8.0, 9.0, 4.0, 7.0, 13.0, 9.0, 5.0, 18.0, 21.0, 12.0, 14.0, 20.0, 36.0, 20.0, 17.0, 9.0, 18.0, 10.0, 12.0, 11.0, 9.0, 4.0, 7.0, 3.0, 3.0, 3.0, 1.0, 2.0, 3.0, 1.0, 0.0, 1.0, 0.0, 0.0, 1.0], "bins": [-96.0, -93.53076171875, -91.0615234375, -88.59228515625, -86.123046875, -83.65380859375, -81.1845703125, -78.71533203125, -76.24609375, -73.77685546875, -71.3076171875, -68.83837890625, -66.369140625, -63.89990234375, -61.4306640625, -58.96142578125, -56.4921875, -54.02294921875, -51.5537109375, -49.08447265625, -46.615234375, -44.14599609375, -41.6767578125, -39.20751953125, -36.73828125, -34.26904296875, -31.7998046875, -29.33056640625, -26.861328125, -24.39208984375, -21.9228515625, -19.45361328125, -16.984375, -14.51513671875, -12.0458984375, -9.57666015625, -7.107421875, -4.63818359375, -2.1689453125, 0.30029296875, 2.76953125, 5.23876953125, 7.7080078125, 10.17724609375, 12.646484375, 15.11572265625, 17.5849609375, 20.05419921875, 22.5234375, 24.99267578125, 27.4619140625, 29.93115234375, 32.400390625, 34.86962890625, 37.3388671875, 39.80810546875, 42.27734375, 44.74658203125, 47.2158203125, 49.68505859375, 52.154296875, 54.62353515625, 57.0927734375, 59.56201171875, 62.03125]}, "_wandb": {"runtime": 9608}}