{"observations_loss_sum/train": 3765.0234375, "_timestamp": 1673685629.5533407, "image_hsr_256/train": 3765.0234375, "reward_loss/train": 0.0, "kl_loss_sum/train": 93.74694061279297, "kl_loss/train": 93.74694061279297, "predict_pose_loss/train": -3.5815138816833496, "frame": 2982500, "_runtime": 925.7246556282043, "_step": 1193, "observations_loss_sum/validation": 4426.8623046875, "image_hsr_256/validation": 4426.8623046875, "reward_loss/validation": 0.0, "kl_loss_sum/validation": 102.53265380859375, "kl_loss/validation": 102.53265380859375, "predict_pose_loss/validation": -2.440402030944824, "gradients/graph_4fc3.weight": {"_type": "histogram", "values": [1.0, 1.0, 0.0, 0.0, 1.0, 0.0, 1.0, 2.0, 1.0, 2.0, 3.0, 4.0, 4.0, 8.0, 5.0, 7.0, 15.0, 8.0, 12.0, 13.0, 9.0, 14.0, 13.0, 8.0, 14.0, 14.0, 30.0, 32.0, 52.0, 64.0, 136.0, 292.0, 621.0, 1508.0, 207.0, 128.0, 74.0, 50.0, 35.0, 28.0, 21.0, 15.0, 8.0, 15.0, 12.0, 14.0, 14.0, 13.0, 11.0, 10.0, 5.0, 6.0, 6.0, 3.0, 3.0, 3.0, 1.0, 1.0, 3.0, 1.0, 0.0, 0.0, 0.0, 2.0], "bins": [-2.572265625, -2.49444580078125, -2.4166259765625, -2.33880615234375, -2.260986328125, -2.18316650390625, -2.1053466796875, -2.02752685546875, -1.94970703125, -1.87188720703125, -1.7940673828125, -1.71624755859375, -1.638427734375, -1.56060791015625, -1.4827880859375, -1.40496826171875, -1.3271484375, -1.24932861328125, -1.1715087890625, -1.09368896484375, -1.015869140625, -0.93804931640625, -0.8602294921875, -0.78240966796875, -0.70458984375, -0.62677001953125, -0.5489501953125, -0.47113037109375, -0.393310546875, -0.31549072265625, -0.2376708984375, -0.15985107421875, -0.08203125, -0.00421142578125, 0.0736083984375, 0.15142822265625, 0.229248046875, 0.30706787109375, 0.3848876953125, 0.46270751953125, 0.54052734375, 0.61834716796875, 0.6961669921875, 0.77398681640625, 0.851806640625, 0.92962646484375, 1.0074462890625, 1.08526611328125, 1.1630859375, 1.24090576171875, 1.3187255859375, 1.39654541015625, 1.474365234375, 1.55218505859375, 1.6300048828125, 1.70782470703125, 1.78564453125, 1.86346435546875, 1.9412841796875, 2.01910400390625, 2.096923828125, 2.17474365234375, 2.2525634765625, 2.33038330078125, 2.408203125]}, "gradients/graph_4fc3.bias": {"_type": "histogram", "values": [1.0, 0.0, 0.0, 0.0, 0.0, 0.0, 0.0, 0.0, 0.0, 0.0, 0.0, 0.0, 0.0, 0.0, 0.0, 1.0, 0.0, 0.0, 0.0, 0.0, 0.0, 0.0, 0.0, 0.0, 0.0, 0.0, 1.0, 7.0, 0.0, 0.0, 1.0, 2.0, 0.0, 0.0, 0.0, 0.0, 0.0, 0.0, 0.0, 0.0, 0.0, 0.0, 0.0, 0.0, 0.0, 0.0, 0.0, 0.0, 0.0, 0.0, 0.0, 0.0, 0.0, 0.0, 0.0, 0.0, 0.0, 0.0, 0.0, 0.0, 0.0, 0.0, 0.0, 1.0], "bins": [-1.6953125, -1.63397216796875, -1.5726318359375, -1.51129150390625, -1.449951171875, -1.38861083984375, -1.3272705078125, -1.26593017578125, -1.20458984375, -1.14324951171875, -1.0819091796875, -1.02056884765625, -0.959228515625, -0.89788818359375, -0.8365478515625, -0.77520751953125, -0.7138671875, -0.65252685546875, -0.5911865234375, -0.52984619140625, -0.468505859375, -0.40716552734375, -0.3458251953125, -0.28448486328125, -0.22314453125, -0.16180419921875, -0.1004638671875, -0.03912353515625, 0.022216796875, 0.08355712890625, 0.1448974609375, 0.20623779296875, 0.267578125, 0.32891845703125, 0.3902587890625, 0.45159912109375, 0.512939453125, 0.57427978515625, 0.6356201171875, 0.69696044921875, 0.75830078125, 0.81964111328125, 0.8809814453125, 0.94232177734375, 1.003662109375, 1.06500244140625, 1.1263427734375, 1.18768310546875, 1.2490234375, 1.31036376953125, 1.3717041015625, 1.43304443359375, 1.494384765625, 1.55572509765625, 1.6170654296875, 1.67840576171875, 1.73974609375, 1.80108642578125, 1.8624267578125, 1.92376708984375, 1.985107421875, 2.04644775390625, 2.1077880859375, 2.16912841796875, 2.23046875]}, "gradients/graph_4fc2.weight": {"_type": "histogram", "values": [1.0, 0.0, 0.0, 0.0, 3.0, 0.0, 2.0, 1.0, 2.0, 4.0, 5.0, 13.0, 6.0, 15.0, 22.0, 27.0, 47.0, 58.0, 81.0, 119.0, 193.0, 269.0, 433.0, 727.0, 1330.0, 2416.0, 5266.0, 13529.0, 22040.0, 10201.0, 4113.0, 1948.0, 1048.0, 547.0, 358.0, 243.0, 130.0, 102.0, 63.0, 45.0, 34.0, 23.0, 17.0, 8.0, 10.0, 11.0, 6.0, 5.0, 2.0, 4.0, 1.0, 1.0, 1.0, 2.0, 1.0, 0.0, 0.0, 1.0, 1.0, 0.0, 0.0, 0.0, 0.0, 1.0], "bins": [-0.225830078125, -0.21785736083984375, -0.2098846435546875, -0.20191192626953125, -0.193939208984375, -0.18596649169921875, -0.1779937744140625, -0.17002105712890625, -0.16204833984375, -0.15407562255859375, -0.1461029052734375, -0.13813018798828125, -0.130157470703125, -0.12218475341796875, -0.1142120361328125, -0.10623931884765625, -0.0982666015625, -0.09029388427734375, -0.0823211669921875, -0.07434844970703125, -0.066375732421875, -0.05840301513671875, -0.0504302978515625, -0.04245758056640625, -0.03448486328125, -0.02651214599609375, -0.0185394287109375, -0.01056671142578125, -0.002593994140625, 0.00537872314453125, 0.0133514404296875, 0.02132415771484375, 0.029296875, 0.03726959228515625, 0.0452423095703125, 0.05321502685546875, 0.061187744140625, 0.06916046142578125, 0.0771331787109375, 0.08510589599609375, 0.09307861328125, 0.10105133056640625, 0.1090240478515625, 0.11699676513671875, 0.124969482421875, 0.13294219970703125, 0.1409149169921875, 0.14888763427734375, 0.1568603515625, 0.16483306884765625, 0.1728057861328125, 0.18077850341796875, 0.188751220703125, 0.19672393798828125, 0.2046966552734375, 0.21266937255859375, 0.22064208984375, 0.22861480712890625, 0.2365875244140625, 0.24456024169921875, 0.252532958984375, 0.26050567626953125, 0.2684783935546875, 0.27645111083984375, 0.284423828125]}, "gradients/graph_4fc2.bias": {"_type": "histogram", "values": [3.0, 1.0, 0.0, 3.0, 4.0, 1.0, 2.0, 2.0, 7.0, 2.0, 1.0, 4.0, 4.0, 3.0, 2.0, 4.0, 11.0, 10.0, 9.0, 10.0, 12.0, 14.0, 15.0, 14.0, 13.0, 12.0, 8.0, 13.0, 7.0, 8.0, 8.0, 5.0, 6.0, 6.0, 3.0, 1.0, 4.0, 3.0, 2.0, 3.0, 1.0, 4.0, 0.0, 1.0, 0.0, 0.0, 2.0, 0.0, 1.0, 1.0, 2.0, 0.0, 0.0, 0.0, 0.0, 0.0, 1.0, 1.0, 0.0, 1.0, 0.0, 0.0, 0.0, 1.0], "bins": [-0.109619140625, -0.10515022277832031, -0.10068130493164062, -0.09621238708496094, -0.09174346923828125, -0.08727455139160156, -0.08280563354492188, -0.07833671569824219, -0.0738677978515625, -0.06939888000488281, -0.06492996215820312, -0.06046104431152344, -0.05599212646484375, -0.05152320861816406, -0.047054290771484375, -0.04258537292480469, -0.038116455078125, -0.03364753723144531, -0.029178619384765625, -0.024709701538085938, -0.02024078369140625, -0.015771865844726562, -0.011302947998046875, -0.0068340301513671875, -0.0023651123046875, 0.0021038055419921875, 0.006572723388671875, 0.011041641235351562, 0.01551055908203125, 0.019979476928710938, 0.024448394775390625, 0.028917312622070312, 0.03338623046875, 0.03785514831542969, 0.042324066162109375, 0.04679298400878906, 0.05126190185546875, 0.05573081970214844, 0.060199737548828125, 0.06466865539550781, 0.0691375732421875, 0.07360649108886719, 0.07807540893554688, 0.08254432678222656, 0.08701324462890625, 0.09148216247558594, 0.09595108032226562, 0.10041999816894531, 0.104888916015625, 0.10935783386230469, 0.11382675170898438, 0.11829566955566406, 0.12276458740234375, 0.12723350524902344, 0.13170242309570312, 0.1361713409423828, 0.1406402587890625, 0.1451091766357422, 0.14957809448242188, 0.15404701232910156, 0.15851593017578125, 0.16298484802246094, 0.16745376586914062, 0.1719226837158203, 0.1763916015625]}, "gradients/graph_4fc1.weight": {"_type": "histogram", "values": [2.0, 0.0, 0.0, 0.0, 0.0, 1.0, 0.0, 1.0, 0.0, 1.0, 2.0, 0.0, 1.0, 5.0, 4.0, 8.0, 8.0, 13.0, 21.0, 36.0, 22.0, 27.0, 62.0, 95.0, 128.0, 208.0, 390.0, 622.0, 1031.0, 1948.0, 4101.0, 8581.0, 14751.0, 14781.0, 9280.0, 4419.0, 2158.0, 1096.0, 632.0, 409.0, 256.0, 147.0, 91.0, 57.0, 40.0, 30.0, 22.0, 10.0, 11.0, 3.0, 6.0, 4.0, 5.0, 3.0, 4.0, 0.0, 2.0, 0.0, 0.0, 0.0, 0.0, 0.0, 0.0, 1.0], "bins": [-0.1412353515625, -0.136962890625, -0.1326904296875, -0.12841796875, -0.1241455078125, -0.119873046875, -0.1156005859375, -0.111328125, -0.1070556640625, -0.102783203125, -0.0985107421875, -0.09423828125, -0.0899658203125, -0.085693359375, -0.0814208984375, -0.0771484375, -0.0728759765625, -0.068603515625, -0.0643310546875, -0.06005859375, -0.0557861328125, -0.051513671875, -0.0472412109375, -0.04296875, -0.0386962890625, -0.034423828125, -0.0301513671875, -0.02587890625, -0.0216064453125, -0.017333984375, -0.0130615234375, -0.0087890625, -0.0045166015625, -0.000244140625, 0.0040283203125, 0.00830078125, 0.0125732421875, 0.016845703125, 0.0211181640625, 0.025390625, 0.0296630859375, 0.033935546875, 0.0382080078125, 0.04248046875, 0.0467529296875, 0.051025390625, 0.0552978515625, 0.0595703125, 0.0638427734375, 0.068115234375, 0.0723876953125, 0.07666015625, 0.0809326171875, 0.085205078125, 0.0894775390625, 0.09375, 0.0980224609375, 0.102294921875, 0.1065673828125, 0.11083984375, 0.1151123046875, 0.119384765625, 0.1236572265625, 0.1279296875, 0.1322021484375]}, "gradients/graph_4fc1.bias": {"_type": "histogram", "values": [1.0, 0.0, 0.0, 0.0, 0.0, 1.0, 1.0, 0.0, 0.0, 0.0, 2.0, 0.0, 0.0, 2.0, 4.0, 1.0, 3.0, 3.0, 2.0, 3.0, 4.0, 4.0, 5.0, 4.0, 5.0, 7.0, 6.0, 15.0, 11.0, 14.0, 20.0, 24.0, 11.0, 14.0, 13.0, 19.0, 9.0, 10.0, 9.0, 5.0, 4.0, 5.0, 1.0, 3.0, 0.0, 1.0, 1.0, 0.0, 0.0, 0.0, 0.0, 1.0, 0.0, 1.0, 1.0, 0.0, 1.0, 1.0, 1.0, 1.0, 0.0, 0.0, 1.0, 1.0], "bins": [-0.1280517578125, -0.12396240234375, -0.119873046875, -0.11578369140625, -0.1116943359375, -0.10760498046875, -0.103515625, -0.09942626953125, -0.0953369140625, -0.09124755859375, -0.087158203125, -0.08306884765625, -0.0789794921875, -0.07489013671875, -0.07080078125, -0.06671142578125, -0.0626220703125, -0.05853271484375, -0.054443359375, -0.05035400390625, -0.0462646484375, -0.04217529296875, -0.0380859375, -0.03399658203125, -0.0299072265625, -0.02581787109375, -0.021728515625, -0.01763916015625, -0.0135498046875, -0.00946044921875, -0.00537109375, -0.00128173828125, 0.0028076171875, 0.00689697265625, 0.010986328125, 0.01507568359375, 0.0191650390625, 0.02325439453125, 0.02734375, 0.03143310546875, 0.0355224609375, 0.03961181640625, 0.043701171875, 0.04779052734375, 0.0518798828125, 0.05596923828125, 0.06005859375, 0.06414794921875, 0.0682373046875, 0.07232666015625, 0.076416015625, 0.08050537109375, 0.0845947265625, 0.08868408203125, 0.0927734375, 0.09686279296875, 0.1009521484375, 0.10504150390625, 0.109130859375, 0.11322021484375, 0.1173095703125, 0.12139892578125, 0.12548828125, 0.12957763671875, 0.1336669921875]}, "gradients/decoder.conv.15.weight": {"_type": "histogram", "values": [1.0, 0.0, 1.0, 0.0, 0.0, 1.0, 2.0, 0.0, 4.0, 11.0, 9.0, 11.0, 16.0, 29.0, 9.0, 19.0, 8.0, 19.0, 28.0, 28.0, 36.0, 45.0, 22.0, 15.0, 30.0, 34.0, 26.0, 27.0, 28.0, 22.0, 33.0, 23.0, 29.0, 43.0, 56.0, 44.0, 40.0, 94.0, 78.0, 77.0, 93.0, 70.0, 80.0, 66.0, 61.0, 66.0, 75.0, 44.0, 33.0, 42.0, 30.0, 26.0, 16.0, 8.0, 5.0, 4.0, 3.0, 1.0, 1.0, 0.0, 0.0, 2.0, 3.0, 1.0], "bins": [-179.0, -174.6513671875, -170.302734375, -165.9541015625, -161.60546875, -157.2568359375, -152.908203125, -148.5595703125, -144.2109375, -139.8623046875, -135.513671875, -131.1650390625, -126.81640625, -122.4677734375, -118.119140625, -113.7705078125, -109.421875, -105.0732421875, -100.724609375, -96.3759765625, -92.02734375, -87.6787109375, -83.330078125, -78.9814453125, -74.6328125, -70.2841796875, -65.935546875, -61.5869140625, -57.23828125, -52.8896484375, -48.541015625, -44.1923828125, -39.84375, -35.4951171875, -31.146484375, -26.7978515625, -22.44921875, -18.1005859375, -13.751953125, -9.4033203125, -5.0546875, -0.7060546875, 3.642578125, 7.9912109375, 12.33984375, 16.6884765625, 21.037109375, 25.3857421875, 29.734375, 34.0830078125, 38.431640625, 42.7802734375, 47.12890625, 51.4775390625, 55.826171875, 60.1748046875, 64.5234375, 68.8720703125, 73.220703125, 77.5693359375, 81.91796875, 86.2666015625, 90.615234375, 94.9638671875, 99.3125]}, "gradients/decoder.conv.15.bias": {"_type": "histogram", "values": [1.0, 0.0, 0.0, 0.0, 0.0, 0.0, 0.0, 0.0, 0.0, 0.0, 0.0, 0.0, 0.0, 0.0, 0.0, 0.0, 0.0, 0.0, 0.0, 0.0, 0.0, 0.0, 0.0, 0.0, 0.0, 0.0, 0.0, 0.0, 0.0, 0.0, 0.0, 0.0, 0.0, 0.0, 0.0, 0.0, 0.0, 0.0, 0.0, 0.0, 0.0, 0.0, 0.0, 1.0, 0.0, 0.0, 0.0, 0.0, 0.0, 0.0, 0.0, 0.0, 0.0, 0.0, 0.0, 0.0, 0.0, 0.0, 0.0, 0.0, 0.0, 0.0, 0.0, 1.0], "bins": [-2392.0, -2356.693359375, -2321.38671875, -2286.080078125, -2250.7734375, -2215.466796875, -2180.16015625, -2144.853515625, -2109.546875, -2074.240234375, -2038.93359375, -2003.626953125, -1968.3203125, -1933.013671875, -1897.70703125, -1862.400390625, -1827.09375, -1791.787109375, -1756.48046875, -1721.173828125, -1685.8671875, -1650.560546875, -1615.25390625, -1579.947265625, -1544.640625, -1509.333984375, -1474.02734375, -1438.720703125, -1403.4140625, -1368.107421875, -1332.80078125, -1297.494140625, -1262.1875, -1226.880859375, -1191.57421875, -1156.267578125, -1120.9609375, -1085.654296875, -1050.34765625, -1015.041015625, -979.734375, -944.427734375, -909.12109375, -873.814453125, -838.5078125, -803.201171875, -767.89453125, -732.587890625, -697.28125, -661.974609375, -626.66796875, -591.361328125, -556.0546875, -520.748046875, -485.44140625, -450.134765625, -414.828125, -379.521484375, -344.21484375, -308.908203125, -273.6015625, -238.294921875, -202.98828125, -167.681640625, -132.375]}, "gradients/decoder.conv.13.weight": {"_type": "histogram", "values": [1.0, 0.0, 0.0, 0.0, 0.0, 0.0, 0.0, 0.0, 0.0, 1.0, 1.0, 0.0, 0.0, 0.0, 0.0, 0.0, 0.0, 0.0, 0.0, 0.0, 0.0, 1.0, 2.0, 3.0, 1.0, 0.0, 0.0, 0.0, 0.0, 0.0, 0.0, 0.0, 0.0, 1.0, 0.0, 0.0, 1.0, 1.0, 1.0, 0.0, 0.0, 0.0, 0.0, 0.0, 0.0, 1.0, 0.0, 0.0, 0.0, 0.0, 0.0, 0.0, 0.0, 0.0, 0.0, 0.0, 0.0, 0.0, 0.0, 0.0, 0.0, 0.0, 0.0, 1.0], "bins": [-146.3931427001953, -141.9217529296875, -137.4503631591797, -132.97897338867188, -128.507568359375, -124.03617858886719, -119.56478881835938, -115.09339904785156, -110.62200927734375, -106.15061950683594, -101.6792221069336, -97.20783233642578, -92.73644256591797, -88.26504516601562, -83.79365539550781, -79.322265625, -74.85086822509766, -70.37947845458984, -65.9080810546875, -61.43669128417969, -56.965301513671875, -52.4939079284668, -48.02251434326172, -43.551124572753906, -39.07973098754883, -34.60833740234375, -30.136947631835938, -25.66555404663086, -21.194162368774414, -16.72277069091797, -12.25137710571289, -7.779985427856445, -3.30859375, 1.1627984046936035, 5.634190559387207, 10.105583190917969, 14.576974868774414, 19.04836654663086, 23.519760131835938, 27.991151809692383, 32.46254348754883, 36.933937072753906, 41.40532684326172, 45.8767204284668, 50.348114013671875, 54.81950378417969, 59.290897369384766, 63.762290954589844, 68.23368072509766, 72.70507049560547, 77.17646789550781, 81.64785766601562, 86.11924743652344, 90.59063720703125, 95.0620346069336, 99.5334243774414, 104.00482177734375, 108.47621154785156, 112.9476089477539, 117.41899871826172, 121.89038848876953, 126.36178588867188, 130.8331756591797, 135.3045654296875, 139.7759552001953]}, "gradients/decoder.conv.13.bias": {"_type": "histogram", "values": [1.0, 0.0, 0.0, 0.0, 0.0, 0.0, 1.0, 0.0, 0.0, 1.0, 0.0, 2.0, 0.0, 0.0, 1.0, 0.0, 2.0, 2.0, 0.0, 0.0, 0.0, 0.0, 0.0, 0.0, 1.0, 0.0, 0.0, 0.0, 1.0, 1.0, 1.0, 0.0, 0.0, 1.0, 0.0, 0.0, 0.0, 0.0, 0.0, 0.0, 0.0, 0.0, 0.0, 0.0, 0.0, 0.0, 0.0, 0.0, 0.0, 0.0, 0.0, 0.0, 0.0, 0.0, 0.0, 0.0, 0.0, 0.0, 0.0, 0.0, 0.0, 0.0, 0.0, 1.0], "bins": [-489.3073425292969, -469.44677734375, -449.58624267578125, -429.7256774902344, -409.8651428222656, -390.00457763671875, -370.14404296875, -350.2834777832031, -330.42291259765625, -310.5623474121094, -290.7018127441406, -270.84124755859375, -250.980712890625, -231.12014770507812, -211.2595977783203, -191.3990478515625, -171.53851318359375, -151.67796325683594, -131.81741333007812, -111.95685577392578, -92.09630584716797, -72.23575592041016, -52.37519836425781, -32.5146484375, -12.654098510742188, 7.206453323364258, 27.067005157470703, 46.92755889892578, 66.7881088256836, 86.6486587524414, 106.50921630859375, 126.36976623535156, 146.23028564453125, 166.09083557128906, 185.95138549804688, 205.81195068359375, 225.6724853515625, 245.53305053710938, 265.39361572265625, 285.254150390625, 305.11468505859375, 324.9752502441406, 344.8357849121094, 364.69635009765625, 384.556884765625, 404.4174499511719, 424.27801513671875, 444.1385498046875, 463.9991149902344, 483.85968017578125, 503.72021484375, 523.5807495117188, 543.4413452148438, 563.3018798828125, 583.1624145507812, 603.02294921875, 622.883544921875, 642.7440795898438, 662.6046752929688, 682.4652099609375, 702.3257446289062, 722.186279296875, 742.046875, 761.9074096679688, 781.7679443359375]}, "gradients/decoder.conv.12.weight": {"_type": "histogram", "values": [2.0, 0.0, 1.0, 4.0, 1.0, 4.0, 2.0, 4.0, 1.0, 8.0, 6.0, 7.0, 12.0, 18.0, 26.0, 18.0, 29.0, 39.0, 48.0, 59.0, 111.0, 97.0, 126.0, 176.0, 260.0, 308.0, 420.0, 615.0, 1041.0, 989.0, 1085.0, 997.0, 542.0, 299.0, 178.0, 125.0, 98.0, 57.0, 47.0, 51.0, 40.0, 27.0, 18.0, 31.0, 18.0, 16.0, 17.0, 13.0, 15.0, 13.0, 20.0, 10.0, 12.0, 10.0, 1.0, 2.0, 5.0, 0.0, 2.0, 3.0, 2.0, 5.0, 0.0, 1.0], "bins": [-64.0625, -61.90234375, -59.7421875, -57.58203125, -55.421875, -53.26171875, -51.1015625, -48.94140625, -46.78125, -44.62109375, -42.4609375, -40.30078125, -38.140625, -35.98046875, -33.8203125, -31.66015625, -29.5, -27.33984375, -25.1796875, -23.01953125, -20.859375, -18.69921875, -16.5390625, -14.37890625, -12.21875, -10.05859375, -7.8984375, -5.73828125, -3.578125, -1.41796875, 0.7421875, 2.90234375, 5.0625, 7.22265625, 9.3828125, 11.54296875, 13.703125, 15.86328125, 18.0234375, 20.18359375, 22.34375, 24.50390625, 26.6640625, 28.82421875, 30.984375, 33.14453125, 35.3046875, 37.46484375, 39.625, 41.78515625, 43.9453125, 46.10546875, 48.265625, 50.42578125, 52.5859375, 54.74609375, 56.90625, 59.06640625, 61.2265625, 63.38671875, 65.546875, 67.70703125, 69.8671875, 72.02734375, 74.1875]}, "gradients/decoder.conv.10.weight": {"_type": "histogram", "values": [1.0, 0.0, 0.0, 0.0, 0.0, 0.0, 1.0, 0.0, 1.0, 0.0, 0.0, 1.0, 3.0, 1.0, 1.0, 0.0, 1.0, 1.0, 0.0, 1.0, 1.0, 2.0, 1.0, 0.0, 0.0, 1.0, 0.0, 0.0, 0.0, 0.0, 2.0, 0.0, 1.0, 1.0, 0.0, 1.0, 1.0, 0.0, 0.0, 1.0, 1.0, 0.0, 3.0, 1.0, 0.0, 0.0, 0.0, 1.0, 0.0, 0.0, 0.0, 0.0, 1.0, 0.0, 0.0, 0.0, 0.0, 0.0, 0.0, 0.0, 0.0, 0.0, 0.0, 1.0], "bins": [-29.355276107788086, -28.26521873474121, -27.175159454345703, -26.085102081298828, -24.995044708251953, -23.904987335205078, -22.814929962158203, -21.724870681762695, -20.63481330871582, -19.544755935668945, -18.454696655273438, -17.364639282226562, -16.274581909179688, -15.184524536132812, -14.094466209411621, -13.00440788269043, -11.914350509643555, -10.82429313659668, -9.734234809875488, -8.644176483154297, -7.554119110107422, -6.464061260223389, -5.3740034103393555, -4.283945560455322, -3.193887710571289, -2.103829860687256, -1.0137720108032227, 0.07628583908081055, 1.1663436889648438, 2.256401538848877, 3.34645938873291, 4.436517238616943, 5.526573181152344, 6.616631031036377, 7.70668888092041, 8.796747207641602, 9.886804580688477, 10.976861953735352, 12.066920280456543, 13.156978607177734, 14.24703598022461, 15.337093353271484, 16.42715072631836, 17.517210006713867, 18.607267379760742, 19.697324752807617, 20.787384033203125, 21.87744140625, 22.967498779296875, 24.05755615234375, 25.147613525390625, 26.237672805786133, 27.327730178833008, 28.417787551879883, 29.50784683227539, 30.597904205322266, 31.68796157836914, 32.778018951416016, 33.86807632446289, 34.958133697509766, 36.048194885253906, 37.13825225830078, 38.228309631347656, 39.31836700439453, 40.408424377441406]}, "gradients/decoder.conv.10.bias": {"_type": "histogram", "values": [1.0, 0.0, 0.0, 1.0, 0.0, 0.0, 0.0, 0.0, 0.0, 0.0, 0.0, 1.0, 0.0, 1.0, 0.0, 0.0, 2.0, 2.0, 0.0, 0.0, 0.0, 0.0, 1.0, 0.0, 0.0, 0.0, 2.0, 1.0, 1.0, 0.0, 0.0, 0.0, 1.0, 1.0, 2.0, 0.0, 0.0, 1.0, 2.0, 0.0, 0.0, 1.0, 2.0, 0.0, 2.0, 0.0, 0.0, 0.0, 2.0, 0.0, 0.0, 1.0, 0.0, 0.0, 0.0, 0.0, 2.0, 0.0, 0.0, 0.0, 0.0, 0.0, 1.0, 1.0], "bins": [-58.26861572265625, -56.8382682800293, -55.40791702270508, -53.977569580078125, -52.54722213745117, -51.11687469482422, -49.6865234375, -48.25617599487305, -46.825828552246094, -45.39548110961914, -43.96512985229492, -42.53478240966797, -41.104434967041016, -39.67408752441406, -38.243736267089844, -36.81338882446289, -35.38303756713867, -33.95269012451172, -32.5223388671875, -31.091991424560547, -29.661643981933594, -28.231294631958008, -26.800945281982422, -25.37059783935547, -23.940248489379883, -22.509899139404297, -21.079551696777344, -19.649202346801758, -18.218852996826172, -16.78850555419922, -15.358156204223633, -13.927807807922363, -12.497459411621094, -11.067111015319824, -9.636762619018555, -8.206413269042969, -6.776064872741699, -5.34571647644043, -3.9153671264648438, -2.485018730163574, -1.0546703338623047, 0.37567830085754395, 1.8060269355773926, 3.2363758087158203, 4.66672420501709, 6.097072601318359, 7.527421951293945, 8.957770347595215, 10.388118743896484, 11.818467140197754, 13.248815536499023, 14.67916488647461, 16.109512329101562, 17.53986167907715, 18.970211029052734, 20.400558471679688, 21.830907821655273, 23.26125717163086, 24.691604614257812, 26.1219539642334, 27.552303314208984, 28.982650756835938, 30.413000106811523, 31.84334945678711, 33.27369689941406]}, "gradients/decoder.conv.9.weight": {"_type": "histogram", "values": [1.0, 2.0, 0.0, 0.0, 1.0, 2.0, 0.0, 1.0, 2.0, 3.0, 0.0, 2.0, 3.0, 1.0, 0.0, 5.0, 1.0, 2.0, 4.0, 2.0, 8.0, 3.0, 4.0, 5.0, 7.0, 9.0, 14.0, 16.0, 34.0, 42.0, 67.0, 76.0, 119.0, 162.0, 239.0, 386.0, 769.0, 2088.0, 5906.0, 11727.0, 5093.0, 2452.0, 1333.0, 689.0, 450.0, 331.0, 205.0, 171.0, 107.0, 75.0, 38.0, 30.0, 24.0, 14.0, 6.0, 14.0, 6.0, 3.0, 3.0, 6.0, 1.0, 3.0, 0.0, 1.0], "bins": [-41.625, -40.56201171875, -39.4990234375, -38.43603515625, -37.373046875, -36.31005859375, -35.2470703125, -34.18408203125, -33.12109375, -32.05810546875, -30.9951171875, -29.93212890625, -28.869140625, -27.80615234375, -26.7431640625, -25.68017578125, -24.6171875, -23.55419921875, -22.4912109375, -21.42822265625, -20.365234375, -19.30224609375, -18.2392578125, -17.17626953125, -16.11328125, -15.05029296875, -13.9873046875, -12.92431640625, -11.861328125, -10.79833984375, -9.7353515625, -8.67236328125, -7.609375, -6.54638671875, -5.4833984375, -4.42041015625, -3.357421875, -2.29443359375, -1.2314453125, -0.16845703125, 0.89453125, 1.95751953125, 3.0205078125, 4.08349609375, 5.146484375, 6.20947265625, 7.2724609375, 8.33544921875, 9.3984375, 10.46142578125, 11.5244140625, 12.58740234375, 13.650390625, 14.71337890625, 15.7763671875, 16.83935546875, 17.90234375, 18.96533203125, 20.0283203125, 21.09130859375, 22.154296875, 23.21728515625, 24.2802734375, 25.34326171875, 26.40625]}, "gradients/decoder.conv.7.weight": {"_type": "histogram", "values": [1.0, 0.0, 0.0, 0.0, 0.0, 0.0, 0.0, 0.0, 1.0, 0.0, 0.0, 0.0, 0.0, 0.0, 0.0, 0.0, 1.0, 1.0, 0.0, 1.0, 1.0, 0.0, 0.0, 2.0, 0.0, 2.0, 1.0, 1.0, 2.0, 1.0, 2.0, 3.0, 5.0, 5.0, 2.0, 4.0, 2.0, 3.0, 5.0, 4.0, 2.0, 2.0, 1.0, 1.0, 0.0, 0.0, 1.0, 1.0, 1.0, 0.0, 2.0, 0.0, 1.0, 1.0, 0.0, 0.0, 0.0, 0.0, 0.0, 0.0, 0.0, 0.0, 0.0, 1.0], "bins": [-41.461910247802734, -40.267860412597656, -39.07381057739258, -37.8797607421875, -36.685707092285156, -35.49165725708008, -34.297607421875, -33.10355758666992, -31.909507751464844, -30.715457916259766, -29.521408081054688, -28.327356338500977, -27.1333065032959, -25.93925666809082, -24.74520492553711, -23.55115509033203, -22.357105255126953, -21.163055419921875, -19.969005584716797, -18.774953842163086, -17.580904006958008, -16.38685417175293, -15.192803382873535, -13.99875259399414, -12.804702758789062, -11.610652923583984, -10.41660213470459, -9.222551345825195, -8.028501510620117, -6.834451198577881, -5.6404008865356445, -4.44635009765625, -3.252300262451172, -2.0582499504089355, -0.8641996383666992, 0.3298506736755371, 1.5239009857177734, 2.7179512977600098, 3.912001609802246, 5.106052398681641, 6.300102233886719, 7.494152545928955, 8.688202857971191, 9.882253646850586, 11.076303482055664, 12.270353317260742, 13.464404106140137, 14.658454895019531, 15.85250473022461, 17.046554565429688, 18.240604400634766, 19.434656143188477, 20.628705978393555, 21.822755813598633, 23.016807556152344, 24.210857391357422, 25.4049072265625, 26.598957061767578, 27.793006896972656, 28.987058639526367, 30.181108474731445, 31.375158309936523, 32.569210052490234, 33.76325988769531, 34.95730972290039]}, "gradients/decoder.conv.7.bias": {"_type": "histogram", "values": [2.0, 0.0, 0.0, 0.0, 0.0, 0.0, 1.0, 0.0, 0.0, 0.0, 1.0, 0.0, 0.0, 0.0, 4.0, 2.0, 2.0, 1.0, 2.0, 5.0, 5.0, 2.0, 4.0, 6.0, 1.0, 4.0, 2.0, 8.0, 4.0, 0.0, 2.0, 0.0, 0.0, 0.0, 0.0, 1.0, 2.0, 1.0, 0.0, 0.0, 0.0, 0.0, 0.0, 0.0, 0.0, 1.0, 0.0, 0.0, 0.0, 0.0, 0.0, 0.0, 0.0, 0.0, 0.0, 0.0, 0.0, 0.0, 0.0, 0.0, 0.0, 0.0, 0.0, 1.0], "bins": [-29.86534309387207, -28.62831687927246, -27.39129066467285, -26.15426254272461, -24.917236328125, -23.68021011352539, -22.44318389892578, -21.206157684326172, -19.969131469726562, -18.732105255126953, -17.495079040527344, -16.258052825927734, -15.021024703979492, -13.783998489379883, -12.546972274780273, -11.309945106506348, -10.072917938232422, -8.835891723632812, -7.598864555358887, -6.361838340759277, -5.12481164932251, -3.887784957885742, -2.650758743286133, -1.413731575012207, -0.17670536041259766, 1.0603212118148804, 2.2973477840423584, 3.534374237060547, 4.7714009284973145, 6.008427619934082, 7.245453834533691, 8.482481002807617, 9.71950912475586, 10.956535339355469, 12.193562507629395, 13.430588722229004, 14.66761589050293, 15.904642105102539, 17.14166831970215, 18.37869644165039, 19.61572265625, 20.85274887084961, 22.08977508544922, 23.326801300048828, 24.56382942199707, 25.80085563659668, 27.03788185119629, 28.27490997314453, 29.511934280395508, 30.748960494995117, 31.985986709594727, 33.22301483154297, 34.46004104614258, 35.69706726074219, 36.9340934753418, 38.171119689941406, 39.408145904541016, 40.645172119140625, 41.882198333740234, 43.119224548339844, 44.35625076293945, 45.59327697753906, 46.83030700683594, 48.06733322143555, 49.304359436035156]}, "gradients/decoder.conv.6.weight": {"_type": "histogram", "values": [2.0, 0.0, 1.0, 0.0, 1.0, 1.0, 0.0, 0.0, 0.0, 1.0, 0.0, 3.0, 5.0, 2.0, 3.0, 0.0, 3.0, 5.0, 6.0, 7.0, 14.0, 17.0, 18.0, 39.0, 44.0, 58.0, 82.0, 161.0, 215.0, 277.0, 457.0, 787.0, 1307.0, 2397.0, 4346.0, 9425.0, 21506.0, 44500.0, 21878.0, 9887.0, 5486.0, 2934.0, 1681.0, 1137.0, 686.0, 481.0, 339.0, 288.0, 182.0, 118.0, 95.0, 74.0, 43.0, 27.0, 17.0, 11.0, 8.0, 5.0, 2.0, 2.0, 0.0, 0.0, 0.0, 1.0], "bins": [-15.125, -14.718505859375, -14.31201171875, -13.905517578125, -13.4990234375, -13.092529296875, -12.68603515625, -12.279541015625, -11.873046875, -11.466552734375, -11.06005859375, -10.653564453125, -10.2470703125, -9.840576171875, -9.43408203125, -9.027587890625, -8.62109375, -8.214599609375, -7.80810546875, -7.401611328125, -6.9951171875, -6.588623046875, -6.18212890625, -5.775634765625, -5.369140625, -4.962646484375, -4.55615234375, -4.149658203125, -3.7431640625, -3.336669921875, -2.93017578125, -2.523681640625, -2.1171875, -1.710693359375, -1.30419921875, -0.897705078125, -0.4912109375, -0.084716796875, 0.32177734375, 0.728271484375, 1.134765625, 1.541259765625, 1.94775390625, 2.354248046875, 2.7607421875, 3.167236328125, 3.57373046875, 3.980224609375, 4.38671875, 4.793212890625, 5.19970703125, 5.606201171875, 6.0126953125, 6.419189453125, 6.82568359375, 7.232177734375, 7.638671875, 8.045166015625, 8.45166015625, 8.858154296875, 9.2646484375, 9.671142578125, 10.07763671875, 10.484130859375, 10.890625]}, "gradients/decoder.conv.4.weight": {"_type": "histogram", "values": [1.0, 0.0, 0.0, 0.0, 0.0, 0.0, 0.0, 0.0, 0.0, 0.0, 0.0, 0.0, 0.0, 0.0, 0.0, 0.0, 0.0, 0.0, 0.0, 0.0, 0.0, 0.0, 1.0, 2.0, 0.0, 0.0, 0.0, 0.0, 0.0, 1.0, 0.0, 0.0, 0.0, 0.0, 0.0, 0.0, 4.0, 2.0, 2.0, 0.0, 4.0, 1.0, 3.0, 4.0, 11.0, 5.0, 13.0, 15.0, 11.0, 9.0, 6.0, 5.0, 8.0, 5.0, 3.0, 2.0, 3.0, 3.0, 2.0, 0.0, 0.0, 1.0, 0.0, 1.0], "bins": [-36.613868713378906, -35.83280944824219, -35.05175018310547, -34.27069091796875, -33.48963165283203, -32.70857238769531, -31.92751121520996, -31.146451950073242, -30.365392684936523, -29.584333419799805, -28.803274154663086, -28.022212982177734, -27.241153717041016, -26.460094451904297, -25.679035186767578, -24.89797592163086, -24.11691665649414, -23.335857391357422, -22.554798126220703, -21.773738861083984, -20.992677688598633, -20.211618423461914, -19.430559158325195, -18.649499893188477, -17.868438720703125, -17.087379455566406, -16.306320190429688, -15.525259971618652, -14.744200706481934, -13.963140487670898, -13.18208122253418, -12.401021957397461, -11.619961738586426, -10.838902473449707, -10.057842254638672, -9.276782989501953, -8.495723724365234, -7.714663982391357, -6.9336042404174805, -6.152544975280762, -5.371485233306885, -4.590425491333008, -3.809366226196289, -3.028306484222412, -2.2472469806671143, -1.4661874771118164, -0.6851277351379395, 0.0959315299987793, 0.8769912719726562, 1.658050775527954, 2.439110279083252, 3.220170021057129, 4.001229286193848, 4.782289028167725, 5.563348770141602, 6.34440803527832, 7.125467777252197, 7.906527519226074, 8.687586784362793, 9.468647003173828, 10.249706268310547, 11.030765533447266, 11.811824798583984, 12.592884063720703, 13.373944282531738]}, "gradients/decoder.conv.4.bias": {"_type": "histogram", "values": [1.0, 0.0, 0.0, 0.0, 0.0, 0.0, 0.0, 0.0, 0.0, 0.0, 0.0, 0.0, 0.0, 0.0, 0.0, 0.0, 1.0, 1.0, 0.0, 0.0, 0.0, 0.0, 0.0, 1.0, 0.0, 0.0, 0.0, 0.0, 0.0, 2.0, 1.0, 4.0, 2.0, 0.0, 2.0, 0.0, 3.0, 5.0, 5.0, 5.0, 6.0, 7.0, 10.0, 12.0, 15.0, 6.0, 6.0, 6.0, 6.0, 4.0, 4.0, 0.0, 0.0, 3.0, 1.0, 2.0, 1.0, 0.0, 1.0, 0.0, 3.0, 0.0, 1.0, 1.0], "bins": [-30.540115356445312, -29.833480834960938, -29.126848220825195, -28.42021369934082, -27.713581085205078, -27.006946563720703, -26.300312042236328, -25.593679428100586, -24.88704490661621, -24.180410385131836, -23.473777770996094, -22.76714324951172, -22.060510635375977, -21.3538761138916, -20.64724349975586, -19.940608978271484, -19.23397445678711, -18.527339935302734, -17.820707321166992, -17.114072799682617, -16.407440185546875, -15.7008056640625, -14.994172096252441, -14.287538528442383, -13.58090591430664, -12.874272346496582, -12.167638778686523, -11.461004257202148, -10.75437068939209, -10.047737121582031, -9.341103553771973, -8.634469985961914, -7.927835464477539, -7.2212018966674805, -6.514567852020264, -5.807934284210205, -5.101300239562988, -4.39466667175293, -3.688033103942871, -2.9813990592956543, -2.2747654914855957, -1.568131685256958, -0.8614979982376099, -0.15486431121826172, 0.551769495010376, 1.2584033012390137, 1.9650368690490723, 2.671670913696289, 3.3783044815063477, 4.084938049316406, 4.791572093963623, 5.498205661773682, 6.204839706420898, 6.911473274230957, 7.618106842041016, 8.32474136352539, 9.031373977661133, 9.738007545471191, 10.44464111328125, 11.151275634765625, 11.857909202575684, 12.564542770385742, 13.2711763381958, 13.97780990600586, 14.684444427490234]}, "gradients/decoder.conv.3.weight": {"_type": "histogram", "values": [1.0, 0.0, 2.0, 1.0, 1.0, 2.0, 0.0, 2.0, 2.0, 1.0, 6.0, 5.0, 4.0, 8.0, 7.0, 14.0, 17.0, 22.0, 28.0, 35.0, 54.0, 56.0, 74.0, 95.0, 146.0, 196.0, 333.0, 549.0, 1188.0, 2203.0, 3871.0, 6698.0, 11347.0, 21142.0, 47933.0, 120437.0, 197421.0, 55282.0, 23197.0, 11959.0, 7211.0, 4390.0, 2911.0, 1838.0, 1260.0, 796.0, 475.0, 313.0, 209.0, 145.0, 114.0, 92.0, 58.0, 37.0, 38.0, 30.0, 11.0, 9.0, 5.0, 3.0, 3.0, 0.0, 0.0, 1.0], "bins": [-8.375, -8.142822265625, -7.91064453125, -7.678466796875, -7.4462890625, -7.214111328125, -6.98193359375, -6.749755859375, -6.517578125, -6.285400390625, -6.05322265625, -5.821044921875, -5.5888671875, -5.356689453125, -5.12451171875, -4.892333984375, -4.66015625, -4.427978515625, -4.19580078125, -3.963623046875, -3.7314453125, -3.499267578125, -3.26708984375, -3.034912109375, -2.802734375, -2.570556640625, -2.33837890625, -2.106201171875, -1.8740234375, -1.641845703125, -1.40966796875, -1.177490234375, -0.9453125, -0.713134765625, -0.48095703125, -0.248779296875, -0.0166015625, 0.215576171875, 0.44775390625, 0.679931640625, 0.912109375, 1.144287109375, 1.37646484375, 1.608642578125, 1.8408203125, 2.072998046875, 2.30517578125, 2.537353515625, 2.76953125, 3.001708984375, 3.23388671875, 3.466064453125, 3.6982421875, 3.930419921875, 4.16259765625, 4.394775390625, 4.626953125, 4.859130859375, 5.09130859375, 5.323486328125, 5.5556640625, 5.787841796875, 6.02001953125, 6.252197265625, 6.484375]}, "gradients/decoder.conv.1.weight": {"_type": "histogram", "values": [1.0, 0.0, 0.0, 0.0, 2.0, 2.0, 0.0, 1.0, 1.0, 0.0, 3.0, 3.0, 2.0, 1.0, 5.0, 1.0, 5.0, 16.0, 5.0, 7.0, 6.0, 12.0, 8.0, 11.0, 12.0, 14.0, 15.0, 13.0, 8.0, 14.0, 12.0, 14.0, 10.0, 9.0, 7.0, 4.0, 4.0, 6.0, 5.0, 2.0, 3.0, 1.0, 4.0, 2.0, 0.0, 0.0, 1.0, 0.0, 0.0, 0.0, 0.0, 1.0, 1.0, 0.0, 0.0, 1.0, 0.0, 0.0, 0.0, 0.0, 0.0, 0.0, 0.0, 1.0], "bins": [-10.384764671325684, -9.9927339553833, -9.600703239440918, -9.208671569824219, -8.816640853881836, -8.424610137939453, -8.03257942199707, -7.6405487060546875, -7.2485175132751465, -6.856486797332764, -6.464455604553223, -6.07242488861084, -5.680394172668457, -5.288362979888916, -4.896332263946533, -4.504301071166992, -4.112270355224609, -3.7202394008636475, -3.3282084465026855, -2.9361777305603027, -2.544146776199341, -2.152115821838379, -1.760085105895996, -1.3680541515350342, -0.9760231971740723, -0.5839923024177551, -0.191961407661438, 0.20006942749023438, 0.5921003818511963, 0.9841313362121582, 1.376162052154541, 1.768193006515503, 2.1602230072021484, 2.5522539615631104, 2.9442849159240723, 3.336315631866455, 3.728346586227417, 4.120377540588379, 4.512408256530762, 4.9044389724731445, 5.2964701652526855, 5.688500881195068, 6.080532073974609, 6.472562789916992, 6.864593505859375, 7.256624698638916, 7.648655414581299, 8.04068660736084, 8.432717323303223, 8.824748039245605, 9.216778755187988, 9.608810424804688, 10.00084114074707, 10.392871856689453, 10.784902572631836, 11.176933288574219, 11.568964004516602, 11.960994720458984, 12.353025436401367, 12.74505615234375, 13.13708782196045, 13.529118537902832, 13.921149253845215, 14.313179969787598, 14.705211639404297]}, "gradients/decoder.conv.1.bias": {"_type": "histogram", "values": [1.0, 0.0, 0.0, 0.0, 1.0, 0.0, 0.0, 0.0, 1.0, 2.0, 0.0, 0.0, 0.0, 2.0, 0.0, 1.0, 0.0, 2.0, 2.0, 3.0, 2.0, 4.0, 4.0, 2.0, 2.0, 9.0, 5.0, 5.0, 7.0, 4.0, 11.0, 9.0, 8.0, 9.0, 9.0, 15.0, 12.0, 9.0, 14.0, 9.0, 8.0, 10.0, 9.0, 11.0, 10.0, 9.0, 9.0, 4.0, 3.0, 5.0, 5.0, 2.0, 0.0, 1.0, 2.0, 0.0, 1.0, 1.0, 0.0, 1.0, 0.0, 0.0, 0.0, 1.0], "bins": [-14.43359661102295, -14.027499198913574, -13.621400833129883, -13.215303421020508, -12.809206008911133, -12.403108596801758, -11.997011184692383, -11.590912818908691, -11.184815406799316, -10.778717994689941, -10.37261962890625, -9.966522216796875, -9.5604248046875, -9.154327392578125, -8.74822998046875, -8.342131614685059, -7.936034202575684, -7.529936790466309, -7.123838901519775, -6.717741012573242, -6.311643600463867, -5.905546188354492, -5.499448299407959, -5.093350410461426, -4.687252998352051, -4.281155586242676, -3.8750576972961426, -3.4689600467681885, -3.0628623962402344, -2.6567647457122803, -2.250667095184326, -1.844569444656372, -1.4384727478027344, -1.0323750972747803, -0.6262774467468262, -0.22017979621887207, 0.18591785430908203, 0.5920155048370361, 0.9981131553649902, 1.4042108058929443, 1.8103084564208984, 2.2164061069488525, 2.6225037574768066, 3.0286014080047607, 3.434699058532715, 3.840796709060669, 4.246894359588623, 4.652992248535156, 5.059089660644531, 5.465187072753906, 5.8712849617004395, 6.277382850646973, 6.683480262756348, 7.089577674865723, 7.495675563812256, 7.901773452758789, 8.307870864868164, 8.713968276977539, 9.120065689086914, 9.526164054870605, 9.93226146697998, 10.338358879089355, 10.744457244873047, 11.150554656982422, 11.556652069091797]}, "gradients/decoder.conv.0.weight": {"_type": "histogram", "values": [1.0, 1.0, 0.0, 2.0, 2.0, 1.0, 0.0, 5.0, 6.0, 4.0, 9.0, 8.0, 20.0, 38.0, 48.0, 67.0, 105.0, 159.0, 250.0, 412.0, 668.0, 1162.0, 1853.0, 3590.0, 6429.0, 12649.0, 27610.0, 65939.0, 184544.0, 624494.0, 2783812.0, 4331338.0, 940105.0, 277338.0, 96720.0, 39119.0, 17723.0, 8925.0, 4628.0, 2734.0, 1629.0, 1001.0, 633.0, 455.0, 285.0, 210.0, 146.0, 95.0, 64.0, 39.0, 43.0, 23.0, 13.0, 9.0, 9.0, 5.0, 0.0, 1.0, 0.0, 3.0, 0.0, 2.0, 0.0, 1.0], "bins": [-1.1064453125, -1.0709228515625, -1.035400390625, -0.9998779296875, -0.96435546875, -0.9288330078125, -0.893310546875, -0.8577880859375, -0.822265625, -0.7867431640625, -0.751220703125, -0.7156982421875, -0.68017578125, -0.6446533203125, -0.609130859375, -0.5736083984375, -0.5380859375, -0.5025634765625, -0.467041015625, -0.4315185546875, -0.39599609375, -0.3604736328125, -0.324951171875, -0.2894287109375, -0.25390625, -0.2183837890625, -0.182861328125, -0.1473388671875, -0.11181640625, -0.0762939453125, -0.040771484375, -0.0052490234375, 0.0302734375, 0.0657958984375, 0.101318359375, 0.1368408203125, 0.17236328125, 0.2078857421875, 0.243408203125, 0.2789306640625, 0.314453125, 0.3499755859375, 0.385498046875, 0.4210205078125, 0.45654296875, 0.4920654296875, 0.527587890625, 0.5631103515625, 0.5986328125, 0.6341552734375, 0.669677734375, 0.7052001953125, 0.74072265625, 0.7762451171875, 0.811767578125, 0.8472900390625, 0.8828125, 0.9183349609375, 0.953857421875, 0.9893798828125, 1.02490234375, 1.0604248046875, 1.095947265625, 1.1314697265625, 1.1669921875]}, "gradients/fc.weight": {"_type": "histogram", "values": [1.0, 0.0, 0.0, 0.0, 1.0, 1.0, 1.0, 1.0, 2.0, 1.0, 8.0, 5.0, 8.0, 8.0, 24.0, 27.0, 39.0, 61.0, 82.0, 113.0, 154.0, 229.0, 427.0, 658.0, 870.0, 1360.0, 2201.0, 3665.0, 5949.0, 9896.0, 16189.0, 25626.0, 37587.0, 45459.0, 39617.0, 27540.0, 17038.0, 10492.0, 6298.0, 3817.0, 2389.0, 1512.0, 940.0, 642.0, 434.0, 284.0, 168.0, 111.0, 68.0, 49.0, 34.0, 12.0, 14.0, 12.0, 5.0, 7.0, 3.0, 1.0, 2.0, 0.0, 0.0, 0.0, 0.0, 2.0], "bins": [-4.515625, -4.3809814453125, -4.246337890625, -4.1116943359375, -3.97705078125, -3.8424072265625, -3.707763671875, -3.5731201171875, -3.4384765625, -3.3038330078125, -3.169189453125, -3.0345458984375, -2.89990234375, -2.7652587890625, -2.630615234375, -2.4959716796875, -2.361328125, -2.2266845703125, -2.092041015625, -1.9573974609375, -1.82275390625, -1.6881103515625, -1.553466796875, -1.4188232421875, -1.2841796875, -1.1495361328125, -1.014892578125, -0.8802490234375, -0.74560546875, -0.6109619140625, -0.476318359375, -0.3416748046875, -0.20703125, -0.0723876953125, 0.062255859375, 0.1968994140625, 0.33154296875, 0.4661865234375, 0.600830078125, 0.7354736328125, 0.8701171875, 1.0047607421875, 1.139404296875, 1.2740478515625, 1.40869140625, 1.5433349609375, 1.677978515625, 1.8126220703125, 1.947265625, 2.0819091796875, 2.216552734375, 2.3511962890625, 2.48583984375, 2.6204833984375, 2.755126953125, 2.8897705078125, 3.0244140625, 3.1590576171875, 3.293701171875, 3.4283447265625, 3.56298828125, 3.6976318359375, 3.832275390625, 3.9669189453125, 4.1015625]}, "gradients/fc.bias": {"_type": "histogram", "values": [1.0, 0.0, 1.0, 1.0, 0.0, 1.0, 1.0, 1.0, 2.0, 2.0, 3.0, 4.0, 6.0, 6.0, 7.0, 12.0, 23.0, 8.0, 16.0, 14.0, 19.0, 23.0, 18.0, 31.0, 28.0, 34.0, 40.0, 35.0, 43.0, 32.0, 57.0, 48.0, 53.0, 35.0, 45.0, 51.0, 32.0, 33.0, 32.0, 32.0, 25.0, 20.0, 23.0, 18.0, 22.0, 10.0, 7.0, 13.0, 9.0, 9.0, 4.0, 6.0, 4.0, 3.0, 3.0, 4.0, 4.0, 2.0, 1.0, 1.0, 1.0, 2.0, 0.0, 3.0], "bins": [-0.6806640625, -0.6579971313476562, -0.6353302001953125, -0.6126632690429688, -0.589996337890625, -0.5673294067382812, -0.5446624755859375, -0.5219955444335938, -0.49932861328125, -0.47666168212890625, -0.4539947509765625, -0.43132781982421875, -0.408660888671875, -0.38599395751953125, -0.3633270263671875, -0.34066009521484375, -0.3179931640625, -0.29532623291015625, -0.2726593017578125, -0.24999237060546875, -0.227325439453125, -0.20465850830078125, -0.1819915771484375, -0.15932464599609375, -0.13665771484375, -0.11399078369140625, -0.0913238525390625, -0.06865692138671875, -0.045989990234375, -0.02332305908203125, -0.0006561279296875, 0.02201080322265625, 0.044677734375, 0.06734466552734375, 0.0900115966796875, 0.11267852783203125, 0.135345458984375, 0.15801239013671875, 0.1806793212890625, 0.20334625244140625, 0.22601318359375, 0.24868011474609375, 0.2713470458984375, 0.29401397705078125, 0.316680908203125, 0.33934783935546875, 0.3620147705078125, 0.38468170166015625, 0.4073486328125, 0.43001556396484375, 0.4526824951171875, 0.47534942626953125, 0.498016357421875, 0.5206832885742188, 0.5433502197265625, 0.5660171508789062, 0.58868408203125, 0.6113510131835938, 0.6340179443359375, 0.6566848754882812, 0.679351806640625, 0.7020187377929688, 0.7246856689453125, 0.7473526000976562, 0.77001953125]}, "gradients/graph_1obs_encoder.fc2.weight": {"_type": "histogram", "values": [1.0, 1.0, 0.0, 1.0, 0.0, 0.0, 1.0, 2.0, 1.0, 2.0, 4.0, 8.0, 2.0, 2.0, 14.0, 7.0, 17.0, 24.0, 36.0, 39.0, 81.0, 100.0, 136.0, 214.0, 312.0, 503.0, 803.0, 1320.0, 2020.0, 3262.0, 4835.0, 6811.0, 14094.0, 68829.0, 9151.0, 6165.0, 4325.0, 2706.0, 1756.0, 1111.0, 762.0, 507.0, 332.0, 222.0, 164.0, 118.0, 89.0, 52.0, 40.0, 28.0, 15.0, 7.0, 13.0, 8.0, 6.0, 3.0, 4.0, 2.0, 0.0, 3.0, 0.0, 0.0, 0.0, 1.0], "bins": [-12.3984375, -12.0263671875, -11.654296875, -11.2822265625, -10.91015625, -10.5380859375, -10.166015625, -9.7939453125, -9.421875, -9.0498046875, -8.677734375, -8.3056640625, -7.93359375, -7.5615234375, -7.189453125, -6.8173828125, -6.4453125, -6.0732421875, -5.701171875, -5.3291015625, -4.95703125, -4.5849609375, -4.212890625, -3.8408203125, -3.46875, -3.0966796875, -2.724609375, -2.3525390625, -1.98046875, -1.6083984375, -1.236328125, -0.8642578125, -0.4921875, -0.1201171875, 0.251953125, 0.6240234375, 0.99609375, 1.3681640625, 1.740234375, 2.1123046875, 2.484375, 2.8564453125, 3.228515625, 3.6005859375, 3.97265625, 4.3447265625, 4.716796875, 5.0888671875, 5.4609375, 5.8330078125, 6.205078125, 6.5771484375, 6.94921875, 7.3212890625, 7.693359375, 8.0654296875, 8.4375, 8.8095703125, 9.181640625, 9.5537109375, 9.92578125, 10.2978515625, 10.669921875, 11.0419921875, 11.4140625]}, "gradients/graph_1obs_encoder.fc2.bias": {"_type": "histogram", "values": [1.0, 0.0, 0.0, 0.0, 1.0, 0.0, 1.0, 1.0, 4.0, 1.0, 2.0, 0.0, 7.0, 1.0, 3.0, 8.0, 3.0, 3.0, 6.0, 3.0, 4.0, 3.0, 3.0, 7.0, 7.0, 7.0, 7.0, 9.0, 6.0, 11.0, 24.0, 167.0, 83.0, 15.0, 4.0, 9.0, 9.0, 6.0, 4.0, 4.0, 10.0, 8.0, 4.0, 3.0, 10.0, 6.0, 5.0, 5.0, 1.0, 4.0, 3.0, 3.0, 5.0, 1.0, 1.0, 1.0, 2.0, 2.0, 1.0, 0.0, 0.0, 2.0, 0.0, 1.0], "bins": [-2.78515625, -2.697540283203125, -2.60992431640625, -2.522308349609375, -2.4346923828125, -2.347076416015625, -2.25946044921875, -2.171844482421875, -2.084228515625, -1.996612548828125, -1.90899658203125, -1.821380615234375, -1.7337646484375, -1.646148681640625, -1.55853271484375, -1.470916748046875, -1.38330078125, -1.295684814453125, -1.20806884765625, -1.120452880859375, -1.0328369140625, -0.945220947265625, -0.85760498046875, -0.769989013671875, -0.682373046875, -0.594757080078125, -0.50714111328125, -0.419525146484375, -0.3319091796875, -0.244293212890625, -0.15667724609375, -0.069061279296875, 0.0185546875, 0.106170654296875, 0.19378662109375, 0.281402587890625, 0.3690185546875, 0.456634521484375, 0.54425048828125, 0.631866455078125, 0.719482421875, 0.807098388671875, 0.89471435546875, 0.982330322265625, 1.0699462890625, 1.157562255859375, 1.24517822265625, 1.332794189453125, 1.42041015625, 1.508026123046875, 1.59564208984375, 1.683258056640625, 1.7708740234375, 1.858489990234375, 1.94610595703125, 2.033721923828125, 2.121337890625, 2.208953857421875, 2.29656982421875, 2.384185791015625, 2.4718017578125, 2.559417724609375, 2.64703369140625, 2.734649658203125, 2.822265625]}, "gradients/graph_1obs_encoder.fc1.weight": {"_type": "histogram", "values": [2.0, 4.0, 5.0, 3.0, 11.0, 11.0, 19.0, 29.0, 46.0, 49.0, 57.0, 76.0, 81.0, 121.0, 187.0, 227.0, 326.0, 506.0, 615.0, 918.0, 1253.0, 1796.0, 2501.0, 3586.0, 5346.0, 8050.0, 12639.0, 19334.0, 29448.0, 44159.0, 61440.0, 43226.0, 29691.0, 20194.0, 13117.0, 8744.0, 5872.0, 4036.0, 2827.0, 2038.0, 1447.0, 1033.0, 714.0, 519.0, 336.0, 254.0, 205.0, 150.0, 100.0, 91.0, 58.0, 50.0, 40.0, 31.0, 19.0, 17.0, 9.0, 9.0, 2.0, 1.0, 3.0, 0.0, 1.0, 1.0], "bins": [-4.953125, -4.789794921875, -4.62646484375, -4.463134765625, -4.2998046875, -4.136474609375, -3.97314453125, -3.809814453125, -3.646484375, -3.483154296875, -3.31982421875, -3.156494140625, -2.9931640625, -2.829833984375, -2.66650390625, -2.503173828125, -2.33984375, -2.176513671875, -2.01318359375, -1.849853515625, -1.6865234375, -1.523193359375, -1.35986328125, -1.196533203125, -1.033203125, -0.869873046875, -0.70654296875, -0.543212890625, -0.3798828125, -0.216552734375, -0.05322265625, 0.110107421875, 0.2734375, 0.436767578125, 0.60009765625, 0.763427734375, 0.9267578125, 1.090087890625, 1.25341796875, 1.416748046875, 1.580078125, 1.743408203125, 1.90673828125, 2.070068359375, 2.2333984375, 2.396728515625, 2.56005859375, 2.723388671875, 2.88671875, 3.050048828125, 3.21337890625, 3.376708984375, 3.5400390625, 3.703369140625, 3.86669921875, 4.030029296875, 4.193359375, 4.356689453125, 4.52001953125, 4.683349609375, 4.8466796875, 5.010009765625, 5.17333984375, 5.336669921875, 5.5]}, "gradients/graph_1obs_encoder.fc1.bias": {"_type": "histogram", "values": [1.0, 0.0, 1.0, 1.0, 0.0, 1.0, 0.0, 2.0, 0.0, 2.0, 1.0, 1.0, 0.0, 0.0, 0.0, 3.0, 2.0, 1.0, 3.0, 1.0, 2.0, 2.0, 2.0, 4.0, 5.0, 4.0, 5.0, 4.0, 6.0, 7.0, 7.0, 12.0, 13.0, 13.0, 18.0, 7.0, 6.0, 9.0, 8.0, 13.0, 15.0, 12.0, 9.0, 4.0, 8.0, 9.0, 5.0, 2.0, 5.0, 4.0, 2.0, 0.0, 0.0, 4.0, 2.0, 1.0, 2.0, 1.0, 0.0, 0.0, 3.0, 0.0, 0.0, 1.0], "bins": [-3.708984375, -3.600982666015625, -3.49298095703125, -3.384979248046875, -3.2769775390625, -3.168975830078125, -3.06097412109375, -2.952972412109375, -2.844970703125, -2.736968994140625, -2.62896728515625, -2.520965576171875, -2.4129638671875, -2.304962158203125, -2.19696044921875, -2.088958740234375, -1.98095703125, -1.872955322265625, -1.76495361328125, -1.656951904296875, -1.5489501953125, -1.440948486328125, -1.33294677734375, -1.224945068359375, -1.116943359375, -1.008941650390625, -0.90093994140625, -0.792938232421875, -0.6849365234375, -0.576934814453125, -0.46893310546875, -0.360931396484375, -0.2529296875, -0.144927978515625, -0.03692626953125, 0.071075439453125, 0.1790771484375, 0.287078857421875, 0.39508056640625, 0.503082275390625, 0.611083984375, 0.719085693359375, 0.82708740234375, 0.935089111328125, 1.0430908203125, 1.151092529296875, 1.25909423828125, 1.367095947265625, 1.47509765625, 1.583099365234375, 1.69110107421875, 1.799102783203125, 1.9071044921875, 2.015106201171875, 2.12310791015625, 2.231109619140625, 2.339111328125, 2.447113037109375, 2.55511474609375, 2.663116455078125, 2.7711181640625, 2.879119873046875, 2.98712158203125, 3.095123291015625, 3.203125]}, "gradients/graph_1stochastic_state_model.fc2.weight": {"_type": "histogram", "values": [2.0, 2.0, 5.0, 4.0, 6.0, 4.0, 7.0, 17.0, 16.0, 30.0, 42.0, 64.0, 108.0, 137.0, 198.0, 290.0, 447.0, 618.0, 904.0, 1317.0, 1891.0, 2546.0, 3582.0, 5015.0, 7879.0, 15130.0, 26151.0, 25384.0, 14692.0, 7684.0, 4743.0, 3461.0, 2514.0, 1760.0, 1353.0, 880.0, 666.0, 498.0, 318.0, 220.0, 149.0, 102.0, 62.0, 46.0, 37.0, 25.0, 19.0, 11.0, 6.0, 6.0, 6.0, 6.0, 1.0, 1.0, 4.0, 4.0, 0.0, 0.0, 1.0, 0.0, 0.0, 0.0, 0.0, 1.0], "bins": [-0.26806640625, -0.2581596374511719, -0.24825286865234375, -0.23834609985351562, -0.2284393310546875, -0.21853256225585938, -0.20862579345703125, -0.19871902465820312, -0.188812255859375, -0.17890548706054688, -0.16899871826171875, -0.15909194946289062, -0.1491851806640625, -0.13927841186523438, -0.12937164306640625, -0.11946487426757812, -0.10955810546875, -0.09965133666992188, -0.08974456787109375, -0.07983779907226562, -0.0699310302734375, -0.060024261474609375, -0.05011749267578125, -0.040210723876953125, -0.030303955078125, -0.020397186279296875, -0.01049041748046875, -0.000583648681640625, 0.0093231201171875, 0.019229888916015625, 0.02913665771484375, 0.039043426513671875, 0.0489501953125, 0.058856964111328125, 0.06876373291015625, 0.07867050170898438, 0.0885772705078125, 0.09848403930664062, 0.10839080810546875, 0.11829757690429688, 0.128204345703125, 0.13811111450195312, 0.14801788330078125, 0.15792465209960938, 0.1678314208984375, 0.17773818969726562, 0.18764495849609375, 0.19755172729492188, 0.20745849609375, 0.21736526489257812, 0.22727203369140625, 0.23717880249023438, 0.2470855712890625, 0.2569923400878906, 0.26689910888671875, 0.2768058776855469, 0.286712646484375, 0.2966194152832031, 0.30652618408203125, 0.3164329528808594, 0.3263397216796875, 0.3362464904785156, 0.34615325927734375, 0.3560600280761719, 0.365966796875]}, "gradients/graph_1stochastic_state_model.fc2.bias": {"_type": "histogram", "values": [1.0, 0.0, 0.0, 1.0, 0.0, 1.0, 1.0, 0.0, 0.0, 1.0, 2.0, 2.0, 7.0, 4.0, 3.0, 2.0, 2.0, 7.0, 4.0, 8.0, 5.0, 10.0, 4.0, 7.0, 7.0, 7.0, 15.0, 18.0, 32.0, 22.0, 40.0, 50.0, 44.0, 35.0, 35.0, 23.0, 17.0, 16.0, 4.0, 10.0, 8.0, 6.0, 8.0, 5.0, 6.0, 4.0, 3.0, 5.0, 4.0, 2.0, 3.0, 2.0, 4.0, 0.0, 1.0, 0.0, 2.0, 1.0, 0.0, 0.0, 0.0, 0.0, 0.0, 1.0], "bins": [-0.256103515625, -0.2478790283203125, -0.239654541015625, -0.2314300537109375, -0.22320556640625, -0.2149810791015625, -0.206756591796875, -0.1985321044921875, -0.1903076171875, -0.1820831298828125, -0.173858642578125, -0.1656341552734375, -0.15740966796875, -0.1491851806640625, -0.140960693359375, -0.1327362060546875, -0.12451171875, -0.1162872314453125, -0.108062744140625, -0.0998382568359375, -0.09161376953125, -0.0833892822265625, -0.075164794921875, -0.0669403076171875, -0.0587158203125, -0.0504913330078125, -0.042266845703125, -0.0340423583984375, -0.02581787109375, -0.0175933837890625, -0.009368896484375, -0.0011444091796875, 0.007080078125, 0.0153045654296875, 0.023529052734375, 0.0317535400390625, 0.03997802734375, 0.0482025146484375, 0.056427001953125, 0.0646514892578125, 0.0728759765625, 0.0811004638671875, 0.089324951171875, 0.0975494384765625, 0.10577392578125, 0.1139984130859375, 0.122222900390625, 0.1304473876953125, 0.138671875, 0.1468963623046875, 0.155120849609375, 0.1633453369140625, 0.17156982421875, 0.1797943115234375, 0.188018798828125, 0.1962432861328125, 0.2044677734375, 0.2126922607421875, 0.220916748046875, 0.2291412353515625, 0.23736572265625, 0.2455902099609375, 0.253814697265625, 0.2620391845703125, 0.270263671875]}, "gradients/graph_1stochastic_state_model.fc1.weight": {"_type": "histogram", "values": [1.0, 1.0, 1.0, 1.0, 0.0, 0.0, 0.0, 3.0, 1.0, 4.0, 6.0, 10.0, 7.0, 16.0, 16.0, 21.0, 32.0, 25.0, 49.0, 70.0, 80.0, 125.0, 178.0, 247.0, 353.0, 525.0, 694.0, 989.0, 1465.0, 2042.0, 2663.0, 3536.0, 4488.0, 5401.0, 6071.0, 6395.0, 6144.0, 5552.0, 4674.0, 3627.0, 2791.0, 2083.0, 1475.0, 1093.0, 749.0, 545.0, 380.0, 268.0, 188.0, 119.0, 103.0, 65.0, 54.0, 31.0, 26.0, 20.0, 9.0, 11.0, 4.0, 2.0, 4.0, 1.0, 0.0, 2.0], "bins": [-0.52294921875, -0.5082206726074219, -0.49349212646484375, -0.4787635803222656, -0.4640350341796875, -0.4493064880371094, -0.43457794189453125, -0.4198493957519531, -0.405120849609375, -0.3903923034667969, -0.37566375732421875, -0.3609352111816406, -0.3462066650390625, -0.3314781188964844, -0.31674957275390625, -0.3020210266113281, -0.28729248046875, -0.2725639343261719, -0.25783538818359375, -0.24310684204101562, -0.2283782958984375, -0.21364974975585938, -0.19892120361328125, -0.18419265747070312, -0.169464111328125, -0.15473556518554688, -0.14000701904296875, -0.12527847290039062, -0.1105499267578125, -0.09582138061523438, -0.08109283447265625, -0.06636428833007812, -0.0516357421875, -0.036907196044921875, -0.02217864990234375, -0.007450103759765625, 0.0072784423828125, 0.022006988525390625, 0.03673553466796875, 0.051464080810546875, 0.066192626953125, 0.08092117309570312, 0.09564971923828125, 0.11037826538085938, 0.1251068115234375, 0.13983535766601562, 0.15456390380859375, 0.16929244995117188, 0.18402099609375, 0.19874954223632812, 0.21347808837890625, 0.22820663452148438, 0.2429351806640625, 0.2576637268066406, 0.27239227294921875, 0.2871208190917969, 0.301849365234375, 0.3165779113769531, 0.33130645751953125, 0.3460350036621094, 0.3607635498046875, 0.3754920959472656, 0.39022064208984375, 0.4049491882324219, 0.419677734375]}, "gradients/graph_1stochastic_state_model.fc1.bias": {"_type": "histogram", "values": [2.0, 1.0, 0.0, 0.0, 2.0, 0.0, 3.0, 4.0, 0.0, 4.0, 3.0, 1.0, 2.0, 2.0, 11.0, 8.0, 5.0, 5.0, 6.0, 9.0, 8.0, 13.0, 7.0, 4.0, 12.0, 14.0, 13.0, 10.0, 12.0, 8.0, 9.0, 13.0, 9.0, 9.0, 8.0, 8.0, 5.0, 6.0, 4.0, 1.0, 3.0, 4.0, 1.0, 1.0, 0.0, 0.0, 1.0, 1.0, 1.0, 0.0, 1.0, 0.0, 0.0, 0.0, 1.0, 0.0, 0.0, 0.0, 0.0, 0.0, 0.0, 0.0, 0.0, 1.0], "bins": [-0.5322265625, -0.5110244750976562, -0.4898223876953125, -0.46862030029296875, -0.447418212890625, -0.42621612548828125, -0.4050140380859375, -0.38381195068359375, -0.36260986328125, -0.34140777587890625, -0.3202056884765625, -0.29900360107421875, -0.277801513671875, -0.25659942626953125, -0.2353973388671875, -0.21419525146484375, -0.1929931640625, -0.17179107666015625, -0.1505889892578125, -0.12938690185546875, -0.108184814453125, -0.08698272705078125, -0.0657806396484375, -0.04457855224609375, -0.02337646484375, -0.00217437744140625, 0.0190277099609375, 0.04022979736328125, 0.061431884765625, 0.08263397216796875, 0.1038360595703125, 0.12503814697265625, 0.146240234375, 0.16744232177734375, 0.1886444091796875, 0.20984649658203125, 0.231048583984375, 0.25225067138671875, 0.2734527587890625, 0.29465484619140625, 0.31585693359375, 0.33705902099609375, 0.3582611083984375, 0.37946319580078125, 0.400665283203125, 0.42186737060546875, 0.4430694580078125, 0.46427154541015625, 0.4854736328125, 0.5066757202148438, 0.5278778076171875, 0.5490798950195312, 0.570281982421875, 0.5914840698242188, 0.6126861572265625, 0.6338882446289062, 0.65509033203125, 0.6762924194335938, 0.6974945068359375, 0.7186965942382812, 0.739898681640625, 0.7611007690429688, 0.7823028564453125, 0.8035049438476562, 0.82470703125]}, "gradients/graph_1rnn.weight_ih": {"_type": "histogram", "values": [2.0, 1.0, 0.0, 1.0, 0.0, 0.0, 0.0, 2.0, 0.0, 1.0, 2.0, 8.0, 7.0, 12.0, 27.0, 39.0, 51.0, 76.0, 122.0, 219.0, 368.0, 628.0, 905.0, 1452.0, 2349.0, 3611.0, 5166.0, 7245.0, 20844.0, 122258.0, 11582.0, 6534.0, 4658.0, 3062.0, 1996.0, 1284.0, 818.0, 494.0, 285.0, 180.0, 112.0, 75.0, 49.0, 19.0, 28.0, 13.0, 7.0, 5.0, 3.0, 2.0, 3.0, 0.0, 1.0, 0.0, 0.0, 0.0, 0.0, 0.0, 0.0, 0.0, 0.0, 0.0, 0.0, 2.0], "bins": [-1.9833984375, -1.9158172607421875, -1.848236083984375, -1.7806549072265625, -1.71307373046875, -1.6454925537109375, -1.577911376953125, -1.5103302001953125, -1.4427490234375, -1.3751678466796875, -1.307586669921875, -1.2400054931640625, -1.17242431640625, -1.1048431396484375, -1.037261962890625, -0.9696807861328125, -0.902099609375, -0.8345184326171875, -0.766937255859375, -0.6993560791015625, -0.63177490234375, -0.5641937255859375, -0.496612548828125, -0.4290313720703125, -0.3614501953125, -0.2938690185546875, -0.226287841796875, -0.1587066650390625, -0.09112548828125, -0.0235443115234375, 0.044036865234375, 0.1116180419921875, 0.17919921875, 0.2467803955078125, 0.314361572265625, 0.3819427490234375, 0.44952392578125, 0.5171051025390625, 0.584686279296875, 0.6522674560546875, 0.7198486328125, 0.7874298095703125, 0.855010986328125, 0.9225921630859375, 0.99017333984375, 1.0577545166015625, 1.125335693359375, 1.1929168701171875, 1.260498046875, 1.3280792236328125, 1.395660400390625, 1.4632415771484375, 1.53082275390625, 1.5984039306640625, 1.665985107421875, 1.7335662841796875, 1.8011474609375, 1.8687286376953125, 1.936309814453125, 2.0038909912109375, 2.07147216796875, 2.1390533447265625, 2.206634521484375, 2.2742156982421875, 2.341796875]}, "gradients/graph_1rnn.weight_hh": {"_type": "histogram", "values": [1.0, 0.0, 0.0, 0.0, 1.0, 0.0, 4.0, 2.0, 6.0, 10.0, 10.0, 16.0, 19.0, 40.0, 45.0, 60.0, 80.0, 108.0, 155.0, 244.0, 354.0, 534.0, 692.0, 1066.0, 1528.0, 2046.0, 2886.0, 3931.0, 5779.0, 10817.0, 49844.0, 78492.0, 15938.0, 6594.0, 4407.0, 3194.0, 2270.0, 1600.0, 1131.0, 755.0, 542.0, 415.0, 292.0, 193.0, 172.0, 97.0, 69.0, 42.0, 38.0, 17.0, 14.0, 14.0, 12.0, 9.0, 10.0, 2.0, 6.0, 3.0, 1.0, 0.0, 0.0, 0.0, 0.0, 1.0], "bins": [-0.445556640625, -0.4312591552734375, -0.416961669921875, -0.4026641845703125, -0.38836669921875, -0.3740692138671875, -0.359771728515625, -0.3454742431640625, -0.3311767578125, -0.3168792724609375, -0.302581787109375, -0.2882843017578125, -0.27398681640625, -0.2596893310546875, -0.245391845703125, -0.2310943603515625, -0.216796875, -0.2024993896484375, -0.188201904296875, -0.1739044189453125, -0.15960693359375, -0.1453094482421875, -0.131011962890625, -0.1167144775390625, -0.1024169921875, -0.0881195068359375, -0.073822021484375, -0.0595245361328125, -0.04522705078125, -0.0309295654296875, -0.016632080078125, -0.0023345947265625, 0.011962890625, 0.0262603759765625, 0.040557861328125, 0.0548553466796875, 0.06915283203125, 0.0834503173828125, 0.097747802734375, 0.1120452880859375, 0.1263427734375, 0.1406402587890625, 0.154937744140625, 0.1692352294921875, 0.18353271484375, 0.1978302001953125, 0.212127685546875, 0.2264251708984375, 0.24072265625, 0.2550201416015625, 0.269317626953125, 0.2836151123046875, 0.29791259765625, 0.3122100830078125, 0.326507568359375, 0.3408050537109375, 0.3551025390625, 0.3694000244140625, 0.383697509765625, 0.3979949951171875, 0.41229248046875, 0.4265899658203125, 0.440887451171875, 0.4551849365234375, 0.469482421875]}, "gradients/graph_1rnn.bias_ih": {"_type": "histogram", "values": [1.0, 0.0, 2.0, 0.0, 0.0, 0.0, 2.0, 2.0, 3.0, 3.0, 0.0, 5.0, 0.0, 3.0, 6.0, 2.0, 2.0, 2.0, 6.0, 7.0, 4.0, 8.0, 9.0, 8.0, 9.0, 10.0, 13.0, 13.0, 21.0, 83.0, 291.0, 112.0, 28.0, 13.0, 7.0, 10.0, 8.0, 4.0, 4.0, 9.0, 7.0, 5.0, 3.0, 5.0, 7.0, 5.0, 4.0, 4.0, 2.0, 2.0, 2.0, 2.0, 3.0, 0.0, 1.0, 3.0, 0.0, 0.0, 0.0, 0.0, 2.0, 0.0, 0.0, 1.0], "bins": [-0.869140625, -0.84063720703125, -0.8121337890625, -0.78363037109375, -0.755126953125, -0.72662353515625, -0.6981201171875, -0.66961669921875, -0.64111328125, -0.61260986328125, -0.5841064453125, -0.55560302734375, -0.527099609375, -0.49859619140625, -0.4700927734375, -0.44158935546875, -0.4130859375, -0.38458251953125, -0.3560791015625, -0.32757568359375, -0.299072265625, -0.27056884765625, -0.2420654296875, -0.21356201171875, -0.18505859375, -0.15655517578125, -0.1280517578125, -0.09954833984375, -0.071044921875, -0.04254150390625, -0.0140380859375, 0.01446533203125, 0.04296875, 0.07147216796875, 0.0999755859375, 0.12847900390625, 0.156982421875, 0.18548583984375, 0.2139892578125, 0.24249267578125, 0.27099609375, 0.29949951171875, 0.3280029296875, 0.35650634765625, 0.385009765625, 0.41351318359375, 0.4420166015625, 0.47052001953125, 0.4990234375, 0.52752685546875, 0.5560302734375, 0.58453369140625, 0.613037109375, 0.64154052734375, 0.6700439453125, 0.69854736328125, 0.72705078125, 0.75555419921875, 0.7840576171875, 0.81256103515625, 0.841064453125, 0.86956787109375, 0.8980712890625, 0.92657470703125, 0.955078125]}, "gradients/graph_1rnn.bias_hh": {"_type": "histogram", "values": [1.0, 1.0, 1.0, 0.0, 2.0, 2.0, 2.0, 2.0, 2.0, 1.0, 0.0, 1.0, 5.0, 1.0, 1.0, 3.0, 4.0, 5.0, 2.0, 3.0, 9.0, 8.0, 11.0, 8.0, 6.0, 10.0, 10.0, 29.0, 32.0, 103.0, 209.0, 112.0, 49.0, 18.0, 19.0, 13.0, 12.0, 6.0, 8.0, 3.0, 11.0, 5.0, 5.0, 3.0, 3.0, 0.0, 3.0, 4.0, 4.0, 3.0, 4.0, 0.0, 2.0, 1.0, 0.0, 1.0, 0.0, 1.0, 1.0, 1.0, 1.0, 0.0, 0.0, 1.0], "bins": [-0.54345703125, -0.525665283203125, -0.50787353515625, -0.490081787109375, -0.4722900390625, -0.454498291015625, -0.43670654296875, -0.418914794921875, -0.401123046875, -0.383331298828125, -0.36553955078125, -0.347747802734375, -0.3299560546875, -0.312164306640625, -0.29437255859375, -0.276580810546875, -0.2587890625, -0.240997314453125, -0.22320556640625, -0.205413818359375, -0.1876220703125, -0.169830322265625, -0.15203857421875, -0.134246826171875, -0.116455078125, -0.098663330078125, -0.08087158203125, -0.063079833984375, -0.0452880859375, -0.027496337890625, -0.00970458984375, 0.008087158203125, 0.02587890625, 0.043670654296875, 0.06146240234375, 0.079254150390625, 0.0970458984375, 0.114837646484375, 0.13262939453125, 0.150421142578125, 0.168212890625, 0.186004638671875, 0.20379638671875, 0.221588134765625, 0.2393798828125, 0.257171630859375, 0.27496337890625, 0.292755126953125, 0.310546875, 0.328338623046875, 0.34613037109375, 0.363922119140625, 0.3817138671875, 0.399505615234375, 0.41729736328125, 0.435089111328125, 0.452880859375, 0.470672607421875, 0.48846435546875, 0.506256103515625, 0.5240478515625, 0.541839599609375, 0.55963134765625, 0.577423095703125, 0.59521484375]}, "gradients/graph_1fc_embed_state_action.weight": {"_type": "histogram", "values": [1.0, 3.0, 0.0, 0.0, 1.0, 0.0, 3.0, 0.0, 4.0, 5.0, 5.0, 5.0, 19.0, 10.0, 23.0, 35.0, 59.0, 98.0, 121.0, 242.0, 372.0, 660.0, 1210.0, 2202.0, 4110.0, 7540.0, 12461.0, 15010.0, 10245.0, 5894.0, 3143.0, 1632.0, 861.0, 540.0, 263.0, 179.0, 126.0, 73.0, 58.0, 32.0, 20.0, 15.0, 10.0, 4.0, 6.0, 7.0, 6.0, 2.0, 1.0, 2.0, 2.0, 1.0, 0.0, 1.0, 0.0, 1.0, 0.0, 2.0, 1.0, 1.0, 0.0, 0.0, 0.0, 1.0], "bins": [-3.177734375, -3.061248779296875, -2.94476318359375, -2.828277587890625, -2.7117919921875, -2.595306396484375, -2.47882080078125, -2.362335205078125, -2.245849609375, -2.129364013671875, -2.01287841796875, -1.896392822265625, -1.7799072265625, -1.663421630859375, -1.54693603515625, -1.430450439453125, -1.31396484375, -1.197479248046875, -1.08099365234375, -0.964508056640625, -0.8480224609375, -0.731536865234375, -0.61505126953125, -0.498565673828125, -0.382080078125, -0.265594482421875, -0.14910888671875, -0.032623291015625, 0.0838623046875, 0.200347900390625, 0.31683349609375, 0.433319091796875, 0.5498046875, 0.666290283203125, 0.78277587890625, 0.899261474609375, 1.0157470703125, 1.132232666015625, 1.24871826171875, 1.365203857421875, 1.481689453125, 1.598175048828125, 1.71466064453125, 1.831146240234375, 1.9476318359375, 2.064117431640625, 2.18060302734375, 2.297088623046875, 2.41357421875, 2.530059814453125, 2.64654541015625, 2.763031005859375, 2.8795166015625, 2.996002197265625, 3.11248779296875, 3.228973388671875, 3.345458984375, 3.461944580078125, 3.57843017578125, 3.694915771484375, 3.8114013671875, 3.927886962890625, 4.04437255859375, 4.160858154296875, 4.27734375]}, "gradients/graph_1fc_embed_state_action.bias": {"_type": "histogram", "values": [1.0, 0.0, 0.0, 1.0, 1.0, 0.0, 0.0, 0.0, 0.0, 0.0, 0.0, 0.0, 0.0, 3.0, 0.0, 1.0, 0.0, 0.0, 1.0, 2.0, 1.0, 2.0, 6.0, 4.0, 3.0, 2.0, 6.0, 5.0, 6.0, 12.0, 13.0, 13.0, 14.0, 17.0, 13.0, 17.0, 16.0, 13.0, 16.0, 13.0, 10.0, 6.0, 6.0, 3.0, 5.0, 5.0, 4.0, 3.0, 5.0, 0.0, 2.0, 2.0, 0.0, 0.0, 1.0, 0.0, 0.0, 0.0, 0.0, 0.0, 1.0, 0.0, 0.0, 1.0], "bins": [-0.7666015625, -0.7449264526367188, -0.7232513427734375, -0.7015762329101562, -0.679901123046875, -0.6582260131835938, -0.6365509033203125, -0.6148757934570312, -0.59320068359375, -0.5715255737304688, -0.5498504638671875, -0.5281753540039062, -0.506500244140625, -0.48482513427734375, -0.4631500244140625, -0.44147491455078125, -0.4197998046875, -0.39812469482421875, -0.3764495849609375, -0.35477447509765625, -0.333099365234375, -0.31142425537109375, -0.2897491455078125, -0.26807403564453125, -0.24639892578125, -0.22472381591796875, -0.2030487060546875, -0.18137359619140625, -0.159698486328125, -0.13802337646484375, -0.1163482666015625, -0.09467315673828125, -0.072998046875, -0.05132293701171875, -0.0296478271484375, -0.00797271728515625, 0.013702392578125, 0.03537750244140625, 0.0570526123046875, 0.07872772216796875, 0.10040283203125, 0.12207794189453125, 0.1437530517578125, 0.16542816162109375, 0.187103271484375, 0.20877838134765625, 0.2304534912109375, 0.25212860107421875, 0.2738037109375, 0.29547882080078125, 0.3171539306640625, 0.33882904052734375, 0.360504150390625, 0.38217926025390625, 0.4038543701171875, 0.42552947998046875, 0.44720458984375, 0.46887969970703125, 0.4905548095703125, 0.5122299194335938, 0.533905029296875, 0.5555801391601562, 0.5772552490234375, 0.5989303588867188, 0.62060546875]}, "gradients/graph_3conv.16.weight": {"_type": "histogram", "values": [1.0, 0.0, 0.0, 0.0, 0.0, 1.0, 0.0, 0.0, 0.0, 0.0, 0.0, 0.0, 1.0, 1.0, 0.0, 2.0, 1.0, 2.0, 1.0, 3.0, 3.0, 2.0, 6.0, 2.0, 8.0, 4.0, 9.0, 5.0, 17.0, 12.0, 17.0, 11.0, 11.0, 15.0, 11.0, 15.0, 14.0, 10.0, 6.0, 7.0, 13.0, 5.0, 8.0, 4.0, 3.0, 3.0, 3.0, 2.0, 3.0, 1.0, 4.0, 5.0, 1.0, 1.0, 1.0, 0.0, 0.0, 0.0, 0.0, 0.0, 0.0, 0.0, 0.0, 1.0], "bins": [-6.330889701843262, -6.134801864624023, -5.938713550567627, -5.742625713348389, -5.546537399291992, -5.350449562072754, -5.154361724853516, -4.958273410797119, -4.762185096740723, -4.566097259521484, -4.370008945465088, -4.17392110824585, -3.977832794189453, -3.781744956970215, -3.5856568813323975, -3.38956880569458, -3.193480968475342, -2.9973928928375244, -2.801304817199707, -2.6052169799804688, -2.4091286659240723, -2.213040828704834, -2.0169527530670166, -1.8208646774291992, -1.6247766017913818, -1.4286885261535645, -1.232600450515747, -1.0365124940872192, -0.8404244184494019, -0.6443363428115845, -0.44824838638305664, -0.25216031074523926, -0.05607175827026367, 0.14001628756523132, 0.3361043334007263, 0.5321923494338989, 0.7282804250717163, 0.9243685007095337, 1.1204564571380615, 1.316544532775879, 1.5126326084136963, 1.7087206840515137, 1.904808759689331, 2.1008968353271484, 2.2969846725463867, 2.493072986602783, 2.6891608238220215, 2.885248899459839, 3.0813369750976562, 3.2774250507354736, 3.473513126373291, 3.6696009635925293, 3.865689277648926, 4.061777114868164, 4.257864952087402, 4.453953266143799, 4.650041580200195, 4.846129417419434, 5.04221773147583, 5.238305568695068, 5.434393882751465, 5.630481719970703, 5.826569557189941, 6.022657871246338, 6.218745708465576]}, "gradients/graph_3conv.16.bias": {"_type": "histogram", "values": [1.0, 0.0, 0.0, 0.0, 0.0, 0.0, 0.0, 1.0, 1.0, 1.0, 0.0, 1.0, 0.0, 0.0, 0.0, 1.0, 0.0, 1.0, 2.0, 3.0, 1.0, 2.0, 2.0, 2.0, 3.0, 6.0, 4.0, 2.0, 15.0, 8.0, 11.0, 9.0, 12.0, 9.0, 17.0, 11.0, 12.0, 14.0, 8.0, 13.0, 11.0, 8.0, 8.0, 5.0, 6.0, 6.0, 8.0, 6.0, 6.0, 2.0, 5.0, 1.0, 2.0, 1.0, 5.0, 0.0, 1.0, 0.0, 0.0, 1.0, 0.0, 0.0, 0.0, 1.0], "bins": [-5.581419944763184, -5.416101455688477, -5.2507829666137695, -5.085464000701904, -4.920145511627197, -4.75482702255249, -4.589508056640625, -4.424189567565918, -4.258871078491211, -4.093552589416504, -3.9282338619232178, -3.7629151344299316, -3.5975966453552246, -3.4322781562805176, -3.2669594287872314, -3.1016407012939453, -2.9363222122192383, -2.7710037231445312, -2.605684995651245, -2.440366268157959, -2.275047779083252, -2.109729290008545, -1.9444105625152588, -1.7790919542312622, -1.6137733459472656, -1.448454737663269, -1.2831361293792725, -1.1178175210952759, -0.9524989128112793, -0.7871803045272827, -0.6218616962432861, -0.45654308795928955, -0.29122447967529297, -0.1259058713912964, 0.039412736892700195, 0.20473134517669678, 0.37004995346069336, 0.5353685617446899, 0.7006871700286865, 0.8660057783126831, 1.0313243865966797, 1.1966429948806763, 1.3619616031646729, 1.5272802114486694, 1.692598819732666, 1.8579174280166626, 2.023236036300659, 2.1885547637939453, 2.3538732528686523, 2.5191917419433594, 2.6845104694366455, 2.8498291969299316, 3.0151476860046387, 3.1804661750793457, 3.345784902572632, 3.511103630065918, 3.676422119140625, 3.841740608215332, 4.007059097290039, 4.172378063201904, 4.337696552276611, 4.503015041351318, 4.668334007263184, 4.833652496337891, 4.998970985412598]}, "gradients/graph_3conv.15.weight": {"_type": "histogram", "values": [1.0, 2.0, 1.0, 2.0, 2.0, 5.0, 9.0, 6.0, 14.0, 16.0, 20.0, 27.0, 33.0, 42.0, 76.0, 77.0, 101.0, 147.0, 203.0, 267.0, 338.0, 461.0, 567.0, 785.0, 1061.0, 1441.0, 1947.0, 2820.0, 4239.0, 6366.0, 9505.0, 14343.0, 21706.0, 32645.0, 49596.0, 74140.0, 93764.0, 71507.0, 45941.0, 29578.0, 19287.0, 13194.0, 8774.0, 6049.0, 4141.0, 2878.0, 1924.0, 1258.0, 881.0, 638.0, 431.0, 266.0, 216.0, 171.0, 123.0, 89.0, 59.0, 36.0, 26.0, 17.0, 9.0, 6.0, 8.0, 6.0], "bins": [-1.576171875, -1.533111572265625, -1.49005126953125, -1.446990966796875, -1.4039306640625, -1.360870361328125, -1.31781005859375, -1.274749755859375, -1.231689453125, -1.188629150390625, -1.14556884765625, -1.102508544921875, -1.0594482421875, -1.016387939453125, -0.97332763671875, -0.930267333984375, -0.88720703125, -0.844146728515625, -0.80108642578125, -0.758026123046875, -0.7149658203125, -0.671905517578125, -0.62884521484375, -0.585784912109375, -0.542724609375, -0.499664306640625, -0.45660400390625, -0.413543701171875, -0.3704833984375, -0.327423095703125, -0.28436279296875, -0.241302490234375, -0.1982421875, -0.155181884765625, -0.11212158203125, -0.069061279296875, -0.0260009765625, 0.017059326171875, 0.06011962890625, 0.103179931640625, 0.146240234375, 0.189300537109375, 0.23236083984375, 0.275421142578125, 0.3184814453125, 0.361541748046875, 0.40460205078125, 0.447662353515625, 0.49072265625, 0.533782958984375, 0.57684326171875, 0.619903564453125, 0.6629638671875, 0.706024169921875, 0.74908447265625, 0.792144775390625, 0.835205078125, 0.878265380859375, 0.92132568359375, 0.964385986328125, 1.0074462890625, 1.050506591796875, 1.09356689453125, 1.136627197265625, 1.1796875]}, "gradients/graph_3conv.13.weight": {"_type": "histogram", "values": [1.0, 0.0, 0.0, 0.0, 0.0, 0.0, 0.0, 0.0, 0.0, 1.0, 0.0, 0.0, 0.0, 0.0, 0.0, 0.0, 0.0, 0.0, 0.0, 0.0, 0.0, 1.0, 3.0, 2.0, 2.0, 1.0, 2.0, 2.0, 4.0, 4.0, 4.0, 3.0, 3.0, 9.0, 1.0, 3.0, 5.0, 7.0, 6.0, 5.0, 3.0, 6.0, 6.0, 8.0, 8.0, 8.0, 8.0, 2.0, 2.0, 3.0, 0.0, 0.0, 1.0, 0.0, 1.0, 0.0, 0.0, 0.0, 1.0, 1.0, 0.0, 0.0, 0.0, 1.0], "bins": [-6.309987545013428, -6.143621444702148, -5.977255821228027, -5.810889720916748, -5.644524097442627, -5.478157997131348, -5.311792373657227, -5.145426273345947, -4.979060173034668, -4.812694072723389, -4.646328449249268, -4.479962348937988, -4.313596725463867, -4.147230625152588, -3.9808647632598877, -3.8144989013671875, -3.6481330394744873, -3.481767177581787, -3.315401315689087, -3.1490354537963867, -2.9826693534851074, -2.8163034915924072, -2.649937629699707, -2.4835715293884277, -2.3172059059143066, -2.1508400440216064, -1.9844740629196167, -1.8181082010269165, -1.6517422199249268, -1.4853763580322266, -1.3190104961395264, -1.1526445150375366, -0.9862785339355469, -0.8199126124382019, -0.6535466909408569, -0.48718082904815674, -0.32081490755081177, -0.1544489860534668, 0.011916875839233398, 0.17828285694122314, 0.34464871883392334, 0.5110146403312683, 0.6773805618286133, 0.8437464237213135, 1.0101122856140137, 1.1764782667160034, 1.3428441286087036, 1.5092101097106934, 1.6755759716033936, 1.8419418334960938, 2.008307695388794, 2.174673557281494, 2.3410396575927734, 2.5074055194854736, 2.673771381378174, 2.840137481689453, 3.006503105163574, 3.1728689670562744, 3.3392348289489746, 3.505600929260254, 3.671966791152954, 3.8383326530456543, 4.004698753356934, 4.171064376831055, 4.337430477142334]}, "gradients/graph_3conv.13.bias": {"_type": "histogram", "values": [1.0, 0.0, 1.0, 0.0, 0.0, 0.0, 1.0, 0.0, 0.0, 0.0, 1.0, 0.0, 2.0, 3.0, 1.0, 0.0, 4.0, 0.0, 1.0, 1.0, 1.0, 4.0, 1.0, 3.0, 2.0, 3.0, 2.0, 2.0, 0.0, 0.0, 3.0, 0.0, 2.0, 4.0, 1.0, 0.0, 0.0, 1.0, 2.0, 2.0, 1.0, 1.0, 7.0, 1.0, 5.0, 2.0, 6.0, 3.0, 3.0, 9.0, 7.0, 8.0, 4.0, 5.0, 1.0, 5.0, 5.0, 2.0, 2.0, 0.0, 0.0, 1.0, 0.0, 1.0], "bins": [-2.9071173667907715, -2.8194782733917236, -2.731839179992676, -2.644200086593628, -2.55656099319458, -2.4689218997955322, -2.3812828063964844, -2.2936434745788574, -2.2060046195983887, -2.118365526199341, -2.030726432800293, -1.9430873394012451, -1.8554482460021973, -1.7678091526031494, -1.680169939994812, -1.5925308465957642, -1.5048916339874268, -1.417252540588379, -1.329613447189331, -1.2419743537902832, -1.1543352603912354, -1.0666961669921875, -0.9790569543838501, -0.8914178609848022, -0.8037787675857544, -0.7161396741867065, -0.6285005807876587, -0.5408614277839661, -0.4532223343849182, -0.36558324098587036, -0.27794408798217773, -0.19030499458312988, -0.10266590118408203, -0.015026792883872986, 0.07261231541633606, 0.1602514386177063, 0.24789053201675415, 0.335529625415802, 0.42316877841949463, 0.5108078718185425, 0.5984469652175903, 0.6860860586166382, 0.773725152015686, 0.8613643050193787, 0.9490033984184265, 1.0366425514221191, 1.124281644821167, 1.2119207382202148, 1.2995598316192627, 1.3871989250183105, 1.4748380184173584, 1.5624771118164062, 1.650116205215454, 1.737755298614502, 1.8253945112228394, 1.9130336046218872, 2.0006728172302246, 2.0883119106292725, 2.1759510040283203, 2.263590097427368, 2.351229190826416, 2.438868284225464, 2.5265073776245117, 2.6141467094421387, 2.7017855644226074]}, "gradients/graph_3conv.12.weight": {"_type": "histogram", "values": [4.0, 5.0, 7.0, 6.0, 10.0, 7.0, 20.0, 31.0, 25.0, 37.0, 34.0, 50.0, 46.0, 43.0, 51.0, 48.0, 42.0, 37.0, 49.0, 39.0, 51.0, 63.0, 76.0, 119.0, 184.0, 229.0, 392.0, 661.0, 1077.0, 1681.0, 2622.0, 4354.0, 7031.0, 12810.0, 22504.0, 28472.0, 19347.0, 11249.0, 5868.0, 3631.0, 2584.0, 1690.0, 1059.0, 751.0, 491.0, 390.0, 248.0, 250.0, 150.0, 120.0, 84.0, 93.0, 48.0, 41.0, 34.0, 8.0, 5.0, 3.0, 1.0, 3.0, 2.0, 3.0, 0.0, 2.0], "bins": [-3.43359375, -3.337371826171875, -3.24114990234375, -3.144927978515625, -3.0487060546875, -2.952484130859375, -2.85626220703125, -2.760040283203125, -2.663818359375, -2.567596435546875, -2.47137451171875, -2.375152587890625, -2.2789306640625, -2.182708740234375, -2.08648681640625, -1.990264892578125, -1.89404296875, -1.797821044921875, -1.70159912109375, -1.605377197265625, -1.5091552734375, -1.412933349609375, -1.31671142578125, -1.220489501953125, -1.124267578125, -1.028045654296875, -0.93182373046875, -0.835601806640625, -0.7393798828125, -0.643157958984375, -0.54693603515625, -0.450714111328125, -0.3544921875, -0.258270263671875, -0.16204833984375, -0.065826416015625, 0.0303955078125, 0.126617431640625, 0.22283935546875, 0.319061279296875, 0.415283203125, 0.511505126953125, 0.60772705078125, 0.703948974609375, 0.8001708984375, 0.896392822265625, 0.99261474609375, 1.088836669921875, 1.18505859375, 1.281280517578125, 1.37750244140625, 1.473724365234375, 1.5699462890625, 1.666168212890625, 1.76239013671875, 1.858612060546875, 1.954833984375, 2.051055908203125, 2.14727783203125, 2.243499755859375, 2.3397216796875, 2.435943603515625, 2.53216552734375, 2.628387451171875, 2.724609375]}, "gradients/graph_3conv.10.weight": {"_type": "histogram", "values": [1.0, 0.0, 0.0, 0.0, 0.0, 0.0, 0.0, 0.0, 0.0, 1.0, 0.0, 1.0, 0.0, 0.0, 1.0, 1.0, 1.0, 1.0, 1.0, 1.0, 1.0, 1.0, 1.0, 0.0, 2.0, 4.0, 2.0, 2.0, 1.0, 3.0, 5.0, 6.0, 9.0, 5.0, 5.0, 2.0, 1.0, 1.0, 0.0, 1.0, 0.0, 0.0, 0.0, 0.0, 1.0, 0.0, 0.0, 0.0, 0.0, 0.0, 1.0, 0.0, 0.0, 0.0, 0.0, 0.0, 0.0, 0.0, 0.0, 0.0, 0.0, 0.0, 0.0, 1.0], "bins": [-5.609793663024902, -5.419382095336914, -5.228971004486084, -5.038559436798096, -4.848147869110107, -4.657736778259277, -4.467325210571289, -4.276913642883301, -4.0865020751953125, -3.8960907459259033, -3.705679178237915, -3.515267848968506, -3.3248562812805176, -3.1344449520111084, -2.944033622741699, -2.753622055053711, -2.563210964202881, -2.3727996349334717, -2.1823880672454834, -1.9919767379760742, -1.8015652894973755, -1.6111538410186768, -1.4207425117492676, -1.2303310632705688, -1.0399196147918701, -0.8495081663131714, -0.6590967774391174, -0.4686853885650635, -0.27827394008636475, -0.08786249160766602, 0.10254883766174316, 0.2929602861404419, 0.4833717346191406, 0.6737831830978394, 0.8641945719718933, 1.0546059608459473, 1.245017409324646, 1.4354288578033447, 1.625840187072754, 1.8162516355514526, 2.0066630840301514, 2.1970744132995605, 2.387485980987549, 2.577897310256958, 2.768308639526367, 2.9587202072143555, 3.1491315364837646, 3.339542865753174, 3.529954433441162, 3.7203657627105713, 3.9107773303985596, 4.101188659667969, 4.291600227355957, 4.482011795043945, 4.672422885894775, 4.862834453582764, 5.053245544433594, 5.243657112121582, 5.434068202972412, 5.6244797706604, 5.814891338348389, 6.005302429199219, 6.195713996887207, 6.386125564575195, 6.576537132263184]}, "gradients/graph_3conv.10.bias": {"_type": "histogram", "values": [1.0, 0.0, 0.0, 0.0, 0.0, 0.0, 0.0, 0.0, 0.0, 0.0, 0.0, 0.0, 0.0, 0.0, 0.0, 0.0, 0.0, 0.0, 1.0, 1.0, 0.0, 0.0, 0.0, 0.0, 1.0, 0.0, 0.0, 1.0, 1.0, 0.0, 1.0, 0.0, 0.0, 0.0, 1.0, 2.0, 2.0, 3.0, 0.0, 1.0, 4.0, 0.0, 1.0, 0.0, 1.0, 3.0, 4.0, 4.0, 4.0, 2.0, 2.0, 4.0, 4.0, 1.0, 7.0, 2.0, 1.0, 1.0, 0.0, 0.0, 1.0, 0.0, 0.0, 2.0], "bins": [-3.400085926055908, -3.302251100540161, -3.204416275024414, -3.106581449508667, -3.00874662399292, -2.910911798477173, -2.813076972961426, -2.715242385864258, -2.6174073219299316, -2.5195724964141846, -2.4217376708984375, -2.3239028453826904, -2.2260680198669434, -2.1282331943511963, -2.030398368835449, -1.9325636625289917, -1.8347289562225342, -1.736894130706787, -1.63905930519104, -1.541224479675293, -1.443389654159546, -1.3455548286437988, -1.2477201223373413, -1.1498852968215942, -1.0520504713058472, -0.9542156457901001, -0.856380820274353, -0.7585460543632507, -0.6607112288475037, -0.5628764033317566, -0.4650416374206543, -0.3672068119049072, -0.26937198638916016, -0.17153717577457428, -0.0737023651599884, 0.02413243055343628, 0.12196725606918335, 0.21980208158493042, 0.3176368474960327, 0.4154716730117798, 0.5133064985275269, 0.6111413240432739, 0.708976149559021, 0.8068109154701233, 0.9046457409858704, 1.0024805068969727, 1.1003153324127197, 1.1981501579284668, 1.2959849834442139, 1.393819808959961, 1.491654634475708, 1.589489459991455, 1.6873242855072021, 1.7851591110229492, 1.8829938173294067, 1.9808286428451538, 2.0786633491516113, 2.1764981746673584, 2.2743330001831055, 2.3721678256988525, 2.4700026512145996, 2.5678374767303467, 2.6656723022460938, 2.7635068893432617, 2.861341953277588]}, "gradients/graph_3conv.9.weight": {"_type": "histogram", "values": [1.0, 1.0, 1.0, 5.0, 1.0, 5.0, 2.0, 4.0, 6.0, 3.0, 9.0, 8.0, 7.0, 3.0, 14.0, 17.0, 15.0, 35.0, 44.0, 63.0, 65.0, 80.0, 91.0, 119.0, 130.0, 176.0, 187.0, 208.0, 255.0, 344.0, 441.0, 651.0, 1119.0, 1680.0, 2404.0, 3279.0, 5075.0, 5525.0, 3905.0, 2121.0, 1072.0, 687.0, 518.0, 512.0, 375.0, 300.0, 265.0, 190.0, 139.0, 137.0, 89.0, 62.0, 39.0, 32.0, 43.0, 50.0, 34.0, 35.0, 33.0, 21.0, 8.0, 16.0, 3.0, 9.0], "bins": [-4.85546875, -4.725250244140625, -4.59503173828125, -4.464813232421875, -4.3345947265625, -4.204376220703125, -4.07415771484375, -3.943939208984375, -3.813720703125, -3.683502197265625, -3.55328369140625, -3.423065185546875, -3.2928466796875, -3.162628173828125, -3.03240966796875, -2.902191162109375, -2.77197265625, -2.641754150390625, -2.51153564453125, -2.381317138671875, -2.2510986328125, -2.120880126953125, -1.99066162109375, -1.860443115234375, -1.730224609375, -1.600006103515625, -1.46978759765625, -1.339569091796875, -1.2093505859375, -1.079132080078125, -0.94891357421875, -0.818695068359375, -0.6884765625, -0.558258056640625, -0.42803955078125, -0.297821044921875, -0.1676025390625, -0.037384033203125, 0.09283447265625, 0.223052978515625, 0.353271484375, 0.483489990234375, 0.61370849609375, 0.743927001953125, 0.8741455078125, 1.004364013671875, 1.13458251953125, 1.264801025390625, 1.39501953125, 1.525238037109375, 1.65545654296875, 1.785675048828125, 1.9158935546875, 2.046112060546875, 2.17633056640625, 2.306549072265625, 2.436767578125, 2.566986083984375, 2.69720458984375, 2.827423095703125, 2.9576416015625, 3.087860107421875, 3.21807861328125, 3.348297119140625, 3.478515625]}, "gradients/graph_3conv.7.weight": {"_type": "histogram", "values": [1.0, 0.0, 0.0, 0.0, 1.0, 0.0, 0.0, 0.0, 0.0, 0.0, 0.0, 1.0, 1.0, 0.0, 2.0, 1.0, 0.0, 0.0, 0.0, 0.0, 0.0, 0.0, 0.0, 1.0, 0.0, 1.0, 0.0, 1.0, 1.0, 1.0, 0.0, 0.0, 0.0, 1.0, 1.0, 1.0, 2.0, 1.0, 0.0, 0.0, 1.0, 0.0, 1.0, 0.0, 0.0, 1.0, 0.0, 1.0, 0.0, 0.0, 0.0, 1.0, 0.0, 0.0, 2.0, 1.0, 1.0, 3.0, 0.0, 0.0, 0.0, 1.0, 0.0, 1.0], "bins": [-3.2451255321502686, -3.1568942070007324, -3.0686631202697754, -2.9804317951202393, -2.892200469970703, -2.803969383239746, -2.71573805809021, -2.627506732940674, -2.539275646209717, -2.4510443210601807, -2.3628132343292236, -2.2745819091796875, -2.1863505840301514, -2.0981192588806152, -2.009888172149658, -1.921656847000122, -1.833425521850586, -1.7451943159103394, -1.6569629907608032, -1.5687317848205566, -1.4805004596710205, -1.392269253730774, -1.3040380477905273, -1.2158067226409912, -1.1275755167007446, -1.039344310760498, -0.9511129856109619, -0.8628817796707153, -0.774650514125824, -0.6864192485809326, -0.598188042640686, -0.5099567770957947, -0.4217252731323242, -0.33349400758743286, -0.2452627718448639, -0.15703153610229492, -0.06880027055740356, 0.019430994987487793, 0.10766220092773438, 0.19589346647262573, 0.2841247320175171, 0.37235599756240845, 0.4605872333049774, 0.5488184690475464, 0.6370497345924377, 0.7252810001373291, 0.8135122060775757, 0.901743471622467, 0.9899747371673584, 1.078205943107605, 1.1664372682571411, 1.2546684741973877, 1.3428997993469238, 1.4311310052871704, 1.519362211227417, 1.6075935363769531, 1.6958247423171997, 1.7840559482574463, 1.8722872734069824, 1.960518479347229, 2.0487496852874756, 2.1369810104370117, 2.2252120971679688, 2.313443422317505, 2.401674747467041]}, "gradients/graph_3conv.7.bias": {"_type": "histogram", "values": [1.0, 0.0, 1.0, 1.0, 0.0, 0.0, 0.0, 1.0, 1.0, 0.0, 0.0, 0.0, 3.0, 1.0, 1.0, 0.0, 0.0, 1.0, 0.0, 0.0, 0.0, 0.0, 0.0, 0.0, 1.0, 0.0, 1.0, 0.0, 2.0, 0.0, 0.0, 0.0, 1.0, 0.0, 0.0, 0.0, 2.0, 2.0, 0.0, 0.0, 0.0, 2.0, 0.0, 1.0, 1.0, 1.0, 0.0, 0.0, 1.0, 2.0, 1.0, 0.0, 0.0, 1.0, 0.0, 0.0, 1.0, 0.0, 0.0, 0.0, 0.0, 0.0, 0.0, 1.0], "bins": [-1.6743381023406982, -1.5818651914596558, -1.4893922805786133, -1.3969194889068604, -1.3044464588165283, -1.2119736671447754, -1.119500756263733, -1.0270278453826904, -0.934554934501648, -0.8420820236206055, -0.749609112739563, -0.6571362614631653, -0.5646633505821228, -0.4721904397010803, -0.3797175884246826, -0.28724467754364014, -0.19477176666259766, -0.10229887068271637, -0.009825974702835083, 0.08264690637588501, 0.1751198172569275, 0.26759272813796997, 0.3600655794143677, 0.45253849029541016, 0.5450114011764526, 0.6374843120574951, 0.7299572229385376, 0.8224300742149353, 0.9149029850959778, 1.007375955581665, 1.099848747253418, 1.1923216581344604, 1.2847943305969238, 1.3772672414779663, 1.4697401523590088, 1.5622129440307617, 1.6546859741210938, 1.7471587657928467, 1.8396316766738892, 1.9321045875549316, 2.0245776176452637, 2.1170504093170166, 2.2095234394073486, 2.3019962310791016, 2.3944692611694336, 2.4869420528411865, 2.5794148445129395, 2.6718878746032715, 2.7643606662750244, 2.8568334579467773, 2.9493064880371094, 3.0417792797088623, 3.1342523097991943, 3.2267251014709473, 3.3191981315612793, 3.4116709232330322, 3.504143714904785, 3.596616506576538, 3.68908953666687, 3.781562328338623, 3.874035358428955, 3.966508150100708, 4.058980941772461, 4.151453971862793, 4.243927001953125]}, "gradients/graph_3conv.6.weight": {"_type": "histogram", "values": [2.0, 0.0, 1.0, 2.0, 1.0, 2.0, 4.0, 11.0, 2.0, 6.0, 17.0, 12.0, 14.0, 17.0, 29.0, 24.0, 32.0, 46.0, 42.0, 52.0, 67.0, 66.0, 97.0, 115.0, 151.0, 175.0, 201.0, 248.0, 399.0, 515.0, 662.0, 878.0, 967.0, 777.0, 611.0, 423.0, 306.0, 219.0, 158.0, 116.0, 109.0, 90.0, 77.0, 60.0, 63.0, 45.0, 45.0, 51.0, 46.0, 28.0, 27.0, 32.0, 13.0, 11.0, 5.0, 4.0, 3.0, 4.0, 3.0, 1.0, 4.0, 1.0, 2.0, 1.0], "bins": [-5.16796875, -5.00689697265625, -4.8458251953125, -4.68475341796875, -4.523681640625, -4.36260986328125, -4.2015380859375, -4.04046630859375, -3.87939453125, -3.71832275390625, -3.5572509765625, -3.39617919921875, -3.235107421875, -3.07403564453125, -2.9129638671875, -2.75189208984375, -2.5908203125, -2.42974853515625, -2.2686767578125, -2.10760498046875, -1.946533203125, -1.78546142578125, -1.6243896484375, -1.46331787109375, -1.30224609375, -1.14117431640625, -0.9801025390625, -0.81903076171875, -0.657958984375, -0.49688720703125, -0.3358154296875, -0.17474365234375, -0.013671875, 0.14739990234375, 0.3084716796875, 0.46954345703125, 0.630615234375, 0.79168701171875, 0.9527587890625, 1.11383056640625, 1.27490234375, 1.43597412109375, 1.5970458984375, 1.75811767578125, 1.919189453125, 2.08026123046875, 2.2413330078125, 2.40240478515625, 2.5634765625, 2.72454833984375, 2.8856201171875, 3.04669189453125, 3.207763671875, 3.36883544921875, 3.5299072265625, 3.69097900390625, 3.85205078125, 4.01312255859375, 4.1741943359375, 4.33526611328125, 4.496337890625, 4.65740966796875, 4.8184814453125, 4.97955322265625, 5.140625]}, "gradients/graph_3conv.4.weight": {"_type": "histogram", "values": [1.0, 0.0, 0.0, 0.0, 0.0, 0.0, 0.0, 0.0, 0.0, 0.0, 0.0, 0.0, 1.0, 0.0, 1.0, 0.0, 0.0, 0.0, 0.0, 1.0, 0.0, 0.0, 1.0, 1.0, 1.0, 1.0, 0.0, 1.0, 0.0, 1.0, 0.0, 0.0, 0.0, 0.0, 1.0, 0.0, 0.0, 1.0, 1.0, 0.0, 0.0, 0.0, 0.0, 0.0, 0.0, 0.0, 0.0, 1.0, 0.0, 0.0, 0.0, 0.0, 0.0, 0.0, 0.0, 0.0, 0.0, 1.0, 0.0, 0.0, 0.0, 0.0, 0.0, 1.0], "bins": [-3.825207233428955, -3.6982223987579346, -3.571237564086914, -3.4442527294158936, -3.317267894744873, -3.1902830600738525, -3.063298225402832, -2.9363133907318115, -2.809328556060791, -2.6823437213897705, -2.55535888671875, -2.4283740520477295, -2.301389217376709, -2.1744043827056885, -2.047419548034668, -1.9204347133636475, -1.793449878692627, -1.6664650440216064, -1.539480209350586, -1.4124953746795654, -1.285510540008545, -1.1585257053375244, -1.031540870666504, -0.9045560359954834, -0.7775712013244629, -0.6505863666534424, -0.5236015319824219, -0.39661669731140137, -0.26963186264038086, -0.14264702796936035, -0.015662193298339844, 0.11132264137268066, 0.23830699920654297, 0.3652918338775635, 0.492276668548584, 0.6192615032196045, 0.746246337890625, 0.8732311725616455, 1.000216007232666, 1.1272008419036865, 1.254185676574707, 1.3811705112457275, 1.508155345916748, 1.6351401805877686, 1.762125015258789, 1.8891098499298096, 2.01609468460083, 2.1430795192718506, 2.270064353942871, 2.3970491886138916, 2.524034023284912, 2.6510188579559326, 2.778003692626953, 2.9049885272979736, 3.031973361968994, 3.1589581966400146, 3.285943031311035, 3.4129278659820557, 3.539912700653076, 3.6668975353240967, 3.793882369995117, 3.9208672046661377, 4.047852039337158, 4.174837112426758, 4.301821708679199]}, "gradients/graph_3conv.4.bias": {"_type": "histogram", "values": [1.0, 0.0, 0.0, 0.0, 0.0, 0.0, 0.0, 0.0, 0.0, 0.0, 0.0, 0.0, 1.0, 2.0, 0.0, 0.0, 0.0, 1.0, 0.0, 0.0, 0.0, 1.0, 1.0, 0.0, 0.0, 0.0, 0.0, 0.0, 0.0, 0.0, 1.0, 0.0, 0.0, 1.0, 0.0, 1.0, 0.0, 0.0, 0.0, 1.0, 0.0, 2.0, 0.0, 0.0, 0.0, 0.0, 1.0, 0.0, 0.0, 0.0, 0.0, 1.0, 0.0, 0.0, 0.0, 0.0, 0.0, 0.0, 0.0, 0.0, 0.0, 0.0, 0.0, 1.0], "bins": [-3.283715009689331, -3.1051676273345947, -2.9266202449798584, -2.748073101043701, -2.569525718688965, -2.3909783363342285, -2.212430953979492, -2.033883571624756, -1.8553361892700195, -1.6767888069152832, -1.4982414245605469, -1.3196941614151, -1.1411467790603638, -0.9625993967056274, -0.7840521335601807, -0.6055047512054443, -0.426957368850708, -0.24841001629829407, -0.06986266374588013, 0.10868465900421143, 0.28723204135894775, 0.4657794237136841, 0.6443266868591309, 0.8228740692138672, 1.0014214515686035, 1.1799688339233398, 1.3585162162780762, 1.537063479423523, 1.7156108617782593, 1.8941582441329956, 2.0727055072784424, 2.2512528896331787, 2.429800033569336, 2.6083474159240723, 2.7868947982788086, 2.965442180633545, 3.1439895629882812, 3.3225369453430176, 3.501084089279175, 3.679631471633911, 3.8581788539886475, 4.036725997924805, 4.215273380279541, 4.393820762634277, 4.572368144989014, 4.75091552734375, 4.929462909698486, 5.108010292053223, 5.286557674407959, 5.465105056762695, 5.643652439117432, 5.822199821472168, 6.000747203826904, 6.179294586181641, 6.357841491699219, 6.536389350891113, 6.714936256408691, 6.893483638763428, 7.072031021118164, 7.2505784034729, 7.429125785827637, 7.607673168182373, 7.786220550537109, 7.9647674560546875, 8.143315315246582]}, "gradients/graph_3conv.3.weight": {"_type": "histogram", "values": [1.0, 1.0, 1.0, 1.0, 5.0, 3.0, 5.0, 0.0, 1.0, 1.0, 6.0, 7.0, 4.0, 1.0, 6.0, 6.0, 6.0, 2.0, 5.0, 9.0, 6.0, 5.0, 8.0, 8.0, 6.0, 9.0, 12.0, 7.0, 15.0, 13.0, 19.0, 16.0, 17.0, 14.0, 14.0, 27.0, 18.0, 26.0, 44.0, 54.0, 74.0, 87.0, 96.0, 127.0, 132.0, 155.0, 136.0, 113.0, 119.0, 110.0, 117.0, 88.0, 58.0, 50.0, 42.0, 36.0, 19.0, 24.0, 18.0, 13.0, 14.0, 5.0, 3.0, 3.0], "bins": [-13.109375, -12.83856201171875, -12.5677490234375, -12.29693603515625, -12.026123046875, -11.75531005859375, -11.4844970703125, -11.21368408203125, -10.94287109375, -10.67205810546875, -10.4012451171875, -10.13043212890625, -9.859619140625, -9.58880615234375, -9.3179931640625, -9.04718017578125, -8.7763671875, -8.50555419921875, -8.2347412109375, -7.96392822265625, -7.693115234375, -7.42230224609375, -7.1514892578125, -6.88067626953125, -6.60986328125, -6.33905029296875, -6.0682373046875, -5.79742431640625, -5.526611328125, -5.25579833984375, -4.9849853515625, -4.71417236328125, -4.443359375, -4.17254638671875, -3.9017333984375, -3.63092041015625, -3.360107421875, -3.08929443359375, -2.8184814453125, -2.54766845703125, -2.27685546875, -2.00604248046875, -1.7352294921875, -1.46441650390625, -1.193603515625, -0.92279052734375, -0.6519775390625, -0.38116455078125, -0.1103515625, 0.16046142578125, 0.4312744140625, 0.70208740234375, 0.972900390625, 1.24371337890625, 1.5145263671875, 1.78533935546875, 2.05615234375, 2.32696533203125, 2.5977783203125, 2.86859130859375, 3.139404296875, 3.41021728515625, 3.6810302734375, 3.95184326171875, 4.22265625]}, "gradients/graph_3conv.1.weight": {"_type": "histogram", "values": [1.0, 1.0, 0.0, 0.0, 1.0, 0.0, 0.0, 0.0, 0.0, 0.0, 1.0, 0.0, 0.0, 0.0, 0.0, 0.0, 0.0, 0.0, 0.0, 0.0, 0.0, 0.0, 0.0, 0.0, 0.0, 0.0, 0.0, 0.0, 0.0, 0.0, 0.0, 0.0, 0.0, 0.0, 0.0, 0.0, 0.0, 0.0, 0.0, 0.0, 0.0, 0.0, 0.0, 0.0, 0.0, 1.0, 0.0, 0.0, 0.0, 1.0, 0.0, 0.0, 0.0, 0.0, 0.0, 1.0, 0.0, 0.0, 0.0, 0.0, 0.0, 0.0, 0.0, 1.0], "bins": [-6.535754680633545, -6.312448024749756, -6.089141368865967, -5.8658342361450195, -5.6425275802612305, -5.419220924377441, -5.195914268493652, -4.972607612609863, -4.749300956726074, -4.525994300842285, -4.302687644958496, -4.079380989074707, -3.8560738563537598, -3.6327672004699707, -3.4094605445861816, -3.1861538887023926, -2.9628467559814453, -2.7395401000976562, -2.516233205795288, -2.292926549911499, -2.069619655609131, -1.8463129997253418, -1.6230063438415527, -1.3996995687484741, -1.1763927936553955, -0.9530860185623169, -0.7297793030738831, -0.5064725875854492, -0.2831658124923706, -0.05985903739929199, 0.16344761848449707, 0.3867543935775757, 0.6100606918334961, 0.8333674669265747, 1.0566742420196533, 1.2799808979034424, 1.503287672996521, 1.7265944480895996, 1.9499011039733887, 2.1732077598571777, 2.396514654159546, 2.619821310043335, 2.843128204345703, 3.066434860229492, 3.2897415161132812, 3.5130484104156494, 3.7363550662994385, 3.9596619606018066, 4.182968616485596, 4.406275272369385, 4.629581928253174, 4.852889060974121, 5.07619571685791, 5.299502372741699, 5.522809028625488, 5.746115684509277, 5.969422340393066, 6.1927289962768555, 6.4160356521606445, 6.639342308044434, 6.862649440765381, 7.08595609664917, 7.309262752532959, 7.532569408416748, 7.755876541137695]}, "gradients/graph_3conv.1.bias": {"_type": "histogram", "values": [1.0, 0.0, 0.0, 0.0, 0.0, 0.0, 0.0, 0.0, 0.0, 0.0, 0.0, 0.0, 0.0, 0.0, 1.0, 0.0, 0.0, 0.0, 1.0, 0.0, 0.0, 0.0, 0.0, 0.0, 0.0, 0.0, 0.0, 0.0, 1.0, 0.0, 0.0, 1.0, 0.0, 1.0, 0.0, 0.0, 1.0, 0.0, 0.0, 0.0, 0.0, 0.0, 0.0, 0.0, 0.0, 0.0, 0.0, 0.0, 0.0, 0.0, 0.0, 0.0, 0.0, 0.0, 0.0, 0.0, 0.0, 0.0, 0.0, 0.0, 0.0, 0.0, 0.0, 1.0], "bins": [-4.046938419342041, -3.8488755226135254, -3.6508123874664307, -3.452749252319336, -3.2546863555908203, -3.0566234588623047, -2.85856032371521, -2.6604971885681152, -2.4624342918395996, -2.264371395111084, -2.0663082599639893, -1.868245244026184, -1.670182228088379, -1.4721192121505737, -1.2740561962127686, -1.0759931802749634, -0.8779301643371582, -0.679867148399353, -0.48180413246154785, -0.2837411165237427, -0.0856781005859375, 0.11238491535186768, 0.31044793128967285, 0.508510947227478, 0.7065739631652832, 0.9046369791030884, 1.1026999950408936, 1.3007630109786987, 1.498826026916504, 1.696889042854309, 1.8949520587921143, 2.093015193939209, 2.2910776138305664, 2.489140510559082, 2.6872036457061768, 2.8852667808532715, 3.083329677581787, 3.2813925743103027, 3.4794557094573975, 3.677518844604492, 3.875581741333008, 4.073644638061523, 4.271707534790039, 4.469770908355713, 4.6678338050842285, 4.865896701812744, 5.063960075378418, 5.262022972106934, 5.460085868835449, 5.658148765563965, 5.8562116622924805, 6.054275035858154, 6.25233793258667, 6.4504008293151855, 6.648464202880859, 6.846527099609375, 7.044589996337891, 7.242652893066406, 7.440715789794922, 7.638779163360596, 7.836842060089111, 8.034905433654785, 8.2329683303833, 8.431031227111816, 8.629094123840332]}, "gradients/graph_3conv.0.weight": {"_type": "histogram", "values": [1.0, 0.0, 0.0, 0.0, 1.0, 0.0, 0.0, 1.0, 1.0, 0.0, 0.0, 0.0, 0.0, 1.0, 0.0, 0.0, 1.0, 1.0, 1.0, 3.0, 2.0, 1.0, 4.0, 6.0, 6.0, 1.0, 6.0, 7.0, 8.0, 8.0, 14.0, 8.0, 8.0, 9.0, 13.0, 12.0, 8.0, 13.0, 10.0, 16.0, 14.0, 15.0, 17.0, 19.0, 17.0, 17.0, 14.0, 12.0, 11.0, 14.0, 10.0, 10.0, 9.0, 11.0, 6.0, 2.0, 4.0, 3.0, 2.0, 3.0, 1.0, 1.0, 0.0, 1.0], "bins": [-8.921875, -8.70709228515625, -8.4923095703125, -8.27752685546875, -8.062744140625, -7.84796142578125, -7.6331787109375, -7.41839599609375, -7.20361328125, -6.98883056640625, -6.7740478515625, -6.55926513671875, -6.344482421875, -6.12969970703125, -5.9149169921875, -5.70013427734375, -5.4853515625, -5.27056884765625, -5.0557861328125, -4.84100341796875, -4.626220703125, -4.41143798828125, -4.1966552734375, -3.98187255859375, -3.76708984375, -3.55230712890625, -3.3375244140625, -3.12274169921875, -2.907958984375, -2.69317626953125, -2.4783935546875, -2.26361083984375, -2.048828125, -1.83404541015625, -1.6192626953125, -1.40447998046875, -1.189697265625, -0.97491455078125, -0.7601318359375, -0.54534912109375, -0.33056640625, -0.11578369140625, 0.0989990234375, 0.31378173828125, 0.528564453125, 0.74334716796875, 0.9581298828125, 1.17291259765625, 1.3876953125, 1.60247802734375, 1.8172607421875, 2.03204345703125, 2.246826171875, 2.46160888671875, 2.6763916015625, 2.89117431640625, 3.10595703125, 3.32073974609375, 3.5355224609375, 3.75030517578125, 3.965087890625, 4.17987060546875, 4.3946533203125, 4.60943603515625, 4.82421875]}, "_wandb": {"runtime": 925}}