{"observations_loss_sum/train": 1560.38134765625, "_timestamp": 1671126499.5904143, "image_hsr_256/train": 1560.38134765625, "reward_loss/train": 0.0, "kl_loss_sum/train": 72.65190124511719, "kl_loss/train": 72.65190124511719, "frame": 20000000, "_runtime": 9553.325856208801, "_step": 8000, "observations_loss_sum/validation": 4365.6552734375, "image_hsr_256/validation": 4365.6552734375, "reward_loss/validation": 0.0, "kl_loss_sum/validation": 103.93953704833984, "kl_loss/validation": 103.93953704833984, "gradients/decoder.conv.15.weight": {"_type": "histogram", "values": [7.0, 15.0, 35.0, 62.0, 75.0, 89.0, 98.0, 103.0, 89.0, 102.0, 108.0, 111.0, 83.0, 72.0, 66.0, 61.0, 59.0, 60.0, 43.0, 40.0, 35.0, 24.0, 20.0, 32.0, 19.0, 22.0, 23.0, 18.0, 13.0, 9.0, 16.0, 12.0, 11.0, 12.0, 7.0, 7.0, 5.0, 1.0, 8.0, 5.0, 4.0, 1.0, 2.0, 3.0, 7.0, 3.0, 3.0, 1.0, 1.0, 0.0, 3.0, 5.0, 2.0, 2.0, 1.0, 2.0, 1.0, 2.0, 2.0, 1.0, 1.0, 2.0, 1.0, 1.0], "bins": [32.875, 47.900390625, 62.92578125, 77.951171875, 92.9765625, 108.001953125, 123.02734375, 138.052734375, 153.078125, 168.103515625, 183.12890625, 198.154296875, 213.1796875, 228.205078125, 243.23046875, 258.255859375, 273.28125, 288.306640625, 303.33203125, 318.357421875, 333.3828125, 348.408203125, 363.43359375, 378.458984375, 393.484375, 408.509765625, 423.53515625, 438.560546875, 453.5859375, 468.611328125, 483.63671875, 498.662109375, 513.6875, 528.712890625, 543.73828125, 558.763671875, 573.7890625, 588.814453125, 603.83984375, 618.865234375, 633.890625, 648.916015625, 663.94140625, 678.966796875, 693.9921875, 709.017578125, 724.04296875, 739.068359375, 754.09375, 769.119140625, 784.14453125, 799.169921875, 814.1953125, 829.220703125, 844.24609375, 859.271484375, 874.296875, 889.322265625, 904.34765625, 919.373046875, 934.3984375, 949.423828125, 964.44921875, 979.474609375, 994.5]}, "gradients/decoder.conv.15.bias": {"_type": "histogram", "values": [1.0, 0.0, 0.0, 0.0, 0.0, 0.0, 0.0, 0.0, 0.0, 0.0, 0.0, 0.0, 0.0, 0.0, 0.0, 0.0, 0.0, 0.0, 0.0, 0.0, 0.0, 0.0, 0.0, 0.0, 0.0, 0.0, 0.0, 0.0, 0.0, 0.0, 0.0, 0.0, 0.0, 0.0, 0.0, 0.0, 0.0, 0.0, 0.0, 0.0, 0.0, 0.0, 0.0, 0.0, 0.0, 0.0, 0.0, 0.0, 0.0, 0.0, 0.0, 0.0, 0.0, 0.0, 0.0, 0.0, 0.0, 0.0, 1.0, 0.0, 0.0, 0.0, 0.0, 1.0], "bins": [3714.0, 3781.03125, 3848.0625, 3915.09375, 3982.125, 4049.15625, 4116.1875, 4183.21875, 4250.25, 4317.28125, 4384.3125, 4451.34375, 4518.375, 4585.40625, 4652.4375, 4719.46875, 4786.5, 4853.53125, 4920.5625, 4987.59375, 5054.625, 5121.65625, 5188.6875, 5255.71875, 5322.75, 5389.78125, 5456.8125, 5523.84375, 5590.875, 5657.90625, 5724.9375, 5791.96875, 5859.0, 5926.03125, 5993.0625, 6060.09375, 6127.125, 6194.15625, 6261.1875, 6328.21875, 6395.25, 6462.28125, 6529.3125, 6596.34375, 6663.375, 6730.40625, 6797.4375, 6864.46875, 6931.5, 6998.53125, 7065.5625, 7132.59375, 7199.625, 7266.65625, 7333.6875, 7400.71875, 7467.75, 7534.78125, 7601.8125, 7668.84375, 7735.875, 7802.90625, 7869.9375, 7936.96875, 8004.0]}, "gradients/decoder.conv.13.weight": {"_type": "histogram", "values": [1.0, 0.0, 0.0, 0.0, 0.0, 0.0, 0.0, 0.0, 0.0, 0.0, 0.0, 0.0, 0.0, 0.0, 0.0, 0.0, 0.0, 0.0, 0.0, 0.0, 0.0, 0.0, 0.0, 0.0, 0.0, 2.0, 0.0, 1.0, 0.0, 0.0, 2.0, 1.0, 0.0, 1.0, 1.0, 0.0, 0.0, 2.0, 0.0, 1.0, 1.0, 0.0, 1.0, 1.0, 0.0, 0.0, 0.0, 0.0, 0.0, 0.0, 0.0, 0.0, 0.0, 0.0, 0.0, 0.0, 0.0, 0.0, 0.0, 0.0, 0.0, 0.0, 0.0, 1.0], "bins": [-3765.88818359375, -3651.256591796875, -3536.625244140625, -3421.99365234375, -3307.362060546875, -3192.73046875, -3078.09912109375, -2963.467529296875, -2848.8359375, -2734.204345703125, -2619.572998046875, -2504.94140625, -2390.309814453125, -2275.67822265625, -2161.046875, -2046.415283203125, -1931.783935546875, -1817.1524658203125, -1702.5208740234375, -1587.889404296875, -1473.2578125, -1358.6263427734375, -1243.994873046875, -1129.36328125, -1014.7318115234375, -900.1002807617188, -785.46875, -670.8372802734375, -556.2057495117188, -441.57421875, -326.9427490234375, -212.31121826171875, -97.679443359375, 16.952072143554688, 131.58358764648438, 246.215087890625, 360.84661865234375, 475.4781494140625, 590.109619140625, 704.7411499023438, 819.3726806640625, 934.0042114257812, 1048.6357421875, 1163.2672119140625, 1277.898681640625, 1392.5302734375, 1507.1617431640625, 1621.793212890625, 1736.4248046875, 1851.0562744140625, 1965.6878662109375, 2080.3193359375, 2194.950927734375, 2309.58251953125, 2424.2138671875, 2538.845458984375, 2653.47705078125, 2768.108642578125, 2882.739990234375, 2997.37158203125, 3112.003173828125, 3226.634765625, 3341.26611328125, 3455.897705078125, 3570.529052734375]}, "gradients/decoder.conv.13.bias": {"_type": "histogram", "values": [1.0, 0.0, 0.0, 0.0, 0.0, 0.0, 0.0, 0.0, 0.0, 0.0, 0.0, 0.0, 0.0, 0.0, 0.0, 0.0, 0.0, 0.0, 0.0, 0.0, 0.0, 0.0, 0.0, 0.0, 0.0, 0.0, 0.0, 0.0, 0.0, 0.0, 0.0, 1.0, 0.0, 1.0, 1.0, 0.0, 1.0, 0.0, 0.0, 2.0, 0.0, 0.0, 1.0, 0.0, 1.0, 0.0, 1.0, 1.0, 0.0, 0.0, 0.0, 0.0, 0.0, 0.0, 2.0, 0.0, 1.0, 0.0, 0.0, 1.0, 0.0, 0.0, 0.0, 1.0], "bins": [-8422.27734375, -8219.0615234375, -8015.84619140625, -7812.630859375, -7609.4150390625, -7406.19970703125, -7202.984375, -6999.7685546875, -6796.552734375, -6593.33740234375, -6390.12158203125, -6186.90625, -5983.6904296875, -5780.47509765625, -5577.259765625, -5374.0439453125, -5170.82861328125, -4967.61328125, -4764.3974609375, -4561.18212890625, -4357.96630859375, -4154.7509765625, -3951.535400390625, -3748.31982421875, -3545.104248046875, -3341.888671875, -3138.673095703125, -2935.45751953125, -2732.2421875, -2529.0263671875, -2325.81103515625, -2122.595458984375, -1919.3798828125, -1716.164306640625, -1512.94873046875, -1309.7332763671875, -1106.5177001953125, -903.3021240234375, -700.086669921875, -496.87109375, -293.655517578125, -90.43997192382812, 112.77557373046875, 315.9910888671875, 519.2066650390625, 722.4222412109375, 925.6376953125, 1128.853271484375, 1332.06884765625, 1535.284423828125, 1738.5, 1941.7154541015625, 2144.93115234375, 2348.146484375, 2551.362060546875, 2754.57763671875, 2957.793212890625, 3161.0087890625, 3364.224365234375, 3567.43994140625, 3770.6552734375, 3973.87109375, 4177.08642578125, 4380.3017578125, 4583.517578125]}, "gradients/decoder.conv.12.weight": {"_type": "histogram", "values": [1.0, 0.0, 3.0, 2.0, 3.0, 3.0, 3.0, 3.0, 3.0, 5.0, 3.0, 1.0, 4.0, 0.0, 4.0, 1.0, 4.0, 3.0, 1.0, 0.0, 6.0, 4.0, 12.0, 10.0, 11.0, 17.0, 18.0, 9.0, 9.0, 10.0, 16.0, 27.0, 48.0, 57.0, 67.0, 75.0, 172.0, 305.0, 470.0, 782.0, 1284.0, 1620.0, 1180.0, 769.0, 478.0, 295.0, 136.0, 79.0, 31.0, 31.0, 22.0, 16.0, 11.0, 8.0, 9.0, 10.0, 10.0, 5.0, 7.0, 6.0, 3.0, 1.0, 3.0, 6.0], "bins": [-781.5, -762.5703125, -743.640625, -724.7109375, -705.78125, -686.8515625, -667.921875, -648.9921875, -630.0625, -611.1328125, -592.203125, -573.2734375, -554.34375, -535.4140625, -516.484375, -497.5546875, -478.625, -459.6953125, -440.765625, -421.8359375, -402.90625, -383.9765625, -365.046875, -346.1171875, -327.1875, -308.2578125, -289.328125, -270.3984375, -251.46875, -232.5390625, -213.609375, -194.6796875, -175.75, -156.8203125, -137.890625, -118.9609375, -100.03125, -81.1015625, -62.171875, -43.2421875, -24.3125, -5.3828125, 13.546875, 32.4765625, 51.40625, 70.3359375, 89.265625, 108.1953125, 127.125, 146.0546875, 164.984375, 183.9140625, 202.84375, 221.7734375, 240.703125, 259.6328125, 278.5625, 297.4921875, 316.421875, 335.3515625, 354.28125, 373.2109375, 392.140625, 411.0703125, 430.0]}, "gradients/decoder.conv.10.weight": {"_type": "histogram", "values": [1.0, 0.0, 1.0, 0.0, 0.0, 0.0, 0.0, 0.0, 0.0, 1.0, 0.0, 0.0, 0.0, 0.0, 1.0, 0.0, 4.0, 0.0, 2.0, 2.0, 2.0, 2.0, 0.0, 3.0, 1.0, 1.0, 0.0, 2.0, 3.0, 0.0, 0.0, 0.0, 1.0, 0.0, 0.0, 0.0, 0.0, 2.0, 0.0, 0.0, 0.0, 0.0, 0.0, 0.0, 0.0, 0.0, 0.0, 0.0, 0.0, 0.0, 0.0, 0.0, 0.0, 0.0, 0.0, 0.0, 1.0, 0.0, 0.0, 0.0, 1.0, 0.0, 0.0, 1.0], "bins": [-303.0072326660156, -290.9465026855469, -278.8857727050781, -266.8250427246094, -254.76431274414062, -242.70358276367188, -230.64285278320312, -218.58212280273438, -206.52139282226562, -194.46066284179688, -182.39993286132812, -170.33920288085938, -158.27847290039062, -146.21774291992188, -134.15701293945312, -122.09628295898438, -110.03555297851562, -97.97482299804688, -85.91409301757812, -73.85336303710938, -61.792633056640625, -49.731903076171875, -37.671173095703125, -25.610443115234375, -13.549713134765625, -1.488983154296875, 10.571746826171875, 22.632476806640625, 34.693206787109375, 46.753936767578125, 58.814666748046875, 70.87539672851562, 82.93609619140625, 94.996826171875, 107.05755615234375, 119.1182861328125, 131.17901611328125, 143.23974609375, 155.30047607421875, 167.3612060546875, 179.42193603515625, 191.482666015625, 203.54339599609375, 215.6041259765625, 227.66485595703125, 239.7255859375, 251.78631591796875, 263.8470458984375, 275.90777587890625, 287.968505859375, 300.02923583984375, 312.0899658203125, 324.15069580078125, 336.21142578125, 348.27215576171875, 360.3328857421875, 372.39361572265625, 384.454345703125, 396.51507568359375, 408.5758056640625, 420.63653564453125, 432.697265625, 444.75799560546875, 456.8187255859375, 468.87945556640625]}, "gradients/decoder.conv.10.bias": {"_type": "histogram", "values": [1.0, 0.0, 0.0, 1.0, 0.0, 0.0, 1.0, 0.0, 0.0, 2.0, 0.0, 1.0, 1.0, 1.0, 0.0, 2.0, 0.0, 0.0, 0.0, 1.0, 0.0, 0.0, 2.0, 0.0, 1.0, 1.0, 0.0, 1.0, 0.0, 3.0, 1.0, 0.0, 1.0, 1.0, 0.0, 1.0, 0.0, 1.0, 1.0, 0.0, 0.0, 0.0, 0.0, 0.0, 1.0, 1.0, 1.0, 0.0, 0.0, 0.0, 0.0, 0.0, 0.0, 1.0, 0.0, 0.0, 1.0, 0.0, 0.0, 0.0, 1.0, 0.0, 0.0, 1.0], "bins": [-237.79190063476562, -229.6151580810547, -221.43841552734375, -213.2616729736328, -205.08493041992188, -196.90817260742188, -188.73143005371094, -180.5546875, -172.37794494628906, -164.20120239257812, -156.0244598388672, -147.84771728515625, -139.67095947265625, -131.49423217773438, -123.31747436523438, -115.14073181152344, -106.9639892578125, -98.78724670410156, -90.61050415039062, -82.43375396728516, -74.25701141357422, -66.08026885986328, -57.90352249145508, -49.726776123046875, -41.55003356933594, -33.373291015625, -25.196544647216797, -17.019800186157227, -8.843055725097656, -0.6663131713867188, 7.510433197021484, 15.687179565429688, 23.8638916015625, 32.04063415527344, 40.21738052368164, 48.394126892089844, 56.57086944580078, 64.74761199951172, 72.92436218261719, 81.10110473632812, 89.27784729003906, 97.45458984375, 105.63133239746094, 113.8080825805664, 121.98482513427734, 130.16156005859375, 138.33831787109375, 146.5150604248047, 154.69180297851562, 162.86854553222656, 171.0452880859375, 179.22203063964844, 187.39877319335938, 195.57553100585938, 203.7522735595703, 211.92901611328125, 220.1057586669922, 228.28250122070312, 236.45924377441406, 244.635986328125, 252.812744140625, 260.9894714355469, 269.1662292480469, 277.34295654296875, 285.51971435546875]}, "gradients/decoder.conv.9.weight": {"_type": "histogram", "values": [1.0, 1.0, 2.0, 2.0, 6.0, 4.0, 9.0, 14.0, 14.0, 15.0, 15.0, 19.0, 13.0, 24.0, 29.0, 21.0, 37.0, 42.0, 62.0, 61.0, 48.0, 58.0, 84.0, 82.0, 92.0, 129.0, 143.0, 223.0, 272.0, 421.0, 605.0, 959.0, 1345.0, 2171.0, 3551.0, 5014.0, 4915.0, 3478.0, 2393.0, 1715.0, 1151.0, 867.0, 625.0, 482.0, 327.0, 257.0, 168.0, 151.0, 127.0, 94.0, 89.0, 79.0, 68.0, 60.0, 36.0, 41.0, 15.0, 12.0, 11.0, 3.0, 5.0, 6.0, 3.0, 2.0], "bins": [-92.375, -89.82421875, -87.2734375, -84.72265625, -82.171875, -79.62109375, -77.0703125, -74.51953125, -71.96875, -69.41796875, -66.8671875, -64.31640625, -61.765625, -59.21484375, -56.6640625, -54.11328125, -51.5625, -49.01171875, -46.4609375, -43.91015625, -41.359375, -38.80859375, -36.2578125, -33.70703125, -31.15625, -28.60546875, -26.0546875, -23.50390625, -20.953125, -18.40234375, -15.8515625, -13.30078125, -10.75, -8.19921875, -5.6484375, -3.09765625, -0.546875, 2.00390625, 4.5546875, 7.10546875, 9.65625, 12.20703125, 14.7578125, 17.30859375, 19.859375, 22.41015625, 24.9609375, 27.51171875, 30.0625, 32.61328125, 35.1640625, 37.71484375, 40.265625, 42.81640625, 45.3671875, 47.91796875, 50.46875, 53.01953125, 55.5703125, 58.12109375, 60.671875, 63.22265625, 65.7734375, 68.32421875, 70.875]}, "gradients/decoder.conv.7.weight": {"_type": "histogram", "values": [1.0, 0.0, 0.0, 0.0, 0.0, 0.0, 0.0, 0.0, 0.0, 0.0, 0.0, 0.0, 0.0, 0.0, 0.0, 0.0, 0.0, 1.0, 0.0, 1.0, 2.0, 0.0, 1.0, 1.0, 1.0, 1.0, 2.0, 2.0, 3.0, 3.0, 1.0, 1.0, 5.0, 2.0, 3.0, 5.0, 1.0, 4.0, 3.0, 0.0, 2.0, 3.0, 0.0, 4.0, 0.0, 2.0, 0.0, 0.0, 1.0, 0.0, 0.0, 1.0, 0.0, 0.0, 0.0, 0.0, 1.0, 0.0, 2.0, 0.0, 1.0, 0.0, 1.0, 2.0], "bins": [-156.2319793701172, -151.91001892089844, -147.5880584716797, -143.26609802246094, -138.9441375732422, -134.62217712402344, -130.3002166748047, -125.9782485961914, -121.65628814697266, -117.3343276977539, -113.01236724853516, -108.6904067993164, -104.36843872070312, -100.04647827148438, -95.72451782226562, -91.40255737304688, -87.08059692382812, -82.75863647460938, -78.43667602539062, -74.11471557617188, -69.79275512695312, -65.47079467773438, -61.148826599121094, -56.826866149902344, -52.504905700683594, -48.182945251464844, -43.860984802246094, -39.53902053833008, -35.21706008911133, -30.895099639892578, -26.573137283325195, -22.251174926757812, -17.92920684814453, -13.607245445251465, -9.285284042358398, -4.963322639465332, -0.6413612365722656, 3.6805992126464844, 8.002561569213867, 12.32452392578125, 16.646484375, 20.96844482421875, 25.290407180786133, 29.612369537353516, 33.934329986572266, 38.256290435791016, 42.57825469970703, 46.90021514892578, 51.22217559814453, 55.54413604736328, 59.86609649658203, 64.18805694580078, 68.51002502441406, 72.83198547363281, 77.15394592285156, 81.47590637207031, 85.79786682128906, 90.11982727050781, 94.44178771972656, 98.76374816894531, 103.08570861816406, 107.40766906738281, 111.7296371459961, 116.05159759521484, 120.3735580444336]}, "gradients/decoder.conv.7.bias": {"_type": "histogram", "values": [1.0, 0.0, 0.0, 0.0, 1.0, 0.0, 0.0, 0.0, 1.0, 1.0, 0.0, 0.0, 1.0, 0.0, 1.0, 2.0, 0.0, 1.0, 1.0, 0.0, 2.0, 2.0, 1.0, 1.0, 0.0, 2.0, 0.0, 2.0, 3.0, 1.0, 1.0, 2.0, 1.0, 1.0, 5.0, 4.0, 3.0, 0.0, 0.0, 1.0, 1.0, 2.0, 3.0, 1.0, 1.0, 1.0, 1.0, 2.0, 0.0, 0.0, 2.0, 1.0, 1.0, 1.0, 0.0, 0.0, 2.0, 0.0, 0.0, 1.0, 1.0, 0.0, 0.0, 1.0], "bins": [-87.48963928222656, -84.75760650634766, -82.02557373046875, -79.29354858398438, -76.56151580810547, -73.82948303222656, -71.09745788574219, -68.36542510986328, -65.63339233398438, -62.90135955810547, -60.16933059692383, -57.43730163574219, -54.70526885986328, -51.973236083984375, -49.241207122802734, -46.509178161621094, -43.77714538574219, -41.04511260986328, -38.31308364868164, -35.5810546875, -32.849021911621094, -30.11699104309082, -27.384960174560547, -24.652929306030273, -21.9208984375, -19.188867568969727, -16.456836700439453, -13.72480583190918, -10.992774963378906, -8.260744094848633, -5.528713226318359, -2.796682357788086, -0.0646514892578125, 2.667379379272461, 5.399410247802734, 8.131441116333008, 10.863471984863281, 13.595502853393555, 16.327533721923828, 19.0595645904541, 21.791595458984375, 24.52362632751465, 27.255657196044922, 29.987688064575195, 32.71971893310547, 35.451751708984375, 38.183780670166016, 40.915809631347656, 43.64784240722656, 46.37987518310547, 49.11190414428711, 51.84393310546875, 54.575965881347656, 57.30799865722656, 60.0400276184082, 62.772056579589844, 65.50408935546875, 68.23612213134766, 70.96815490722656, 73.70018005371094, 76.43221282958984, 79.16424560546875, 81.89627075195312, 84.62830352783203, 87.36033630371094]}, "gradients/decoder.conv.6.weight": {"_type": "histogram", "values": [1.0, 0.0, 0.0, 0.0, 1.0, 1.0, 3.0, 3.0, 1.0, 8.0, 13.0, 12.0, 9.0, 24.0, 40.0, 40.0, 51.0, 86.0, 118.0, 135.0, 226.0, 252.0, 337.0, 419.0, 611.0, 861.0, 1153.0, 1771.0, 2555.0, 3740.0, 5434.0, 8045.0, 11843.0, 17652.0, 22286.0, 15825.0, 11293.0, 7857.0, 5617.0, 3817.0, 2740.0, 1768.0, 1270.0, 884.0, 633.0, 442.0, 327.0, 239.0, 164.0, 114.0, 95.0, 64.0, 51.0, 32.0, 26.0, 22.0, 18.0, 12.0, 10.0, 11.0, 3.0, 5.0, 1.0, 1.0], "bins": [-38.84375, -37.7177734375, -36.591796875, -35.4658203125, -34.33984375, -33.2138671875, -32.087890625, -30.9619140625, -29.8359375, -28.7099609375, -27.583984375, -26.4580078125, -25.33203125, -24.2060546875, -23.080078125, -21.9541015625, -20.828125, -19.7021484375, -18.576171875, -17.4501953125, -16.32421875, -15.1982421875, -14.072265625, -12.9462890625, -11.8203125, -10.6943359375, -9.568359375, -8.4423828125, -7.31640625, -6.1904296875, -5.064453125, -3.9384765625, -2.8125, -1.6865234375, -0.560546875, 0.5654296875, 1.69140625, 2.8173828125, 3.943359375, 5.0693359375, 6.1953125, 7.3212890625, 8.447265625, 9.5732421875, 10.69921875, 11.8251953125, 12.951171875, 14.0771484375, 15.203125, 16.3291015625, 17.455078125, 18.5810546875, 19.70703125, 20.8330078125, 21.958984375, 23.0849609375, 24.2109375, 25.3369140625, 26.462890625, 27.5888671875, 28.71484375, 29.8408203125, 30.966796875, 32.0927734375, 33.21875]}, "gradients/decoder.conv.4.weight": {"_type": "histogram", "values": [1.0, 0.0, 0.0, 0.0, 0.0, 2.0, 0.0, 2.0, 1.0, 2.0, 4.0, 3.0, 3.0, 3.0, 0.0, 2.0, 4.0, 3.0, 6.0, 4.0, 4.0, 8.0, 5.0, 8.0, 3.0, 3.0, 3.0, 8.0, 6.0, 4.0, 0.0, 5.0, 3.0, 1.0, 2.0, 3.0, 2.0, 3.0, 1.0, 1.0, 1.0, 1.0, 0.0, 3.0, 1.0, 1.0, 2.0, 1.0, 0.0, 0.0, 1.0, 0.0, 1.0, 1.0, 0.0, 0.0, 0.0, 0.0, 0.0, 0.0, 0.0, 1.0, 0.0, 1.0], "bins": [-77.68473052978516, -74.6669692993164, -71.64920043945312, -68.63143920898438, -65.61367797851562, -62.59591293334961, -59.578147888183594, -56.560386657714844, -53.54262161254883, -50.52485656738281, -47.50709533691406, -44.48933029174805, -41.47156524658203, -38.45380401611328, -35.436038970947266, -32.41827392578125, -29.4005126953125, -26.382749557495117, -23.364986419677734, -20.34722137451172, -17.329458236694336, -14.311695098876953, -11.293930053710938, -8.276166915893555, -5.258403778076172, -2.240640163421631, 0.7771234512329102, 3.7948875427246094, 6.812650680541992, 9.830413818359375, 12.84817886352539, 15.865942001342773, 18.883712768554688, 21.90147590637207, 24.919239044189453, 27.93700408935547, 30.95476722717285, 33.972530364990234, 36.99029541015625, 40.008056640625, 43.025821685791016, 46.04358673095703, 49.06134796142578, 52.0791130065918, 55.09687805175781, 58.11463928222656, 61.13240432739258, 64.1501693725586, 67.16793060302734, 70.1856918334961, 73.20346069335938, 76.22122192382812, 79.23898315429688, 82.25674438476562, 85.2745132446289, 88.29227447509766, 91.31004333496094, 94.32780456542969, 97.34557342529297, 100.36333465576172, 103.38109588623047, 106.39886474609375, 109.4166259765625, 112.43438720703125, 115.4521484375]}, "gradients/decoder.conv.4.bias": {"_type": "histogram", "values": [4.0, 0.0, 0.0, 2.0, 0.0, 1.0, 2.0, 1.0, 1.0, 3.0, 1.0, 1.0, 0.0, 1.0, 3.0, 2.0, 3.0, 4.0, 3.0, 3.0, 3.0, 3.0, 4.0, 4.0, 6.0, 3.0, 3.0, 7.0, 5.0, 9.0, 3.0, 3.0, 6.0, 1.0, 5.0, 3.0, 0.0, 5.0, 0.0, 2.0, 1.0, 1.0, 2.0, 1.0, 1.0, 1.0, 2.0, 1.0, 1.0, 1.0, 0.0, 0.0, 1.0, 1.0, 0.0, 2.0, 1.0, 0.0, 0.0, 0.0, 0.0, 0.0, 0.0, 1.0], "bins": [-58.8161735534668, -56.6011962890625, -54.3862190246582, -52.171241760253906, -49.95626449584961, -47.74128723144531, -45.52631378173828, -43.31133270263672, -41.09635925292969, -38.88138198852539, -36.666404724121094, -34.4514274597168, -32.2364501953125, -30.021472930908203, -27.80649757385254, -25.591520309448242, -23.376541137695312, -21.161563873291016, -18.94658660888672, -16.731609344482422, -14.516633033752441, -12.301655769348145, -10.086679458618164, -7.871702194213867, -5.65672492980957, -3.4417479038238525, -1.2267708778381348, 0.9882059097290039, 3.203183174133301, 5.418160438537598, 7.633136749267578, 9.848114013671875, 12.063087463378906, 14.278064727783203, 16.4930419921875, 18.708019256591797, 20.922996520996094, 23.13797378540039, 25.352949142456055, 27.56792640686035, 29.78290367126465, 31.997880935668945, 34.21285629272461, 36.427833557128906, 38.6428108215332, 40.8577880859375, 43.0727653503418, 45.287742614746094, 47.50271987915039, 49.71769714355469, 51.932674407958984, 54.14765167236328, 56.36262893676758, 58.577606201171875, 60.792579650878906, 63.00756072998047, 65.2225341796875, 67.43750762939453, 69.6524887084961, 71.86746215820312, 74.08244323730469, 76.29741668701172, 78.51239776611328, 80.72737121582031, 82.94235229492188]}, "gradients/decoder.conv.3.weight": {"_type": "histogram", "values": [2.0, 4.0, 5.0, 9.0, 10.0, 12.0, 29.0, 44.0, 61.0, 95.0, 107.0, 123.0, 174.0, 265.0, 341.0, 452.0, 619.0, 852.0, 1223.0, 1847.0, 2656.0, 4243.0, 6713.0, 10570.0, 17063.0, 27149.0, 42733.0, 65450.0, 95127.0, 82589.0, 55634.0, 36753.0, 24280.0, 15573.0, 10064.0, 6598.0, 4464.0, 3071.0, 2047.0, 1510.0, 1031.0, 699.0, 544.0, 369.0, 304.0, 186.0, 129.0, 121.0, 95.0, 69.0, 47.0, 42.0, 30.0, 16.0, 18.0, 11.0, 6.0, 1.0, 3.0, 0.0, 5.0, 0.0, 0.0, 1.0], "bins": [-22.34375, -21.571044921875, -20.79833984375, -20.025634765625, -19.2529296875, -18.480224609375, -17.70751953125, -16.934814453125, -16.162109375, -15.389404296875, -14.61669921875, -13.843994140625, -13.0712890625, -12.298583984375, -11.52587890625, -10.753173828125, -9.98046875, -9.207763671875, -8.43505859375, -7.662353515625, -6.8896484375, -6.116943359375, -5.34423828125, -4.571533203125, -3.798828125, -3.026123046875, -2.25341796875, -1.480712890625, -0.7080078125, 0.064697265625, 0.83740234375, 1.610107421875, 2.3828125, 3.155517578125, 3.92822265625, 4.700927734375, 5.4736328125, 6.246337890625, 7.01904296875, 7.791748046875, 8.564453125, 9.337158203125, 10.10986328125, 10.882568359375, 11.6552734375, 12.427978515625, 13.20068359375, 13.973388671875, 14.74609375, 15.518798828125, 16.29150390625, 17.064208984375, 17.8369140625, 18.609619140625, 19.38232421875, 20.155029296875, 20.927734375, 21.700439453125, 22.47314453125, 23.245849609375, 24.0185546875, 24.791259765625, 25.56396484375, 26.336669921875, 27.109375]}, "gradients/decoder.conv.1.weight": {"_type": "histogram", "values": [1.0, 0.0, 0.0, 2.0, 0.0, 0.0, 1.0, 2.0, 2.0, 4.0, 5.0, 3.0, 1.0, 4.0, 0.0, 2.0, 3.0, 3.0, 8.0, 8.0, 7.0, 4.0, 5.0, 10.0, 9.0, 10.0, 6.0, 6.0, 4.0, 6.0, 8.0, 17.0, 8.0, 11.0, 8.0, 7.0, 6.0, 7.0, 5.0, 6.0, 9.0, 6.0, 5.0, 2.0, 4.0, 6.0, 3.0, 0.0, 3.0, 1.0, 2.0, 2.0, 1.0, 0.0, 1.0, 3.0, 1.0, 3.0, 1.0, 1.0, 2.0, 0.0, 0.0, 1.0], "bins": [-65.56986236572266, -63.43731689453125, -61.30477523803711, -59.1722297668457, -57.03968811035156, -54.907142639160156, -52.77459716796875, -50.64205551147461, -48.50951385498047, -46.37696838378906, -44.24442672729492, -42.111881256103516, -39.979339599609375, -37.84679412841797, -35.71424865722656, -33.58170700073242, -31.449161529541016, -29.316617965698242, -27.18407440185547, -25.051528930664062, -22.918987274169922, -20.786441802978516, -18.653898239135742, -16.52135467529297, -14.388811111450195, -12.256267547607422, -10.123723983764648, -7.991179466247559, -5.858635902404785, -3.7260923385620117, -1.5935478210449219, 0.5389957427978516, 2.671539306640625, 4.804082870483398, 6.93662691116333, 9.069170951843262, 11.201714515686035, 13.334258079528809, 15.466802597045898, 17.599346160888672, 19.731889724731445, 21.86443328857422, 23.996976852416992, 26.129520416259766, 28.262065887451172, 30.394607543945312, 32.52715301513672, 34.659698486328125, 36.792240142822266, 38.92478561401367, 41.05732727050781, 43.18987274169922, 45.32241439819336, 47.454959869384766, 49.587501525878906, 51.72004699707031, 53.85259246826172, 55.985137939453125, 58.117679595947266, 60.25022506713867, 62.38276672363281, 64.51531219482422, 66.64785766601562, 68.7803955078125, 70.9129409790039]}, "gradients/decoder.conv.1.bias": {"_type": "histogram", "values": [1.0, 1.0, 0.0, 0.0, 1.0, 0.0, 1.0, 3.0, 2.0, 2.0, 0.0, 3.0, 5.0, 4.0, 2.0, 2.0, 10.0, 6.0, 5.0, 4.0, 10.0, 8.0, 7.0, 8.0, 4.0, 7.0, 6.0, 7.0, 9.0, 4.0, 7.0, 12.0, 15.0, 7.0, 8.0, 7.0, 9.0, 11.0, 4.0, 4.0, 3.0, 8.0, 5.0, 5.0, 4.0, 2.0, 2.0, 3.0, 4.0, 0.0, 2.0, 0.0, 1.0, 1.0, 1.0, 2.0, 2.0, 1.0, 2.0, 0.0, 0.0, 0.0, 0.0, 2.0], "bins": [-59.6722297668457, -57.665870666503906, -55.65951156616211, -53.65315246582031, -51.646793365478516, -49.64043426513672, -47.63407897949219, -45.627716064453125, -43.621360778808594, -41.6150016784668, -39.608642578125, -37.6022834777832, -35.595924377441406, -33.58956527709961, -31.583208084106445, -29.57684898376465, -27.57048797607422, -25.564128875732422, -23.557769775390625, -21.551410675048828, -19.54505157470703, -17.538692474365234, -15.53233528137207, -13.525976181030273, -11.519617080688477, -9.51325798034668, -7.506899356842041, -5.500540733337402, -3.4941816329956055, -1.4878225326538086, 0.5185356140136719, 2.5248947143554688, 4.531257629394531, 6.537616729736328, 8.543975830078125, 10.550333976745605, 12.556693077087402, 14.5630521774292, 16.56941032409668, 18.575769424438477, 20.582128524780273, 22.58848762512207, 24.594846725463867, 26.60120391845703, 28.607563018798828, 30.613922119140625, 32.62028121948242, 34.62664031982422, 36.632999420166016, 38.63935852050781, 40.64571762084961, 42.652076721191406, 44.6584358215332, 46.664794921875, 48.67115020751953, 50.677513122558594, 52.683868408203125, 54.69022750854492, 56.69658660888672, 58.702945709228516, 60.70930480957031, 62.71566390991211, 64.7220230102539, 66.72837829589844, 68.7347412109375]}, "gradients/decoder.conv.0.weight": {"_type": "histogram", "values": [1.0, 0.0, 0.0, 0.0, 2.0, 1.0, 0.0, 0.0, 0.0, 1.0, 4.0, 6.0, 2.0, 3.0, 9.0, 14.0, 19.0, 35.0, 36.0, 49.0, 69.0, 120.0, 199.0, 294.0, 490.0, 961.0, 1783.0, 3606.0, 7542.0, 18125.0, 50472.0, 169266.0, 804896.0, 5753996.0, 2160055.0, 336559.0, 83355.0, 26548.0, 10092.0, 4214.0, 2018.0, 1023.0, 522.0, 305.0, 162.0, 107.0, 75.0, 49.0, 38.0, 25.0, 11.0, 8.0, 9.0, 1.0, 2.0, 2.0, 1.0, 0.0, 0.0, 1.0, 0.0, 0.0, 0.0, 1.0], "bins": [-12.5703125, -12.19775390625, -11.8251953125, -11.45263671875, -11.080078125, -10.70751953125, -10.3349609375, -9.96240234375, -9.58984375, -9.21728515625, -8.8447265625, -8.47216796875, -8.099609375, -7.72705078125, -7.3544921875, -6.98193359375, -6.609375, -6.23681640625, -5.8642578125, -5.49169921875, -5.119140625, -4.74658203125, -4.3740234375, -4.00146484375, -3.62890625, -3.25634765625, -2.8837890625, -2.51123046875, -2.138671875, -1.76611328125, -1.3935546875, -1.02099609375, -0.6484375, -0.27587890625, 0.0966796875, 0.46923828125, 0.841796875, 1.21435546875, 1.5869140625, 1.95947265625, 2.33203125, 2.70458984375, 3.0771484375, 3.44970703125, 3.822265625, 4.19482421875, 4.5673828125, 4.93994140625, 5.3125, 5.68505859375, 6.0576171875, 6.43017578125, 6.802734375, 7.17529296875, 7.5478515625, 7.92041015625, 8.29296875, 8.66552734375, 9.0380859375, 9.41064453125, 9.783203125, 10.15576171875, 10.5283203125, 10.90087890625, 11.2734375]}, "gradients/fc.weight": {"_type": "histogram", "values": [2.0, 3.0, 2.0, 0.0, 2.0, 2.0, 2.0, 5.0, 4.0, 10.0, 11.0, 7.0, 13.0, 23.0, 32.0, 33.0, 58.0, 59.0, 85.0, 104.0, 161.0, 215.0, 303.0, 397.0, 575.0, 866.0, 1280.0, 2033.0, 3986.0, 9925.0, 37198.0, 209977.0, 201810.0, 35447.0, 9594.0, 3916.0, 2089.0, 1176.0, 796.0, 619.0, 383.0, 245.0, 210.0, 151.0, 95.0, 95.0, 61.0, 60.0, 40.0, 24.0, 19.0, 22.0, 15.0, 8.0, 9.0, 8.0, 6.0, 4.0, 7.0, 2.0, 2.0, 1.0, 0.0, 1.0], "bins": [-50.3125, -48.73974609375, -47.1669921875, -45.59423828125, -44.021484375, -42.44873046875, -40.8759765625, -39.30322265625, -37.73046875, -36.15771484375, -34.5849609375, -33.01220703125, -31.439453125, -29.86669921875, -28.2939453125, -26.72119140625, -25.1484375, -23.57568359375, -22.0029296875, -20.43017578125, -18.857421875, -17.28466796875, -15.7119140625, -14.13916015625, -12.56640625, -10.99365234375, -9.4208984375, -7.84814453125, -6.275390625, -4.70263671875, -3.1298828125, -1.55712890625, 0.015625, 1.58837890625, 3.1611328125, 4.73388671875, 6.306640625, 7.87939453125, 9.4521484375, 11.02490234375, 12.59765625, 14.17041015625, 15.7431640625, 17.31591796875, 18.888671875, 20.46142578125, 22.0341796875, 23.60693359375, 25.1796875, 26.75244140625, 28.3251953125, 29.89794921875, 31.470703125, 33.04345703125, 34.6162109375, 36.18896484375, 37.76171875, 39.33447265625, 40.9072265625, 42.47998046875, 44.052734375, 45.62548828125, 47.1982421875, 48.77099609375, 50.34375]}, "gradients/fc.bias": {"_type": "histogram", "values": [1.0, 0.0, 0.0, 0.0, 0.0, 2.0, 0.0, 1.0, 4.0, 2.0, 2.0, 3.0, 3.0, 5.0, 2.0, 8.0, 4.0, 9.0, 5.0, 17.0, 17.0, 25.0, 14.0, 30.0, 38.0, 42.0, 51.0, 46.0, 58.0, 39.0, 56.0, 47.0, 55.0, 64.0, 43.0, 48.0, 42.0, 50.0, 38.0, 24.0, 27.0, 16.0, 14.0, 12.0, 14.0, 10.0, 8.0, 6.0, 3.0, 2.0, 3.0, 1.0, 4.0, 2.0, 0.0, 5.0, 0.0, 1.0, 0.0, 0.0, 0.0, 0.0, 0.0, 1.0], "bins": [-9.75, -9.44580078125, -9.1416015625, -8.83740234375, -8.533203125, -8.22900390625, -7.9248046875, -7.62060546875, -7.31640625, -7.01220703125, -6.7080078125, -6.40380859375, -6.099609375, -5.79541015625, -5.4912109375, -5.18701171875, -4.8828125, -4.57861328125, -4.2744140625, -3.97021484375, -3.666015625, -3.36181640625, -3.0576171875, -2.75341796875, -2.44921875, -2.14501953125, -1.8408203125, -1.53662109375, -1.232421875, -0.92822265625, -0.6240234375, -0.31982421875, -0.015625, 0.28857421875, 0.5927734375, 0.89697265625, 1.201171875, 1.50537109375, 1.8095703125, 2.11376953125, 2.41796875, 2.72216796875, 3.0263671875, 3.33056640625, 3.634765625, 3.93896484375, 4.2431640625, 4.54736328125, 4.8515625, 5.15576171875, 5.4599609375, 5.76416015625, 6.068359375, 6.37255859375, 6.6767578125, 6.98095703125, 7.28515625, 7.58935546875, 7.8935546875, 8.19775390625, 8.501953125, 8.80615234375, 9.1103515625, 9.41455078125, 9.71875]}, "gradients/graph_1obs_encoder.fc2.weight": {"_type": "histogram", "values": [1.0, 0.0, 0.0, 0.0, 0.0, 0.0, 3.0, 2.0, 2.0, 8.0, 14.0, 40.0, 19.0, 9.0, 18.0, 21.0, 44.0, 71.0, 103.0, 121.0, 200.0, 285.0, 425.0, 642.0, 1232.0, 2194.0, 4733.0, 27929.0, 81616.0, 5539.0, 2367.0, 1286.0, 731.0, 472.0, 302.0, 216.0, 102.0, 100.0, 54.0, 55.0, 29.0, 17.0, 13.0, 9.0, 4.0, 6.0, 8.0, 5.0, 4.0, 3.0, 7.0, 0.0, 0.0, 2.0, 4.0, 2.0, 0.0, 1.0, 0.0, 0.0, 0.0, 1.0, 0.0, 1.0], "bins": [-99.375, -95.8359375, -92.296875, -88.7578125, -85.21875, -81.6796875, -78.140625, -74.6015625, -71.0625, -67.5234375, -63.984375, -60.4453125, -56.90625, -53.3671875, -49.828125, -46.2890625, -42.75, -39.2109375, -35.671875, -32.1328125, -28.59375, -25.0546875, -21.515625, -17.9765625, -14.4375, -10.8984375, -7.359375, -3.8203125, -0.28125, 3.2578125, 6.796875, 10.3359375, 13.875, 17.4140625, 20.953125, 24.4921875, 28.03125, 31.5703125, 35.109375, 38.6484375, 42.1875, 45.7265625, 49.265625, 52.8046875, 56.34375, 59.8828125, 63.421875, 66.9609375, 70.5, 74.0390625, 77.578125, 81.1171875, 84.65625, 88.1953125, 91.734375, 95.2734375, 98.8125, 102.3515625, 105.890625, 109.4296875, 112.96875, 116.5078125, 120.046875, 123.5859375, 127.125]}, "gradients/graph_1obs_encoder.fc2.bias": {"_type": "histogram", "values": [1.0, 0.0, 0.0, 0.0, 1.0, 1.0, 0.0, 0.0, 3.0, 1.0, 1.0, 3.0, 2.0, 1.0, 1.0, 3.0, 3.0, 4.0, 2.0, 3.0, 4.0, 7.0, 9.0, 17.0, 86.0, 252.0, 26.0, 13.0, 13.0, 14.0, 8.0, 8.0, 4.0, 3.0, 1.0, 2.0, 1.0, 0.0, 2.0, 0.0, 0.0, 2.0, 1.0, 0.0, 1.0, 0.0, 2.0, 0.0, 1.0, 0.0, 1.0, 0.0, 0.0, 0.0, 0.0, 0.0, 0.0, 0.0, 0.0, 0.0, 2.0, 1.0, 0.0, 1.0], "bins": [-41.34375, -39.69482421875, -38.0458984375, -36.39697265625, -34.748046875, -33.09912109375, -31.4501953125, -29.80126953125, -28.15234375, -26.50341796875, -24.8544921875, -23.20556640625, -21.556640625, -19.90771484375, -18.2587890625, -16.60986328125, -14.9609375, -13.31201171875, -11.6630859375, -10.01416015625, -8.365234375, -6.71630859375, -5.0673828125, -3.41845703125, -1.76953125, -0.12060546875, 1.5283203125, 3.17724609375, 4.826171875, 6.47509765625, 8.1240234375, 9.77294921875, 11.421875, 13.07080078125, 14.7197265625, 16.36865234375, 18.017578125, 19.66650390625, 21.3154296875, 22.96435546875, 24.61328125, 26.26220703125, 27.9111328125, 29.56005859375, 31.208984375, 32.85791015625, 34.5068359375, 36.15576171875, 37.8046875, 39.45361328125, 41.1025390625, 42.75146484375, 44.400390625, 46.04931640625, 47.6982421875, 49.34716796875, 50.99609375, 52.64501953125, 54.2939453125, 55.94287109375, 57.591796875, 59.24072265625, 60.8896484375, 62.53857421875, 64.1875]}, "gradients/graph_1obs_encoder.fc1.weight": {"_type": "histogram", "values": [1.0, 1.0, 0.0, 2.0, 0.0, 1.0, 0.0, 1.0, 4.0, 5.0, 4.0, 3.0, 3.0, 3.0, 4.0, 8.0, 5.0, 10.0, 16.0, 23.0, 29.0, 43.0, 56.0, 61.0, 84.0, 144.0, 192.0, 285.0, 464.0, 731.0, 1209.0, 1761.0, 2743.0, 4436.0, 6703.0, 10356.0, 16412.0, 25301.0, 39386.0, 71422.0, 52194.0, 36078.0, 22548.0, 13756.0, 8232.0, 5049.0, 2962.0, 1860.0, 1099.0, 700.0, 476.0, 308.0, 205.0, 101.0, 75.0, 51.0, 28.0, 21.0, 10.0, 5.0, 5.0, 4.0, 0.0, 1.0], "bins": [-54.46875, -53.0966796875, -51.724609375, -50.3525390625, -48.98046875, -47.6083984375, -46.236328125, -44.8642578125, -43.4921875, -42.1201171875, -40.748046875, -39.3759765625, -38.00390625, -36.6318359375, -35.259765625, -33.8876953125, -32.515625, -31.1435546875, -29.771484375, -28.3994140625, -27.02734375, -25.6552734375, -24.283203125, -22.9111328125, -21.5390625, -20.1669921875, -18.794921875, -17.4228515625, -16.05078125, -14.6787109375, -13.306640625, -11.9345703125, -10.5625, -9.1904296875, -7.818359375, -6.4462890625, -5.07421875, -3.7021484375, -2.330078125, -0.9580078125, 0.4140625, 1.7861328125, 3.158203125, 4.5302734375, 5.90234375, 7.2744140625, 8.646484375, 10.0185546875, 11.390625, 12.7626953125, 14.134765625, 15.5068359375, 16.87890625, 18.2509765625, 19.623046875, 20.9951171875, 22.3671875, 23.7392578125, 25.111328125, 26.4833984375, 27.85546875, 29.2275390625, 30.599609375, 31.9716796875, 33.34375]}, "gradients/graph_1obs_encoder.fc1.bias": {"_type": "histogram", "values": [1.0, 0.0, 0.0, 0.0, 0.0, 0.0, 0.0, 0.0, 0.0, 1.0, 0.0, 0.0, 0.0, 1.0, 1.0, 2.0, 2.0, 2.0, 1.0, 4.0, 3.0, 0.0, 5.0, 6.0, 3.0, 3.0, 5.0, 5.0, 2.0, 13.0, 9.0, 11.0, 10.0, 9.0, 9.0, 25.0, 12.0, 11.0, 11.0, 11.0, 14.0, 10.0, 8.0, 7.0, 10.0, 8.0, 3.0, 4.0, 0.0, 4.0, 3.0, 2.0, 1.0, 1.0, 1.0, 0.0, 0.0, 0.0, 0.0, 0.0, 0.0, 0.0, 0.0, 2.0], "bins": [-41.15625, -39.9892578125, -38.822265625, -37.6552734375, -36.48828125, -35.3212890625, -34.154296875, -32.9873046875, -31.8203125, -30.6533203125, -29.486328125, -28.3193359375, -27.15234375, -25.9853515625, -24.818359375, -23.6513671875, -22.484375, -21.3173828125, -20.150390625, -18.9833984375, -17.81640625, -16.6494140625, -15.482421875, -14.3154296875, -13.1484375, -11.9814453125, -10.814453125, -9.6474609375, -8.48046875, -7.3134765625, -6.146484375, -4.9794921875, -3.8125, -2.6455078125, -1.478515625, -0.3115234375, 0.85546875, 2.0224609375, 3.189453125, 4.3564453125, 5.5234375, 6.6904296875, 7.857421875, 9.0244140625, 10.19140625, 11.3583984375, 12.525390625, 13.6923828125, 14.859375, 16.0263671875, 17.193359375, 18.3603515625, 19.52734375, 20.6943359375, 21.861328125, 23.0283203125, 24.1953125, 25.3623046875, 26.529296875, 27.6962890625, 28.86328125, 30.0302734375, 31.197265625, 32.3642578125, 33.53125]}, "gradients/graph_1stochastic_state_model.fc2.weight": {"_type": "histogram", "values": [4.0, 7.0, 5.0, 7.0, 11.0, 9.0, 21.0, 24.0, 25.0, 35.0, 83.0, 68.0, 133.0, 209.0, 272.0, 373.0, 618.0, 844.0, 1322.0, 1912.0, 2826.0, 4215.0, 6062.0, 10764.0, 48609.0, 24941.0, 9133.0, 5600.0, 3902.0, 2683.0, 1858.0, 1373.0, 904.0, 612.0, 430.0, 314.0, 233.0, 113.0, 109.0, 85.0, 65.0, 37.0, 38.0, 29.0, 27.0, 22.0, 19.0, 11.0, 10.0, 8.0, 11.0, 8.0, 5.0, 6.0, 3.0, 3.0, 2.0, 4.0, 4.0, 5.0, 1.0, 1.0, 3.0, 2.0], "bins": [-2.09765625, -2.0128173828125, -1.927978515625, -1.8431396484375, -1.75830078125, -1.6734619140625, -1.588623046875, -1.5037841796875, -1.4189453125, -1.3341064453125, -1.249267578125, -1.1644287109375, -1.07958984375, -0.9947509765625, -0.909912109375, -0.8250732421875, -0.740234375, -0.6553955078125, -0.570556640625, -0.4857177734375, -0.40087890625, -0.3160400390625, -0.231201171875, -0.1463623046875, -0.0615234375, 0.0233154296875, 0.108154296875, 0.1929931640625, 0.27783203125, 0.3626708984375, 0.447509765625, 0.5323486328125, 0.6171875, 0.7020263671875, 0.786865234375, 0.8717041015625, 0.95654296875, 1.0413818359375, 1.126220703125, 1.2110595703125, 1.2958984375, 1.3807373046875, 1.465576171875, 1.5504150390625, 1.63525390625, 1.7200927734375, 1.804931640625, 1.8897705078125, 1.974609375, 2.0594482421875, 2.144287109375, 2.2291259765625, 2.31396484375, 2.3988037109375, 2.483642578125, 2.5684814453125, 2.6533203125, 2.7381591796875, 2.822998046875, 2.9078369140625, 2.99267578125, 3.0775146484375, 3.162353515625, 3.2471923828125, 3.33203125]}, "gradients/graph_1stochastic_state_model.fc2.bias": {"_type": "histogram", "values": [2.0, 0.0, 0.0, 0.0, 1.0, 0.0, 0.0, 0.0, 1.0, 0.0, 1.0, 0.0, 0.0, 0.0, 1.0, 0.0, 0.0, 0.0, 0.0, 1.0, 1.0, 3.0, 0.0, 4.0, 1.0, 1.0, 3.0, 7.0, 6.0, 9.0, 5.0, 5.0, 13.0, 10.0, 16.0, 11.0, 18.0, 46.0, 103.0, 129.0, 22.0, 17.0, 14.0, 13.0, 4.0, 9.0, 5.0, 5.0, 5.0, 3.0, 2.0, 3.0, 2.0, 3.0, 1.0, 0.0, 0.0, 1.0, 1.0, 0.0, 1.0, 0.0, 0.0, 3.0], "bins": [-3.447265625, -3.359405517578125, -3.27154541015625, -3.183685302734375, -3.0958251953125, -3.007965087890625, -2.92010498046875, -2.832244873046875, -2.744384765625, -2.656524658203125, -2.56866455078125, -2.480804443359375, -2.3929443359375, -2.305084228515625, -2.21722412109375, -2.129364013671875, -2.04150390625, -1.953643798828125, -1.86578369140625, -1.777923583984375, -1.6900634765625, -1.602203369140625, -1.51434326171875, -1.426483154296875, -1.338623046875, -1.250762939453125, -1.16290283203125, -1.075042724609375, -0.9871826171875, -0.899322509765625, -0.81146240234375, -0.723602294921875, -0.6357421875, -0.547882080078125, -0.46002197265625, -0.372161865234375, -0.2843017578125, -0.196441650390625, -0.10858154296875, -0.020721435546875, 0.067138671875, 0.154998779296875, 0.24285888671875, 0.330718994140625, 0.4185791015625, 0.506439208984375, 0.59429931640625, 0.682159423828125, 0.77001953125, 0.857879638671875, 0.94573974609375, 1.033599853515625, 1.1214599609375, 1.209320068359375, 1.29718017578125, 1.385040283203125, 1.472900390625, 1.560760498046875, 1.64862060546875, 1.736480712890625, 1.8243408203125, 1.912200927734375, 2.00006103515625, 2.087921142578125, 2.17578125]}, "gradients/graph_1stochastic_state_model.fc1.weight": {"_type": "histogram", "values": [3.0, 3.0, 2.0, 4.0, 4.0, 18.0, 11.0, 18.0, 31.0, 38.0, 52.0, 70.0, 81.0, 154.0, 181.0, 231.0, 329.0, 435.0, 607.0, 784.0, 1057.0, 1291.0, 1719.0, 2129.0, 2481.0, 2900.0, 3471.0, 3857.0, 4270.0, 4422.0, 4631.0, 4456.0, 4176.0, 3791.0, 3323.0, 2897.0, 2434.0, 2080.0, 1657.0, 1312.0, 963.0, 847.0, 596.0, 485.0, 358.0, 228.0, 166.0, 117.0, 95.0, 80.0, 45.0, 42.0, 36.0, 16.0, 18.0, 11.0, 6.0, 3.0, 4.0, 4.0, 2.0, 0.0, 3.0, 1.0], "bins": [-1.736328125, -1.6793212890625, -1.622314453125, -1.5653076171875, -1.50830078125, -1.4512939453125, -1.394287109375, -1.3372802734375, -1.2802734375, -1.2232666015625, -1.166259765625, -1.1092529296875, -1.05224609375, -0.9952392578125, -0.938232421875, -0.8812255859375, -0.82421875, -0.7672119140625, -0.710205078125, -0.6531982421875, -0.59619140625, -0.5391845703125, -0.482177734375, -0.4251708984375, -0.3681640625, -0.3111572265625, -0.254150390625, -0.1971435546875, -0.14013671875, -0.0831298828125, -0.026123046875, 0.0308837890625, 0.087890625, 0.1448974609375, 0.201904296875, 0.2589111328125, 0.31591796875, 0.3729248046875, 0.429931640625, 0.4869384765625, 0.5439453125, 0.6009521484375, 0.657958984375, 0.7149658203125, 0.77197265625, 0.8289794921875, 0.885986328125, 0.9429931640625, 1.0, 1.0570068359375, 1.114013671875, 1.1710205078125, 1.22802734375, 1.2850341796875, 1.342041015625, 1.3990478515625, 1.4560546875, 1.5130615234375, 1.570068359375, 1.6270751953125, 1.68408203125, 1.7410888671875, 1.798095703125, 1.8551025390625, 1.912109375]}, "gradients/graph_1stochastic_state_model.fc1.bias": {"_type": "histogram", "values": [1.0, 0.0, 0.0, 2.0, 0.0, 0.0, 0.0, 0.0, 1.0, 0.0, 1.0, 2.0, 3.0, 3.0, 3.0, 3.0, 4.0, 1.0, 1.0, 2.0, 8.0, 2.0, 8.0, 2.0, 6.0, 6.0, 5.0, 4.0, 10.0, 12.0, 14.0, 9.0, 7.0, 16.0, 7.0, 10.0, 9.0, 4.0, 7.0, 7.0, 8.0, 8.0, 4.0, 6.0, 4.0, 4.0, 7.0, 2.0, 6.0, 5.0, 3.0, 2.0, 3.0, 6.0, 0.0, 0.0, 0.0, 3.0, 0.0, 0.0, 1.0, 0.0, 2.0, 2.0], "bins": [-2.365234375, -2.293975830078125, -2.22271728515625, -2.151458740234375, -2.0802001953125, -2.008941650390625, -1.93768310546875, -1.866424560546875, -1.795166015625, -1.723907470703125, -1.65264892578125, -1.581390380859375, -1.5101318359375, -1.438873291015625, -1.36761474609375, -1.296356201171875, -1.22509765625, -1.153839111328125, -1.08258056640625, -1.011322021484375, -0.9400634765625, -0.868804931640625, -0.79754638671875, -0.726287841796875, -0.655029296875, -0.583770751953125, -0.51251220703125, -0.441253662109375, -0.3699951171875, -0.298736572265625, -0.22747802734375, -0.156219482421875, -0.0849609375, -0.013702392578125, 0.05755615234375, 0.128814697265625, 0.2000732421875, 0.271331787109375, 0.34259033203125, 0.413848876953125, 0.485107421875, 0.556365966796875, 0.62762451171875, 0.698883056640625, 0.7701416015625, 0.841400146484375, 0.91265869140625, 0.983917236328125, 1.05517578125, 1.126434326171875, 1.19769287109375, 1.268951416015625, 1.3402099609375, 1.411468505859375, 1.48272705078125, 1.553985595703125, 1.625244140625, 1.696502685546875, 1.76776123046875, 1.839019775390625, 1.9102783203125, 1.981536865234375, 2.05279541015625, 2.124053955078125, 2.1953125]}, "gradients/graph_1rnn.weight_ih": {"_type": "histogram", "values": [1.0, 1.0, 3.0, 1.0, 1.0, 1.0, 1.0, 4.0, 3.0, 11.0, 11.0, 16.0, 13.0, 19.0, 21.0, 47.0, 55.0, 62.0, 96.0, 117.0, 156.0, 276.0, 396.0, 545.0, 849.0, 1258.0, 1830.0, 2941.0, 4326.0, 6900.0, 11609.0, 22057.0, 60167.0, 39815.0, 16835.0, 9108.0, 5564.0, 3679.0, 2491.0, 1668.0, 1097.0, 792.0, 529.0, 348.0, 264.0, 179.0, 113.0, 99.0, 63.0, 42.0, 27.0, 20.0, 27.0, 14.0, 11.0, 8.0, 6.0, 3.0, 3.0, 5.0, 1.0, 2.0, 0.0, 1.0], "bins": [-13.828125, -13.4063720703125, -12.984619140625, -12.5628662109375, -12.14111328125, -11.7193603515625, -11.297607421875, -10.8758544921875, -10.4541015625, -10.0323486328125, -9.610595703125, -9.1888427734375, -8.76708984375, -8.3453369140625, -7.923583984375, -7.5018310546875, -7.080078125, -6.6583251953125, -6.236572265625, -5.8148193359375, -5.39306640625, -4.9713134765625, -4.549560546875, -4.1278076171875, -3.7060546875, -3.2843017578125, -2.862548828125, -2.4407958984375, -2.01904296875, -1.5972900390625, -1.175537109375, -0.7537841796875, -0.33203125, 0.0897216796875, 0.511474609375, 0.9332275390625, 1.35498046875, 1.7767333984375, 2.198486328125, 2.6202392578125, 3.0419921875, 3.4637451171875, 3.885498046875, 4.3072509765625, 4.72900390625, 5.1507568359375, 5.572509765625, 5.9942626953125, 6.416015625, 6.8377685546875, 7.259521484375, 7.6812744140625, 8.10302734375, 8.5247802734375, 8.946533203125, 9.3682861328125, 9.7900390625, 10.2117919921875, 10.633544921875, 11.0552978515625, 11.47705078125, 11.8988037109375, 12.320556640625, 12.7423095703125, 13.1640625]}, "gradients/graph_1rnn.weight_hh": {"_type": "histogram", "values": [1.0, 1.0, 1.0, 1.0, 1.0, 2.0, 4.0, 6.0, 3.0, 8.0, 14.0, 11.0, 18.0, 22.0, 33.0, 47.0, 49.0, 85.0, 102.0, 163.0, 227.0, 365.0, 504.0, 819.0, 1241.0, 1909.0, 3136.0, 5012.0, 8010.0, 13511.0, 23275.0, 42883.0, 40750.0, 21820.0, 12282.0, 7445.0, 4724.0, 2894.0, 1787.0, 1160.0, 742.0, 452.0, 312.0, 196.0, 166.0, 104.0, 80.0, 52.0, 47.0, 30.0, 27.0, 13.0, 16.0, 8.0, 11.0, 9.0, 4.0, 5.0, 2.0, 2.0, 1.0, 0.0, 1.0, 2.0], "bins": [-5.4140625, -5.24456787109375, -5.0750732421875, -4.90557861328125, -4.736083984375, -4.56658935546875, -4.3970947265625, -4.22760009765625, -4.05810546875, -3.88861083984375, -3.7191162109375, -3.54962158203125, -3.380126953125, -3.21063232421875, -3.0411376953125, -2.87164306640625, -2.7021484375, -2.53265380859375, -2.3631591796875, -2.19366455078125, -2.024169921875, -1.85467529296875, -1.6851806640625, -1.51568603515625, -1.34619140625, -1.17669677734375, -1.0072021484375, -0.83770751953125, -0.668212890625, -0.49871826171875, -0.3292236328125, -0.15972900390625, 0.009765625, 0.17926025390625, 0.3487548828125, 0.51824951171875, 0.687744140625, 0.85723876953125, 1.0267333984375, 1.19622802734375, 1.36572265625, 1.53521728515625, 1.7047119140625, 1.87420654296875, 2.043701171875, 2.21319580078125, 2.3826904296875, 2.55218505859375, 2.7216796875, 2.89117431640625, 3.0606689453125, 3.23016357421875, 3.399658203125, 3.56915283203125, 3.7386474609375, 3.90814208984375, 4.07763671875, 4.24713134765625, 4.4166259765625, 4.58612060546875, 4.755615234375, 4.92510986328125, 5.0946044921875, 5.26409912109375, 5.43359375]}, "gradients/graph_1rnn.bias_ih": {"_type": "histogram", "values": [1.0, 0.0, 0.0, 0.0, 0.0, 1.0, 0.0, 0.0, 1.0, 1.0, 2.0, 2.0, 1.0, 3.0, 1.0, 1.0, 1.0, 2.0, 2.0, 6.0, 2.0, 5.0, 3.0, 3.0, 5.0, 6.0, 11.0, 15.0, 10.0, 14.0, 22.0, 23.0, 43.0, 49.0, 86.0, 112.0, 111.0, 54.0, 24.0, 19.0, 23.0, 16.0, 9.0, 9.0, 9.0, 11.0, 4.0, 7.0, 8.0, 4.0, 4.0, 4.0, 1.0, 2.0, 4.0, 3.0, 1.0, 2.0, 1.0, 2.0, 0.0, 0.0, 1.0, 1.0], "bins": [-6.3984375, -6.21875, -6.0390625, -5.859375, -5.6796875, -5.5, -5.3203125, -5.140625, -4.9609375, -4.78125, -4.6015625, -4.421875, -4.2421875, -4.0625, -3.8828125, -3.703125, -3.5234375, -3.34375, -3.1640625, -2.984375, -2.8046875, -2.625, -2.4453125, -2.265625, -2.0859375, -1.90625, -1.7265625, -1.546875, -1.3671875, -1.1875, -1.0078125, -0.828125, -0.6484375, -0.46875, -0.2890625, -0.109375, 0.0703125, 0.25, 0.4296875, 0.609375, 0.7890625, 0.96875, 1.1484375, 1.328125, 1.5078125, 1.6875, 1.8671875, 2.046875, 2.2265625, 2.40625, 2.5859375, 2.765625, 2.9453125, 3.125, 3.3046875, 3.484375, 3.6640625, 3.84375, 4.0234375, 4.203125, 4.3828125, 4.5625, 4.7421875, 4.921875, 5.1015625]}, "gradients/graph_1rnn.bias_hh": {"_type": "histogram", "values": [1.0, 0.0, 0.0, 0.0, 0.0, 0.0, 0.0, 0.0, 0.0, 0.0, 0.0, 0.0, 0.0, 0.0, 0.0, 1.0, 0.0, 3.0, 1.0, 0.0, 0.0, 1.0, 1.0, 3.0, 3.0, 5.0, 9.0, 8.0, 13.0, 12.0, 20.0, 21.0, 37.0, 33.0, 48.0, 72.0, 103.0, 100.0, 77.0, 41.0, 26.0, 27.0, 17.0, 17.0, 10.0, 13.0, 7.0, 8.0, 5.0, 6.0, 2.0, 4.0, 1.0, 1.0, 2.0, 0.0, 4.0, 2.0, 1.0, 0.0, 0.0, 1.0, 0.0, 1.0], "bins": [-5.25390625, -5.111785888671875, -4.96966552734375, -4.827545166015625, -4.6854248046875, -4.543304443359375, -4.40118408203125, -4.259063720703125, -4.116943359375, -3.974822998046875, -3.83270263671875, -3.690582275390625, -3.5484619140625, -3.406341552734375, -3.26422119140625, -3.122100830078125, -2.97998046875, -2.837860107421875, -2.69573974609375, -2.553619384765625, -2.4114990234375, -2.269378662109375, -2.12725830078125, -1.985137939453125, -1.843017578125, -1.700897216796875, -1.55877685546875, -1.416656494140625, -1.2745361328125, -1.132415771484375, -0.99029541015625, -0.848175048828125, -0.7060546875, -0.563934326171875, -0.42181396484375, -0.279693603515625, -0.1375732421875, 0.004547119140625, 0.14666748046875, 0.288787841796875, 0.430908203125, 0.573028564453125, 0.71514892578125, 0.857269287109375, 0.9993896484375, 1.141510009765625, 1.28363037109375, 1.425750732421875, 1.56787109375, 1.709991455078125, 1.85211181640625, 1.994232177734375, 2.1363525390625, 2.278472900390625, 2.42059326171875, 2.562713623046875, 2.704833984375, 2.846954345703125, 2.98907470703125, 3.131195068359375, 3.2733154296875, 3.415435791015625, 3.55755615234375, 3.699676513671875, 3.841796875]}, "gradients/graph_1fc_embed_state_action.weight": {"_type": "histogram", "values": [1.0, 0.0, 0.0, 0.0, 0.0, 0.0, 0.0, 1.0, 0.0, 0.0, 1.0, 0.0, 2.0, 1.0, 2.0, 3.0, 3.0, 3.0, 5.0, 8.0, 27.0, 27.0, 32.0, 31.0, 55.0, 51.0, 108.0, 130.0, 197.0, 260.0, 397.0, 629.0, 998.0, 1558.0, 3151.0, 14917.0, 34285.0, 4948.0, 1973.0, 1139.0, 787.0, 468.0, 313.0, 251.0, 150.0, 110.0, 71.0, 54.0, 41.0, 35.0, 27.0, 26.0, 14.0, 7.0, 7.0, 8.0, 2.0, 5.0, 4.0, 0.0, 1.0, 2.0, 0.0, 2.0], "bins": [-34.4375, -33.486572265625, -32.53564453125, -31.584716796875, -30.6337890625, -29.682861328125, -28.73193359375, -27.781005859375, -26.830078125, -25.879150390625, -24.92822265625, -23.977294921875, -23.0263671875, -22.075439453125, -21.12451171875, -20.173583984375, -19.22265625, -18.271728515625, -17.32080078125, -16.369873046875, -15.4189453125, -14.468017578125, -13.51708984375, -12.566162109375, -11.615234375, -10.664306640625, -9.71337890625, -8.762451171875, -7.8115234375, -6.860595703125, -5.90966796875, -4.958740234375, -4.0078125, -3.056884765625, -2.10595703125, -1.155029296875, -0.2041015625, 0.746826171875, 1.69775390625, 2.648681640625, 3.599609375, 4.550537109375, 5.50146484375, 6.452392578125, 7.4033203125, 8.354248046875, 9.30517578125, 10.256103515625, 11.20703125, 12.157958984375, 13.10888671875, 14.059814453125, 15.0107421875, 15.961669921875, 16.91259765625, 17.863525390625, 18.814453125, 19.765380859375, 20.71630859375, 21.667236328125, 22.6181640625, 23.569091796875, 24.52001953125, 25.470947265625, 26.421875]}, "gradients/graph_1fc_embed_state_action.bias": {"_type": "histogram", "values": [1.0, 0.0, 0.0, 0.0, 1.0, 1.0, 0.0, 0.0, 0.0, 1.0, 0.0, 0.0, 3.0, 3.0, 3.0, 2.0, 4.0, 6.0, 7.0, 5.0, 3.0, 4.0, 6.0, 7.0, 6.0, 9.0, 6.0, 7.0, 16.0, 8.0, 8.0, 12.0, 8.0, 11.0, 4.0, 8.0, 11.0, 8.0, 5.0, 8.0, 9.0, 9.0, 6.0, 6.0, 6.0, 7.0, 3.0, 6.0, 2.0, 1.0, 2.0, 3.0, 1.0, 0.0, 1.0, 0.0, 0.0, 0.0, 0.0, 1.0, 0.0, 0.0, 0.0, 1.0], "bins": [-5.8671875, -5.67974853515625, -5.4923095703125, -5.30487060546875, -5.117431640625, -4.92999267578125, -4.7425537109375, -4.55511474609375, -4.36767578125, -4.18023681640625, -3.9927978515625, -3.80535888671875, -3.617919921875, -3.43048095703125, -3.2430419921875, -3.05560302734375, -2.8681640625, -2.68072509765625, -2.4932861328125, -2.30584716796875, -2.118408203125, -1.93096923828125, -1.7435302734375, -1.55609130859375, -1.36865234375, -1.18121337890625, -0.9937744140625, -0.80633544921875, -0.618896484375, -0.43145751953125, -0.2440185546875, -0.05657958984375, 0.130859375, 0.31829833984375, 0.5057373046875, 0.69317626953125, 0.880615234375, 1.06805419921875, 1.2554931640625, 1.44293212890625, 1.63037109375, 1.81781005859375, 2.0052490234375, 2.19268798828125, 2.380126953125, 2.56756591796875, 2.7550048828125, 2.94244384765625, 3.1298828125, 3.31732177734375, 3.5047607421875, 3.69219970703125, 3.879638671875, 4.06707763671875, 4.2545166015625, 4.44195556640625, 4.62939453125, 4.81683349609375, 5.0042724609375, 5.19171142578125, 5.379150390625, 5.56658935546875, 5.7540283203125, 5.94146728515625, 6.12890625]}, "gradients/graph_3conv.16.weight": {"_type": "histogram", "values": [1.0, 0.0, 0.0, 1.0, 0.0, 0.0, 0.0, 0.0, 1.0, 1.0, 0.0, 0.0, 4.0, 1.0, 2.0, 3.0, 5.0, 4.0, 9.0, 6.0, 6.0, 5.0, 6.0, 12.0, 8.0, 10.0, 11.0, 18.0, 11.0, 12.0, 7.0, 15.0, 8.0, 13.0, 6.0, 4.0, 6.0, 8.0, 6.0, 1.0, 7.0, 4.0, 5.0, 2.0, 2.0, 3.0, 2.0, 1.0, 2.0, 4.0, 2.0, 3.0, 2.0, 2.0, 0.0, 0.0, 1.0, 1.0, 0.0, 0.0, 1.0, 0.0, 0.0, 1.0], "bins": [-60.52140808105469, -58.57001876831055, -56.61862564086914, -54.667236328125, -52.715843200683594, -50.76445388793945, -48.81306076049805, -46.861671447753906, -44.9102783203125, -42.95888900756836, -41.00749588012695, -39.05610656738281, -37.104713439941406, -35.153324127197266, -33.20193099975586, -31.25054168701172, -29.299150466918945, -27.347759246826172, -25.3963680267334, -23.444976806640625, -21.49358558654785, -19.542194366455078, -17.590805053710938, -15.639412879943848, -13.688021659851074, -11.7366304397583, -9.785239219665527, -7.833848476409912, -5.882457256317139, -3.9310665130615234, -1.97967529296875, -0.028284072875976562, 1.9231071472167969, 3.8744983673095703, 5.825889587402344, 7.777280330657959, 9.72867202758789, 11.680062294006348, 13.631453514099121, 15.582844734191895, 17.534236907958984, 19.485628128051758, 21.43701934814453, 23.388410568237305, 25.339801788330078, 27.29119110107422, 29.242584228515625, 31.193973541259766, 33.145362854003906, 35.09675216674805, 37.04814529418945, 38.999534606933594, 40.950927734375, 42.90231704711914, 44.85371017456055, 46.80509948730469, 48.756492614746094, 50.707881927490234, 52.65927505493164, 54.61066436767578, 56.56205749511719, 58.51344680786133, 60.464839935302734, 62.416229248046875, 64.36762237548828]}, "gradients/graph_3conv.16.bias": {"_type": "histogram", "values": [1.0, 0.0, 1.0, 0.0, 0.0, 1.0, 0.0, 1.0, 0.0, 0.0, 1.0, 2.0, 0.0, 1.0, 4.0, 2.0, 8.0, 4.0, 5.0, 3.0, 2.0, 8.0, 11.0, 15.0, 9.0, 7.0, 17.0, 7.0, 14.0, 7.0, 9.0, 11.0, 15.0, 7.0, 10.0, 8.0, 4.0, 8.0, 3.0, 5.0, 2.0, 5.0, 4.0, 6.0, 3.0, 5.0, 1.0, 2.0, 1.0, 2.0, 1.0, 0.0, 2.0, 1.0, 1.0, 0.0, 3.0, 4.0, 0.0, 0.0, 0.0, 1.0, 0.0, 1.0], "bins": [-59.08955764770508, -57.13618850708008, -55.18281555175781, -53.22944641113281, -51.27607727050781, -49.32270812988281, -47.36933517456055, -45.41596603393555, -43.46259307861328, -41.50922393798828, -39.555850982666016, -37.602481842041016, -35.649112701416016, -33.69573974609375, -31.74237060546875, -29.78900146484375, -27.83563232421875, -25.882261276245117, -23.928892135620117, -21.975521087646484, -20.022151947021484, -18.06878089904785, -16.11540985107422, -14.162039756774902, -12.208669662475586, -10.25529956817627, -8.301929473876953, -6.34855842590332, -4.395188331604004, -2.4418182373046875, -0.4884471893310547, 1.4649229049682617, 3.4182968139648438, 5.37166690826416, 7.325037479400635, 9.27840805053711, 11.231778144836426, 13.185148239135742, 15.138519287109375, 17.091888427734375, 19.045259475708008, 20.99863052368164, 22.95199966430664, 24.905370712280273, 26.858741760253906, 28.812110900878906, 30.76548194885254, 32.71885299682617, 34.67222213745117, 36.62559127807617, 38.57896423339844, 40.53233337402344, 42.48570251464844, 44.43907165527344, 46.3924446105957, 48.3458137512207, 50.29918670654297, 52.25255584716797, 54.205928802490234, 56.159297943115234, 58.112667083740234, 60.0660400390625, 62.0194091796875, 63.9727783203125, 65.9261474609375]}, "gradients/graph_3conv.15.weight": {"_type": "histogram", "values": [1.0, 1.0, 3.0, 3.0, 5.0, 2.0, 3.0, 4.0, 8.0, 16.0, 16.0, 17.0, 24.0, 30.0, 38.0, 55.0, 70.0, 118.0, 165.0, 209.0, 292.0, 437.0, 626.0, 967.0, 1513.0, 2455.0, 3849.0, 6383.0, 10853.0, 19638.0, 34940.0, 60821.0, 97512.0, 115365.0, 71116.0, 39319.0, 22324.0, 13026.0, 7802.0, 4864.0, 3091.0, 2060.0, 1380.0, 963.0, 610.0, 356.0, 295.0, 203.0, 138.0, 102.0, 58.0, 52.0, 29.0, 8.0, 18.0, 5.0, 8.0, 11.0, 3.0, 2.0, 3.0, 0.0, 1.0, 2.0], "bins": [-12.7265625, -12.3428955078125, -11.959228515625, -11.5755615234375, -11.19189453125, -10.8082275390625, -10.424560546875, -10.0408935546875, -9.6572265625, -9.2735595703125, -8.889892578125, -8.5062255859375, -8.12255859375, -7.7388916015625, -7.355224609375, -6.9715576171875, -6.587890625, -6.2042236328125, -5.820556640625, -5.4368896484375, -5.05322265625, -4.6695556640625, -4.285888671875, -3.9022216796875, -3.5185546875, -3.1348876953125, -2.751220703125, -2.3675537109375, -1.98388671875, -1.6002197265625, -1.216552734375, -0.8328857421875, -0.44921875, -0.0655517578125, 0.318115234375, 0.7017822265625, 1.08544921875, 1.4691162109375, 1.852783203125, 2.2364501953125, 2.6201171875, 3.0037841796875, 3.387451171875, 3.7711181640625, 4.15478515625, 4.5384521484375, 4.922119140625, 5.3057861328125, 5.689453125, 6.0731201171875, 6.456787109375, 6.8404541015625, 7.22412109375, 7.6077880859375, 7.991455078125, 8.3751220703125, 8.7587890625, 9.1424560546875, 9.526123046875, 9.9097900390625, 10.29345703125, 10.6771240234375, 11.060791015625, 11.4444580078125, 11.828125]}, "gradients/graph_3conv.13.weight": {"_type": "histogram", "values": [1.0, 1.0, 0.0, 0.0, 0.0, 0.0, 0.0, 1.0, 0.0, 0.0, 0.0, 1.0, 1.0, 2.0, 0.0, 0.0, 0.0, 2.0, 0.0, 0.0, 1.0, 2.0, 1.0, 5.0, 2.0, 2.0, 3.0, 2.0, 1.0, 3.0, 2.0, 3.0, 1.0, 6.0, 1.0, 3.0, 7.0, 6.0, 8.0, 2.0, 5.0, 10.0, 4.0, 5.0, 2.0, 1.0, 2.0, 3.0, 3.0, 6.0, 2.0, 0.0, 1.0, 3.0, 2.0, 3.0, 0.0, 1.0, 1.0, 1.0, 0.0, 1.0, 1.0, 1.0], "bins": [-40.463348388671875, -39.38890075683594, -38.314453125, -37.24000549316406, -36.165557861328125, -35.09111022949219, -34.01666259765625, -32.94221496582031, -31.867767333984375, -30.793319702148438, -29.7188720703125, -28.644424438476562, -27.569976806640625, -26.495529174804688, -25.42108154296875, -24.346633911132812, -23.272186279296875, -22.197738647460938, -21.123291015625, -20.048843383789062, -18.974395751953125, -17.899948120117188, -16.82550048828125, -15.751052856445312, -14.676605224609375, -13.602157592773438, -12.5277099609375, -11.453262329101562, -10.378814697265625, -9.304367065429688, -8.22991943359375, -7.1554718017578125, -6.081024169921875, -5.0065765380859375, -3.93212890625, -2.8576812744140625, -1.783233642578125, -0.7087860107421875, 0.36566162109375, 1.4401092529296875, 2.514556884765625, 3.5890045166015625, 4.6634521484375, 5.7378997802734375, 6.812347412109375, 7.8867950439453125, 8.96124267578125, 10.035690307617188, 11.110137939453125, 12.184585571289062, 13.259033203125, 14.333480834960938, 15.407928466796875, 16.482376098632812, 17.55682373046875, 18.631271362304688, 19.705718994140625, 20.780166625976562, 21.8546142578125, 22.929061889648438, 24.003509521484375, 25.077957153320312, 26.15240478515625, 27.226852416992188, 28.301300048828125]}, "gradients/graph_3conv.13.bias": {"_type": "histogram", "values": [1.0, 0.0, 0.0, 0.0, 0.0, 1.0, 0.0, 0.0, 1.0, 0.0, 0.0, 1.0, 0.0, 3.0, 2.0, 3.0, 1.0, 2.0, 3.0, 4.0, 3.0, 5.0, 11.0, 5.0, 3.0, 9.0, 7.0, 6.0, 7.0, 6.0, 3.0, 6.0, 2.0, 5.0, 7.0, 1.0, 2.0, 2.0, 2.0, 4.0, 0.0, 2.0, 1.0, 0.0, 0.0, 1.0, 0.0, 2.0, 0.0, 0.0, 0.0, 0.0, 0.0, 1.0, 0.0, 1.0, 0.0, 0.0, 0.0, 0.0, 1.0, 0.0, 0.0, 1.0], "bins": [-25.349767684936523, -24.427642822265625, -23.505517959594727, -22.583393096923828, -21.661270141601562, -20.73914337158203, -19.817020416259766, -18.894895553588867, -17.97277069091797, -17.05064582824707, -16.128520965576172, -15.20639705657959, -14.284272193908691, -13.362147331237793, -12.440023422241211, -11.517898559570312, -10.595773696899414, -9.673648834228516, -8.751523971557617, -7.829400062561035, -6.907275199890137, -5.985150337219238, -5.063025951385498, -4.140901565551758, -3.2187767028808594, -2.29665207862854, -1.3745274543762207, -0.45240283012390137, 0.46972179412841797, 1.3918466567993164, 2.3139710426330566, 3.236095428466797, 4.158222198486328, 5.080347061157227, 6.002471446990967, 6.924595832824707, 7.8467206954956055, 8.768845558166504, 9.690969467163086, 10.613094329833984, 11.535219192504883, 12.457344055175781, 13.37946891784668, 14.301592826843262, 15.22371768951416, 16.145843505859375, 17.06796646118164, 17.99009132385254, 18.912216186523438, 19.834341049194336, 20.756465911865234, 21.678590774536133, 22.60071563720703, 23.522838592529297, 24.444963455200195, 25.367088317871094, 26.289213180541992, 27.21133804321289, 28.13346290588379, 29.055587768554688, 29.977710723876953, 30.899837493896484, 31.82196044921875, 32.74408721923828, 33.66621017456055]}, "gradients/graph_3conv.12.weight": {"_type": "histogram", "values": [1.0, 0.0, 0.0, 0.0, 0.0, 0.0, 1.0, 1.0, 1.0, 1.0, 2.0, 3.0, 4.0, 4.0, 5.0, 11.0, 15.0, 10.0, 12.0, 20.0, 22.0, 28.0, 40.0, 54.0, 62.0, 115.0, 161.0, 276.0, 462.0, 740.0, 1322.0, 2392.0, 4559.0, 8068.0, 13251.0, 22883.0, 35355.0, 19770.0, 8798.0, 4474.0, 2712.0, 1700.0, 1140.0, 781.0, 511.0, 363.0, 278.0, 197.0, 145.0, 111.0, 64.0, 59.0, 36.0, 18.0, 12.0, 7.0, 6.0, 2.0, 3.0, 0.0, 0.0, 3.0, 0.0, 1.0], "bins": [-27.96875, -27.19921875, -26.4296875, -25.66015625, -24.890625, -24.12109375, -23.3515625, -22.58203125, -21.8125, -21.04296875, -20.2734375, -19.50390625, -18.734375, -17.96484375, -17.1953125, -16.42578125, -15.65625, -14.88671875, -14.1171875, -13.34765625, -12.578125, -11.80859375, -11.0390625, -10.26953125, -9.5, -8.73046875, -7.9609375, -7.19140625, -6.421875, -5.65234375, -4.8828125, -4.11328125, -3.34375, -2.57421875, -1.8046875, -1.03515625, -0.265625, 0.50390625, 1.2734375, 2.04296875, 2.8125, 3.58203125, 4.3515625, 5.12109375, 5.890625, 6.66015625, 7.4296875, 8.19921875, 8.96875, 9.73828125, 10.5078125, 11.27734375, 12.046875, 12.81640625, 13.5859375, 14.35546875, 15.125, 15.89453125, 16.6640625, 17.43359375, 18.203125, 18.97265625, 19.7421875, 20.51171875, 21.28125]}, "gradients/graph_3conv.10.weight": {"_type": "histogram", "values": [1.0, 0.0, 0.0, 0.0, 0.0, 0.0, 1.0, 0.0, 0.0, 0.0, 0.0, 0.0, 0.0, 0.0, 0.0, 0.0, 0.0, 0.0, 0.0, 0.0, 1.0, 1.0, 0.0, 2.0, 2.0, 3.0, 0.0, 1.0, 2.0, 2.0, 1.0, 3.0, 0.0, 3.0, 3.0, 2.0, 2.0, 4.0, 6.0, 4.0, 3.0, 3.0, 2.0, 4.0, 1.0, 1.0, 2.0, 0.0, 1.0, 1.0, 0.0, 0.0, 0.0, 0.0, 0.0, 0.0, 0.0, 0.0, 0.0, 0.0, 0.0, 1.0, 0.0, 1.0], "bins": [-78.36688232421875, -76.16542053222656, -73.96395874023438, -71.76250457763672, -69.56104278564453, -67.35958099365234, -65.15812683105469, -62.9566650390625, -60.75520324707031, -58.553741455078125, -56.3522834777832, -54.15082550048828, -51.949363708496094, -49.747901916503906, -47.546443939208984, -45.34498596191406, -43.143524169921875, -40.94206237792969, -38.740604400634766, -36.539146423339844, -34.337684631347656, -32.13622283935547, -29.934764862060547, -27.733304977416992, -25.531845092773438, -23.330385208129883, -21.128925323486328, -18.927465438842773, -16.72600555419922, -14.524545669555664, -12.32308578491211, -10.121625900268555, -7.920166015625, -5.718706130981445, -3.5172462463378906, -1.315786361694336, 0.8856735229492188, 3.0871334075927734, 5.288593292236328, 7.490053176879883, 9.691513061523438, 11.892972946166992, 14.094432830810547, 16.2958927154541, 18.497352600097656, 20.69881248474121, 22.900272369384766, 25.10173225402832, 27.303192138671875, 29.50465202331543, 31.706111907958984, 33.907569885253906, 36.109031677246094, 38.31049346923828, 40.5119514465332, 42.713409423828125, 44.91487121582031, 47.1163330078125, 49.31779098510742, 51.519248962402344, 53.72071075439453, 55.92217254638672, 58.12363052368164, 60.32508850097656, 62.52655029296875]}, "gradients/graph_3conv.10.bias": {"_type": "histogram", "values": [1.0, 0.0, 1.0, 0.0, 0.0, 0.0, 0.0, 2.0, 0.0, 1.0, 0.0, 0.0, 0.0, 1.0, 0.0, 1.0, 1.0, 2.0, 1.0, 1.0, 2.0, 4.0, 3.0, 7.0, 4.0, 3.0, 1.0, 4.0, 1.0, 4.0, 3.0, 2.0, 1.0, 0.0, 2.0, 0.0, 3.0, 1.0, 1.0, 0.0, 1.0, 2.0, 2.0, 0.0, 0.0, 0.0, 0.0, 0.0, 0.0, 0.0, 0.0, 0.0, 0.0, 0.0, 0.0, 0.0, 0.0, 0.0, 0.0, 0.0, 0.0, 0.0, 0.0, 1.0], "bins": [-31.544445037841797, -30.26788902282715, -28.9913330078125, -27.714778900146484, -26.438222885131836, -25.161666870117188, -23.88511085510254, -22.60855484008789, -21.332000732421875, -20.055444717407227, -18.778888702392578, -17.502334594726562, -16.225778579711914, -14.949222564697266, -13.672666549682617, -12.396111488342285, -11.11955451965332, -9.842998504638672, -8.56644344329834, -7.289887428283691, -6.013331890106201, -4.736776351928711, -3.4602203369140625, -2.1836652755737305, -0.907109260559082, 0.36944639682769775, 1.6460020542144775, 2.922557830810547, 4.199113368988037, 5.475668907165527, 6.752224922180176, 8.028779983520508, 9.305335998535156, 10.581892013549805, 11.858447074890137, 13.135003089904785, 14.411558151245117, 15.688114166259766, 16.964670181274414, 18.241226196289062, 19.517780303955078, 20.794336318969727, 22.070892333984375, 23.34744644165039, 24.62400245666504, 25.900558471679688, 27.177114486694336, 28.453670501708984, 29.730226516723633, 31.00678253173828, 32.2833366394043, 33.55989456176758, 34.836448669433594, 36.113006591796875, 37.38956069946289, 38.666114807128906, 39.94267272949219, 41.2192268371582, 42.495784759521484, 43.7723388671875, 45.04889678955078, 46.3254508972168, 47.60200500488281, 48.878562927246094, 50.15511703491211]}, "gradients/graph_3conv.9.weight": {"_type": "histogram", "values": [1.0, 0.0, 1.0, 1.0, 1.0, 0.0, 0.0, 0.0, 0.0, 0.0, 0.0, 2.0, 0.0, 9.0, 17.0, 19.0, 22.0, 23.0, 41.0, 36.0, 33.0, 51.0, 72.0, 100.0, 115.0, 143.0, 173.0, 268.0, 463.0, 649.0, 938.0, 1264.0, 1772.0, 2562.0, 4070.0, 4695.0, 5209.0, 3596.0, 1885.0, 1091.0, 796.0, 603.0, 506.0, 393.0, 290.0, 200.0, 150.0, 113.0, 94.0, 80.0, 46.0, 43.0, 35.0, 25.0, 16.0, 19.0, 8.0, 8.0, 6.0, 4.0, 2.0, 2.0, 3.0, 4.0], "bins": [-36.625, -35.5986328125, -34.572265625, -33.5458984375, -32.51953125, -31.4931640625, -30.466796875, -29.4404296875, -28.4140625, -27.3876953125, -26.361328125, -25.3349609375, -24.30859375, -23.2822265625, -22.255859375, -21.2294921875, -20.203125, -19.1767578125, -18.150390625, -17.1240234375, -16.09765625, -15.0712890625, -14.044921875, -13.0185546875, -11.9921875, -10.9658203125, -9.939453125, -8.9130859375, -7.88671875, -6.8603515625, -5.833984375, -4.8076171875, -3.78125, -2.7548828125, -1.728515625, -0.7021484375, 0.32421875, 1.3505859375, 2.376953125, 3.4033203125, 4.4296875, 5.4560546875, 6.482421875, 7.5087890625, 8.53515625, 9.5615234375, 10.587890625, 11.6142578125, 12.640625, 13.6669921875, 14.693359375, 15.7197265625, 16.74609375, 17.7724609375, 18.798828125, 19.8251953125, 20.8515625, 21.8779296875, 22.904296875, 23.9306640625, 24.95703125, 25.9833984375, 27.009765625, 28.0361328125, 29.0625]}, "gradients/graph_3conv.7.weight": {"_type": "histogram", "values": [1.0, 0.0, 0.0, 0.0, 0.0, 0.0, 1.0, 0.0, 0.0, 0.0, 1.0, 0.0, 0.0, 1.0, 1.0, 1.0, 0.0, 0.0, 1.0, 1.0, 0.0, 0.0, 1.0, 0.0, 0.0, 1.0, 0.0, 1.0, 0.0, 2.0, 4.0, 0.0, 0.0, 0.0, 2.0, 1.0, 0.0, 3.0, 1.0, 0.0, 0.0, 1.0, 1.0, 0.0, 2.0, 1.0, 0.0, 1.0, 0.0, 0.0, 1.0, 0.0, 0.0, 0.0, 0.0, 0.0, 0.0, 0.0, 0.0, 0.0, 0.0, 0.0, 0.0, 1.0], "bins": [-45.916282653808594, -44.44020080566406, -42.96411895751953, -41.488040924072266, -40.011959075927734, -38.5358772277832, -37.05979537963867, -35.583717346191406, -34.107635498046875, -32.631553649902344, -31.155473709106445, -29.679391860961914, -28.203311920166016, -26.727230072021484, -25.251148223876953, -23.775068283081055, -22.298986434936523, -20.822904586791992, -19.346824645996094, -17.870742797851562, -16.394662857055664, -14.918581008911133, -13.442500114440918, -11.966419219970703, -10.490338325500488, -9.014257431030273, -7.538176536560059, -6.0620951652526855, -4.586014270782471, -3.109933376312256, -1.6338520050048828, -0.15777111053466797, 1.3183097839355469, 2.7943906784057617, 4.270471572875977, 5.74655294418335, 7.2226338386535645, 8.698715209960938, 10.174796104431152, 11.650876998901367, 13.126957893371582, 14.603038787841797, 16.079120635986328, 17.555200576782227, 19.031282424926758, 20.507362365722656, 21.983444213867188, 23.45952606201172, 24.935606002807617, 26.41168785095215, 27.887767791748047, 29.363849639892578, 30.839929580688477, 32.316009521484375, 33.792091369628906, 35.26817321777344, 36.74425506591797, 38.2203369140625, 39.69641876220703, 41.1724967956543, 42.64857864379883, 44.12466049194336, 45.60074234008789, 47.076820373535156, 48.55290222167969]}, "gradients/graph_3conv.7.bias": {"_type": "histogram", "values": [2.0, 0.0, 0.0, 0.0, 1.0, 0.0, 0.0, 0.0, 0.0, 0.0, 0.0, 0.0, 2.0, 1.0, 0.0, 0.0, 1.0, 0.0, 1.0, 0.0, 0.0, 0.0, 1.0, 0.0, 1.0, 1.0, 1.0, 0.0, 0.0, 2.0, 1.0, 0.0, 1.0, 1.0, 0.0, 1.0, 0.0, 1.0, 2.0, 1.0, 2.0, 0.0, 0.0, 0.0, 0.0, 1.0, 0.0, 2.0, 1.0, 0.0, 0.0, 0.0, 1.0, 0.0, 1.0, 0.0, 1.0, 0.0, 0.0, 0.0, 0.0, 0.0, 0.0, 1.0], "bins": [-41.06651306152344, -39.89789962768555, -38.72929000854492, -37.56067657470703, -36.39206314086914, -35.22344970703125, -34.054840087890625, -32.886226654052734, -31.717615127563477, -30.54900360107422, -29.380390167236328, -28.21177864074707, -27.043167114257812, -25.874553680419922, -24.705942153930664, -23.537330627441406, -22.368717193603516, -21.200105667114258, -20.031492233276367, -18.86288070678711, -17.69426727294922, -16.52565574645996, -15.357044219970703, -14.188431739807129, -13.019819259643555, -11.85120677947998, -10.682594299316406, -9.513982772827148, -8.345370292663574, -7.1767578125, -6.008145809173584, -4.839533805847168, -3.6709213256835938, -2.5023090839385986, -1.3336968421936035, -0.1650846004486084, 1.0035276412963867, 2.172140121459961, 3.340752124786377, 4.509364128112793, 5.677976608276367, 6.846589088439941, 8.015201568603516, 9.183813095092773, 10.352425575256348, 11.521038055419922, 12.68964958190918, 13.858262062072754, 15.026874542236328, 16.195486068725586, 17.364099502563477, 18.532711029052734, 19.701324462890625, 20.869935989379883, 22.03854751586914, 23.20716094970703, 24.37577247619629, 25.544384002685547, 26.712997436523438, 27.881608963012695, 29.050220489501953, 30.218833923339844, 31.3874454498291, 32.55605697631836, 33.72467041015625]}, "gradients/graph_3conv.6.weight": {"_type": "histogram", "values": [5.0, 5.0, 17.0, 25.0, 8.0, 27.0, 25.0, 23.0, 42.0, 32.0, 41.0, 56.0, 60.0, 72.0, 73.0, 93.0, 95.0, 141.0, 159.0, 207.0, 268.0, 268.0, 327.0, 403.0, 484.0, 514.0, 566.0, 533.0, 495.0, 496.0, 415.0, 358.0, 299.0, 237.0, 156.0, 146.0, 126.0, 137.0, 109.0, 99.0, 83.0, 68.0, 50.0, 41.0, 49.0, 27.0, 36.0, 33.0, 23.0, 26.0, 15.0, 15.0, 11.0, 15.0, 15.0, 8.0, 4.0, 6.0, 8.0, 6.0, 5.0, 2.0, 2.0, 2.0], "bins": [-24.578125, -23.677490234375, -22.77685546875, -21.876220703125, -20.9755859375, -20.074951171875, -19.17431640625, -18.273681640625, -17.373046875, -16.472412109375, -15.57177734375, -14.671142578125, -13.7705078125, -12.869873046875, -11.96923828125, -11.068603515625, -10.16796875, -9.267333984375, -8.36669921875, -7.466064453125, -6.5654296875, -5.664794921875, -4.76416015625, -3.863525390625, -2.962890625, -2.062255859375, -1.16162109375, -0.260986328125, 0.6396484375, 1.540283203125, 2.44091796875, 3.341552734375, 4.2421875, 5.142822265625, 6.04345703125, 6.944091796875, 7.8447265625, 8.745361328125, 9.64599609375, 10.546630859375, 11.447265625, 12.347900390625, 13.24853515625, 14.149169921875, 15.0498046875, 15.950439453125, 16.85107421875, 17.751708984375, 18.65234375, 19.552978515625, 20.45361328125, 21.354248046875, 22.2548828125, 23.155517578125, 24.05615234375, 24.956787109375, 25.857421875, 26.758056640625, 27.65869140625, 28.559326171875, 29.4599609375, 30.360595703125, 31.26123046875, 32.161865234375, 33.0625]}, "gradients/graph_3conv.4.weight": {"_type": "histogram", "values": [2.0, 0.0, 1.0, 1.0, 0.0, 0.0, 1.0, 0.0, 0.0, 0.0, 1.0, 0.0, 0.0, 0.0, 0.0, 0.0, 0.0, 0.0, 0.0, 0.0, 0.0, 0.0, 0.0, 0.0, 1.0, 0.0, 0.0, 0.0, 0.0, 0.0, 0.0, 0.0, 1.0, 0.0, 0.0, 1.0, 0.0, 0.0, 0.0, 0.0, 0.0, 0.0, 0.0, 0.0, 0.0, 0.0, 0.0, 0.0, 0.0, 1.0, 1.0, 1.0, 0.0, 0.0, 1.0, 0.0, 0.0, 0.0, 0.0, 1.0, 0.0, 0.0, 0.0, 2.0], "bins": [-34.43942642211914, -33.33009719848633, -32.220767974853516, -31.11143684387207, -30.002107620239258, -28.892776489257812, -27.783447265625, -26.674118041992188, -25.564788818359375, -24.455459594726562, -23.346128463745117, -22.236799240112305, -21.127470016479492, -20.018138885498047, -18.908809661865234, -17.799480438232422, -16.690149307250977, -15.580819129943848, -14.471489906311035, -13.362159729003906, -12.252830505371094, -11.143500328063965, -10.034170150756836, -8.924840927124023, -7.8155107498168945, -6.706181049346924, -5.596851348876953, -4.487521171569824, -3.3781914710998535, -2.268861770629883, -1.159531593322754, -0.0502018928527832, 1.0591278076171875, 2.168457508087158, 3.277787446975708, 4.387117385864258, 5.4964470863342285, 6.605776786804199, 7.715106964111328, 8.82443618774414, 9.93376636505127, 11.043096542358398, 12.152425765991211, 13.26175594329834, 14.371086120605469, 15.480415344238281, 16.589744567871094, 17.69907569885254, 18.80840492248535, 19.917734146118164, 21.02706527709961, 22.136394500732422, 23.245723724365234, 24.355052947998047, 25.464384078979492, 26.573713302612305, 27.68304443359375, 28.792373657226562, 29.901704788208008, 31.01103401184082, 32.120365142822266, 33.22969436645508, 34.33902359008789, 35.4483528137207, 36.557682037353516]}, "gradients/graph_3conv.4.bias": {"_type": "histogram", "values": [1.0, 0.0, 0.0, 0.0, 0.0, 0.0, 1.0, 0.0, 0.0, 0.0, 0.0, 0.0, 0.0, 0.0, 0.0, 1.0, 0.0, 0.0, 0.0, 1.0, 0.0, 0.0, 1.0, 1.0, 0.0, 1.0, 0.0, 0.0, 0.0, 0.0, 0.0, 0.0, 0.0, 0.0, 1.0, 1.0, 1.0, 0.0, 0.0, 1.0, 0.0, 1.0, 0.0, 0.0, 0.0, 0.0, 0.0, 0.0, 0.0, 0.0, 0.0, 0.0, 1.0, 0.0, 0.0, 0.0, 0.0, 1.0, 0.0, 1.0, 0.0, 0.0, 0.0, 1.0], "bins": [-62.15206527709961, -60.74978256225586, -59.347496032714844, -57.945213317871094, -56.54292678833008, -55.14064407348633, -53.73835754394531, -52.33607482910156, -50.93379211425781, -49.53150939941406, -48.12922286987305, -46.7269401550293, -45.32465362548828, -43.92237091064453, -42.52008819580078, -41.117801666259766, -39.71551513671875, -38.313232421875, -36.910945892333984, -35.508663177490234, -34.10637664794922, -32.70409393310547, -31.301809310913086, -29.899524688720703, -28.497241973876953, -27.09495735168457, -25.692672729492188, -24.290390014648438, -22.888105392456055, -21.485820770263672, -20.08353614807129, -18.681251525878906, -17.278966903686523, -15.87668228149414, -14.474398612976074, -13.072113990783691, -11.669830322265625, -10.267545700073242, -8.86526107788086, -7.462977409362793, -6.06069278717041, -4.6584086418151855, -3.256124258041382, -1.8538398742675781, -0.4515557289123535, 0.9507284164428711, 2.353013038635254, 3.7552967071533203, 5.157581329345703, 6.559865474700928, 7.962149620056152, 9.364434242248535, 10.766717910766602, 12.169002532958984, 13.571287155151367, 14.973570823669434, 16.3758544921875, 17.778139114379883, 19.180423736572266, 20.582706451416016, 21.9849910736084, 23.38727569580078, 24.789560317993164, 26.191844940185547, 27.59412956237793]}, "gradients/graph_3conv.3.weight": {"_type": "histogram", "values": [1.0, 1.0, 0.0, 0.0, 2.0, 2.0, 2.0, 2.0, 1.0, 10.0, 5.0, 5.0, 9.0, 15.0, 27.0, 33.0, 44.0, 42.0, 50.0, 47.0, 71.0, 71.0, 124.0, 91.0, 86.0, 98.0, 103.0, 83.0, 84.0, 95.0, 144.0, 126.0, 115.0, 75.0, 69.0, 41.0, 43.0, 33.0, 35.0, 26.0, 31.0, 19.0, 15.0, 12.0, 12.0, 10.0, 4.0, 4.0, 3.0, 5.0, 5.0, 3.0, 1.0, 1.0, 3.0, 1.0, 3.0, 2.0, 0.0, 0.0, 0.0, 1.0, 1.0, 1.0], "bins": [-58.9375, -56.6982421875, -54.458984375, -52.2197265625, -49.98046875, -47.7412109375, -45.501953125, -43.2626953125, -41.0234375, -38.7841796875, -36.544921875, -34.3056640625, -32.06640625, -29.8271484375, -27.587890625, -25.3486328125, -23.109375, -20.8701171875, -18.630859375, -16.3916015625, -14.15234375, -11.9130859375, -9.673828125, -7.4345703125, -5.1953125, -2.9560546875, -0.716796875, 1.5224609375, 3.76171875, 6.0009765625, 8.240234375, 10.4794921875, 12.71875, 14.9580078125, 17.197265625, 19.4365234375, 21.67578125, 23.9150390625, 26.154296875, 28.3935546875, 30.6328125, 32.8720703125, 35.111328125, 37.3505859375, 39.58984375, 41.8291015625, 44.068359375, 46.3076171875, 48.546875, 50.7861328125, 53.025390625, 55.2646484375, 57.50390625, 59.7431640625, 61.982421875, 64.2216796875, 66.4609375, 68.7001953125, 70.939453125, 73.1787109375, 75.41796875, 77.6572265625, 79.896484375, 82.1357421875, 84.375]}, "gradients/graph_3conv.1.weight": {"_type": "histogram", "values": [1.0, 0.0, 0.0, 0.0, 0.0, 0.0, 0.0, 1.0, 0.0, 1.0, 0.0, 0.0, 0.0, 0.0, 1.0, 0.0, 0.0, 0.0, 1.0, 0.0, 0.0, 0.0, 0.0, 0.0, 0.0, 0.0, 0.0, 0.0, 0.0, 0.0, 0.0, 0.0, 0.0, 0.0, 0.0, 0.0, 0.0, 0.0, 0.0, 0.0, 0.0, 0.0, 1.0, 0.0, 0.0, 0.0, 0.0, 0.0, 0.0, 0.0, 0.0, 0.0, 0.0, 0.0, 0.0, 0.0, 0.0, 0.0, 0.0, 0.0, 0.0, 1.0, 0.0, 1.0], "bins": [-112.09434509277344, -107.98387908935547, -103.8734130859375, -99.762939453125, -95.65247344970703, -91.54200744628906, -87.43153381347656, -83.3210678100586, -79.21060180664062, -75.10013580322266, -70.98966979980469, -66.87919616699219, -62.76873016357422, -58.65826416015625, -54.547794342041016, -50.43732452392578, -46.32685852050781, -42.216392517089844, -38.10592269897461, -33.995452880859375, -29.884986877441406, -25.774518966674805, -21.664051055908203, -17.5535831451416, -13.443115234375, -9.332647323608398, -5.222179412841797, -1.1117115020751953, 2.9987564086914062, 7.109224319458008, 11.21969223022461, 15.330160140991211, 19.440643310546875, 23.551111221313477, 27.661579132080078, 31.77204704284668, 35.88251495361328, 39.99298095703125, 44.103450775146484, 48.21392059326172, 52.32438659667969, 56.434852600097656, 60.54532241821289, 64.65579223632812, 68.7662582397461, 72.87672424316406, 76.98719787597656, 81.09766387939453, 85.2081298828125, 89.31859588623047, 93.42906188964844, 97.53953552246094, 101.6500015258789, 105.76046752929688, 109.87094116210938, 113.98140716552734, 118.09187316894531, 122.20233917236328, 126.31280517578125, 130.42327880859375, 134.53375244140625, 138.6442108154297, 142.7546844482422, 146.86514282226562, 150.97561645507812]}, "gradients/graph_3conv.1.bias": {"_type": "histogram", "values": [1.0, 0.0, 0.0, 0.0, 0.0, 0.0, 0.0, 0.0, 0.0, 0.0, 0.0, 0.0, 0.0, 0.0, 0.0, 0.0, 0.0, 0.0, 0.0, 0.0, 0.0, 0.0, 0.0, 0.0, 0.0, 0.0, 0.0, 0.0, 0.0, 0.0, 0.0, 0.0, 0.0, 0.0, 0.0, 0.0, 0.0, 0.0, 0.0, 0.0, 0.0, 0.0, 0.0, 1.0, 1.0, 0.0, 0.0, 0.0, 0.0, 0.0, 0.0, 1.0, 0.0, 1.0, 0.0, 1.0, 0.0, 0.0, 0.0, 0.0, 0.0, 0.0, 0.0, 2.0], "bins": [-156.44866943359375, -153.41262817382812, -150.3765869140625, -147.34056091308594, -144.3045196533203, -141.2684783935547, -138.23245239257812, -135.1964111328125, -132.16036987304688, -129.12432861328125, -126.08829498291016, -123.05226135253906, -120.01622009277344, -116.98017883300781, -113.94414520263672, -110.90811157226562, -107.8720703125, -104.83602905273438, -101.79999542236328, -98.76396179199219, -95.72792053222656, -92.69187927246094, -89.65584564208984, -86.61981201171875, -83.58377075195312, -80.5477294921875, -77.5116958618164, -74.47566223144531, -71.43962097167969, -68.40357971191406, -65.36754608154297, -62.33150863647461, -59.29547882080078, -56.25944137573242, -53.22340393066406, -50.1873664855957, -47.151329040527344, -44.115291595458984, -41.079254150390625, -38.043216705322266, -35.007179260253906, -31.971141815185547, -28.935104370117188, -25.899066925048828, -22.86302947998047, -19.82699203491211, -16.79095458984375, -13.75491714477539, -10.718879699707031, -7.682842254638672, -4.6468048095703125, -1.6107673645019531, 1.4252700805664062, 4.461307525634766, 7.497344970703125, 10.533382415771484, 13.569419860839844, 16.605457305908203, 19.641494750976562, 22.677532196044922, 25.71356964111328, 28.74960708618164, 31.78564453125, 34.82168197631836, 37.85771942138672]}, "gradients/graph_3conv.0.weight": {"_type": "histogram", "values": [1.0, 0.0, 0.0, 1.0, 0.0, 0.0, 0.0, 1.0, 1.0, 0.0, 0.0, 1.0, 1.0, 0.0, 0.0, 0.0, 4.0, 1.0, 0.0, 1.0, 4.0, 4.0, 6.0, 4.0, 9.0, 8.0, 9.0, 10.0, 7.0, 9.0, 6.0, 7.0, 7.0, 2.0, 11.0, 9.0, 12.0, 15.0, 19.0, 21.0, 25.0, 25.0, 27.0, 19.0, 17.0, 13.0, 16.0, 7.0, 7.0, 9.0, 2.0, 7.0, 4.0, 2.0, 2.0, 2.0, 3.0, 3.0, 0.0, 1.0, 0.0, 0.0, 1.0, 1.0], "bins": [-108.5625, -105.8291015625, -103.095703125, -100.3623046875, -97.62890625, -94.8955078125, -92.162109375, -89.4287109375, -86.6953125, -83.9619140625, -81.228515625, -78.4951171875, -75.76171875, -73.0283203125, -70.294921875, -67.5615234375, -64.828125, -62.0947265625, -59.361328125, -56.6279296875, -53.89453125, -51.1611328125, -48.427734375, -45.6943359375, -42.9609375, -40.2275390625, -37.494140625, -34.7607421875, -32.02734375, -29.2939453125, -26.560546875, -23.8271484375, -21.09375, -18.3603515625, -15.626953125, -12.8935546875, -10.16015625, -7.4267578125, -4.693359375, -1.9599609375, 0.7734375, 3.5068359375, 6.240234375, 8.9736328125, 11.70703125, 14.4404296875, 17.173828125, 19.9072265625, 22.640625, 25.3740234375, 28.107421875, 30.8408203125, 33.57421875, 36.3076171875, 39.041015625, 41.7744140625, 44.5078125, 47.2412109375, 49.974609375, 52.7080078125, 55.44140625, 58.1748046875, 60.908203125, 63.6416015625, 66.375]}, "_wandb": {"runtime": 9553}}