{"observations_loss_sum/train": 1611.0968017578125, "_timestamp": 1671706767.5835414, "image_hsr_256/train": 1611.0968017578125, "reward_loss/train": 0.0, "kl_loss_sum/train": 72.62770080566406, "kl_loss/train": 72.62770080566406, "frame": 20000000, "_runtime": 6291.046948432922, "_step": 8000, "observations_loss_sum/validation": 4420.0625, "image_hsr_256/validation": 4420.0625, "reward_loss/validation": 0.0, "kl_loss_sum/validation": 108.72029113769531, "kl_loss/validation": 108.72029113769531, "gradients/decoder.conv.15.weight": {"_type": "histogram", "values": [8.0, 19.0, 39.0, 71.0, 120.0, 162.0, 173.0, 139.0, 112.0, 73.0, 75.0, 78.0, 92.0, 77.0, 45.0, 41.0, 46.0, 35.0, 32.0, 26.0, 24.0, 23.0, 23.0, 17.0, 20.0, 20.0, 17.0, 16.0, 20.0, 15.0, 12.0, 13.0, 1.0, 4.0, 2.0, 2.0, 0.0, 0.0, 0.0, 0.0, 0.0, 0.0, 0.0, 0.0, 1.0, 2.0, 2.0, 2.0, 1.0, 1.0, 2.0, 1.0, 3.0, 2.0, 3.0, 1.0, 0.0, 2.0, 2.0, 2.0, 2.0, 4.0, 1.0, 2.0], "bins": [-54.96875, -35.81298828125, -16.6572265625, 2.49853515625, 21.654296875, 40.81005859375, 59.9658203125, 79.12158203125, 98.27734375, 117.43310546875, 136.5888671875, 155.74462890625, 174.900390625, 194.05615234375, 213.2119140625, 232.36767578125, 251.5234375, 270.67919921875, 289.8349609375, 308.99072265625, 328.146484375, 347.30224609375, 366.4580078125, 385.61376953125, 404.76953125, 423.92529296875, 443.0810546875, 462.23681640625, 481.392578125, 500.54833984375, 519.7041015625, 538.85986328125, 558.015625, 577.17138671875, 596.3271484375, 615.48291015625, 634.638671875, 653.79443359375, 672.9501953125, 692.10595703125, 711.26171875, 730.41748046875, 749.5732421875, 768.72900390625, 787.884765625, 807.04052734375, 826.1962890625, 845.35205078125, 864.5078125, 883.66357421875, 902.8193359375, 921.97509765625, 941.130859375, 960.28662109375, 979.4423828125, 998.59814453125, 1017.75390625, 1036.90966796875, 1056.0654296875, 1075.22119140625, 1094.376953125, 1113.53271484375, 1132.6884765625, 1151.84423828125, 1171.0]}, "gradients/decoder.conv.15.bias": {"_type": "histogram", "values": [1.0, 0.0, 0.0, 0.0, 0.0, 0.0, 0.0, 0.0, 0.0, 0.0, 0.0, 0.0, 0.0, 0.0, 0.0, 0.0, 0.0, 0.0, 0.0, 0.0, 0.0, 0.0, 0.0, 1.0, 0.0, 0.0, 0.0, 0.0, 0.0, 0.0, 0.0, 0.0, 0.0, 0.0, 0.0, 0.0, 0.0, 0.0, 0.0, 0.0, 0.0, 0.0, 0.0, 0.0, 0.0, 0.0, 0.0, 0.0, 0.0, 0.0, 0.0, 0.0, 0.0, 0.0, 0.0, 0.0, 0.0, 0.0, 0.0, 0.0, 0.0, 0.0, 0.0, 1.0], "bins": [1881.0, 1976.421875, 2071.84375, 2167.265625, 2262.6875, 2358.109375, 2453.53125, 2548.953125, 2644.375, 2739.796875, 2835.21875, 2930.640625, 3026.0625, 3121.484375, 3216.90625, 3312.328125, 3407.75, 3503.171875, 3598.59375, 3694.015625, 3789.4375, 3884.859375, 3980.28125, 4075.703125, 4171.125, 4266.546875, 4361.96875, 4457.390625, 4552.8125, 4648.234375, 4743.65625, 4839.078125, 4934.5, 5029.921875, 5125.34375, 5220.765625, 5316.1875, 5411.609375, 5507.03125, 5602.453125, 5697.875, 5793.296875, 5888.71875, 5984.140625, 6079.5625, 6174.984375, 6270.40625, 6365.828125, 6461.25, 6556.671875, 6652.09375, 6747.515625, 6842.9375, 6938.359375, 7033.78125, 7129.203125, 7224.625, 7320.046875, 7415.46875, 7510.890625, 7606.3125, 7701.734375, 7797.15625, 7892.578125, 7988.0]}, "gradients/decoder.conv.13.weight": {"_type": "histogram", "values": [1.0, 0.0, 0.0, 0.0, 0.0, 0.0, 0.0, 0.0, 0.0, 0.0, 0.0, 0.0, 0.0, 0.0, 0.0, 0.0, 0.0, 0.0, 0.0, 0.0, 0.0, 0.0, 0.0, 0.0, 0.0, 2.0, 0.0, 0.0, 1.0, 0.0, 3.0, 0.0, 1.0, 1.0, 1.0, 0.0, 0.0, 0.0, 3.0, 0.0, 1.0, 0.0, 1.0, 0.0, 0.0, 0.0, 0.0, 0.0, 0.0, 0.0, 0.0, 0.0, 0.0, 0.0, 0.0, 0.0, 0.0, 0.0, 0.0, 0.0, 0.0, 0.0, 0.0, 1.0], "bins": [-3169.256103515625, -3072.283203125, -2975.31005859375, -2878.337158203125, -2781.3642578125, -2684.39111328125, -2587.418212890625, -2490.4453125, -2393.47216796875, -2296.499267578125, -2199.526123046875, -2102.55322265625, -2005.580322265625, -1908.6072998046875, -1811.63427734375, -1714.661376953125, -1617.6884765625, -1520.7154541015625, -1423.7425537109375, -1326.76953125, -1229.796630859375, -1132.8236083984375, -1035.8505859375, -938.8776245117188, -841.9046630859375, -744.9317016601562, -647.958740234375, -550.9857177734375, -454.01275634765625, -357.039794921875, -260.0667724609375, -163.09381103515625, -66.12109375, 30.851882934570312, 127.82485961914062, 224.7978515625, 321.77081298828125, 418.7437744140625, 515.716796875, 612.6897583007812, 709.6627197265625, 806.6356811523438, 903.608642578125, 1000.5816650390625, 1097.5546875, 1194.527587890625, 1291.5006103515625, 1388.4736328125, 1485.446533203125, 1582.4195556640625, 1679.3924560546875, 1776.365478515625, 1873.33837890625, 1970.3114013671875, 2067.284423828125, 2164.25732421875, 2261.23046875, 2358.203369140625, 2455.176513671875, 2552.1494140625, 2649.122314453125, 2746.09521484375, 2843.068359375, 2940.041259765625, 3037.01416015625]}, "gradients/decoder.conv.13.bias": {"_type": "histogram", "values": [1.0, 0.0, 0.0, 0.0, 0.0, 0.0, 0.0, 0.0, 0.0, 0.0, 0.0, 0.0, 0.0, 0.0, 0.0, 0.0, 0.0, 0.0, 0.0, 0.0, 0.0, 0.0, 0.0, 0.0, 0.0, 0.0, 0.0, 0.0, 0.0, 0.0, 2.0, 0.0, 0.0, 0.0, 0.0, 1.0, 2.0, 1.0, 0.0, 0.0, 1.0, 0.0, 2.0, 0.0, 0.0, 0.0, 0.0, 1.0, 0.0, 0.0, 0.0, 0.0, 0.0, 1.0, 0.0, 0.0, 0.0, 2.0, 0.0, 0.0, 0.0, 1.0, 0.0, 1.0], "bins": [-6007.40283203125, -5859.16162109375, -5710.919921875, -5562.6787109375, -5414.4375, -5266.19580078125, -5117.95458984375, -4969.712890625, -4821.4716796875, -4673.23046875, -4524.98876953125, -4376.74755859375, -4228.505859375, -4080.2646484375, -3932.0234375, -3783.781982421875, -3635.54052734375, -3487.299072265625, -3339.0576171875, -3190.81640625, -3042.574951171875, -2894.33349609375, -2746.09228515625, -2597.850830078125, -2449.609375, -2301.367919921875, -2153.12646484375, -2004.88525390625, -1856.643798828125, -1708.40234375, -1560.1610107421875, -1411.919677734375, -1263.6787109375, -1115.437255859375, -967.1959228515625, -818.9545288085938, -670.713134765625, -522.4717407226562, -374.2303466796875, -225.989013671875, -77.74755859375, 70.49383544921875, 218.7352294921875, 366.97662353515625, 515.218017578125, 663.4594116210938, 811.7008056640625, 959.942138671875, 1108.18359375, 1256.425048828125, 1404.6663818359375, 1552.90771484375, 1701.149169921875, 1849.390625, 1997.6319580078125, 2145.873291015625, 2294.11474609375, 2442.356201171875, 2590.59765625, 2738.8388671875, 2887.080322265625, 3035.32177734375, 3183.56298828125, 3331.804443359375, 3480.0458984375]}, "gradients/decoder.conv.12.weight": {"_type": "histogram", "values": [3.0, 0.0, 0.0, 4.0, 3.0, 3.0, 2.0, 2.0, 4.0, 2.0, 1.0, 2.0, 3.0, 1.0, 1.0, 1.0, 0.0, 2.0, 0.0, 1.0, 0.0, 2.0, 1.0, 1.0, 1.0, 0.0, 1.0, 0.0, 0.0, 2.0, 1.0, 14.0, 20.0, 40.0, 33.0, 38.0, 45.0, 55.0, 95.0, 178.0, 335.0, 646.0, 1485.0, 2470.0, 1313.0, 552.0, 336.0, 181.0, 104.0, 72.0, 30.0, 33.0, 17.0, 11.0, 13.0, 9.0, 3.0, 4.0, 6.0, 1.0, 3.0, 0.0, 3.0, 3.0], "bins": [-1151.0, -1124.5078125, -1098.015625, -1071.5234375, -1045.03125, -1018.5390625, -992.046875, -965.5546875, -939.0625, -912.5703125, -886.078125, -859.5859375, -833.09375, -806.6015625, -780.109375, -753.6171875, -727.125, -700.6328125, -674.140625, -647.6484375, -621.15625, -594.6640625, -568.171875, -541.6796875, -515.1875, -488.6953125, -462.203125, -435.7109375, -409.21875, -382.7265625, -356.234375, -329.7421875, -303.25, -276.7578125, -250.265625, -223.7734375, -197.28125, -170.7890625, -144.296875, -117.8046875, -91.3125, -64.8203125, -38.328125, -11.8359375, 14.65625, 41.1484375, 67.640625, 94.1328125, 120.625, 147.1171875, 173.609375, 200.1015625, 226.59375, 253.0859375, 279.578125, 306.0703125, 332.5625, 359.0546875, 385.546875, 412.0390625, 438.53125, 465.0234375, 491.515625, 518.0078125, 544.5]}, "gradients/decoder.conv.10.weight": {"_type": "histogram", "values": [1.0, 0.0, 0.0, 0.0, 1.0, 0.0, 2.0, 0.0, 2.0, 1.0, 1.0, 2.0, 0.0, 6.0, 5.0, 1.0, 1.0, 2.0, 0.0, 0.0, 1.0, 2.0, 0.0, 0.0, 0.0, 0.0, 1.0, 0.0, 0.0, 1.0, 0.0, 0.0, 0.0, 0.0, 0.0, 0.0, 0.0, 0.0, 0.0, 0.0, 1.0, 0.0, 0.0, 0.0, 0.0, 0.0, 0.0, 0.0, 0.0, 0.0, 0.0, 0.0, 0.0, 0.0, 0.0, 0.0, 0.0, 0.0, 0.0, 0.0, 0.0, 0.0, 0.0, 1.0], "bins": [-273.0670166015625, -256.1963195800781, -239.32565307617188, -222.4549560546875, -205.5842742919922, -188.71359252929688, -171.8428955078125, -154.9722137451172, -138.10153198242188, -121.23085021972656, -104.36016082763672, -87.48947143554688, -70.61878967285156, -53.74810791015625, -36.877418518066406, -20.006729125976562, -3.13604736328125, 13.734638214111328, 30.605323791503906, 47.476009368896484, 64.34669494628906, 81.21737670898438, 98.08806610107422, 114.95875549316406, 131.82943725585938, 148.7001190185547, 165.57080078125, 182.44149780273438, 199.3121795654297, 216.182861328125, 233.05355834960938, 249.9242401123047, 266.794921875, 283.6656188964844, 300.5362854003906, 317.406982421875, 334.27764892578125, 351.1483459472656, 368.01904296875, 384.88970947265625, 401.7604064941406, 418.631103515625, 435.50177001953125, 452.3724670410156, 469.2431640625, 486.11383056640625, 502.9845275878906, 519.855224609375, 536.7258911132812, 553.5965576171875, 570.46728515625, 587.3379516601562, 604.2086181640625, 621.079345703125, 637.9500122070312, 654.8206787109375, 671.69140625, 688.5620727539062, 705.4328002929688, 722.303466796875, 739.1741333007812, 756.0447998046875, 772.91552734375, 789.7861938476562, 806.6568603515625]}, "gradients/decoder.conv.10.bias": {"_type": "histogram", "values": [1.0, 0.0, 1.0, 0.0, 1.0, 0.0, 0.0, 1.0, 0.0, 0.0, 1.0, 0.0, 1.0, 1.0, 1.0, 1.0, 0.0, 2.0, 2.0, 4.0, 2.0, 1.0, 1.0, 1.0, 0.0, 0.0, 1.0, 0.0, 1.0, 1.0, 1.0, 0.0, 1.0, 2.0, 0.0, 0.0, 0.0, 1.0, 0.0, 0.0, 0.0, 0.0, 0.0, 0.0, 0.0, 0.0, 0.0, 0.0, 0.0, 0.0, 0.0, 0.0, 0.0, 1.0, 0.0, 0.0, 0.0, 0.0, 0.0, 0.0, 0.0, 0.0, 0.0, 1.0], "bins": [-250.83294677734375, -240.695068359375, -230.55718994140625, -220.4193115234375, -210.28143310546875, -200.1435546875, -190.00567626953125, -179.8677978515625, -169.72991943359375, -159.592041015625, -149.45416259765625, -139.3162841796875, -129.17840576171875, -119.04052734375, -108.90264892578125, -98.7647705078125, -88.62689208984375, -78.489013671875, -68.35113525390625, -58.2132568359375, -48.07537841796875, -37.9375, -27.79962158203125, -17.6617431640625, -7.52386474609375, 2.614013671875, 12.75189208984375, 22.8897705078125, 33.02764892578125, 43.16552734375, 53.30340576171875, 63.4412841796875, 73.57916259765625, 83.717041015625, 93.85491943359375, 103.9927978515625, 114.13067626953125, 124.2685546875, 134.40643310546875, 144.5443115234375, 154.68218994140625, 164.820068359375, 174.95794677734375, 185.0958251953125, 195.23370361328125, 205.37158203125, 215.50946044921875, 225.6473388671875, 235.78521728515625, 245.923095703125, 256.06097412109375, 266.1988525390625, 276.33673095703125, 286.474609375, 296.61248779296875, 306.7503662109375, 316.88824462890625, 327.026123046875, 337.16400146484375, 347.3018798828125, 357.43975830078125, 367.57763671875, 377.71551513671875, 387.8533935546875, 397.99127197265625]}, "gradients/decoder.conv.9.weight": {"_type": "histogram", "values": [1.0, 1.0, 0.0, 0.0, 0.0, 1.0, 0.0, 3.0, 1.0, 3.0, 5.0, 3.0, 4.0, 11.0, 9.0, 26.0, 33.0, 41.0, 54.0, 60.0, 86.0, 101.0, 135.0, 184.0, 247.0, 333.0, 458.0, 674.0, 1061.0, 2089.0, 4241.0, 8266.0, 6487.0, 3423.0, 1787.0, 932.0, 590.0, 366.0, 279.0, 213.0, 136.0, 116.0, 63.0, 59.0, 24.0, 34.0, 29.0, 24.0, 19.0, 17.0, 10.0, 4.0, 2.0, 6.0, 3.0, 5.0, 3.0, 2.0, 0.0, 1.0, 0.0, 1.0, 1.0, 1.0], "bins": [-133.375, -129.166015625, -124.95703125, -120.748046875, -116.5390625, -112.330078125, -108.12109375, -103.912109375, -99.703125, -95.494140625, -91.28515625, -87.076171875, -82.8671875, -78.658203125, -74.44921875, -70.240234375, -66.03125, -61.822265625, -57.61328125, -53.404296875, -49.1953125, -44.986328125, -40.77734375, -36.568359375, -32.359375, -28.150390625, -23.94140625, -19.732421875, -15.5234375, -11.314453125, -7.10546875, -2.896484375, 1.3125, 5.521484375, 9.73046875, 13.939453125, 18.1484375, 22.357421875, 26.56640625, 30.775390625, 34.984375, 39.193359375, 43.40234375, 47.611328125, 51.8203125, 56.029296875, 60.23828125, 64.447265625, 68.65625, 72.865234375, 77.07421875, 81.283203125, 85.4921875, 89.701171875, 93.91015625, 98.119140625, 102.328125, 106.537109375, 110.74609375, 114.955078125, 119.1640625, 123.373046875, 127.58203125, 131.791015625, 136.0]}, "gradients/decoder.conv.7.weight": {"_type": "histogram", "values": [1.0, 0.0, 0.0, 0.0, 0.0, 0.0, 0.0, 0.0, 0.0, 0.0, 0.0, 1.0, 1.0, 0.0, 1.0, 0.0, 0.0, 0.0, 2.0, 0.0, 5.0, 3.0, 1.0, 1.0, 2.0, 3.0, 4.0, 3.0, 5.0, 3.0, 2.0, 5.0, 2.0, 4.0, 2.0, 1.0, 0.0, 0.0, 1.0, 0.0, 2.0, 3.0, 1.0, 0.0, 2.0, 0.0, 0.0, 0.0, 0.0, 0.0, 0.0, 0.0, 0.0, 0.0, 0.0, 0.0, 1.0, 0.0, 0.0, 0.0, 1.0, 0.0, 0.0, 1.0], "bins": [-215.87066650390625, -208.6142120361328, -201.3577423095703, -194.10128784179688, -186.84481811523438, -179.58836364746094, -172.3319091796875, -165.075439453125, -157.81898498535156, -150.56253051757812, -143.30606079101562, -136.0496063232422, -128.79315185546875, -121.53668212890625, -114.28022766113281, -107.02376556396484, -99.76730346679688, -92.5108413696289, -85.25437927246094, -77.9979248046875, -70.74146270751953, -63.48500061035156, -56.22854232788086, -48.972084045410156, -41.71562194824219, -34.45915985107422, -27.202701568603516, -19.94624137878418, -12.689781188964844, -5.433319091796875, 1.8231391906738281, 9.079597473144531, 16.3360595703125, 23.592519760131836, 30.848979949951172, 38.105438232421875, 45.361900329589844, 52.61836242675781, 59.874820709228516, 67.13127899169922, 74.38774108886719, 81.64420318603516, 88.90066528320312, 96.15711975097656, 103.41358184814453, 110.6700439453125, 117.92649841308594, 125.1829605102539, 132.43942260742188, 139.6958770751953, 146.9523468017578, 154.20880126953125, 161.46527099609375, 168.7217254638672, 175.97817993164062, 183.23464965820312, 190.49110412597656, 197.74755859375, 205.0040283203125, 212.26048278808594, 219.51693725585938, 226.77340698242188, 234.0298614501953, 241.28631591796875, 248.54278564453125]}, "gradients/decoder.conv.7.bias": {"_type": "histogram", "values": [1.0, 0.0, 0.0, 0.0, 0.0, 0.0, 1.0, 0.0, 0.0, 1.0, 1.0, 1.0, 3.0, 1.0, 2.0, 1.0, 0.0, 0.0, 1.0, 1.0, 6.0, 1.0, 1.0, 4.0, 4.0, 1.0, 6.0, 4.0, 2.0, 2.0, 1.0, 1.0, 3.0, 1.0, 0.0, 2.0, 1.0, 2.0, 2.0, 0.0, 1.0, 0.0, 1.0, 1.0, 0.0, 1.0, 0.0, 0.0, 0.0, 0.0, 0.0, 0.0, 0.0, 0.0, 0.0, 0.0, 0.0, 1.0, 0.0, 0.0, 0.0, 0.0, 0.0, 1.0], "bins": [-117.90422821044922, -113.42343139648438, -108.94264221191406, -104.46184539794922, -99.98104858398438, -95.50025939941406, -91.01946258544922, -86.53866577148438, -82.05787658691406, -77.57707977294922, -73.0962905883789, -68.61549377441406, -64.13469696044922, -59.65390396118164, -55.17311096191406, -50.69231414794922, -46.211517333984375, -41.7307243347168, -37.24992752075195, -32.769134521484375, -28.288339614868164, -23.807544708251953, -19.326751708984375, -14.845956802368164, -10.365161895751953, -5.8843674659729, -1.4035730361938477, 3.077220916748047, 7.558015823364258, 12.038810729980469, 16.519603729248047, 21.000398635864258, 25.481185913085938, 29.96198081970215, 34.44277572631836, 38.92356872558594, 43.40436553955078, 47.88515853881836, 52.36595153808594, 56.84674835205078, 61.32754135131836, 65.80833435058594, 70.28913116455078, 74.76992797851562, 79.25071716308594, 83.73151397705078, 88.21231079101562, 92.69309997558594, 97.17389678955078, 101.65469360351562, 106.13548278808594, 110.61627960205078, 115.09707641601562, 119.57786560058594, 124.05866241455078, 128.53945922851562, 133.02024841308594, 137.50103759765625, 141.98184204101562, 146.46263122558594, 150.94342041015625, 155.42422485351562, 159.90501403808594, 164.38580322265625, 168.86660766601562]}, "gradients/decoder.conv.6.weight": {"_type": "histogram", "values": [1.0, 0.0, 1.0, 0.0, 0.0, 0.0, 2.0, 1.0, 1.0, 1.0, 2.0, 5.0, 5.0, 6.0, 10.0, 15.0, 30.0, 34.0, 48.0, 43.0, 70.0, 131.0, 191.0, 242.0, 401.0, 550.0, 896.0, 1467.0, 2511.0, 4696.0, 9837.0, 19188.0, 37017.0, 26946.0, 12784.0, 6194.0, 3233.0, 1817.0, 988.0, 597.0, 368.0, 245.0, 163.0, 116.0, 58.0, 43.0, 27.0, 17.0, 28.0, 10.0, 12.0, 6.0, 3.0, 3.0, 5.0, 1.0, 2.0, 1.0, 1.0, 0.0, 0.0, 1.0, 0.0, 1.0], "bins": [-80.5, -78.0419921875, -75.583984375, -73.1259765625, -70.66796875, -68.2099609375, -65.751953125, -63.2939453125, -60.8359375, -58.3779296875, -55.919921875, -53.4619140625, -51.00390625, -48.5458984375, -46.087890625, -43.6298828125, -41.171875, -38.7138671875, -36.255859375, -33.7978515625, -31.33984375, -28.8818359375, -26.423828125, -23.9658203125, -21.5078125, -19.0498046875, -16.591796875, -14.1337890625, -11.67578125, -9.2177734375, -6.759765625, -4.3017578125, -1.84375, 0.6142578125, 3.072265625, 5.5302734375, 7.98828125, 10.4462890625, 12.904296875, 15.3623046875, 17.8203125, 20.2783203125, 22.736328125, 25.1943359375, 27.65234375, 30.1103515625, 32.568359375, 35.0263671875, 37.484375, 39.9423828125, 42.400390625, 44.8583984375, 47.31640625, 49.7744140625, 52.232421875, 54.6904296875, 57.1484375, 59.6064453125, 62.064453125, 64.5224609375, 66.98046875, 69.4384765625, 71.896484375, 74.3544921875, 76.8125]}, "gradients/decoder.conv.4.weight": {"_type": "histogram", "values": [1.0, 0.0, 0.0, 0.0, 1.0, 0.0, 0.0, 0.0, 1.0, 1.0, 1.0, 0.0, 0.0, 0.0, 2.0, 2.0, 4.0, 4.0, 3.0, 5.0, 6.0, 6.0, 2.0, 6.0, 8.0, 10.0, 4.0, 9.0, 1.0, 10.0, 5.0, 2.0, 6.0, 6.0, 2.0, 3.0, 3.0, 1.0, 1.0, 0.0, 1.0, 1.0, 1.0, 0.0, 0.0, 5.0, 0.0, 0.0, 0.0, 0.0, 0.0, 1.0, 0.0, 0.0, 0.0, 0.0, 0.0, 0.0, 1.0, 0.0, 0.0, 0.0, 0.0, 2.0], "bins": [-124.02222442626953, -119.53521728515625, -115.04821014404297, -110.56120300292969, -106.0741958618164, -101.58718872070312, -97.10017395019531, -92.61317443847656, -88.12615966796875, -83.63915252685547, -79.15214538574219, -74.6651382446289, -70.17813110351562, -65.69112396240234, -61.2041130065918, -56.717105865478516, -52.2301025390625, -47.74309539794922, -43.25608825683594, -38.769081115722656, -34.282073974609375, -29.79506492614746, -25.308055877685547, -20.821048736572266, -16.334041595458984, -11.847034454345703, -7.3600263595581055, -2.873018264770508, 1.6139888763427734, 6.100996017456055, 10.588005065917969, 15.07501220703125, 19.562026977539062, 24.049034118652344, 28.536041259765625, 33.023048400878906, 37.51005554199219, 41.99706268310547, 46.484073638916016, 50.9710807800293, 55.45808792114258, 59.94509506225586, 64.4321060180664, 68.91911315917969, 73.40612030029297, 77.89312744140625, 82.38013458251953, 86.86714172363281, 91.3541488647461, 95.84115600585938, 100.32816314697266, 104.81517028808594, 109.30217742919922, 113.7891845703125, 118.27619934082031, 122.76319885253906, 127.25021362304688, 131.7372283935547, 136.22422790527344, 140.71124267578125, 145.1982421875, 149.6852569580078, 154.17225646972656, 158.65927124023438, 163.14627075195312]}, "gradients/decoder.conv.4.bias": {"_type": "histogram", "values": [1.0, 0.0, 0.0, 0.0, 0.0, 0.0, 0.0, 2.0, 0.0, 0.0, 2.0, 0.0, 1.0, 3.0, 1.0, 0.0, 2.0, 3.0, 7.0, 3.0, 4.0, 4.0, 9.0, 5.0, 9.0, 7.0, 5.0, 7.0, 7.0, 9.0, 3.0, 4.0, 2.0, 3.0, 2.0, 7.0, 0.0, 2.0, 3.0, 2.0, 1.0, 0.0, 1.0, 2.0, 0.0, 2.0, 0.0, 0.0, 0.0, 0.0, 0.0, 0.0, 0.0, 0.0, 0.0, 0.0, 1.0, 1.0, 0.0, 0.0, 0.0, 0.0, 0.0, 1.0], "bins": [-113.42893981933594, -109.28762817382812, -105.14631652832031, -101.00499725341797, -96.86368560791016, -92.72237396240234, -88.5810546875, -84.43974304199219, -80.29843139648438, -76.15711975097656, -72.01580810546875, -67.8744888305664, -63.733177185058594, -59.59186553955078, -55.4505500793457, -51.309234619140625, -47.16792297363281, -43.026611328125, -38.88529586791992, -34.743980407714844, -30.60266876220703, -26.461355209350586, -22.32004165649414, -18.178728103637695, -14.03741455078125, -9.896100997924805, -5.754787445068359, -1.613473892211914, 2.5278396606445312, 6.669153213500977, 10.810466766357422, 14.951780319213867, 19.093093872070312, 23.234407424926758, 27.375720977783203, 31.51703453063965, 35.658348083496094, 39.799659729003906, 43.940975189208984, 48.08229064941406, 52.223602294921875, 56.36491394042969, 60.506229400634766, 64.64754486083984, 68.78885650634766, 72.93016815185547, 77.07148742675781, 81.21279907226562, 85.35411071777344, 89.49542236328125, 93.63673400878906, 97.7780532836914, 101.91936492919922, 106.06067657470703, 110.20199584960938, 114.34330749511719, 118.484619140625, 122.62593078613281, 126.76724243164062, 130.90855407714844, 135.04986572265625, 139.19119262695312, 143.33250427246094, 147.47381591796875, 151.61512756347656]}, "gradients/decoder.conv.3.weight": {"_type": "histogram", "values": [1.0, 3.0, 0.0, 0.0, 2.0, 0.0, 5.0, 7.0, 16.0, 23.0, 32.0, 74.0, 89.0, 153.0, 205.0, 322.0, 424.0, 650.0, 933.0, 1451.0, 2288.0, 3756.0, 6101.0, 9830.0, 15969.0, 26170.0, 41657.0, 63540.0, 92927.0, 87022.0, 57613.0, 39019.0, 25572.0, 16647.0, 10276.0, 6967.0, 4579.0, 3123.0, 2117.0, 1552.0, 981.0, 676.0, 470.0, 357.0, 216.0, 160.0, 94.0, 66.0, 44.0, 36.0, 23.0, 19.0, 12.0, 3.0, 2.0, 7.0, 2.0, 0.0, 0.0, 1.0, 2.0, 0.0, 1.0, 1.0], "bins": [-20.78125, -20.066650390625, -19.35205078125, -18.637451171875, -17.9228515625, -17.208251953125, -16.49365234375, -15.779052734375, -15.064453125, -14.349853515625, -13.63525390625, -12.920654296875, -12.2060546875, -11.491455078125, -10.77685546875, -10.062255859375, -9.34765625, -8.633056640625, -7.91845703125, -7.203857421875, -6.4892578125, -5.774658203125, -5.06005859375, -4.345458984375, -3.630859375, -2.916259765625, -2.20166015625, -1.487060546875, -0.7724609375, -0.057861328125, 0.65673828125, 1.371337890625, 2.0859375, 2.800537109375, 3.51513671875, 4.229736328125, 4.9443359375, 5.658935546875, 6.37353515625, 7.088134765625, 7.802734375, 8.517333984375, 9.23193359375, 9.946533203125, 10.6611328125, 11.375732421875, 12.09033203125, 12.804931640625, 13.51953125, 14.234130859375, 14.94873046875, 15.663330078125, 16.3779296875, 17.092529296875, 17.80712890625, 18.521728515625, 19.236328125, 19.950927734375, 20.66552734375, 21.380126953125, 22.0947265625, 22.809326171875, 23.52392578125, 24.238525390625, 24.953125]}, "gradients/decoder.conv.1.weight": {"_type": "histogram", "values": [2.0, 0.0, 1.0, 0.0, 0.0, 1.0, 2.0, 3.0, 0.0, 2.0, 0.0, 3.0, 3.0, 2.0, 4.0, 6.0, 5.0, 3.0, 7.0, 2.0, 6.0, 4.0, 10.0, 14.0, 14.0, 7.0, 8.0, 6.0, 6.0, 5.0, 9.0, 13.0, 13.0, 7.0, 4.0, 7.0, 6.0, 9.0, 4.0, 11.0, 3.0, 5.0, 7.0, 3.0, 1.0, 5.0, 0.0, 5.0, 3.0, 2.0, 1.0, 0.0, 3.0, 0.0, 3.0, 1.0, 1.0, 0.0, 1.0, 0.0, 0.0, 0.0, 1.0, 2.0], "bins": [-55.83408737182617, -53.983036041259766, -52.131980895996094, -50.28092956542969, -48.429874420166016, -46.57882308959961, -44.72776794433594, -42.87671661376953, -41.025665283203125, -39.17461395263672, -37.32355880737305, -35.47250747680664, -33.62145233154297, -31.770401000976562, -29.919347763061523, -28.068294525146484, -26.217239379882812, -24.366186141967773, -22.515132904052734, -20.664081573486328, -18.813026428222656, -16.96197509765625, -15.110921859741211, -13.259868621826172, -11.408815383911133, -9.557762145996094, -7.706709384918213, -5.855656623840332, -4.004603385925293, -2.153550148010254, -0.30249786376953125, 1.5485553741455078, 3.399608612060547, 5.250661849975586, 7.101714611053467, 8.952767372131348, 10.803820610046387, 12.654873847961426, 14.505926132202148, 16.356979370117188, 18.208032608032227, 20.059085845947266, 21.910139083862305, 23.761192321777344, 25.61224365234375, 27.463298797607422, 29.314350128173828, 31.165403366088867, 33.016456604003906, 34.86750793457031, 36.718563079833984, 38.56961441040039, 40.42066955566406, 42.27172088623047, 44.122772216796875, 45.97382736206055, 47.82488250732422, 49.675933837890625, 51.5269889831543, 53.3780403137207, 55.229095458984375, 57.08014678955078, 58.93119812011719, 60.78225326538086, 62.633304595947266]}, "gradients/decoder.conv.1.bias": {"_type": "histogram", "values": [1.0, 0.0, 1.0, 0.0, 0.0, 0.0, 0.0, 0.0, 0.0, 0.0, 1.0, 2.0, 4.0, 5.0, 2.0, 2.0, 4.0, 3.0, 8.0, 5.0, 4.0, 6.0, 13.0, 5.0, 7.0, 5.0, 11.0, 5.0, 8.0, 8.0, 7.0, 10.0, 12.0, 13.0, 13.0, 5.0, 8.0, 6.0, 8.0, 5.0, 5.0, 6.0, 4.0, 6.0, 6.0, 4.0, 4.0, 6.0, 3.0, 1.0, 1.0, 3.0, 4.0, 1.0, 0.0, 0.0, 1.0, 2.0, 1.0, 0.0, 0.0, 0.0, 0.0, 1.0], "bins": [-56.84198760986328, -55.061676025390625, -53.28136444091797, -51.50104904174805, -49.72073745727539, -47.940425872802734, -46.16011047363281, -44.379798889160156, -42.5994873046875, -40.819175720214844, -39.03886413574219, -37.258548736572266, -35.47823715209961, -33.69792556762695, -31.917612075805664, -30.137298583984375, -28.35698699951172, -26.576675415039062, -24.796361923217773, -23.016048431396484, -21.235736846923828, -19.455425262451172, -17.675111770629883, -15.89479923248291, -14.114486694335938, -12.334174156188965, -10.553861618041992, -8.77354907989502, -6.993236541748047, -5.212924003601074, -3.4326114654541016, -1.652298927307129, 0.12801361083984375, 1.9083261489868164, 3.688638687133789, 5.468951225280762, 7.249263763427734, 9.029576301574707, 10.80988883972168, 12.590201377868652, 14.370513916015625, 16.15082550048828, 17.93113899230957, 19.71145248413086, 21.491764068603516, 23.272075653076172, 25.05238914489746, 26.83270263671875, 28.613014221191406, 30.393325805664062, 32.17363739013672, 33.95395278930664, 35.7342643737793, 37.51457595825195, 39.294891357421875, 41.07520294189453, 42.85551452636719, 44.635826110839844, 46.4161376953125, 48.19645309448242, 49.97676467895508, 51.757076263427734, 53.537391662597656, 55.31770324707031, 57.09801483154297]}, "gradients/decoder.conv.0.weight": {"_type": "histogram", "values": [1.0, 0.0, 0.0, 1.0, 0.0, 1.0, 1.0, 1.0, 2.0, 0.0, 1.0, 1.0, 4.0, 6.0, 5.0, 5.0, 11.0, 12.0, 29.0, 44.0, 71.0, 115.0, 225.0, 374.0, 744.0, 1599.0, 3899.0, 10454.0, 31990.0, 120665.0, 645867.0, 5956475.0, 2276901.0, 291185.0, 65296.0, 19408.0, 6735.0, 2708.0, 1162.0, 516.0, 282.0, 141.0, 91.0, 56.0, 33.0, 27.0, 8.0, 12.0, 6.0, 1.0, 3.0, 0.0, 4.0, 0.0, 1.0, 0.0, 2.0, 0.0, 0.0, 1.0, 0.0, 1.0, 0.0, 1.0], "bins": [-13.609375, -13.18115234375, -12.7529296875, -12.32470703125, -11.896484375, -11.46826171875, -11.0400390625, -10.61181640625, -10.18359375, -9.75537109375, -9.3271484375, -8.89892578125, -8.470703125, -8.04248046875, -7.6142578125, -7.18603515625, -6.7578125, -6.32958984375, -5.9013671875, -5.47314453125, -5.044921875, -4.61669921875, -4.1884765625, -3.76025390625, -3.33203125, -2.90380859375, -2.4755859375, -2.04736328125, -1.619140625, -1.19091796875, -0.7626953125, -0.33447265625, 0.09375, 0.52197265625, 0.9501953125, 1.37841796875, 1.806640625, 2.23486328125, 2.6630859375, 3.09130859375, 3.51953125, 3.94775390625, 4.3759765625, 4.80419921875, 5.232421875, 5.66064453125, 6.0888671875, 6.51708984375, 6.9453125, 7.37353515625, 7.8017578125, 8.22998046875, 8.658203125, 9.08642578125, 9.5146484375, 9.94287109375, 10.37109375, 10.79931640625, 11.2275390625, 11.65576171875, 12.083984375, 12.51220703125, 12.9404296875, 13.36865234375, 13.796875]}, "gradients/fc.weight": {"_type": "histogram", "values": [1.0, 0.0, 3.0, 0.0, 2.0, 2.0, 2.0, 6.0, 3.0, 8.0, 8.0, 6.0, 16.0, 27.0, 31.0, 43.0, 67.0, 109.0, 182.0, 273.0, 444.0, 834.0, 1540.0, 3198.0, 9342.0, 72944.0, 365973.0, 54722.0, 7987.0, 2930.0, 1442.0, 800.0, 500.0, 266.0, 158.0, 138.0, 83.0, 60.0, 50.0, 22.0, 10.0, 17.0, 9.0, 8.0, 5.0, 3.0, 2.0, 2.0, 2.0, 3.0, 2.0, 0.0, 0.0, 0.0, 0.0, 0.0, 1.0, 1.0, 0.0, 0.0, 0.0, 0.0, 0.0, 1.0], "bins": [-61.15625, -58.84326171875, -56.5302734375, -54.21728515625, -51.904296875, -49.59130859375, -47.2783203125, -44.96533203125, -42.65234375, -40.33935546875, -38.0263671875, -35.71337890625, -33.400390625, -31.08740234375, -28.7744140625, -26.46142578125, -24.1484375, -21.83544921875, -19.5224609375, -17.20947265625, -14.896484375, -12.58349609375, -10.2705078125, -7.95751953125, -5.64453125, -3.33154296875, -1.0185546875, 1.29443359375, 3.607421875, 5.92041015625, 8.2333984375, 10.54638671875, 12.859375, 15.17236328125, 17.4853515625, 19.79833984375, 22.111328125, 24.42431640625, 26.7373046875, 29.05029296875, 31.36328125, 33.67626953125, 35.9892578125, 38.30224609375, 40.615234375, 42.92822265625, 45.2412109375, 47.55419921875, 49.8671875, 52.18017578125, 54.4931640625, 56.80615234375, 59.119140625, 61.43212890625, 63.7451171875, 66.05810546875, 68.37109375, 70.68408203125, 72.9970703125, 75.31005859375, 77.623046875, 79.93603515625, 82.2490234375, 84.56201171875, 86.875]}, "gradients/fc.bias": {"_type": "histogram", "values": [1.0, 0.0, 1.0, 0.0, 1.0, 0.0, 0.0, 1.0, 0.0, 1.0, 0.0, 5.0, 3.0, 6.0, 4.0, 6.0, 6.0, 12.0, 10.0, 17.0, 18.0, 19.0, 23.0, 26.0, 49.0, 32.0, 41.0, 36.0, 46.0, 61.0, 49.0, 50.0, 51.0, 51.0, 54.0, 35.0, 37.0, 24.0, 37.0, 30.0, 34.0, 29.0, 22.0, 11.0, 17.0, 11.0, 10.0, 9.0, 10.0, 5.0, 7.0, 1.0, 6.0, 4.0, 1.0, 0.0, 1.0, 2.0, 0.0, 0.0, 0.0, 0.0, 0.0, 1.0], "bins": [-8.796875, -8.527587890625, -8.25830078125, -7.989013671875, -7.7197265625, -7.450439453125, -7.18115234375, -6.911865234375, -6.642578125, -6.373291015625, -6.10400390625, -5.834716796875, -5.5654296875, -5.296142578125, -5.02685546875, -4.757568359375, -4.48828125, -4.218994140625, -3.94970703125, -3.680419921875, -3.4111328125, -3.141845703125, -2.87255859375, -2.603271484375, -2.333984375, -2.064697265625, -1.79541015625, -1.526123046875, -1.2568359375, -0.987548828125, -0.71826171875, -0.448974609375, -0.1796875, 0.089599609375, 0.35888671875, 0.628173828125, 0.8974609375, 1.166748046875, 1.43603515625, 1.705322265625, 1.974609375, 2.243896484375, 2.51318359375, 2.782470703125, 3.0517578125, 3.321044921875, 3.59033203125, 3.859619140625, 4.12890625, 4.398193359375, 4.66748046875, 4.936767578125, 5.2060546875, 5.475341796875, 5.74462890625, 6.013916015625, 6.283203125, 6.552490234375, 6.82177734375, 7.091064453125, 7.3603515625, 7.629638671875, 7.89892578125, 8.168212890625, 8.4375]}, "gradients/graph_1obs_encoder.fc2.weight": {"_type": "histogram", "values": [1.0, 0.0, 0.0, 0.0, 0.0, 0.0, 1.0, 17.0, 3.0, 1.0, 6.0, 29.0, 7.0, 8.0, 12.0, 13.0, 16.0, 63.0, 66.0, 70.0, 83.0, 167.0, 205.0, 371.0, 649.0, 971.0, 1595.0, 3415.0, 10188.0, 94252.0, 11327.0, 3437.0, 1517.0, 925.0, 561.0, 333.0, 212.0, 170.0, 109.0, 94.0, 57.0, 31.0, 23.0, 15.0, 24.0, 9.0, 3.0, 5.0, 4.0, 2.0, 2.0, 1.0, 0.0, 0.0, 0.0, 0.0, 0.0, 0.0, 0.0, 0.0, 0.0, 1.0, 0.0, 1.0], "bins": [-96.625, -93.353515625, -90.08203125, -86.810546875, -83.5390625, -80.267578125, -76.99609375, -73.724609375, -70.453125, -67.181640625, -63.91015625, -60.638671875, -57.3671875, -54.095703125, -50.82421875, -47.552734375, -44.28125, -41.009765625, -37.73828125, -34.466796875, -31.1953125, -27.923828125, -24.65234375, -21.380859375, -18.109375, -14.837890625, -11.56640625, -8.294921875, -5.0234375, -1.751953125, 1.51953125, 4.791015625, 8.0625, 11.333984375, 14.60546875, 17.876953125, 21.1484375, 24.419921875, 27.69140625, 30.962890625, 34.234375, 37.505859375, 40.77734375, 44.048828125, 47.3203125, 50.591796875, 53.86328125, 57.134765625, 60.40625, 63.677734375, 66.94921875, 70.220703125, 73.4921875, 76.763671875, 80.03515625, 83.306640625, 86.578125, 89.849609375, 93.12109375, 96.392578125, 99.6640625, 102.935546875, 106.20703125, 109.478515625, 112.75]}, "gradients/graph_1obs_encoder.fc2.bias": {"_type": "histogram", "values": [1.0, 0.0, 0.0, 0.0, 0.0, 0.0, 1.0, 1.0, 0.0, 2.0, 0.0, 1.0, 2.0, 0.0, 1.0, 1.0, 2.0, 5.0, 4.0, 2.0, 2.0, 7.0, 5.0, 12.0, 19.0, 44.0, 295.0, 33.0, 19.0, 9.0, 11.0, 3.0, 5.0, 3.0, 4.0, 1.0, 3.0, 1.0, 1.0, 0.0, 3.0, 0.0, 1.0, 0.0, 2.0, 0.0, 2.0, 1.0, 0.0, 0.0, 0.0, 0.0, 0.0, 0.0, 0.0, 0.0, 1.0, 0.0, 1.0, 0.0, 0.0, 0.0, 0.0, 1.0], "bins": [-50.125, -48.2158203125, -46.306640625, -44.3974609375, -42.48828125, -40.5791015625, -38.669921875, -36.7607421875, -34.8515625, -32.9423828125, -31.033203125, -29.1240234375, -27.21484375, -25.3056640625, -23.396484375, -21.4873046875, -19.578125, -17.6689453125, -15.759765625, -13.8505859375, -11.94140625, -10.0322265625, -8.123046875, -6.2138671875, -4.3046875, -2.3955078125, -0.486328125, 1.4228515625, 3.33203125, 5.2412109375, 7.150390625, 9.0595703125, 10.96875, 12.8779296875, 14.787109375, 16.6962890625, 18.60546875, 20.5146484375, 22.423828125, 24.3330078125, 26.2421875, 28.1513671875, 30.060546875, 31.9697265625, 33.87890625, 35.7880859375, 37.697265625, 39.6064453125, 41.515625, 43.4248046875, 45.333984375, 47.2431640625, 49.15234375, 51.0615234375, 52.970703125, 54.8798828125, 56.7890625, 58.6982421875, 60.607421875, 62.5166015625, 64.42578125, 66.3349609375, 68.244140625, 70.1533203125, 72.0625]}, "gradients/graph_1obs_encoder.fc1.weight": {"_type": "histogram", "values": [2.0, 2.0, 3.0, 6.0, 2.0, 8.0, 14.0, 12.0, 21.0, 39.0, 34.0, 65.0, 99.0, 103.0, 173.0, 199.0, 270.0, 395.0, 526.0, 638.0, 940.0, 1298.0, 1741.0, 2467.0, 3213.0, 4503.0, 6467.0, 9339.0, 13666.0, 20415.0, 30237.0, 61754.0, 50084.0, 36067.0, 26008.0, 18185.0, 12681.0, 8606.0, 5886.0, 3918.0, 2551.0, 1657.0, 1126.0, 770.0, 507.0, 333.0, 232.0, 127.0, 79.0, 73.0, 51.0, 29.0, 17.0, 19.0, 9.0, 5.0, 5.0, 2.0, 0.0, 1.0, 0.0, 0.0, 0.0, 1.0], "bins": [-35.15625, -34.05615234375, -32.9560546875, -31.85595703125, -30.755859375, -29.65576171875, -28.5556640625, -27.45556640625, -26.35546875, -25.25537109375, -24.1552734375, -23.05517578125, -21.955078125, -20.85498046875, -19.7548828125, -18.65478515625, -17.5546875, -16.45458984375, -15.3544921875, -14.25439453125, -13.154296875, -12.05419921875, -10.9541015625, -9.85400390625, -8.75390625, -7.65380859375, -6.5537109375, -5.45361328125, -4.353515625, -3.25341796875, -2.1533203125, -1.05322265625, 0.046875, 1.14697265625, 2.2470703125, 3.34716796875, 4.447265625, 5.54736328125, 6.6474609375, 7.74755859375, 8.84765625, 9.94775390625, 11.0478515625, 12.14794921875, 13.248046875, 14.34814453125, 15.4482421875, 16.54833984375, 17.6484375, 18.74853515625, 19.8486328125, 20.94873046875, 22.048828125, 23.14892578125, 24.2490234375, 25.34912109375, 26.44921875, 27.54931640625, 28.6494140625, 29.74951171875, 30.849609375, 31.94970703125, 33.0498046875, 34.14990234375, 35.25]}, "gradients/graph_1obs_encoder.fc1.bias": {"_type": "histogram", "values": [2.0, 0.0, 0.0, 0.0, 0.0, 1.0, 0.0, 0.0, 0.0, 0.0, 0.0, 0.0, 3.0, 0.0, 0.0, 0.0, 1.0, 1.0, 3.0, 1.0, 2.0, 4.0, 4.0, 2.0, 2.0, 1.0, 6.0, 4.0, 5.0, 10.0, 6.0, 6.0, 7.0, 10.0, 17.0, 19.0, 21.0, 7.0, 9.0, 10.0, 14.0, 5.0, 9.0, 6.0, 9.0, 7.0, 4.0, 4.0, 5.0, 7.0, 2.0, 4.0, 1.0, 7.0, 2.0, 0.0, 3.0, 0.0, 0.0, 0.0, 2.0, 0.0, 0.0, 1.0], "bins": [-39.96875, -38.86181640625, -37.7548828125, -36.64794921875, -35.541015625, -34.43408203125, -33.3271484375, -32.22021484375, -31.11328125, -30.00634765625, -28.8994140625, -27.79248046875, -26.685546875, -25.57861328125, -24.4716796875, -23.36474609375, -22.2578125, -21.15087890625, -20.0439453125, -18.93701171875, -17.830078125, -16.72314453125, -15.6162109375, -14.50927734375, -13.40234375, -12.29541015625, -11.1884765625, -10.08154296875, -8.974609375, -7.86767578125, -6.7607421875, -5.65380859375, -4.546875, -3.43994140625, -2.3330078125, -1.22607421875, -0.119140625, 0.98779296875, 2.0947265625, 3.20166015625, 4.30859375, 5.41552734375, 6.5224609375, 7.62939453125, 8.736328125, 9.84326171875, 10.9501953125, 12.05712890625, 13.1640625, 14.27099609375, 15.3779296875, 16.48486328125, 17.591796875, 18.69873046875, 19.8056640625, 20.91259765625, 22.01953125, 23.12646484375, 24.2333984375, 25.34033203125, 26.447265625, 27.55419921875, 28.6611328125, 29.76806640625, 30.875]}, "gradients/graph_1stochastic_state_model.fc2.weight": {"_type": "histogram", "values": [2.0, 2.0, 0.0, 2.0, 0.0, 1.0, 1.0, 1.0, 8.0, 4.0, 5.0, 12.0, 14.0, 21.0, 22.0, 37.0, 47.0, 54.0, 60.0, 79.0, 93.0, 123.0, 168.0, 238.0, 300.0, 353.0, 514.0, 682.0, 950.0, 1255.0, 1695.0, 2352.0, 3296.0, 4668.0, 6335.0, 13777.0, 49790.0, 18263.0, 8156.0, 5063.0, 3605.0, 2496.0, 1948.0, 1325.0, 997.0, 703.0, 441.0, 312.0, 249.0, 150.0, 105.0, 83.0, 52.0, 46.0, 38.0, 17.0, 19.0, 23.0, 8.0, 3.0, 7.0, 1.0, 0.0, 1.0], "bins": [-2.95703125, -2.876220703125, -2.79541015625, -2.714599609375, -2.6337890625, -2.552978515625, -2.47216796875, -2.391357421875, -2.310546875, -2.229736328125, -2.14892578125, -2.068115234375, -1.9873046875, -1.906494140625, -1.82568359375, -1.744873046875, -1.6640625, -1.583251953125, -1.50244140625, -1.421630859375, -1.3408203125, -1.260009765625, -1.17919921875, -1.098388671875, -1.017578125, -0.936767578125, -0.85595703125, -0.775146484375, -0.6943359375, -0.613525390625, -0.53271484375, -0.451904296875, -0.37109375, -0.290283203125, -0.20947265625, -0.128662109375, -0.0478515625, 0.032958984375, 0.11376953125, 0.194580078125, 0.275390625, 0.356201171875, 0.43701171875, 0.517822265625, 0.5986328125, 0.679443359375, 0.76025390625, 0.841064453125, 0.921875, 1.002685546875, 1.08349609375, 1.164306640625, 1.2451171875, 1.325927734375, 1.40673828125, 1.487548828125, 1.568359375, 1.649169921875, 1.72998046875, 1.810791015625, 1.8916015625, 1.972412109375, 2.05322265625, 2.134033203125, 2.21484375]}, "gradients/graph_1stochastic_state_model.fc2.bias": {"_type": "histogram", "values": [3.0, 0.0, 3.0, 1.0, 1.0, 1.0, 0.0, 0.0, 6.0, 1.0, 2.0, 4.0, 3.0, 5.0, 7.0, 15.0, 6.0, 5.0, 9.0, 4.0, 8.0, 16.0, 16.0, 28.0, 71.0, 130.0, 48.0, 17.0, 9.0, 11.0, 7.0, 10.0, 6.0, 7.0, 5.0, 6.0, 1.0, 7.0, 5.0, 3.0, 4.0, 3.0, 1.0, 0.0, 2.0, 2.0, 1.0, 4.0, 2.0, 0.0, 2.0, 0.0, 2.0, 0.0, 1.0, 0.0, 0.0, 0.0, 0.0, 0.0, 0.0, 0.0, 0.0, 1.0], "bins": [-1.9482421875, -1.8708953857421875, -1.793548583984375, -1.7162017822265625, -1.63885498046875, -1.5615081787109375, -1.484161376953125, -1.4068145751953125, -1.3294677734375, -1.2521209716796875, -1.174774169921875, -1.0974273681640625, -1.02008056640625, -0.9427337646484375, -0.865386962890625, -0.7880401611328125, -0.710693359375, -0.6333465576171875, -0.555999755859375, -0.4786529541015625, -0.40130615234375, -0.3239593505859375, -0.246612548828125, -0.1692657470703125, -0.0919189453125, -0.0145721435546875, 0.062774658203125, 0.1401214599609375, 0.21746826171875, 0.2948150634765625, 0.372161865234375, 0.4495086669921875, 0.52685546875, 0.6042022705078125, 0.681549072265625, 0.7588958740234375, 0.83624267578125, 0.9135894775390625, 0.990936279296875, 1.0682830810546875, 1.1456298828125, 1.2229766845703125, 1.300323486328125, 1.3776702880859375, 1.45501708984375, 1.5323638916015625, 1.609710693359375, 1.6870574951171875, 1.764404296875, 1.8417510986328125, 1.919097900390625, 1.9964447021484375, 2.07379150390625, 2.1511383056640625, 2.228485107421875, 2.3058319091796875, 2.3831787109375, 2.4605255126953125, 2.537872314453125, 2.6152191162109375, 2.69256591796875, 2.7699127197265625, 2.847259521484375, 2.9246063232421875, 3.001953125]}, "gradients/graph_1stochastic_state_model.fc1.weight": {"_type": "histogram", "values": [1.0, 0.0, 3.0, 5.0, 5.0, 5.0, 4.0, 12.0, 15.0, 17.0, 23.0, 37.0, 34.0, 62.0, 70.0, 100.0, 141.0, 200.0, 255.0, 339.0, 441.0, 581.0, 812.0, 1043.0, 1372.0, 1707.0, 2187.0, 2699.0, 3215.0, 3744.0, 4241.0, 4794.0, 5451.0, 5150.0, 4707.0, 4152.0, 3712.0, 2978.0, 2505.0, 2017.0, 1604.0, 1244.0, 983.0, 701.0, 572.0, 415.0, 304.0, 242.0, 156.0, 138.0, 90.0, 68.0, 51.0, 30.0, 25.0, 17.0, 25.0, 10.0, 7.0, 7.0, 5.0, 2.0, 1.0, 3.0], "bins": [-2.09375, -2.029998779296875, -1.96624755859375, -1.902496337890625, -1.8387451171875, -1.774993896484375, -1.71124267578125, -1.647491455078125, -1.583740234375, -1.519989013671875, -1.45623779296875, -1.392486572265625, -1.3287353515625, -1.264984130859375, -1.20123291015625, -1.137481689453125, -1.07373046875, -1.009979248046875, -0.94622802734375, -0.882476806640625, -0.8187255859375, -0.754974365234375, -0.69122314453125, -0.627471923828125, -0.563720703125, -0.499969482421875, -0.43621826171875, -0.372467041015625, -0.3087158203125, -0.244964599609375, -0.18121337890625, -0.117462158203125, -0.0537109375, 0.010040283203125, 0.07379150390625, 0.137542724609375, 0.2012939453125, 0.265045166015625, 0.32879638671875, 0.392547607421875, 0.456298828125, 0.520050048828125, 0.58380126953125, 0.647552490234375, 0.7113037109375, 0.775054931640625, 0.83880615234375, 0.902557373046875, 0.96630859375, 1.030059814453125, 1.09381103515625, 1.157562255859375, 1.2213134765625, 1.285064697265625, 1.34881591796875, 1.412567138671875, 1.476318359375, 1.540069580078125, 1.60382080078125, 1.667572021484375, 1.7313232421875, 1.795074462890625, 1.85882568359375, 1.922576904296875, 1.986328125]}, "gradients/graph_1stochastic_state_model.fc1.bias": {"_type": "histogram", "values": [1.0, 0.0, 0.0, 0.0, 0.0, 0.0, 0.0, 2.0, 1.0, 2.0, 1.0, 2.0, 3.0, 4.0, 2.0, 4.0, 4.0, 2.0, 5.0, 9.0, 6.0, 2.0, 6.0, 5.0, 4.0, 6.0, 4.0, 7.0, 8.0, 7.0, 7.0, 6.0, 5.0, 12.0, 15.0, 9.0, 9.0, 11.0, 14.0, 6.0, 5.0, 5.0, 6.0, 10.0, 7.0, 5.0, 6.0, 4.0, 2.0, 1.0, 3.0, 0.0, 1.0, 2.0, 0.0, 0.0, 2.0, 0.0, 2.0, 1.0, 0.0, 1.0, 1.0, 1.0], "bins": [-2.498046875, -2.42266845703125, -2.3472900390625, -2.27191162109375, -2.196533203125, -2.12115478515625, -2.0457763671875, -1.97039794921875, -1.89501953125, -1.81964111328125, -1.7442626953125, -1.66888427734375, -1.593505859375, -1.51812744140625, -1.4427490234375, -1.36737060546875, -1.2919921875, -1.21661376953125, -1.1412353515625, -1.06585693359375, -0.990478515625, -0.91510009765625, -0.8397216796875, -0.76434326171875, -0.68896484375, -0.61358642578125, -0.5382080078125, -0.46282958984375, -0.387451171875, -0.31207275390625, -0.2366943359375, -0.16131591796875, -0.0859375, -0.01055908203125, 0.0648193359375, 0.14019775390625, 0.215576171875, 0.29095458984375, 0.3663330078125, 0.44171142578125, 0.51708984375, 0.59246826171875, 0.6678466796875, 0.74322509765625, 0.818603515625, 0.89398193359375, 0.9693603515625, 1.04473876953125, 1.1201171875, 1.19549560546875, 1.2708740234375, 1.34625244140625, 1.421630859375, 1.49700927734375, 1.5723876953125, 1.64776611328125, 1.72314453125, 1.79852294921875, 1.8739013671875, 1.94927978515625, 2.024658203125, 2.10003662109375, 2.1754150390625, 2.25079345703125, 2.326171875]}, "gradients/graph_1rnn.weight_ih": {"_type": "histogram", "values": [3.0, 3.0, 6.0, 8.0, 6.0, 12.0, 21.0, 27.0, 23.0, 39.0, 63.0, 78.0, 94.0, 156.0, 205.0, 268.0, 392.0, 535.0, 748.0, 1094.0, 1636.0, 2352.0, 3360.0, 5108.0, 7924.0, 14047.0, 31407.0, 61976.0, 28127.0, 13405.0, 7734.0, 4976.0, 3283.0, 2345.0, 1562.0, 1053.0, 749.0, 471.0, 337.0, 258.0, 171.0, 138.0, 109.0, 72.0, 44.0, 36.0, 38.0, 26.0, 19.0, 14.0, 12.0, 8.0, 8.0, 5.0, 5.0, 1.0, 3.0, 1.0, 1.0, 1.0, 2.0, 1.0, 0.0, 2.0], "bins": [-11.34375, -10.9305419921875, -10.517333984375, -10.1041259765625, -9.69091796875, -9.2777099609375, -8.864501953125, -8.4512939453125, -8.0380859375, -7.6248779296875, -7.211669921875, -6.7984619140625, -6.38525390625, -5.9720458984375, -5.558837890625, -5.1456298828125, -4.732421875, -4.3192138671875, -3.906005859375, -3.4927978515625, -3.07958984375, -2.6663818359375, -2.253173828125, -1.8399658203125, -1.4267578125, -1.0135498046875, -0.600341796875, -0.1871337890625, 0.22607421875, 0.6392822265625, 1.052490234375, 1.4656982421875, 1.87890625, 2.2921142578125, 2.705322265625, 3.1185302734375, 3.53173828125, 3.9449462890625, 4.358154296875, 4.7713623046875, 5.1845703125, 5.5977783203125, 6.010986328125, 6.4241943359375, 6.83740234375, 7.2506103515625, 7.663818359375, 8.0770263671875, 8.490234375, 8.9034423828125, 9.316650390625, 9.7298583984375, 10.14306640625, 10.5562744140625, 10.969482421875, 11.3826904296875, 11.7958984375, 12.2091064453125, 12.622314453125, 13.0355224609375, 13.44873046875, 13.8619384765625, 14.275146484375, 14.6883544921875, 15.1015625]}, "gradients/graph_1rnn.weight_hh": {"_type": "histogram", "values": [1.0, 0.0, 0.0, 0.0, 0.0, 1.0, 2.0, 2.0, 2.0, 1.0, 6.0, 4.0, 8.0, 5.0, 12.0, 14.0, 15.0, 24.0, 40.0, 58.0, 71.0, 87.0, 132.0, 184.0, 266.0, 427.0, 622.0, 1041.0, 1678.0, 2814.0, 5075.0, 9086.0, 16664.0, 31376.0, 52770.0, 33794.0, 17479.0, 9620.0, 5326.0, 2935.0, 1800.0, 1048.0, 731.0, 425.0, 280.0, 189.0, 152.0, 89.0, 75.0, 39.0, 40.0, 24.0, 18.0, 20.0, 13.0, 6.0, 5.0, 5.0, 3.0, 1.0, 1.0, 0.0, 1.0, 1.0], "bins": [-6.453125, -6.266357421875, -6.07958984375, -5.892822265625, -5.7060546875, -5.519287109375, -5.33251953125, -5.145751953125, -4.958984375, -4.772216796875, -4.58544921875, -4.398681640625, -4.2119140625, -4.025146484375, -3.83837890625, -3.651611328125, -3.46484375, -3.278076171875, -3.09130859375, -2.904541015625, -2.7177734375, -2.531005859375, -2.34423828125, -2.157470703125, -1.970703125, -1.783935546875, -1.59716796875, -1.410400390625, -1.2236328125, -1.036865234375, -0.85009765625, -0.663330078125, -0.4765625, -0.289794921875, -0.10302734375, 0.083740234375, 0.2705078125, 0.457275390625, 0.64404296875, 0.830810546875, 1.017578125, 1.204345703125, 1.39111328125, 1.577880859375, 1.7646484375, 1.951416015625, 2.13818359375, 2.324951171875, 2.51171875, 2.698486328125, 2.88525390625, 3.072021484375, 3.2587890625, 3.445556640625, 3.63232421875, 3.819091796875, 4.005859375, 4.192626953125, 4.37939453125, 4.566162109375, 4.7529296875, 4.939697265625, 5.12646484375, 5.313232421875, 5.5]}, "gradients/graph_1rnn.bias_ih": {"_type": "histogram", "values": [2.0, 1.0, 0.0, 0.0, 1.0, 2.0, 0.0, 0.0, 2.0, 2.0, 0.0, 2.0, 4.0, 2.0, 4.0, 6.0, 6.0, 5.0, 3.0, 3.0, 11.0, 8.0, 13.0, 19.0, 37.0, 45.0, 63.0, 108.0, 139.0, 84.0, 48.0, 35.0, 15.0, 20.0, 14.0, 8.0, 11.0, 5.0, 7.0, 5.0, 6.0, 4.0, 3.0, 2.0, 4.0, 2.0, 1.0, 1.0, 1.0, 1.0, 1.0, 0.0, 0.0, 0.0, 0.0, 0.0, 0.0, 0.0, 0.0, 0.0, 0.0, 1.0, 0.0, 1.0], "bins": [-6.4921875, -6.2620849609375, -6.031982421875, -5.8018798828125, -5.57177734375, -5.3416748046875, -5.111572265625, -4.8814697265625, -4.6513671875, -4.4212646484375, -4.191162109375, -3.9610595703125, -3.73095703125, -3.5008544921875, -3.270751953125, -3.0406494140625, -2.810546875, -2.5804443359375, -2.350341796875, -2.1202392578125, -1.89013671875, -1.6600341796875, -1.429931640625, -1.1998291015625, -0.9697265625, -0.7396240234375, -0.509521484375, -0.2794189453125, -0.04931640625, 0.1807861328125, 0.410888671875, 0.6409912109375, 0.87109375, 1.1011962890625, 1.331298828125, 1.5614013671875, 1.79150390625, 2.0216064453125, 2.251708984375, 2.4818115234375, 2.7119140625, 2.9420166015625, 3.172119140625, 3.4022216796875, 3.63232421875, 3.8624267578125, 4.092529296875, 4.3226318359375, 4.552734375, 4.7828369140625, 5.012939453125, 5.2430419921875, 5.47314453125, 5.7032470703125, 5.933349609375, 6.1634521484375, 6.3935546875, 6.6236572265625, 6.853759765625, 7.0838623046875, 7.31396484375, 7.5440673828125, 7.774169921875, 8.0042724609375, 8.234375]}, "gradients/graph_1rnn.bias_hh": {"_type": "histogram", "values": [2.0, 0.0, 0.0, 0.0, 0.0, 0.0, 0.0, 0.0, 0.0, 1.0, 1.0, 2.0, 0.0, 1.0, 1.0, 4.0, 0.0, 5.0, 7.0, 4.0, 4.0, 9.0, 4.0, 6.0, 6.0, 13.0, 22.0, 25.0, 29.0, 30.0, 46.0, 52.0, 75.0, 78.0, 74.0, 66.0, 33.0, 26.0, 29.0, 26.0, 21.0, 14.0, 4.0, 8.0, 7.0, 4.0, 5.0, 3.0, 3.0, 6.0, 2.0, 1.0, 3.0, 0.0, 1.0, 2.0, 0.0, 0.0, 1.0, 0.0, 0.0, 0.0, 1.0, 1.0], "bins": [-3.958984375, -3.840301513671875, -3.72161865234375, -3.602935791015625, -3.4842529296875, -3.365570068359375, -3.24688720703125, -3.128204345703125, -3.009521484375, -2.890838623046875, -2.77215576171875, -2.653472900390625, -2.5347900390625, -2.416107177734375, -2.29742431640625, -2.178741455078125, -2.06005859375, -1.941375732421875, -1.82269287109375, -1.704010009765625, -1.5853271484375, -1.466644287109375, -1.34796142578125, -1.229278564453125, -1.110595703125, -0.991912841796875, -0.87322998046875, -0.754547119140625, -0.6358642578125, -0.517181396484375, -0.39849853515625, -0.279815673828125, -0.1611328125, -0.042449951171875, 0.07623291015625, 0.194915771484375, 0.3135986328125, 0.432281494140625, 0.55096435546875, 0.669647216796875, 0.788330078125, 0.907012939453125, 1.02569580078125, 1.144378662109375, 1.2630615234375, 1.381744384765625, 1.50042724609375, 1.619110107421875, 1.73779296875, 1.856475830078125, 1.97515869140625, 2.093841552734375, 2.2125244140625, 2.331207275390625, 2.44989013671875, 2.568572998046875, 2.687255859375, 2.805938720703125, 2.92462158203125, 3.043304443359375, 3.1619873046875, 3.280670166015625, 3.39935302734375, 3.518035888671875, 3.63671875]}, "gradients/graph_1fc_embed_state_action.weight": {"_type": "histogram", "values": [1.0, 0.0, 0.0, 0.0, 0.0, 0.0, 0.0, 0.0, 0.0, 0.0, 0.0, 1.0, 0.0, 0.0, 0.0, 1.0, 1.0, 2.0, 1.0, 3.0, 6.0, 3.0, 5.0, 4.0, 9.0, 11.0, 10.0, 26.0, 29.0, 49.0, 44.0, 95.0, 104.0, 171.0, 275.0, 429.0, 710.0, 1174.0, 2309.0, 8096.0, 41019.0, 7681.0, 2157.0, 1108.0, 612.0, 414.0, 258.0, 161.0, 119.0, 69.0, 44.0, 39.0, 25.0, 17.0, 8.0, 9.0, 3.0, 4.0, 4.0, 2.0, 2.0, 1.0, 1.0, 2.0], "bins": [-44.40625, -43.309326171875, -42.21240234375, -41.115478515625, -40.0185546875, -38.921630859375, -37.82470703125, -36.727783203125, -35.630859375, -34.533935546875, -33.43701171875, -32.340087890625, -31.2431640625, -30.146240234375, -29.04931640625, -27.952392578125, -26.85546875, -25.758544921875, -24.66162109375, -23.564697265625, -22.4677734375, -21.370849609375, -20.27392578125, -19.177001953125, -18.080078125, -16.983154296875, -15.88623046875, -14.789306640625, -13.6923828125, -12.595458984375, -11.49853515625, -10.401611328125, -9.3046875, -8.207763671875, -7.11083984375, -6.013916015625, -4.9169921875, -3.820068359375, -2.72314453125, -1.626220703125, -0.529296875, 0.567626953125, 1.66455078125, 2.761474609375, 3.8583984375, 4.955322265625, 6.05224609375, 7.149169921875, 8.24609375, 9.343017578125, 10.43994140625, 11.536865234375, 12.6337890625, 13.730712890625, 14.82763671875, 15.924560546875, 17.021484375, 18.118408203125, 19.21533203125, 20.312255859375, 21.4091796875, 22.506103515625, 23.60302734375, 24.699951171875, 25.796875]}, "gradients/graph_1fc_embed_state_action.bias": {"_type": "histogram", "values": [1.0, 1.0, 0.0, 0.0, 3.0, 1.0, 4.0, 1.0, 1.0, 2.0, 1.0, 5.0, 3.0, 3.0, 8.0, 5.0, 5.0, 7.0, 7.0, 5.0, 8.0, 12.0, 5.0, 8.0, 5.0, 10.0, 12.0, 8.0, 10.0, 5.0, 4.0, 8.0, 5.0, 9.0, 9.0, 7.0, 7.0, 4.0, 10.0, 6.0, 4.0, 9.0, 4.0, 3.0, 3.0, 3.0, 4.0, 0.0, 0.0, 2.0, 1.0, 1.0, 1.0, 0.0, 1.0, 0.0, 1.0, 1.0, 1.0, 0.0, 1.0, 0.0, 0.0, 1.0], "bins": [-4.90234375, -4.73565673828125, -4.5689697265625, -4.40228271484375, -4.235595703125, -4.06890869140625, -3.9022216796875, -3.73553466796875, -3.56884765625, -3.40216064453125, -3.2354736328125, -3.06878662109375, -2.902099609375, -2.73541259765625, -2.5687255859375, -2.40203857421875, -2.2353515625, -2.06866455078125, -1.9019775390625, -1.73529052734375, -1.568603515625, -1.40191650390625, -1.2352294921875, -1.06854248046875, -0.90185546875, -0.73516845703125, -0.5684814453125, -0.40179443359375, -0.235107421875, -0.06842041015625, 0.0982666015625, 0.26495361328125, 0.431640625, 0.59832763671875, 0.7650146484375, 0.93170166015625, 1.098388671875, 1.26507568359375, 1.4317626953125, 1.59844970703125, 1.76513671875, 1.93182373046875, 2.0985107421875, 2.26519775390625, 2.431884765625, 2.59857177734375, 2.7652587890625, 2.93194580078125, 3.0986328125, 3.26531982421875, 3.4320068359375, 3.59869384765625, 3.765380859375, 3.93206787109375, 4.0987548828125, 4.26544189453125, 4.43212890625, 4.59881591796875, 4.7655029296875, 4.93218994140625, 5.098876953125, 5.26556396484375, 5.4322509765625, 5.59893798828125, 5.765625]}, "gradients/graph_3conv.16.weight": {"_type": "histogram", "values": [1.0, 0.0, 0.0, 0.0, 0.0, 0.0, 0.0, 0.0, 0.0, 0.0, 0.0, 0.0, 0.0, 0.0, 0.0, 0.0, 0.0, 0.0, 1.0, 0.0, 0.0, 1.0, 0.0, 3.0, 0.0, 2.0, 5.0, 5.0, 6.0, 4.0, 6.0, 9.0, 3.0, 4.0, 5.0, 6.0, 9.0, 16.0, 13.0, 12.0, 14.0, 13.0, 9.0, 10.0, 11.0, 10.0, 11.0, 12.0, 7.0, 8.0, 6.0, 6.0, 3.0, 3.0, 5.0, 3.0, 7.0, 2.0, 0.0, 2.0, 1.0, 0.0, 0.0, 2.0], "bins": [-86.20699310302734, -84.15264892578125, -82.09831237792969, -80.0439682006836, -77.98963165283203, -75.93528747558594, -73.88095092773438, -71.82660675048828, -69.77226257324219, -67.7179183959961, -65.66358184814453, -63.6092414855957, -61.554901123046875, -59.50055694580078, -57.44621658325195, -55.391876220703125, -53.33753967285156, -51.283199310302734, -49.228858947753906, -47.17451858520508, -45.12017822265625, -43.065834045410156, -41.01149368286133, -38.9571533203125, -36.90281295776367, -34.848472595214844, -32.794132232666016, -30.739789962768555, -28.685449600219727, -26.6311092376709, -24.576766967773438, -22.52242660522461, -20.46807861328125, -18.413738250732422, -16.359397888183594, -14.305055618286133, -12.250715255737305, -10.196374893188477, -8.142033576965332, -6.0876922607421875, -4.033351898193359, -1.979011058807373, 0.07532978057861328, 2.1296706199645996, 4.184011459350586, 6.238351821899414, 8.292693138122559, 10.347034454345703, 12.401374816894531, 14.45571517944336, 16.510055541992188, 18.56439781188965, 20.618738174438477, 22.673078536987305, 24.727420806884766, 26.781761169433594, 28.836101531982422, 30.89044189453125, 32.94478225708008, 34.999122619628906, 37.053466796875, 39.10780334472656, 41.162147521972656, 43.216487884521484, 45.27082824707031]}, "gradients/graph_3conv.16.bias": {"_type": "histogram", "values": [1.0, 0.0, 0.0, 0.0, 0.0, 0.0, 0.0, 0.0, 0.0, 0.0, 0.0, 0.0, 0.0, 0.0, 0.0, 0.0, 0.0, 1.0, 0.0, 0.0, 0.0, 0.0, 1.0, 1.0, 7.0, 5.0, 5.0, 6.0, 6.0, 4.0, 13.0, 7.0, 8.0, 15.0, 15.0, 17.0, 15.0, 11.0, 15.0, 9.0, 11.0, 7.0, 11.0, 12.0, 6.0, 10.0, 4.0, 3.0, 3.0, 5.0, 5.0, 3.0, 4.0, 5.0, 1.0, 0.0, 1.0, 1.0, 1.0, 0.0, 0.0, 0.0, 0.0, 1.0], "bins": [-90.42578125, -88.03565216064453, -85.6455307006836, -83.25540161132812, -80.86528015136719, -78.47515106201172, -76.08502960205078, -73.69490051269531, -71.30477905273438, -68.9146499633789, -66.52452850341797, -64.1343994140625, -61.74427795410156, -59.35415267944336, -56.964027404785156, -54.57389831542969, -52.183773040771484, -49.79364776611328, -47.40352249145508, -45.013397216796875, -42.62327194213867, -40.23314666748047, -37.843017578125, -35.45289611816406, -33.062767028808594, -30.67264175415039, -28.282516479492188, -25.892391204833984, -23.50226593017578, -21.112140655517578, -18.722013473510742, -16.33188819885254, -13.941764831542969, -11.551639556884766, -9.161514282226562, -6.771388053894043, -4.38126277923584, -1.9911375045776367, 0.3989887237548828, 2.789113998413086, 5.179239273071289, 7.569364547729492, 9.959489822387695, 12.349616050720215, 14.739741325378418, 17.129867553710938, 19.51999282836914, 21.910118103027344, 24.300243377685547, 26.69036865234375, 29.080493927001953, 31.470619201660156, 33.86074447631836, 36.25086975097656, 38.64099884033203, 41.03112030029297, 43.42124938964844, 45.81137466430664, 48.201499938964844, 50.59162521362305, 52.98175048828125, 55.37187576293945, 57.762001037597656, 60.152130126953125, 62.54225158691406]}, "gradients/graph_3conv.15.weight": {"_type": "histogram", "values": [1.0, 0.0, 0.0, 0.0, 0.0, 0.0, 0.0, 1.0, 0.0, 0.0, 2.0, 1.0, 3.0, 3.0, 5.0, 9.0, 9.0, 27.0, 27.0, 46.0, 86.0, 122.0, 204.0, 301.0, 466.0, 778.0, 1191.0, 1836.0, 3011.0, 4934.0, 8421.0, 14352.0, 25125.0, 44610.0, 79113.0, 116760.0, 90567.0, 52995.0, 30551.0, 18291.0, 11157.0, 6916.0, 4399.0, 2876.0, 1808.0, 1128.0, 768.0, 485.0, 310.0, 195.0, 141.0, 88.0, 63.0, 33.0, 26.0, 18.0, 12.0, 8.0, 3.0, 1.0, 0.0, 2.0, 2.0, 1.0], "bins": [-11.703125, -11.3743896484375, -11.045654296875, -10.7169189453125, -10.38818359375, -10.0594482421875, -9.730712890625, -9.4019775390625, -9.0732421875, -8.7445068359375, -8.415771484375, -8.0870361328125, -7.75830078125, -7.4295654296875, -7.100830078125, -6.7720947265625, -6.443359375, -6.1146240234375, -5.785888671875, -5.4571533203125, -5.12841796875, -4.7996826171875, -4.470947265625, -4.1422119140625, -3.8134765625, -3.4847412109375, -3.156005859375, -2.8272705078125, -2.49853515625, -2.1697998046875, -1.841064453125, -1.5123291015625, -1.18359375, -0.8548583984375, -0.526123046875, -0.1973876953125, 0.13134765625, 0.4600830078125, 0.788818359375, 1.1175537109375, 1.4462890625, 1.7750244140625, 2.103759765625, 2.4324951171875, 2.76123046875, 3.0899658203125, 3.418701171875, 3.7474365234375, 4.076171875, 4.4049072265625, 4.733642578125, 5.0623779296875, 5.39111328125, 5.7198486328125, 6.048583984375, 6.3773193359375, 6.7060546875, 7.0347900390625, 7.363525390625, 7.6922607421875, 8.02099609375, 8.3497314453125, 8.678466796875, 9.0072021484375, 9.3359375]}, "gradients/graph_3conv.13.weight": {"_type": "histogram", "values": [1.0, 0.0, 0.0, 0.0, 4.0, 1.0, 1.0, 1.0, 1.0, 1.0, 0.0, 0.0, 0.0, 1.0, 2.0, 3.0, 2.0, 1.0, 1.0, 1.0, 1.0, 1.0, 3.0, 1.0, 2.0, 4.0, 2.0, 5.0, 3.0, 2.0, 2.0, 4.0, 3.0, 0.0, 8.0, 4.0, 4.0, 2.0, 3.0, 2.0, 5.0, 6.0, 4.0, 2.0, 6.0, 2.0, 3.0, 3.0, 3.0, 1.0, 1.0, 2.0, 2.0, 1.0, 3.0, 1.0, 1.0, 2.0, 0.0, 2.0, 0.0, 0.0, 0.0, 1.0], "bins": [-30.647565841674805, -29.751413345336914, -28.855262756347656, -27.959110260009766, -27.062957763671875, -26.166807174682617, -25.270654678344727, -24.37450408935547, -23.478351593017578, -22.582199096679688, -21.68604850769043, -20.78989601135254, -19.89374542236328, -18.99759292602539, -18.1014404296875, -17.20528793334961, -16.30913734436035, -15.412985801696777, -14.516834259033203, -13.620681762695312, -12.724530220031738, -11.828378677368164, -10.932226181030273, -10.0360746383667, -9.139923095703125, -8.24377155303955, -7.347619533538818, -6.451467514038086, -5.555315971374512, -4.6591644287109375, -3.763012409210205, -2.8668603897094727, -1.9707088470458984, -1.0745570659637451, -0.1784052848815918, 0.7177464962005615, 1.6138982772827148, 2.510049819946289, 3.4062018394470215, 4.302353858947754, 5.198505401611328, 6.094656944274902, 6.990808963775635, 7.886960983276367, 8.783112525939941, 9.679264068603516, 10.575416564941406, 11.47156810760498, 12.367719650268555, 13.263871192932129, 14.160022735595703, 15.056175231933594, 15.952326774597168, 16.848478317260742, 17.744630813598633, 18.64078140258789, 19.53693389892578, 20.433086395263672, 21.32923698425293, 22.22538948059082, 23.121540069580078, 24.01769256591797, 24.91384506225586, 25.80999755859375, 26.706148147583008]}, "gradients/graph_3conv.13.bias": {"_type": "histogram", "values": [1.0, 0.0, 0.0, 0.0, 0.0, 1.0, 1.0, 0.0, 1.0, 0.0, 0.0, 0.0, 0.0, 0.0, 1.0, 0.0, 2.0, 1.0, 0.0, 4.0, 1.0, 4.0, 2.0, 1.0, 1.0, 3.0, 7.0, 3.0, 4.0, 1.0, 4.0, 5.0, 5.0, 7.0, 6.0, 2.0, 5.0, 9.0, 3.0, 6.0, 5.0, 4.0, 2.0, 5.0, 2.0, 4.0, 4.0, 2.0, 2.0, 2.0, 1.0, 1.0, 0.0, 1.0, 0.0, 0.0, 0.0, 1.0, 0.0, 0.0, 0.0, 0.0, 0.0, 1.0], "bins": [-33.29510498046875, -32.3883171081543, -31.48152732849121, -30.574739456176758, -29.667949676513672, -28.76116180419922, -27.854373931884766, -26.94758415222168, -26.040796279907227, -25.134008407592773, -24.227218627929688, -23.320430755615234, -22.41364097595215, -21.506853103637695, -20.60006332397461, -19.693275451660156, -18.786487579345703, -17.87969970703125, -16.972909927368164, -16.06612205505371, -15.159333229064941, -14.252544403076172, -13.345755577087402, -12.438966751098633, -11.532176971435547, -10.625388145446777, -9.718599319458008, -8.811811447143555, -7.905022621154785, -6.998233795166016, -6.091444969177246, -5.184656620025635, -4.277868270874023, -3.371079683303833, -2.4642910957336426, -1.557502269744873, -0.6507136821746826, 0.2560749053955078, 1.1628637313842773, 2.0696520805358887, 2.976440906524658, 3.8832294940948486, 4.790018081665039, 5.696806907653809, 6.603595733642578, 7.5103840827941895, 8.417173385620117, 9.32396125793457, 10.23075008392334, 11.13753890991211, 12.044327735900879, 12.951116561889648, 13.857904434204102, 14.764693260192871, 15.67148208618164, 16.578269958496094, 17.48505973815918, 18.391847610473633, 19.29863739013672, 20.205425262451172, 21.112215042114258, 22.01900291442871, 22.925792694091797, 23.83258056640625, 24.739368438720703]}, "gradients/graph_3conv.12.weight": {"_type": "histogram", "values": [3.0, 2.0, 2.0, 4.0, 7.0, 6.0, 18.0, 17.0, 50.0, 47.0, 80.0, 124.0, 158.0, 238.0, 393.0, 574.0, 829.0, 1335.0, 2112.0, 3695.0, 6520.0, 11661.0, 20461.0, 36083.0, 20923.0, 10835.0, 5986.0, 3155.0, 1880.0, 1086.0, 706.0, 527.0, 421.0, 327.0, 232.0, 169.0, 124.0, 77.0, 60.0, 42.0, 22.0, 20.0, 15.0, 11.0, 10.0, 3.0, 4.0, 2.0, 4.0, 0.0, 0.0, 1.0, 1.0, 1.0, 2.0, 1.0, 1.0, 1.0, 3.0, 0.0, 0.0, 0.0, 0.0, 1.0], "bins": [-13.984375, -13.38720703125, -12.7900390625, -12.19287109375, -11.595703125, -10.99853515625, -10.4013671875, -9.80419921875, -9.20703125, -8.60986328125, -8.0126953125, -7.41552734375, -6.818359375, -6.22119140625, -5.6240234375, -5.02685546875, -4.4296875, -3.83251953125, -3.2353515625, -2.63818359375, -2.041015625, -1.44384765625, -0.8466796875, -0.24951171875, 0.34765625, 0.94482421875, 1.5419921875, 2.13916015625, 2.736328125, 3.33349609375, 3.9306640625, 4.52783203125, 5.125, 5.72216796875, 6.3193359375, 6.91650390625, 7.513671875, 8.11083984375, 8.7080078125, 9.30517578125, 9.90234375, 10.49951171875, 11.0966796875, 11.69384765625, 12.291015625, 12.88818359375, 13.4853515625, 14.08251953125, 14.6796875, 15.27685546875, 15.8740234375, 16.47119140625, 17.068359375, 17.66552734375, 18.2626953125, 18.85986328125, 19.45703125, 20.05419921875, 20.6513671875, 21.24853515625, 21.845703125, 22.44287109375, 23.0400390625, 23.63720703125, 24.234375]}, "gradients/graph_3conv.10.weight": {"_type": "histogram", "values": [1.0, 0.0, 1.0, 0.0, 1.0, 0.0, 0.0, 3.0, 2.0, 0.0, 2.0, 0.0, 3.0, 1.0, 3.0, 3.0, 5.0, 2.0, 6.0, 3.0, 4.0, 6.0, 2.0, 3.0, 1.0, 2.0, 3.0, 1.0, 0.0, 0.0, 0.0, 0.0, 0.0, 1.0, 0.0, 1.0, 0.0, 0.0, 1.0, 0.0, 0.0, 0.0, 0.0, 0.0, 0.0, 1.0, 0.0, 0.0, 0.0, 0.0, 0.0, 0.0, 0.0, 1.0, 0.0, 0.0, 0.0, 0.0, 0.0, 0.0, 0.0, 0.0, 0.0, 1.0], "bins": [-31.300174713134766, -29.77117156982422, -28.242168426513672, -26.713163375854492, -25.184160232543945, -23.6551570892334, -22.12615203857422, -20.597148895263672, -19.068145751953125, -17.539142608642578, -16.01013946533203, -14.481134414672852, -12.952131271362305, -11.423128128051758, -9.894124031066895, -8.365119934082031, -6.836116790771484, -5.307113170623779, -3.778109550476074, -2.249105930328369, -0.7201023101806641, 0.808901309967041, 2.337904930114746, 3.8669090270996094, 5.395912170410156, 6.924915790557861, 8.453919410705566, 9.98292350769043, 11.511926651000977, 13.040929794311523, 14.569933891296387, 16.09893798828125, 17.62793731689453, 19.156940460205078, 20.685943603515625, 22.214948654174805, 23.74395179748535, 25.2729549407959, 26.801959991455078, 28.330963134765625, 29.859966278076172, 31.38896942138672, 32.917972564697266, 34.44697570800781, 35.975982666015625, 37.50498580932617, 39.03398895263672, 40.562992095947266, 42.09199523925781, 43.62099838256836, 45.150001525878906, 46.67900466918945, 48.2080078125, 49.73701477050781, 51.26601791381836, 52.795021057128906, 54.32402420043945, 55.85302734375, 57.38203048706055, 58.911033630371094, 60.440040588378906, 61.96904373168945, 63.498046875, 65.02705383300781, 66.5560531616211]}, "gradients/graph_3conv.10.bias": {"_type": "histogram", "values": [2.0, 0.0, 1.0, 0.0, 0.0, 0.0, 0.0, 1.0, 1.0, 0.0, 0.0, 1.0, 2.0, 1.0, 0.0, 2.0, 5.0, 1.0, 1.0, 0.0, 2.0, 2.0, 3.0, 2.0, 3.0, 3.0, 2.0, 2.0, 2.0, 4.0, 1.0, 2.0, 0.0, 0.0, 1.0, 0.0, 0.0, 2.0, 3.0, 2.0, 2.0, 0.0, 1.0, 1.0, 1.0, 1.0, 0.0, 1.0, 0.0, 0.0, 0.0, 0.0, 1.0, 0.0, 0.0, 0.0, 0.0, 0.0, 0.0, 0.0, 0.0, 0.0, 1.0, 1.0], "bins": [-25.687480926513672, -24.81129264831543, -23.935104370117188, -23.058916091918945, -22.182727813720703, -21.306541442871094, -20.43035125732422, -19.55416488647461, -18.677976608276367, -17.801788330078125, -16.925600051879883, -16.04941177368164, -15.173224449157715, -14.297036170959473, -13.42084789276123, -12.544660568237305, -11.668471336364746, -10.792283058166504, -9.916094779968262, -9.039907455444336, -8.163719177246094, -7.287530899047852, -6.411342620849609, -5.535154819488525, -4.658966541290283, -3.78277850151062, -2.906590461730957, -2.030402183532715, -1.1542141437530518, -0.27802610397338867, 0.5981621742248535, 1.4743499755859375, 2.3505382537841797, 3.2267262935638428, 4.102914333343506, 4.979102611541748, 5.855290412902832, 6.731478691101074, 7.607666969299316, 8.483854293823242, 9.360042572021484, 10.236230850219727, 11.112419128417969, 11.988607406616211, 12.864794731140137, 13.740983009338379, 14.617171287536621, 15.493358612060547, 16.369548797607422, 17.245737075805664, 18.121925354003906, 18.99811363220215, 19.87430191040039, 20.75048828125, 21.626678466796875, 22.502864837646484, 23.379053115844727, 24.25524139404297, 25.13142967224121, 26.007617950439453, 26.883806228637695, 27.759994506835938, 28.636180877685547, 29.51236915588379, 30.38855743408203]}, "gradients/graph_3conv.9.weight": {"_type": "histogram", "values": [1.0, 1.0, 0.0, 1.0, 2.0, 0.0, 0.0, 1.0, 2.0, 3.0, 4.0, 2.0, 5.0, 10.0, 13.0, 17.0, 13.0, 28.0, 45.0, 76.0, 115.0, 189.0, 279.0, 391.0, 649.0, 929.0, 1447.0, 2131.0, 3560.0, 5230.0, 6452.0, 4578.0, 2449.0, 1311.0, 772.0, 523.0, 414.0, 300.0, 183.0, 143.0, 101.0, 72.0, 66.0, 40.0, 46.0, 37.0, 35.0, 26.0, 14.0, 15.0, 8.0, 5.0, 6.0, 5.0, 7.0, 5.0, 3.0, 3.0, 1.0, 2.0, 1.0, 0.0, 0.0, 1.0], "bins": [-24.1875, -23.38232421875, -22.5771484375, -21.77197265625, -20.966796875, -20.16162109375, -19.3564453125, -18.55126953125, -17.74609375, -16.94091796875, -16.1357421875, -15.33056640625, -14.525390625, -13.72021484375, -12.9150390625, -12.10986328125, -11.3046875, -10.49951171875, -9.6943359375, -8.88916015625, -8.083984375, -7.27880859375, -6.4736328125, -5.66845703125, -4.86328125, -4.05810546875, -3.2529296875, -2.44775390625, -1.642578125, -0.83740234375, -0.0322265625, 0.77294921875, 1.578125, 2.38330078125, 3.1884765625, 3.99365234375, 4.798828125, 5.60400390625, 6.4091796875, 7.21435546875, 8.01953125, 8.82470703125, 9.6298828125, 10.43505859375, 11.240234375, 12.04541015625, 12.8505859375, 13.65576171875, 14.4609375, 15.26611328125, 16.0712890625, 16.87646484375, 17.681640625, 18.48681640625, 19.2919921875, 20.09716796875, 20.90234375, 21.70751953125, 22.5126953125, 23.31787109375, 24.123046875, 24.92822265625, 25.7333984375, 26.53857421875, 27.34375]}, "gradients/graph_3conv.7.weight": {"_type": "histogram", "values": [1.0, 0.0, 0.0, 0.0, 0.0, 1.0, 1.0, 0.0, 1.0, 3.0, 0.0, 1.0, 1.0, 1.0, 1.0, 0.0, 2.0, 0.0, 0.0, 1.0, 1.0, 0.0, 0.0, 2.0, 0.0, 1.0, 0.0, 0.0, 1.0, 0.0, 1.0, 1.0, 1.0, 0.0, 1.0, 0.0, 1.0, 0.0, 0.0, 0.0, 0.0, 0.0, 0.0, 0.0, 0.0, 1.0, 1.0, 0.0, 0.0, 0.0, 1.0, 0.0, 0.0, 1.0, 0.0, 1.0, 0.0, 1.0, 0.0, 1.0, 0.0, 0.0, 0.0, 1.0], "bins": [-27.283348083496094, -26.292675018310547, -25.302001953125, -24.311328887939453, -23.320655822753906, -22.32998275756836, -21.339311599731445, -20.3486385345459, -19.35796546936035, -18.367292404174805, -17.376619338989258, -16.38594627380371, -15.39527416229248, -14.404601097106934, -13.413928985595703, -12.423255920410156, -11.43258285522461, -10.441909790039062, -9.451236724853516, -8.460564613342285, -7.469891548156738, -6.479218482971191, -5.488545894622803, -4.497873306274414, -3.507200241088867, -2.5165274143218994, -1.5258545875549316, -0.5351817607879639, 0.4554910659790039, 1.4461641311645508, 2.4368367195129395, 3.427509307861328, 4.418182373046875, 5.408855438232422, 6.3995280265808105, 7.390200614929199, 8.380873680114746, 9.371546745300293, 10.362218856811523, 11.35289192199707, 12.343564987182617, 13.334238052368164, 14.324911117553711, 15.315583229064941, 16.306255340576172, 17.29692840576172, 18.287601470947266, 19.278274536132812, 20.26894760131836, 21.259620666503906, 22.250293731689453, 23.240966796875, 24.231639862060547, 25.222312927246094, 26.212984085083008, 27.203657150268555, 28.1943302154541, 29.18500328063965, 30.175676345825195, 31.166349411010742, 32.157020568847656, 33.1476936340332, 34.13836669921875, 35.1290397644043, 36.119712829589844]}, "gradients/graph_3conv.7.bias": {"_type": "histogram", "values": [1.0, 0.0, 0.0, 0.0, 0.0, 0.0, 0.0, 0.0, 0.0, 0.0, 0.0, 0.0, 0.0, 0.0, 0.0, 2.0, 0.0, 0.0, 0.0, 0.0, 0.0, 1.0, 1.0, 1.0, 2.0, 1.0, 0.0, 0.0, 0.0, 0.0, 1.0, 1.0, 0.0, 0.0, 0.0, 3.0, 1.0, 1.0, 2.0, 0.0, 0.0, 1.0, 2.0, 0.0, 2.0, 1.0, 0.0, 1.0, 2.0, 0.0, 1.0, 0.0, 0.0, 0.0, 0.0, 0.0, 0.0, 0.0, 1.0, 2.0, 0.0, 0.0, 0.0, 1.0], "bins": [-42.937618255615234, -42.00638961791992, -41.075157165527344, -40.14392852783203, -39.21269607543945, -38.28146743774414, -37.35023880004883, -36.41900634765625, -35.48777770996094, -34.556549072265625, -33.62531661987305, -32.694087982177734, -31.76285743713379, -30.831626892089844, -29.9003963470459, -28.969165802001953, -28.03793716430664, -27.106706619262695, -26.17547607421875, -25.244247436523438, -24.313016891479492, -23.381786346435547, -22.4505558013916, -21.519325256347656, -20.58809471130371, -19.656864166259766, -18.72563362121582, -17.794404983520508, -16.863174438476562, -15.931943893432617, -15.000713348388672, -14.069483757019043, -13.138254165649414, -12.207023620605469, -11.27579402923584, -10.344563484191895, -9.413333892822266, -8.48210334777832, -7.550873279571533, -6.619643211364746, -5.688413143157959, -4.757183074951172, -3.8259530067443848, -2.8947227001190186, -1.9634926319122314, -1.0322623252868652, -0.10103225708007812, 0.830197811126709, 1.761427879333496, 2.692657947540283, 3.6238880157470703, 4.555118560791016, 5.4863481521606445, 6.41757869720459, 7.348808765411377, 8.280038833618164, 9.21126937866211, 10.142499923706055, 11.073729515075684, 12.004960060119629, 12.936189651489258, 13.867420196533203, 14.798650741577148, 15.729880332946777, 16.661109924316406]}, "gradients/graph_3conv.6.weight": {"_type": "histogram", "values": [2.0, 3.0, 4.0, 2.0, 5.0, 3.0, 5.0, 0.0, 2.0, 3.0, 3.0, 7.0, 10.0, 4.0, 10.0, 15.0, 13.0, 17.0, 17.0, 25.0, 33.0, 43.0, 66.0, 61.0, 114.0, 138.0, 180.0, 252.0, 283.0, 374.0, 431.0, 511.0, 592.0, 597.0, 564.0, 577.0, 629.0, 631.0, 499.0, 330.0, 249.0, 171.0, 130.0, 86.0, 60.0, 73.0, 56.0, 54.0, 41.0, 47.0, 21.0, 24.0, 23.0, 20.0, 8.0, 12.0, 7.0, 10.0, 9.0, 11.0, 14.0, 6.0, 3.0, 2.0], "bins": [-27.65625, -26.852783203125, -26.04931640625, -25.245849609375, -24.4423828125, -23.638916015625, -22.83544921875, -22.031982421875, -21.228515625, -20.425048828125, -19.62158203125, -18.818115234375, -18.0146484375, -17.211181640625, -16.40771484375, -15.604248046875, -14.80078125, -13.997314453125, -13.19384765625, -12.390380859375, -11.5869140625, -10.783447265625, -9.97998046875, -9.176513671875, -8.373046875, -7.569580078125, -6.76611328125, -5.962646484375, -5.1591796875, -4.355712890625, -3.55224609375, -2.748779296875, -1.9453125, -1.141845703125, -0.33837890625, 0.465087890625, 1.2685546875, 2.072021484375, 2.87548828125, 3.678955078125, 4.482421875, 5.285888671875, 6.08935546875, 6.892822265625, 7.6962890625, 8.499755859375, 9.30322265625, 10.106689453125, 10.91015625, 11.713623046875, 12.51708984375, 13.320556640625, 14.1240234375, 14.927490234375, 15.73095703125, 16.534423828125, 17.337890625, 18.141357421875, 18.94482421875, 19.748291015625, 20.5517578125, 21.355224609375, 22.15869140625, 22.962158203125, 23.765625]}, "gradients/graph_3conv.4.weight": {"_type": "histogram", "values": [1.0, 0.0, 1.0, 0.0, 1.0, 0.0, 0.0, 0.0, 0.0, 0.0, 0.0, 1.0, 0.0, 0.0, 0.0, 0.0, 0.0, 0.0, 1.0, 0.0, 0.0, 0.0, 0.0, 0.0, 1.0, 0.0, 0.0, 0.0, 0.0, 2.0, 1.0, 2.0, 1.0, 0.0, 0.0, 2.0, 0.0, 1.0, 0.0, 0.0, 0.0, 0.0, 0.0, 0.0, 0.0, 0.0, 0.0, 0.0, 0.0, 0.0, 0.0, 0.0, 0.0, 0.0, 0.0, 0.0, 0.0, 0.0, 0.0, 0.0, 0.0, 0.0, 0.0, 1.0], "bins": [-52.77394485473633, -50.76073455810547, -48.74752426147461, -46.73431396484375, -44.72110366821289, -42.70789337158203, -40.69468307495117, -38.68147277832031, -36.66826248168945, -34.655052185058594, -32.641841888427734, -30.628631591796875, -28.615421295166016, -26.602210998535156, -24.589000701904297, -22.575790405273438, -20.562580108642578, -18.54936981201172, -16.53615951538086, -14.52294921875, -12.50973892211914, -10.496528625488281, -8.483318328857422, -6.4701080322265625, -4.456897735595703, -2.4436874389648438, -0.4304771423339844, 1.582733154296875, 3.5959434509277344, 5.609153747558594, 7.622364044189453, 9.635574340820312, 11.648788452148438, 13.661998748779297, 15.675209045410156, 17.688419342041016, 19.701629638671875, 21.714839935302734, 23.728050231933594, 25.741260528564453, 27.754470825195312, 29.767681121826172, 31.78089141845703, 33.79410171508789, 35.80731201171875, 37.82052230834961, 39.83373260498047, 41.84694290161133, 43.86015319824219, 45.87336349487305, 47.886573791503906, 49.899784088134766, 51.912994384765625, 53.926204681396484, 55.939414978027344, 57.9526252746582, 59.96583557128906, 61.97904586791992, 63.99225616455078, 66.00546264648438, 68.0186767578125, 70.03189086914062, 72.04509735107422, 74.05830383300781, 76.07151794433594]}, "gradients/graph_3conv.4.bias": {"_type": "histogram", "values": [1.0, 0.0, 0.0, 0.0, 0.0, 0.0, 1.0, 0.0, 0.0, 0.0, 0.0, 0.0, 0.0, 1.0, 0.0, 0.0, 0.0, 0.0, 0.0, 0.0, 1.0, 0.0, 1.0, 1.0, 0.0, 0.0, 1.0, 1.0, 0.0, 1.0, 0.0, 0.0, 0.0, 1.0, 1.0, 0.0, 1.0, 0.0, 0.0, 1.0, 0.0, 1.0, 0.0, 0.0, 0.0, 0.0, 0.0, 0.0, 0.0, 0.0, 0.0, 1.0, 0.0, 0.0, 0.0, 0.0, 0.0, 0.0, 0.0, 0.0, 0.0, 0.0, 0.0, 1.0], "bins": [-110.29347229003906, -107.60398864746094, -104.91449737548828, -102.22501373291016, -99.5355224609375, -96.84603881835938, -94.15655517578125, -91.46707153320312, -88.77758026123047, -86.08809661865234, -83.39860534667969, -80.70912170410156, -78.01963806152344, -75.33014678955078, -72.64066314697266, -69.951171875, -67.26168823242188, -64.57220458984375, -61.882713317871094, -59.19322967529297, -56.50374221801758, -53.81425476074219, -51.12477111816406, -48.43528366088867, -45.74579620361328, -43.05630874633789, -40.3668212890625, -37.677337646484375, -34.987850189208984, -32.298362731933594, -29.608877182006836, -26.919391632080078, -24.22991180419922, -21.540424346923828, -18.85093879699707, -16.161453247070312, -13.471965789794922, -10.782479286193848, -8.092992782592773, -5.403507232666016, -2.714019775390625, -0.02453327178955078, 2.6649532318115234, 5.354439735412598, 8.043926239013672, 10.733412742614746, 13.42289924621582, 16.112384796142578, 18.80187225341797, 21.49135971069336, 24.180845260620117, 26.870330810546875, 29.559818267822266, 32.249305725097656, 34.93878936767578, 37.62827682495117, 40.31776428222656, 43.00725173950195, 45.696739196777344, 48.38622283935547, 51.07571029663086, 53.76519775390625, 56.454681396484375, 59.144168853759766, 61.833656311035156]}, "gradients/graph_3conv.3.weight": {"_type": "histogram", "values": [12.0, 6.0, 14.0, 18.0, 26.0, 38.0, 42.0, 55.0, 61.0, 74.0, 72.0, 67.0, 61.0, 74.0, 77.0, 110.0, 103.0, 76.0, 57.0, 24.0, 20.0, 36.0, 59.0, 77.0, 71.0, 87.0, 64.0, 61.0, 53.0, 53.0, 51.0, 43.0, 46.0, 45.0, 34.0, 29.0, 18.0, 20.0, 16.0, 9.0, 10.0, 9.0, 10.0, 7.0, 6.0, 2.0, 4.0, 4.0, 6.0, 5.0, 3.0, 2.0, 2.0, 3.0, 1.0, 3.0, 2.0, 0.0, 3.0, 2.0, 0.0, 3.0, 0.0, 2.0], "bins": [-25.90625, -24.39892578125, -22.8916015625, -21.38427734375, -19.876953125, -18.36962890625, -16.8623046875, -15.35498046875, -13.84765625, -12.34033203125, -10.8330078125, -9.32568359375, -7.818359375, -6.31103515625, -4.8037109375, -3.29638671875, -1.7890625, -0.28173828125, 1.2255859375, 2.73291015625, 4.240234375, 5.74755859375, 7.2548828125, 8.76220703125, 10.26953125, 11.77685546875, 13.2841796875, 14.79150390625, 16.298828125, 17.80615234375, 19.3134765625, 20.82080078125, 22.328125, 23.83544921875, 25.3427734375, 26.85009765625, 28.357421875, 29.86474609375, 31.3720703125, 32.87939453125, 34.38671875, 35.89404296875, 37.4013671875, 38.90869140625, 40.416015625, 41.92333984375, 43.4306640625, 44.93798828125, 46.4453125, 47.95263671875, 49.4599609375, 50.96728515625, 52.474609375, 53.98193359375, 55.4892578125, 56.99658203125, 58.50390625, 60.01123046875, 61.5185546875, 63.02587890625, 64.533203125, 66.04052734375, 67.5478515625, 69.05517578125, 70.5625]}, "gradients/graph_3conv.1.weight": {"_type": "histogram", "values": [1.0, 0.0, 0.0, 0.0, 0.0, 1.0, 0.0, 1.0, 0.0, 1.0, 0.0, 0.0, 1.0, 0.0, 0.0, 0.0, 0.0, 0.0, 0.0, 0.0, 0.0, 0.0, 0.0, 0.0, 0.0, 0.0, 0.0, 0.0, 0.0, 0.0, 0.0, 0.0, 0.0, 0.0, 0.0, 1.0, 0.0, 0.0, 0.0, 0.0, 0.0, 0.0, 0.0, 0.0, 0.0, 0.0, 0.0, 0.0, 0.0, 0.0, 0.0, 0.0, 0.0, 0.0, 1.0, 0.0, 0.0, 0.0, 0.0, 0.0, 0.0, 0.0, 0.0, 1.0], "bins": [-116.7110595703125, -111.87757110595703, -107.0440902709961, -102.21060180664062, -97.37712097167969, -92.54363250732422, -87.71014404296875, -82.87666320800781, -78.04317474365234, -73.20968627929688, -68.37620544433594, -63.54271697998047, -58.709232330322266, -53.87574768066406, -49.042259216308594, -44.20877456665039, -39.37528991699219, -34.541805267333984, -29.70831871032715, -24.874832153320312, -20.04134750366211, -15.207862854003906, -10.37437629699707, -5.540889739990234, -0.7074050903320312, 4.126080513000488, 8.959566116333008, 13.793051719665527, 18.626537322998047, 23.46002197265625, 28.293508529663086, 33.12699508666992, 37.960479736328125, 42.79396438598633, 47.62744903564453, 52.4609375, 57.2944221496582, 62.127906799316406, 66.96139526367188, 71.79487609863281, 76.62836456298828, 81.46185302734375, 86.29533386230469, 91.12882232666016, 95.96231079101562, 100.79579162597656, 105.62928009033203, 110.4627685546875, 115.29624938964844, 120.1297378540039, 124.96321868896484, 129.7967071533203, 134.63018798828125, 139.46368408203125, 144.2971649169922, 149.13064575195312, 153.96414184570312, 158.79762268066406, 163.63111877441406, 168.464599609375, 173.29808044433594, 178.13156127929688, 182.96505737304688, 187.7985382080078, 192.63201904296875]}, "gradients/graph_3conv.1.bias": {"_type": "histogram", "values": [1.0, 0.0, 0.0, 0.0, 0.0, 0.0, 0.0, 0.0, 0.0, 0.0, 0.0, 0.0, 0.0, 0.0, 0.0, 0.0, 0.0, 0.0, 0.0, 0.0, 0.0, 0.0, 0.0, 0.0, 0.0, 0.0, 0.0, 0.0, 0.0, 1.0, 1.0, 1.0, 0.0, 0.0, 0.0, 0.0, 0.0, 0.0, 1.0, 0.0, 0.0, 0.0, 0.0, 0.0, 0.0, 0.0, 0.0, 0.0, 0.0, 1.0, 0.0, 0.0, 0.0, 0.0, 0.0, 0.0, 0.0, 0.0, 1.0, 0.0, 0.0, 0.0, 0.0, 1.0], "bins": [-113.36482238769531, -110.9041519165039, -108.44348907470703, -105.98281860351562, -103.52214813232422, -101.06147766113281, -98.60081481933594, -96.14014434814453, -93.67947387695312, -91.21880340576172, -88.75814056396484, -86.29747009277344, -83.83679962158203, -81.37612915039062, -78.91546630859375, -76.45479583740234, -73.99413299560547, -71.53346252441406, -69.07279968261719, -66.61212921142578, -64.15145874023438, -61.690792083740234, -59.230125427246094, -56.76945495605469, -54.30878829956055, -51.848121643066406, -49.387451171875, -46.92678451538086, -44.46611785888672, -42.00544738769531, -39.54478073120117, -37.08411407470703, -34.62344741821289, -32.16278076171875, -29.702110290527344, -27.241443634033203, -24.78077507019043, -22.320106506347656, -19.859439849853516, -17.398771286010742, -14.938102722167969, -12.477434158325195, -10.016766548156738, -7.556098461151123, -5.095430374145508, -2.6347618103027344, -0.17409420013427734, 2.2865734100341797, 4.747241973876953, 7.207910060882568, 9.668578147888184, 12.12924575805664, 14.589914321899414, 17.050582885742188, 19.511249542236328, 21.9719181060791, 24.432586669921875, 26.89325523376465, 29.353923797607422, 31.814590454101562, 34.27526092529297, 36.73592758178711, 39.19659423828125, 41.657264709472656, 44.1179313659668]}, "gradients/graph_3conv.0.weight": {"_type": "histogram", "values": [1.0, 1.0, 0.0, 1.0, 0.0, 1.0, 0.0, 2.0, 0.0, 2.0, 0.0, 1.0, 1.0, 1.0, 1.0, 0.0, 2.0, 1.0, 0.0, 2.0, 2.0, 3.0, 3.0, 5.0, 6.0, 6.0, 11.0, 9.0, 14.0, 10.0, 9.0, 18.0, 17.0, 25.0, 33.0, 39.0, 27.0, 24.0, 26.0, 12.0, 11.0, 6.0, 4.0, 7.0, 4.0, 3.0, 3.0, 4.0, 3.0, 4.0, 2.0, 1.0, 3.0, 1.0, 2.0, 2.0, 0.0, 2.0, 2.0, 2.0, 0.0, 0.0, 1.0, 1.0], "bins": [-103.375, -100.349609375, -97.32421875, -94.298828125, -91.2734375, -88.248046875, -85.22265625, -82.197265625, -79.171875, -76.146484375, -73.12109375, -70.095703125, -67.0703125, -64.044921875, -61.01953125, -57.994140625, -54.96875, -51.943359375, -48.91796875, -45.892578125, -42.8671875, -39.841796875, -36.81640625, -33.791015625, -30.765625, -27.740234375, -24.71484375, -21.689453125, -18.6640625, -15.638671875, -12.61328125, -9.587890625, -6.5625, -3.537109375, -0.51171875, 2.513671875, 5.5390625, 8.564453125, 11.58984375, 14.615234375, 17.640625, 20.666015625, 23.69140625, 26.716796875, 29.7421875, 32.767578125, 35.79296875, 38.818359375, 41.84375, 44.869140625, 47.89453125, 50.919921875, 53.9453125, 56.970703125, 59.99609375, 63.021484375, 66.046875, 69.072265625, 72.09765625, 75.123046875, 78.1484375, 81.173828125, 84.19921875, 87.224609375, 90.25]}, "_wandb": {"runtime": 6290}}