{"observations_loss_sum/train": 1669.7900390625, "_timestamp": 1670930744.9815693, "image_hsr_256/train": 1669.7900390625, "reward_loss/train": 0.0, "kl_loss_sum/train": 94.62422943115234, "kl_loss/train": 94.62422943115234, "frame": 20000000, "_runtime": 6138.173364400864, "_step": 8000, "observations_loss_sum/validation": 4357.00830078125, "image_hsr_256/validation": 4357.00830078125, "reward_loss/validation": 0.0, "kl_loss_sum/validation": 169.97320556640625, "kl_loss/validation": 169.97320556640625, "gradients/decoder.conv.15.weight": {"_type": "histogram", "values": [1.0, 1.0, 1.0, 2.0, 1.0, 0.0, 2.0, 2.0, 2.0, 1.0, 1.0, 2.0, 2.0, 2.0, 1.0, 3.0, 2.0, 4.0, 5.0, 4.0, 6.0, 6.0, 8.0, 13.0, 13.0, 15.0, 18.0, 15.0, 18.0, 19.0, 15.0, 25.0, 34.0, 42.0, 46.0, 58.0, 85.0, 94.0, 118.0, 129.0, 166.0, 131.0, 111.0, 73.0, 68.0, 52.0, 36.0, 35.0, 39.0, 23.0, 30.0, 16.0, 16.0, 10.0, 12.0, 14.0, 16.0, 14.0, 11.0, 5.0, 1.0, 10.0, 15.0, 8.0], "bins": [-916.0, -894.125, -872.25, -850.375, -828.5, -806.625, -784.75, -762.875, -741.0, -719.125, -697.25, -675.375, -653.5, -631.625, -609.75, -587.875, -566.0, -544.125, -522.25, -500.375, -478.5, -456.625, -434.75, -412.875, -391.0, -369.125, -347.25, -325.375, -303.5, -281.625, -259.75, -237.875, -216.0, -194.125, -172.25, -150.375, -128.5, -106.625, -84.75, -62.875, -41.0, -19.125, 2.75, 24.625, 46.5, 68.375, 90.25, 112.125, 134.0, 155.875, 177.75, 199.625, 221.5, 243.375, 265.25, 287.125, 309.0, 330.875, 352.75, 374.625, 396.5, 418.375, 440.25, 462.125, 484.0]}, "gradients/decoder.conv.15.bias": {"_type": "histogram", "values": [1.0, 0.0, 0.0, 0.0, 0.0, 0.0, 0.0, 0.0, 0.0, 0.0, 0.0, 0.0, 0.0, 0.0, 0.0, 0.0, 0.0, 0.0, 0.0, 0.0, 0.0, 0.0, 0.0, 0.0, 0.0, 0.0, 0.0, 0.0, 0.0, 0.0, 0.0, 0.0, 0.0, 0.0, 0.0, 0.0, 0.0, 0.0, 1.0, 0.0, 0.0, 0.0, 0.0, 0.0, 0.0, 0.0, 0.0, 0.0, 0.0, 0.0, 0.0, 0.0, 0.0, 0.0, 0.0, 0.0, 0.0, 0.0, 0.0, 0.0, 0.0, 0.0, 0.0, 1.0], "bins": [-544.5, -401.6171875, -258.734375, -115.8515625, 27.03125, 169.9140625, 312.796875, 455.6796875, 598.5625, 741.4453125, 884.328125, 1027.2109375, 1170.09375, 1312.9765625, 1455.859375, 1598.7421875, 1741.625, 1884.5078125, 2027.390625, 2170.2734375, 2313.15625, 2456.0390625, 2598.921875, 2741.8046875, 2884.6875, 3027.5703125, 3170.453125, 3313.3359375, 3456.21875, 3599.1015625, 3741.984375, 3884.8671875, 4027.75, 4170.6328125, 4313.515625, 4456.3984375, 4599.28125, 4742.1640625, 4885.046875, 5027.9296875, 5170.8125, 5313.6953125, 5456.578125, 5599.4609375, 5742.34375, 5885.2265625, 6028.109375, 6170.9921875, 6313.875, 6456.7578125, 6599.640625, 6742.5234375, 6885.40625, 7028.2890625, 7171.171875, 7314.0546875, 7456.9375, 7599.8203125, 7742.703125, 7885.5859375, 8028.46875, 8171.3515625, 8314.234375, 8457.1171875, 8600.0]}, "gradients/decoder.conv.13.weight": {"_type": "histogram", "values": [2.0, 0.0, 0.0, 0.0, 0.0, 0.0, 0.0, 0.0, 0.0, 0.0, 0.0, 0.0, 0.0, 0.0, 0.0, 0.0, 0.0, 0.0, 0.0, 0.0, 0.0, 0.0, 0.0, 0.0, 0.0, 0.0, 0.0, 0.0, 0.0, 0.0, 0.0, 0.0, 0.0, 0.0, 0.0, 0.0, 0.0, 0.0, 0.0, 0.0, 1.0, 0.0, 1.0, 0.0, 0.0, 0.0, 1.0, 2.0, 0.0, 0.0, 4.0, 0.0, 0.0, 0.0, 2.0, 1.0, 0.0, 0.0, 0.0, 1.0, 0.0, 0.0, 0.0, 1.0], "bins": [-2597.127197265625, -2544.7314453125, -2492.335693359375, -2439.93994140625, -2387.544189453125, -2335.1484375, -2282.752685546875, -2230.35693359375, -2177.961181640625, -2125.5654296875, -2073.169677734375, -2020.77392578125, -1968.378173828125, -1915.982421875, -1863.586669921875, -1811.19091796875, -1758.7952880859375, -1706.3995361328125, -1654.0037841796875, -1601.6080322265625, -1549.2122802734375, -1496.8165283203125, -1444.4208984375, -1392.025146484375, -1339.62939453125, -1287.233642578125, -1234.837890625, -1182.442138671875, -1130.04638671875, -1077.650634765625, -1025.2548828125, -972.8591918945312, -920.4632568359375, -868.0675048828125, -815.6717529296875, -763.2760009765625, -710.8802490234375, -658.4844970703125, -606.0888061523438, -553.6930541992188, -501.29730224609375, -448.90155029296875, -396.50579833984375, -344.1100769042969, -291.7143249511719, -239.31857299804688, -186.9228515625, -134.527099609375, -82.13134765625, -29.73560333251953, 22.660140991210938, 75.05587768554688, 127.45162963867188, 179.84738159179688, 232.24310302734375, 284.63885498046875, 337.03460693359375, 389.43035888671875, 441.82611083984375, 494.2218322753906, 546.6175537109375, 599.0133056640625, 651.4090576171875, 703.8048095703125, 756.2005615234375]}, "gradients/decoder.conv.13.bias": {"_type": "histogram", "values": [1.0, 0.0, 1.0, 0.0, 0.0, 0.0, 0.0, 0.0, 0.0, 0.0, 0.0, 0.0, 1.0, 0.0, 0.0, 0.0, 0.0, 0.0, 1.0, 0.0, 0.0, 0.0, 0.0, 0.0, 2.0, 0.0, 0.0, 1.0, 1.0, 1.0, 0.0, 0.0, 0.0, 0.0, 0.0, 1.0, 0.0, 0.0, 1.0, 0.0, 1.0, 0.0, 1.0, 0.0, 0.0, 0.0, 1.0, 0.0, 0.0, 0.0, 0.0, 0.0, 0.0, 0.0, 0.0, 0.0, 1.0, 0.0, 0.0, 0.0, 0.0, 0.0, 0.0, 1.0], "bins": [-1582.8470458984375, -1533.200439453125, -1483.5538330078125, -1433.9072265625, -1384.2606201171875, -1334.614013671875, -1284.96728515625, -1235.3206787109375, -1185.674072265625, -1136.0274658203125, -1086.380859375, -1036.7342529296875, -987.0875854492188, -937.4409790039062, -887.7943725585938, -838.147705078125, -788.5011596679688, -738.8545532226562, -689.2079467773438, -639.561279296875, -589.9146728515625, -540.26806640625, -490.6214599609375, -440.9748229980469, -391.3282165527344, -341.6816101074219, -292.03497314453125, -242.38836669921875, -192.7417449951172, -143.09512329101562, -93.44851684570312, -43.8018798828125, 5.8447265625, 55.4913444519043, 105.1379623413086, 154.78457641601562, 204.4311981201172, 254.07781982421875, 303.72442626953125, 353.3710632324219, 403.0176696777344, 452.6642761230469, 502.3109130859375, 551.95751953125, 601.6041259765625, 651.250732421875, 700.8973388671875, 750.5440063476562, 800.1906127929688, 849.8372192382812, 899.4838256835938, 949.1304931640625, 998.777099609375, 1048.4237060546875, 1098.0703125, 1147.7169189453125, 1197.363525390625, 1247.0101318359375, 1296.65673828125, 1346.3033447265625, 1395.949951171875, 1445.5966796875, 1495.2431640625, 1544.889892578125, 1594.5364990234375]}, "gradients/decoder.conv.12.weight": {"_type": "histogram", "values": [4.0, 0.0, 0.0, 2.0, 7.0, 3.0, 3.0, 6.0, 4.0, 1.0, 0.0, 0.0, 6.0, 4.0, 3.0, 1.0, 4.0, 2.0, 3.0, 2.0, 8.0, 3.0, 2.0, 1.0, 7.0, 0.0, 8.0, 6.0, 2.0, 3.0, 1.0, 2.0, 2.0, 3.0, 7.0, 5.0, 0.0, 2.0, 3.0, 10.0, 9.0, 24.0, 35.0, 55.0, 148.0, 142.0, 262.0, 722.0, 2689.0, 2532.0, 727.0, 323.0, 182.0, 77.0, 38.0, 35.0, 20.0, 10.0, 10.0, 7.0, 6.0, 5.0, 2.0, 2.0], "bins": [-2752.0, -2695.84375, -2639.6875, -2583.53125, -2527.375, -2471.21875, -2415.0625, -2358.90625, -2302.75, -2246.59375, -2190.4375, -2134.28125, -2078.125, -2021.96875, -1965.8125, -1909.65625, -1853.5, -1797.34375, -1741.1875, -1685.03125, -1628.875, -1572.71875, -1516.5625, -1460.40625, -1404.25, -1348.09375, -1291.9375, -1235.78125, -1179.625, -1123.46875, -1067.3125, -1011.15625, -955.0, -898.84375, -842.6875, -786.53125, -730.375, -674.21875, -618.0625, -561.90625, -505.75, -449.59375, -393.4375, -337.28125, -281.125, -224.96875, -168.8125, -112.65625, -56.5, -0.34375, 55.8125, 111.96875, 168.125, 224.28125, 280.4375, 336.59375, 392.75, 448.90625, 505.0625, 561.21875, 617.375, 673.53125, 729.6875, 785.84375, 842.0]}, "gradients/decoder.conv.10.weight": {"_type": "histogram", "values": [1.0, 0.0, 0.0, 0.0, 0.0, 0.0, 0.0, 0.0, 0.0, 0.0, 0.0, 0.0, 0.0, 1.0, 0.0, 0.0, 0.0, 0.0, 0.0, 0.0, 1.0, 1.0, 0.0, 1.0, 0.0, 0.0, 0.0, 0.0, 0.0, 0.0, 1.0, 1.0, 0.0, 0.0, 2.0, 4.0, 3.0, 2.0, 2.0, 1.0, 2.0, 2.0, 1.0, 1.0, 0.0, 1.0, 0.0, 0.0, 0.0, 0.0, 0.0, 0.0, 1.0, 0.0, 1.0, 1.0, 0.0, 0.0, 0.0, 0.0, 0.0, 0.0, 0.0, 1.0], "bins": [-1551.861083984375, -1510.06298828125, -1468.2647705078125, -1426.4666748046875, -1384.6685791015625, -1342.870361328125, -1301.072265625, -1259.274169921875, -1217.47607421875, -1175.677978515625, -1133.8797607421875, -1092.0816650390625, -1050.2835693359375, -1008.4854125976562, -966.687255859375, -924.88916015625, -883.0909423828125, -841.2927856445312, -799.4946899414062, -757.696533203125, -715.8984375, -674.1002807617188, -632.3021240234375, -590.5040283203125, -548.7058715820312, -506.9077453613281, -465.109619140625, -423.31146240234375, -381.5133361816406, -339.7152099609375, -297.91705322265625, -256.1189270019531, -214.32080078125, -172.52267456054688, -130.7245330810547, -88.92639923095703, -47.128265380859375, -5.33013916015625, 36.46800231933594, 78.26614379882812, 120.06427001953125, 161.86239624023438, 203.66053771972656, 245.45867919921875, 287.2568054199219, 329.054931640625, 370.85308837890625, 412.6512145996094, 454.4493408203125, 496.2474670410156, 538.0455932617188, 579.84375, 621.641845703125, 663.4400024414062, 705.2381591796875, 747.0362548828125, 788.8344116210938, 830.632568359375, 872.4306640625, 914.2288208007812, 956.0269775390625, 997.8250732421875, 1039.6231689453125, 1081.42138671875, 1123.219482421875]}, "gradients/decoder.conv.10.bias": {"_type": "histogram", "values": [1.0, 0.0, 0.0, 0.0, 0.0, 0.0, 0.0, 0.0, 0.0, 0.0, 0.0, 0.0, 0.0, 0.0, 0.0, 0.0, 0.0, 1.0, 0.0, 1.0, 1.0, 1.0, 0.0, 0.0, 0.0, 1.0, 0.0, 0.0, 0.0, 0.0, 0.0, 0.0, 0.0, 0.0, 1.0, 0.0, 0.0, 0.0, 1.0, 0.0, 1.0, 4.0, 1.0, 2.0, 1.0, 1.0, 1.0, 1.0, 0.0, 1.0, 2.0, 2.0, 1.0, 0.0, 2.0, 0.0, 0.0, 0.0, 0.0, 2.0, 0.0, 0.0, 1.0, 1.0], "bins": [-998.27587890625, -975.4403076171875, -952.604736328125, -929.7691650390625, -906.93359375, -884.0980224609375, -861.262451171875, -838.4268798828125, -815.59130859375, -792.7557373046875, -769.920166015625, -747.0845947265625, -724.2490234375, -701.4134521484375, -678.577880859375, -655.7423095703125, -632.9066772460938, -610.0711059570312, -587.2355346679688, -564.3999633789062, -541.5643920898438, -518.7288208007812, -495.8932189941406, -473.0576477050781, -450.2220764160156, -427.3865051269531, -404.5509338378906, -381.71533203125, -358.8797607421875, -336.044189453125, -313.2086181640625, -290.373046875, -267.53741455078125, -244.70184326171875, -221.86627197265625, -199.0306854248047, -176.1951141357422, -153.3595428466797, -130.52395629882812, -107.68838500976562, -84.85281372070312, -62.01723861694336, -39.181663513183594, -16.346084594726562, 6.4894866943359375, 29.325057983398438, 52.16064453125, 74.9962158203125, 97.831787109375, 120.6673583984375, 143.5029296875, 166.33851623535156, 189.17408752441406, 212.00965881347656, 234.84524536132812, 257.6808166503906, 280.5163879394531, 303.3519592285156, 326.1875305175781, 349.02313232421875, 371.85870361328125, 394.69427490234375, 417.52984619140625, 440.36541748046875, 463.20098876953125]}, "gradients/decoder.conv.9.weight": {"_type": "histogram", "values": [2.0, 5.0, 6.0, 8.0, 20.0, 9.0, 7.0, 9.0, 14.0, 24.0, 19.0, 17.0, 31.0, 44.0, 52.0, 83.0, 97.0, 120.0, 149.0, 208.0, 251.0, 330.0, 504.0, 633.0, 844.0, 1208.0, 1910.0, 3599.0, 7950.0, 5973.0, 3425.0, 1666.0, 1059.0, 634.0, 447.0, 339.0, 237.0, 171.0, 133.0, 96.0, 98.0, 68.0, 55.0, 32.0, 30.0, 32.0, 16.0, 17.0, 12.0, 16.0, 8.0, 10.0, 5.0, 6.0, 11.0, 4.0, 5.0, 0.0, 2.0, 2.0, 1.0, 1.0, 2.0, 2.0], "bins": [-172.375, -166.392578125, -160.41015625, -154.427734375, -148.4453125, -142.462890625, -136.48046875, -130.498046875, -124.515625, -118.533203125, -112.55078125, -106.568359375, -100.5859375, -94.603515625, -88.62109375, -82.638671875, -76.65625, -70.673828125, -64.69140625, -58.708984375, -52.7265625, -46.744140625, -40.76171875, -34.779296875, -28.796875, -22.814453125, -16.83203125, -10.849609375, -4.8671875, 1.115234375, 7.09765625, 13.080078125, 19.0625, 25.044921875, 31.02734375, 37.009765625, 42.9921875, 48.974609375, 54.95703125, 60.939453125, 66.921875, 72.904296875, 78.88671875, 84.869140625, 90.8515625, 96.833984375, 102.81640625, 108.798828125, 114.78125, 120.763671875, 126.74609375, 132.728515625, 138.7109375, 144.693359375, 150.67578125, 156.658203125, 162.640625, 168.623046875, 174.60546875, 180.587890625, 186.5703125, 192.552734375, 198.53515625, 204.517578125, 210.5]}, "gradients/decoder.conv.7.weight": {"_type": "histogram", "values": [2.0, 0.0, 0.0, 1.0, 0.0, 2.0, 0.0, 1.0, 0.0, 1.0, 0.0, 0.0, 1.0, 2.0, 0.0, 0.0, 2.0, 1.0, 0.0, 2.0, 0.0, 0.0, 2.0, 0.0, 3.0, 2.0, 2.0, 1.0, 3.0, 6.0, 2.0, 3.0, 2.0, 1.0, 1.0, 3.0, 0.0, 1.0, 2.0, 3.0, 3.0, 0.0, 0.0, 0.0, 0.0, 1.0, 0.0, 2.0, 1.0, 0.0, 0.0, 0.0, 0.0, 0.0, 1.0, 0.0, 0.0, 0.0, 0.0, 1.0, 0.0, 0.0, 0.0, 3.0], "bins": [-278.4947814941406, -269.4123229980469, -260.329833984375, -251.24737548828125, -242.16490173339844, -233.08242797851562, -223.99996948242188, -214.91749572753906, -205.83502197265625, -196.75254821777344, -187.6700897216797, -178.58761596679688, -169.50514221191406, -160.42266845703125, -151.3402099609375, -142.2577362060547, -133.17527770996094, -124.09281158447266, -115.01033782958984, -105.92787170410156, -96.84539794921875, -87.76293182373047, -78.68046569824219, -69.59799194335938, -60.515525817871094, -51.43305587768555, -42.3505859375, -33.26811981201172, -24.185649871826172, -15.103179931640625, -6.020713806152344, 3.061756134033203, 12.14422607421875, 21.226696014404297, 30.30916404724121, 39.391632080078125, 48.47410202026367, 57.55657196044922, 66.6390380859375, 75.72151184082031, 84.8039779663086, 93.88644409179688, 102.96891784667969, 112.05138397216797, 121.13385009765625, 130.21632385253906, 139.29879760742188, 148.38125610351562, 157.46372985839844, 166.54620361328125, 175.628662109375, 184.7111358642578, 193.79360961914062, 202.87606811523438, 211.9585418701172, 221.041015625, 230.12347412109375, 239.20594787597656, 248.2884063720703, 257.3708801269531, 266.4533386230469, 275.53582763671875, 284.6182861328125, 293.70074462890625, 302.7832336425781]}, "gradients/decoder.conv.7.bias": {"_type": "histogram", "values": [2.0, 0.0, 0.0, 2.0, 0.0, 0.0, 1.0, 0.0, 2.0, 1.0, 0.0, 1.0, 1.0, 0.0, 0.0, 0.0, 2.0, 2.0, 1.0, 1.0, 2.0, 1.0, 2.0, 3.0, 0.0, 3.0, 0.0, 0.0, 1.0, 4.0, 1.0, 1.0, 2.0, 3.0, 1.0, 1.0, 3.0, 1.0, 1.0, 0.0, 0.0, 1.0, 1.0, 2.0, 1.0, 3.0, 2.0, 0.0, 1.0, 1.0, 0.0, 1.0, 0.0, 1.0, 1.0, 1.0, 0.0, 1.0, 0.0, 0.0, 0.0, 0.0, 0.0, 1.0], "bins": [-165.8802947998047, -160.95616149902344, -156.03204345703125, -151.10791015625, -146.18377685546875, -141.2596435546875, -136.33551025390625, -131.41139221191406, -126.48725891113281, -121.56312561035156, -116.63899993896484, -111.71487426757812, -106.79074096679688, -101.86660766601562, -96.9424819946289, -92.01835632324219, -87.09422302246094, -82.17008972167969, -77.24596405029297, -72.32183837890625, -67.397705078125, -62.473575592041016, -57.54944610595703, -52.62531661987305, -47.70118713378906, -42.77705764770508, -37.852928161621094, -32.92879867553711, -28.004669189453125, -23.08053970336914, -18.156410217285156, -13.232280731201172, -8.308135986328125, -3.3840065002441406, 1.5401229858398438, 6.464252471923828, 11.388381958007812, 16.312511444091797, 21.23664093017578, 26.160770416259766, 31.08489990234375, 36.009029388427734, 40.93315887451172, 45.8572883605957, 50.78141784667969, 55.70554733276367, 60.629676818847656, 65.55380249023438, 70.47793579101562, 75.40206909179688, 80.3261947631836, 85.25032043457031, 90.17445373535156, 95.09858703613281, 100.02271270751953, 104.94683837890625, 109.8709716796875, 114.79510498046875, 119.71923065185547, 124.64335632324219, 129.56748962402344, 134.4916229248047, 139.41574096679688, 144.33987426757812, 149.26400756835938]}, "gradients/decoder.conv.6.weight": {"_type": "histogram", "values": [2.0, 0.0, 2.0, 0.0, 0.0, 0.0, 1.0, 3.0, 3.0, 5.0, 4.0, 5.0, 5.0, 7.0, 7.0, 10.0, 8.0, 31.0, 33.0, 39.0, 67.0, 93.0, 109.0, 147.0, 244.0, 312.0, 432.0, 660.0, 990.0, 1469.0, 2390.0, 3979.0, 6550.0, 11025.0, 20104.0, 33135.0, 20362.0, 11207.0, 6519.0, 3908.0, 2611.0, 1592.0, 1013.0, 699.0, 448.0, 272.0, 197.0, 135.0, 81.0, 53.0, 33.0, 16.0, 16.0, 8.0, 10.0, 6.0, 5.0, 3.0, 0.0, 3.0, 0.0, 3.0, 0.0, 1.0], "bins": [-78.1875, -75.98486328125, -73.7822265625, -71.57958984375, -69.376953125, -67.17431640625, -64.9716796875, -62.76904296875, -60.56640625, -58.36376953125, -56.1611328125, -53.95849609375, -51.755859375, -49.55322265625, -47.3505859375, -45.14794921875, -42.9453125, -40.74267578125, -38.5400390625, -36.33740234375, -34.134765625, -31.93212890625, -29.7294921875, -27.52685546875, -25.32421875, -23.12158203125, -20.9189453125, -18.71630859375, -16.513671875, -14.31103515625, -12.1083984375, -9.90576171875, -7.703125, -5.50048828125, -3.2978515625, -1.09521484375, 1.107421875, 3.31005859375, 5.5126953125, 7.71533203125, 9.91796875, 12.12060546875, 14.3232421875, 16.52587890625, 18.728515625, 20.93115234375, 23.1337890625, 25.33642578125, 27.5390625, 29.74169921875, 31.9443359375, 34.14697265625, 36.349609375, 38.55224609375, 40.7548828125, 42.95751953125, 45.16015625, 47.36279296875, 49.5654296875, 51.76806640625, 53.970703125, 56.17333984375, 58.3759765625, 60.57861328125, 62.78125]}, "gradients/decoder.conv.4.weight": {"_type": "histogram", "values": [1.0, 0.0, 0.0, 0.0, 0.0, 1.0, 0.0, 0.0, 1.0, 0.0, 1.0, 0.0, 0.0, 0.0, 1.0, 2.0, 2.0, 1.0, 1.0, 2.0, 2.0, 4.0, 5.0, 3.0, 3.0, 2.0, 6.0, 10.0, 6.0, 7.0, 6.0, 5.0, 3.0, 7.0, 8.0, 9.0, 4.0, 3.0, 6.0, 1.0, 2.0, 0.0, 2.0, 2.0, 0.0, 3.0, 0.0, 0.0, 1.0, 1.0, 0.0, 0.0, 1.0, 0.0, 0.0, 0.0, 0.0, 1.0, 0.0, 0.0, 0.0, 1.0, 0.0, 1.0], "bins": [-154.31776428222656, -149.35218811035156, -144.3865966796875, -139.4210205078125, -134.4554443359375, -129.48985290527344, -124.52427673339844, -119.5586929321289, -114.59310913085938, -109.62752532958984, -104.66194152832031, -99.69636535644531, -94.73078155517578, -89.76519775390625, -84.79962158203125, -79.83403778076172, -74.86845397949219, -69.90287017822266, -64.93728637695312, -59.971710205078125, -55.006126403808594, -50.04054260253906, -45.0749626159668, -40.10938262939453, -35.143798828125, -30.1782169342041, -25.212635040283203, -20.247053146362305, -15.281471252441406, -10.315889358520508, -5.350307464599609, -0.38472747802734375, 4.5808563232421875, 9.546438217163086, 14.512020111083984, 19.477602005004883, 24.44318389892578, 29.40876579284668, 34.37434768676758, 39.339927673339844, 44.305511474609375, 49.271095275878906, 54.23667526245117, 59.20225524902344, 64.16783905029297, 69.1334228515625, 74.0989990234375, 79.06458282470703, 84.03016662597656, 88.9957504272461, 93.96133422851562, 98.92691040039062, 103.89249420166016, 108.85807800292969, 113.82365417480469, 118.78923797607422, 123.75482177734375, 128.72039794921875, 133.6859893798828, 138.6515655517578, 143.61715698242188, 148.58273315429688, 153.54830932617188, 158.51388549804688, 163.47947692871094]}, "gradients/decoder.conv.4.bias": {"_type": "histogram", "values": [1.0, 0.0, 0.0, 0.0, 0.0, 0.0, 0.0, 1.0, 0.0, 0.0, 0.0, 0.0, 0.0, 0.0, 1.0, 1.0, 1.0, 0.0, 3.0, 1.0, 1.0, 2.0, 2.0, 6.0, 2.0, 2.0, 1.0, 1.0, 2.0, 5.0, 6.0, 8.0, 5.0, 7.0, 13.0, 3.0, 4.0, 7.0, 3.0, 4.0, 5.0, 5.0, 6.0, 3.0, 4.0, 1.0, 2.0, 1.0, 1.0, 0.0, 0.0, 2.0, 0.0, 0.0, 0.0, 0.0, 0.0, 0.0, 0.0, 0.0, 1.0, 1.0, 1.0, 2.0], "bins": [-127.62095642089844, -124.02059173583984, -120.42022705078125, -116.81986236572266, -113.21949768066406, -109.619140625, -106.0187759399414, -102.41841125488281, -98.81804656982422, -95.21768188476562, -91.61731719970703, -88.01695251464844, -84.41659545898438, -80.81622314453125, -77.21586608886719, -73.6155014038086, -70.01513671875, -66.4147720336914, -62.81440734863281, -59.214046478271484, -55.61368179321289, -52.0133171081543, -48.41295623779297, -44.812591552734375, -41.21222686767578, -37.61186218261719, -34.011497497558594, -30.411136627197266, -26.810771942138672, -23.210407257080078, -19.610044479370117, -16.009681701660156, -12.409324645996094, -8.808960914611816, -5.208597183227539, -1.6082334518432617, 1.9921302795410156, 5.592494964599609, 9.19285774230957, 12.793220520019531, 16.393585205078125, 19.99394989013672, 23.59431266784668, 27.19467544555664, 30.795040130615234, 34.39540481567383, 37.995765686035156, 41.59613037109375, 45.196495056152344, 48.79685974121094, 52.39722442626953, 55.99758529663086, 59.59794998168945, 63.19831466674805, 66.79867553710938, 70.39904022216797, 73.99940490722656, 77.59976959228516, 81.20013427734375, 84.80049896240234, 88.40086364746094, 92.001220703125, 95.6015853881836, 99.20195007324219, 102.80231475830078]}, "gradients/decoder.conv.3.weight": {"_type": "histogram", "values": [2.0, 0.0, 0.0, 0.0, 1.0, 1.0, 5.0, 11.0, 8.0, 10.0, 15.0, 28.0, 32.0, 35.0, 81.0, 103.0, 162.0, 206.0, 311.0, 486.0, 680.0, 1016.0, 1567.0, 2465.0, 3988.0, 6470.0, 10731.0, 18229.0, 32429.0, 56535.0, 92393.0, 104070.0, 70375.0, 45683.0, 28420.0, 17049.0, 10414.0, 6714.0, 4245.0, 2864.0, 1956.0, 1395.0, 931.0, 658.0, 451.0, 325.0, 205.0, 145.0, 114.0, 81.0, 65.0, 37.0, 28.0, 20.0, 18.0, 11.0, 4.0, 2.0, 4.0, 1.0, 0.0, 0.0, 1.0, 2.0], "bins": [-29.171875, -28.240234375, -27.30859375, -26.376953125, -25.4453125, -24.513671875, -23.58203125, -22.650390625, -21.71875, -20.787109375, -19.85546875, -18.923828125, -17.9921875, -17.060546875, -16.12890625, -15.197265625, -14.265625, -13.333984375, -12.40234375, -11.470703125, -10.5390625, -9.607421875, -8.67578125, -7.744140625, -6.8125, -5.880859375, -4.94921875, -4.017578125, -3.0859375, -2.154296875, -1.22265625, -0.291015625, 0.640625, 1.572265625, 2.50390625, 3.435546875, 4.3671875, 5.298828125, 6.23046875, 7.162109375, 8.09375, 9.025390625, 9.95703125, 10.888671875, 11.8203125, 12.751953125, 13.68359375, 14.615234375, 15.546875, 16.478515625, 17.41015625, 18.341796875, 19.2734375, 20.205078125, 21.13671875, 22.068359375, 23.0, 23.931640625, 24.86328125, 25.794921875, 26.7265625, 27.658203125, 28.58984375, 29.521484375, 30.453125]}, "gradients/decoder.conv.1.weight": {"_type": "histogram", "values": [1.0, 0.0, 0.0, 0.0, 1.0, 2.0, 0.0, 0.0, 2.0, 3.0, 2.0, 1.0, 1.0, 2.0, 3.0, 6.0, 1.0, 2.0, 5.0, 7.0, 4.0, 6.0, 6.0, 11.0, 9.0, 10.0, 8.0, 6.0, 4.0, 9.0, 14.0, 9.0, 12.0, 10.0, 10.0, 8.0, 10.0, 4.0, 5.0, 8.0, 8.0, 5.0, 7.0, 7.0, 3.0, 2.0, 1.0, 0.0, 2.0, 1.0, 3.0, 1.0, 4.0, 2.0, 1.0, 0.0, 1.0, 1.0, 1.0, 1.0, 0.0, 0.0, 0.0, 3.0], "bins": [-68.45927429199219, -66.26963806152344, -64.07999420166016, -61.89035415649414, -59.700714111328125, -57.51107406616211, -55.321434020996094, -53.131797790527344, -50.94215393066406, -48.75251388549805, -46.56287384033203, -44.373233795166016, -42.18359375, -39.993953704833984, -37.80431365966797, -35.61467742919922, -33.4250373840332, -31.235397338867188, -29.045757293701172, -26.856117248535156, -24.66647720336914, -22.476837158203125, -20.287199020385742, -18.097558975219727, -15.907918930053711, -13.718278884887695, -11.52863883972168, -9.33899974822998, -7.149359703063965, -4.959719657897949, -2.77008056640625, -0.5804405212402344, 1.6091995239257812, 3.7988393306732178, 5.988479137420654, 8.178118705749512, 10.367758750915527, 12.557398796081543, 14.747037887573242, 16.936677932739258, 19.126317977905273, 21.31595802307129, 23.505598068237305, 25.695236206054688, 27.884876251220703, 30.07451629638672, 32.264156341552734, 34.45379638671875, 36.643436431884766, 38.83307647705078, 41.0227165222168, 43.21235656738281, 45.40199661254883, 47.591636657714844, 49.781272888183594, 51.970916748046875, 54.160552978515625, 56.35019302368164, 58.539833068847656, 60.72947311401367, 62.91911315917969, 65.10874938964844, 67.29839324951172, 69.48802947998047, 71.67767333984375]}, "gradients/decoder.conv.1.bias": {"_type": "histogram", "values": [1.0, 0.0, 0.0, 0.0, 0.0, 1.0, 0.0, 0.0, 0.0, 0.0, 0.0, 2.0, 0.0, 1.0, 2.0, 1.0, 2.0, 3.0, 4.0, 5.0, 1.0, 10.0, 5.0, 4.0, 1.0, 12.0, 6.0, 9.0, 7.0, 11.0, 14.0, 9.0, 13.0, 10.0, 16.0, 10.0, 13.0, 6.0, 12.0, 5.0, 6.0, 5.0, 5.0, 3.0, 8.0, 4.0, 2.0, 7.0, 4.0, 1.0, 2.0, 1.0, 2.0, 2.0, 1.0, 3.0, 1.0, 0.0, 1.0, 0.0, 1.0, 0.0, 0.0, 1.0], "bins": [-75.08531188964844, -72.84840393066406, -70.61149597167969, -68.37458801269531, -66.13768005371094, -63.90077209472656, -61.66386795043945, -59.42695999145508, -57.1900520324707, -54.95314407348633, -52.71623611450195, -50.47932815551758, -48.24242401123047, -46.005516052246094, -43.76860809326172, -41.531700134277344, -39.29479217529297, -37.057884216308594, -34.82097625732422, -32.584068298339844, -30.3471622467041, -28.110254287719727, -25.873348236083984, -23.63644027709961, -21.399532318115234, -19.16262435913086, -16.925716400146484, -14.688810348510742, -12.451902389526367, -10.214994430541992, -7.978087425231934, -5.741180419921875, -3.5042724609375, -1.2673649787902832, 0.9695425033569336, 3.2064499855041504, 5.443357467651367, 7.680265426635742, 9.9171724319458, 12.15407943725586, 14.390987396240234, 16.62789535522461, 18.864803314208984, 21.101709365844727, 23.3386173248291, 25.575525283813477, 27.81243133544922, 30.049339294433594, 32.28624725341797, 34.523155212402344, 36.76006317138672, 38.996971130371094, 41.23387908935547, 43.470787048339844, 45.70769119262695, 47.94459915161133, 50.1815071105957, 52.41841506958008, 54.65532302856445, 56.89223098754883, 59.12913513183594, 61.36604309082031, 63.60295104980469, 65.83985900878906, 68.07676696777344]}, "gradients/decoder.conv.0.weight": {"_type": "histogram", "values": [1.0, 0.0, 2.0, 1.0, 1.0, 5.0, 2.0, 3.0, 6.0, 9.0, 7.0, 21.0, 20.0, 37.0, 50.0, 82.0, 102.0, 165.0, 281.0, 460.0, 734.0, 1347.0, 2627.0, 5312.0, 11397.0, 27593.0, 78676.0, 276519.0, 1406535.0, 5889534.0, 1349659.0, 267383.0, 73769.0, 25447.0, 10035.0, 4473.0, 2115.0, 1076.0, 639.0, 353.0, 256.0, 151.0, 83.0, 67.0, 46.0, 22.0, 18.0, 24.0, 9.0, 6.0, 10.0, 3.0, 4.0, 1.0, 1.0, 2.0, 0.0, 1.0, 0.0, 0.0, 0.0, 1.0, 0.0, 1.0], "bins": [-11.6796875, -11.2835693359375, -10.887451171875, -10.4913330078125, -10.09521484375, -9.6990966796875, -9.302978515625, -8.9068603515625, -8.5107421875, -8.1146240234375, -7.718505859375, -7.3223876953125, -6.92626953125, -6.5301513671875, -6.134033203125, -5.7379150390625, -5.341796875, -4.9456787109375, -4.549560546875, -4.1534423828125, -3.75732421875, -3.3612060546875, -2.965087890625, -2.5689697265625, -2.1728515625, -1.7767333984375, -1.380615234375, -0.9844970703125, -0.58837890625, -0.1922607421875, 0.203857421875, 0.5999755859375, 0.99609375, 1.3922119140625, 1.788330078125, 2.1844482421875, 2.58056640625, 2.9766845703125, 3.372802734375, 3.7689208984375, 4.1650390625, 4.5611572265625, 4.957275390625, 5.3533935546875, 5.74951171875, 6.1456298828125, 6.541748046875, 6.9378662109375, 7.333984375, 7.7301025390625, 8.126220703125, 8.5223388671875, 8.91845703125, 9.3145751953125, 9.710693359375, 10.1068115234375, 10.5029296875, 10.8990478515625, 11.295166015625, 11.6912841796875, 12.08740234375, 12.4835205078125, 12.879638671875, 13.2757568359375, 13.671875]}, "gradients/fc.weight": {"_type": "histogram", "values": [1.0, 0.0, 2.0, 4.0, 1.0, 0.0, 2.0, 6.0, 12.0, 10.0, 16.0, 20.0, 27.0, 36.0, 51.0, 68.0, 82.0, 113.0, 161.0, 256.0, 351.0, 539.0, 721.0, 1191.0, 1769.0, 2790.0, 4449.0, 7726.0, 13491.0, 25762.0, 52187.0, 68462.0, 36842.0, 18779.0, 10157.0, 5883.0, 3584.0, 2269.0, 1380.0, 948.0, 575.0, 433.0, 272.0, 188.0, 130.0, 119.0, 81.0, 55.0, 50.0, 20.0, 11.0, 19.0, 11.0, 6.0, 9.0, 4.0, 3.0, 3.0, 3.0, 1.0, 1.0, 0.0, 0.0, 2.0], "bins": [-42.34375, -40.98876953125, -39.6337890625, -38.27880859375, -36.923828125, -35.56884765625, -34.2138671875, -32.85888671875, -31.50390625, -30.14892578125, -28.7939453125, -27.43896484375, -26.083984375, -24.72900390625, -23.3740234375, -22.01904296875, -20.6640625, -19.30908203125, -17.9541015625, -16.59912109375, -15.244140625, -13.88916015625, -12.5341796875, -11.17919921875, -9.82421875, -8.46923828125, -7.1142578125, -5.75927734375, -4.404296875, -3.04931640625, -1.6943359375, -0.33935546875, 1.015625, 2.37060546875, 3.7255859375, 5.08056640625, 6.435546875, 7.79052734375, 9.1455078125, 10.50048828125, 11.85546875, 13.21044921875, 14.5654296875, 15.92041015625, 17.275390625, 18.63037109375, 19.9853515625, 21.34033203125, 22.6953125, 24.05029296875, 25.4052734375, 26.76025390625, 28.115234375, 29.47021484375, 30.8251953125, 32.18017578125, 33.53515625, 34.89013671875, 36.2451171875, 37.60009765625, 38.955078125, 40.31005859375, 41.6650390625, 43.02001953125, 44.375]}, "gradients/fc.bias": {"_type": "histogram", "values": [1.0, 0.0, 0.0, 0.0, 1.0, 0.0, 0.0, 0.0, 1.0, 1.0, 0.0, 1.0, 0.0, 2.0, 3.0, 2.0, 3.0, 3.0, 3.0, 15.0, 4.0, 11.0, 9.0, 9.0, 12.0, 20.0, 25.0, 27.0, 33.0, 24.0, 29.0, 38.0, 43.0, 43.0, 59.0, 48.0, 50.0, 58.0, 61.0, 53.0, 57.0, 36.0, 32.0, 39.0, 33.0, 33.0, 19.0, 13.0, 10.0, 9.0, 10.0, 7.0, 7.0, 6.0, 6.0, 2.0, 2.0, 3.0, 2.0, 2.0, 2.0, 1.0, 0.0, 1.0], "bins": [-4.71484375, -4.58685302734375, -4.4588623046875, -4.33087158203125, -4.202880859375, -4.07489013671875, -3.9468994140625, -3.81890869140625, -3.69091796875, -3.56292724609375, -3.4349365234375, -3.30694580078125, -3.178955078125, -3.05096435546875, -2.9229736328125, -2.79498291015625, -2.6669921875, -2.53900146484375, -2.4110107421875, -2.28302001953125, -2.155029296875, -2.02703857421875, -1.8990478515625, -1.77105712890625, -1.64306640625, -1.51507568359375, -1.3870849609375, -1.25909423828125, -1.131103515625, -1.00311279296875, -0.8751220703125, -0.74713134765625, -0.619140625, -0.49114990234375, -0.3631591796875, -0.23516845703125, -0.107177734375, 0.02081298828125, 0.1488037109375, 0.27679443359375, 0.40478515625, 0.53277587890625, 0.6607666015625, 0.78875732421875, 0.916748046875, 1.04473876953125, 1.1727294921875, 1.30072021484375, 1.4287109375, 1.55670166015625, 1.6846923828125, 1.81268310546875, 1.940673828125, 2.06866455078125, 2.1966552734375, 2.32464599609375, 2.45263671875, 2.58062744140625, 2.7086181640625, 2.83660888671875, 2.964599609375, 3.09259033203125, 3.2205810546875, 3.34857177734375, 3.4765625]}, "gradients/graph_1obs_encoder.fc2.weight": {"_type": "histogram", "values": [1.0, 0.0, 3.0, 3.0, 2.0, 3.0, 2.0, 2.0, 3.0, 5.0, 9.0, 10.0, 14.0, 15.0, 23.0, 28.0, 33.0, 59.0, 66.0, 82.0, 107.0, 149.0, 194.0, 254.0, 417.0, 654.0, 1011.0, 1666.0, 3098.0, 5189.0, 8978.0, 54881.0, 35526.0, 7828.0, 4319.0, 2384.0, 1438.0, 853.0, 521.0, 383.0, 248.0, 149.0, 112.0, 76.0, 75.0, 51.0, 41.0, 32.0, 13.0, 17.0, 11.0, 8.0, 5.0, 7.0, 3.0, 0.0, 1.0, 0.0, 4.0, 2.0, 2.0, 1.0, 0.0, 1.0], "bins": [-104.5625, -101.287109375, -98.01171875, -94.736328125, -91.4609375, -88.185546875, -84.91015625, -81.634765625, -78.359375, -75.083984375, -71.80859375, -68.533203125, -65.2578125, -61.982421875, -58.70703125, -55.431640625, -52.15625, -48.880859375, -45.60546875, -42.330078125, -39.0546875, -35.779296875, -32.50390625, -29.228515625, -25.953125, -22.677734375, -19.40234375, -16.126953125, -12.8515625, -9.576171875, -6.30078125, -3.025390625, 0.25, 3.525390625, 6.80078125, 10.076171875, 13.3515625, 16.626953125, 19.90234375, 23.177734375, 26.453125, 29.728515625, 33.00390625, 36.279296875, 39.5546875, 42.830078125, 46.10546875, 49.380859375, 52.65625, 55.931640625, 59.20703125, 62.482421875, 65.7578125, 69.033203125, 72.30859375, 75.583984375, 78.859375, 82.134765625, 85.41015625, 88.685546875, 91.9609375, 95.236328125, 98.51171875, 101.787109375, 105.0625]}, "gradients/graph_1obs_encoder.fc2.bias": {"_type": "histogram", "values": [1.0, 2.0, 0.0, 0.0, 1.0, 1.0, 0.0, 1.0, 2.0, 1.0, 1.0, 2.0, 2.0, 4.0, 4.0, 3.0, 3.0, 1.0, 3.0, 4.0, 5.0, 8.0, 12.0, 8.0, 8.0, 10.0, 5.0, 5.0, 14.0, 11.0, 35.0, 187.0, 56.0, 22.0, 9.0, 11.0, 3.0, 5.0, 7.0, 10.0, 4.0, 6.0, 8.0, 4.0, 5.0, 1.0, 3.0, 4.0, 2.0, 2.0, 0.0, 0.0, 1.0, 0.0, 2.0, 0.0, 0.0, 0.0, 0.0, 0.0, 2.0, 0.0, 0.0, 1.0], "bins": [-25.015625, -24.221435546875, -23.42724609375, -22.633056640625, -21.8388671875, -21.044677734375, -20.25048828125, -19.456298828125, -18.662109375, -17.867919921875, -17.07373046875, -16.279541015625, -15.4853515625, -14.691162109375, -13.89697265625, -13.102783203125, -12.30859375, -11.514404296875, -10.72021484375, -9.926025390625, -9.1318359375, -8.337646484375, -7.54345703125, -6.749267578125, -5.955078125, -5.160888671875, -4.36669921875, -3.572509765625, -2.7783203125, -1.984130859375, -1.18994140625, -0.395751953125, 0.3984375, 1.192626953125, 1.98681640625, 2.781005859375, 3.5751953125, 4.369384765625, 5.16357421875, 5.957763671875, 6.751953125, 7.546142578125, 8.34033203125, 9.134521484375, 9.9287109375, 10.722900390625, 11.51708984375, 12.311279296875, 13.10546875, 13.899658203125, 14.69384765625, 15.488037109375, 16.2822265625, 17.076416015625, 17.87060546875, 18.664794921875, 19.458984375, 20.253173828125, 21.04736328125, 21.841552734375, 22.6357421875, 23.429931640625, 24.22412109375, 25.018310546875, 25.8125]}, "gradients/graph_1obs_encoder.fc1.weight": {"_type": "histogram", "values": [5.0, 1.0, 3.0, 11.0, 8.0, 7.0, 12.0, 15.0, 17.0, 36.0, 43.0, 74.0, 106.0, 137.0, 189.0, 275.0, 397.0, 488.0, 694.0, 1118.0, 1581.0, 2469.0, 3820.0, 6143.0, 9487.0, 14773.0, 22785.0, 35352.0, 53416.0, 66190.0, 38965.0, 24856.0, 15452.0, 9632.0, 6389.0, 4080.0, 2784.0, 1814.0, 1210.0, 844.0, 541.0, 366.0, 299.0, 198.0, 153.0, 109.0, 85.0, 57.0, 55.0, 22.0, 24.0, 22.0, 25.0, 7.0, 9.0, 10.0, 7.0, 3.0, 5.0, 1.0, 0.0, 2.0, 0.0, 2.0], "bins": [-41.875, -40.43505859375, -38.9951171875, -37.55517578125, -36.115234375, -34.67529296875, -33.2353515625, -31.79541015625, -30.35546875, -28.91552734375, -27.4755859375, -26.03564453125, -24.595703125, -23.15576171875, -21.7158203125, -20.27587890625, -18.8359375, -17.39599609375, -15.9560546875, -14.51611328125, -13.076171875, -11.63623046875, -10.1962890625, -8.75634765625, -7.31640625, -5.87646484375, -4.4365234375, -2.99658203125, -1.556640625, -0.11669921875, 1.3232421875, 2.76318359375, 4.203125, 5.64306640625, 7.0830078125, 8.52294921875, 9.962890625, 11.40283203125, 12.8427734375, 14.28271484375, 15.72265625, 17.16259765625, 18.6025390625, 20.04248046875, 21.482421875, 22.92236328125, 24.3623046875, 25.80224609375, 27.2421875, 28.68212890625, 30.1220703125, 31.56201171875, 33.001953125, 34.44189453125, 35.8818359375, 37.32177734375, 38.76171875, 40.20166015625, 41.6416015625, 43.08154296875, 44.521484375, 45.96142578125, 47.4013671875, 48.84130859375, 50.28125]}, "gradients/graph_1obs_encoder.fc1.bias": {"_type": "histogram", "values": [1.0, 0.0, 0.0, 0.0, 0.0, 0.0, 2.0, 0.0, 0.0, 1.0, 2.0, 2.0, 0.0, 3.0, 2.0, 2.0, 3.0, 4.0, 4.0, 10.0, 9.0, 9.0, 9.0, 19.0, 10.0, 19.0, 23.0, 16.0, 11.0, 19.0, 15.0, 10.0, 6.0, 6.0, 11.0, 4.0, 2.0, 4.0, 2.0, 4.0, 1.0, 4.0, 1.0, 1.0, 1.0, 1.0, 0.0, 0.0, 1.0, 0.0, 0.0, 0.0, 1.0, 0.0, 0.0, 0.0, 0.0, 0.0, 0.0, 0.0, 0.0, 0.0, 0.0, 1.0], "bins": [-41.21875, -39.69287109375, -38.1669921875, -36.64111328125, -35.115234375, -33.58935546875, -32.0634765625, -30.53759765625, -29.01171875, -27.48583984375, -25.9599609375, -24.43408203125, -22.908203125, -21.38232421875, -19.8564453125, -18.33056640625, -16.8046875, -15.27880859375, -13.7529296875, -12.22705078125, -10.701171875, -9.17529296875, -7.6494140625, -6.12353515625, -4.59765625, -3.07177734375, -1.5458984375, -0.02001953125, 1.505859375, 3.03173828125, 4.5576171875, 6.08349609375, 7.609375, 9.13525390625, 10.6611328125, 12.18701171875, 13.712890625, 15.23876953125, 16.7646484375, 18.29052734375, 19.81640625, 21.34228515625, 22.8681640625, 24.39404296875, 25.919921875, 27.44580078125, 28.9716796875, 30.49755859375, 32.0234375, 33.54931640625, 35.0751953125, 36.60107421875, 38.126953125, 39.65283203125, 41.1787109375, 42.70458984375, 44.23046875, 45.75634765625, 47.2822265625, 48.80810546875, 50.333984375, 51.85986328125, 53.3857421875, 54.91162109375, 56.4375]}, "gradients/graph_1stochastic_state_model.fc2.weight": {"_type": "histogram", "values": [1.0, 0.0, 0.0, 0.0, 0.0, 0.0, 1.0, 1.0, 2.0, 2.0, 2.0, 3.0, 5.0, 9.0, 6.0, 16.0, 17.0, 30.0, 50.0, 97.0, 112.0, 167.0, 241.0, 372.0, 537.0, 871.0, 1271.0, 1822.0, 2816.0, 3893.0, 5730.0, 9506.0, 17042.0, 26344.0, 23801.0, 13596.0, 7227.0, 4690.0, 3192.0, 2301.0, 1617.0, 1122.0, 770.0, 557.0, 416.0, 252.0, 182.0, 116.0, 89.0, 48.0, 38.0, 29.0, 13.0, 13.0, 12.0, 12.0, 0.0, 2.0, 4.0, 1.0, 1.0, 3.0, 1.0, 1.0], "bins": [-2.3984375, -2.327484130859375, -2.25653076171875, -2.185577392578125, -2.1146240234375, -2.043670654296875, -1.97271728515625, -1.901763916015625, -1.830810546875, -1.759857177734375, -1.68890380859375, -1.617950439453125, -1.5469970703125, -1.476043701171875, -1.40509033203125, -1.334136962890625, -1.26318359375, -1.192230224609375, -1.12127685546875, -1.050323486328125, -0.9793701171875, -0.908416748046875, -0.83746337890625, -0.766510009765625, -0.695556640625, -0.624603271484375, -0.55364990234375, -0.482696533203125, -0.4117431640625, -0.340789794921875, -0.26983642578125, -0.198883056640625, -0.1279296875, -0.056976318359375, 0.01397705078125, 0.084930419921875, 0.1558837890625, 0.226837158203125, 0.29779052734375, 0.368743896484375, 0.439697265625, 0.510650634765625, 0.58160400390625, 0.652557373046875, 0.7235107421875, 0.794464111328125, 0.86541748046875, 0.936370849609375, 1.00732421875, 1.078277587890625, 1.14923095703125, 1.220184326171875, 1.2911376953125, 1.362091064453125, 1.43304443359375, 1.503997802734375, 1.574951171875, 1.645904541015625, 1.71685791015625, 1.787811279296875, 1.8587646484375, 1.929718017578125, 2.00067138671875, 2.071624755859375, 2.142578125]}, "gradients/graph_1stochastic_state_model.fc2.bias": {"_type": "histogram", "values": [1.0, 1.0, 0.0, 0.0, 0.0, 0.0, 1.0, 0.0, 2.0, 4.0, 2.0, 3.0, 2.0, 1.0, 1.0, 2.0, 5.0, 7.0, 1.0, 3.0, 6.0, 11.0, 9.0, 6.0, 11.0, 14.0, 13.0, 22.0, 27.0, 36.0, 37.0, 54.0, 49.0, 36.0, 23.0, 21.0, 7.0, 12.0, 5.0, 5.0, 10.0, 4.0, 5.0, 7.0, 5.0, 1.0, 6.0, 2.0, 3.0, 6.0, 5.0, 5.0, 0.0, 1.0, 1.0, 2.0, 0.0, 2.0, 4.0, 0.0, 0.0, 1.0, 0.0, 2.0], "bins": [-1.4228515625, -1.3776702880859375, -1.332489013671875, -1.2873077392578125, -1.24212646484375, -1.1969451904296875, -1.151763916015625, -1.1065826416015625, -1.0614013671875, -1.0162200927734375, -0.971038818359375, -0.9258575439453125, -0.88067626953125, -0.8354949951171875, -0.790313720703125, -0.7451324462890625, -0.699951171875, -0.6547698974609375, -0.609588623046875, -0.5644073486328125, -0.51922607421875, -0.4740447998046875, -0.428863525390625, -0.3836822509765625, -0.3385009765625, -0.2933197021484375, -0.248138427734375, -0.2029571533203125, -0.15777587890625, -0.1125946044921875, -0.067413330078125, -0.0222320556640625, 0.02294921875, 0.0681304931640625, 0.113311767578125, 0.1584930419921875, 0.20367431640625, 0.2488555908203125, 0.294036865234375, 0.3392181396484375, 0.3843994140625, 0.4295806884765625, 0.474761962890625, 0.5199432373046875, 0.56512451171875, 0.6103057861328125, 0.655487060546875, 0.7006683349609375, 0.745849609375, 0.7910308837890625, 0.836212158203125, 0.8813934326171875, 0.92657470703125, 0.9717559814453125, 1.016937255859375, 1.0621185302734375, 1.1072998046875, 1.1524810791015625, 1.197662353515625, 1.2428436279296875, 1.28802490234375, 1.3332061767578125, 1.378387451171875, 1.4235687255859375, 1.46875]}, "gradients/graph_1stochastic_state_model.fc1.weight": {"_type": "histogram", "values": [1.0, 0.0, 0.0, 0.0, 0.0, 3.0, 0.0, 2.0, 3.0, 4.0, 11.0, 17.0, 24.0, 33.0, 39.0, 63.0, 84.0, 125.0, 162.0, 228.0, 325.0, 438.0, 585.0, 841.0, 1105.0, 1384.0, 1976.0, 2514.0, 3169.0, 3840.0, 4589.0, 5207.0, 5629.0, 5555.0, 5223.0, 4812.0, 3982.0, 3237.0, 2622.0, 1996.0, 1502.0, 1177.0, 830.0, 623.0, 432.0, 327.0, 247.0, 150.0, 119.0, 81.0, 59.0, 35.0, 30.0, 20.0, 26.0, 15.0, 13.0, 4.0, 7.0, 3.0, 1.0, 2.0, 3.0, 2.0], "bins": [-2.728515625, -2.646026611328125, -2.56353759765625, -2.481048583984375, -2.3985595703125, -2.316070556640625, -2.23358154296875, -2.151092529296875, -2.068603515625, -1.986114501953125, -1.90362548828125, -1.821136474609375, -1.7386474609375, -1.656158447265625, -1.57366943359375, -1.491180419921875, -1.40869140625, -1.326202392578125, -1.24371337890625, -1.161224365234375, -1.0787353515625, -0.996246337890625, -0.91375732421875, -0.831268310546875, -0.748779296875, -0.666290283203125, -0.58380126953125, -0.501312255859375, -0.4188232421875, -0.336334228515625, -0.25384521484375, -0.171356201171875, -0.0888671875, -0.006378173828125, 0.07611083984375, 0.158599853515625, 0.2410888671875, 0.323577880859375, 0.40606689453125, 0.488555908203125, 0.571044921875, 0.653533935546875, 0.73602294921875, 0.818511962890625, 0.9010009765625, 0.983489990234375, 1.06597900390625, 1.148468017578125, 1.23095703125, 1.313446044921875, 1.39593505859375, 1.478424072265625, 1.5609130859375, 1.643402099609375, 1.72589111328125, 1.808380126953125, 1.890869140625, 1.973358154296875, 2.05584716796875, 2.138336181640625, 2.2208251953125, 2.303314208984375, 2.38580322265625, 2.468292236328125, 2.55078125]}, "gradients/graph_1stochastic_state_model.fc1.bias": {"_type": "histogram", "values": [1.0, 0.0, 0.0, 0.0, 0.0, 0.0, 3.0, 3.0, 4.0, 2.0, 1.0, 4.0, 2.0, 0.0, 2.0, 5.0, 2.0, 5.0, 0.0, 2.0, 6.0, 5.0, 4.0, 5.0, 6.0, 9.0, 3.0, 6.0, 12.0, 20.0, 3.0, 10.0, 12.0, 8.0, 9.0, 15.0, 10.0, 6.0, 11.0, 6.0, 7.0, 4.0, 3.0, 7.0, 2.0, 6.0, 5.0, 2.0, 2.0, 1.0, 5.0, 2.0, 1.0, 3.0, 1.0, 0.0, 1.0, 0.0, 0.0, 0.0, 0.0, 1.0, 0.0, 1.0], "bins": [-3.470703125, -3.353546142578125, -3.23638916015625, -3.119232177734375, -3.0020751953125, -2.884918212890625, -2.76776123046875, -2.650604248046875, -2.533447265625, -2.416290283203125, -2.29913330078125, -2.181976318359375, -2.0648193359375, -1.947662353515625, -1.83050537109375, -1.713348388671875, -1.59619140625, -1.479034423828125, -1.36187744140625, -1.244720458984375, -1.1275634765625, -1.010406494140625, -0.89324951171875, -0.776092529296875, -0.658935546875, -0.541778564453125, -0.42462158203125, -0.307464599609375, -0.1903076171875, -0.073150634765625, 0.04400634765625, 0.161163330078125, 0.2783203125, 0.395477294921875, 0.51263427734375, 0.629791259765625, 0.7469482421875, 0.864105224609375, 0.98126220703125, 1.098419189453125, 1.215576171875, 1.332733154296875, 1.44989013671875, 1.567047119140625, 1.6842041015625, 1.801361083984375, 1.91851806640625, 2.035675048828125, 2.15283203125, 2.269989013671875, 2.38714599609375, 2.504302978515625, 2.6214599609375, 2.738616943359375, 2.85577392578125, 2.972930908203125, 3.090087890625, 3.207244873046875, 3.32440185546875, 3.441558837890625, 3.5587158203125, 3.675872802734375, 3.79302978515625, 3.910186767578125, 4.02734375]}, "gradients/graph_1rnn.weight_ih": {"_type": "histogram", "values": [1.0, 0.0, 0.0, 0.0, 3.0, 0.0, 6.0, 2.0, 5.0, 7.0, 15.0, 7.0, 20.0, 25.0, 34.0, 48.0, 83.0, 126.0, 162.0, 259.0, 402.0, 556.0, 821.0, 1202.0, 1720.0, 2391.0, 3514.0, 4730.0, 7173.0, 14144.0, 45359.0, 66701.0, 20499.0, 8773.0, 5140.0, 3809.0, 2642.0, 1880.0, 1278.0, 934.0, 682.0, 475.0, 317.0, 199.0, 145.0, 79.0, 66.0, 58.0, 42.0, 20.0, 16.0, 13.0, 9.0, 4.0, 4.0, 3.0, 0.0, 3.0, 0.0, 1.0, 0.0, 0.0, 0.0, 1.0], "bins": [-13.0625, -12.643798828125, -12.22509765625, -11.806396484375, -11.3876953125, -10.968994140625, -10.55029296875, -10.131591796875, -9.712890625, -9.294189453125, -8.87548828125, -8.456787109375, -8.0380859375, -7.619384765625, -7.20068359375, -6.781982421875, -6.36328125, -5.944580078125, -5.52587890625, -5.107177734375, -4.6884765625, -4.269775390625, -3.85107421875, -3.432373046875, -3.013671875, -2.594970703125, -2.17626953125, -1.757568359375, -1.3388671875, -0.920166015625, -0.50146484375, -0.082763671875, 0.3359375, 0.754638671875, 1.17333984375, 1.592041015625, 2.0107421875, 2.429443359375, 2.84814453125, 3.266845703125, 3.685546875, 4.104248046875, 4.52294921875, 4.941650390625, 5.3603515625, 5.779052734375, 6.19775390625, 6.616455078125, 7.03515625, 7.453857421875, 7.87255859375, 8.291259765625, 8.7099609375, 9.128662109375, 9.54736328125, 9.966064453125, 10.384765625, 10.803466796875, 11.22216796875, 11.640869140625, 12.0595703125, 12.478271484375, 12.89697265625, 13.315673828125, 13.734375]}, "gradients/graph_1rnn.weight_hh": {"_type": "histogram", "values": [1.0, 0.0, 1.0, 0.0, 2.0, 3.0, 1.0, 4.0, 3.0, 11.0, 14.0, 12.0, 18.0, 10.0, 29.0, 35.0, 70.0, 79.0, 126.0, 202.0, 268.0, 466.0, 605.0, 894.0, 1279.0, 2003.0, 2964.0, 4560.0, 7810.0, 15085.0, 32574.0, 54136.0, 34668.0, 16131.0, 8346.0, 4927.0, 3064.0, 1977.0, 1319.0, 938.0, 597.0, 408.0, 314.0, 202.0, 136.0, 80.0, 70.0, 40.0, 37.0, 16.0, 18.0, 23.0, 11.0, 5.0, 5.0, 1.0, 4.0, 2.0, 0.0, 2.0, 0.0, 0.0, 1.0, 1.0], "bins": [-3.2890625, -3.184783935546875, -3.08050537109375, -2.976226806640625, -2.8719482421875, -2.767669677734375, -2.66339111328125, -2.559112548828125, -2.454833984375, -2.350555419921875, -2.24627685546875, -2.141998291015625, -2.0377197265625, -1.933441162109375, -1.82916259765625, -1.724884033203125, -1.62060546875, -1.516326904296875, -1.41204833984375, -1.307769775390625, -1.2034912109375, -1.099212646484375, -0.99493408203125, -0.890655517578125, -0.786376953125, -0.682098388671875, -0.57781982421875, -0.473541259765625, -0.3692626953125, -0.264984130859375, -0.16070556640625, -0.056427001953125, 0.0478515625, 0.152130126953125, 0.25640869140625, 0.360687255859375, 0.4649658203125, 0.569244384765625, 0.67352294921875, 0.777801513671875, 0.882080078125, 0.986358642578125, 1.09063720703125, 1.194915771484375, 1.2991943359375, 1.403472900390625, 1.50775146484375, 1.612030029296875, 1.71630859375, 1.820587158203125, 1.92486572265625, 2.029144287109375, 2.1334228515625, 2.237701416015625, 2.34197998046875, 2.446258544921875, 2.550537109375, 2.654815673828125, 2.75909423828125, 2.863372802734375, 2.9676513671875, 3.071929931640625, 3.17620849609375, 3.280487060546875, 3.384765625]}, "gradients/graph_1rnn.bias_ih": {"_type": "histogram", "values": [1.0, 0.0, 1.0, 0.0, 0.0, 2.0, 0.0, 0.0, 0.0, 1.0, 2.0, 2.0, 2.0, 3.0, 2.0, 5.0, 1.0, 3.0, 6.0, 8.0, 5.0, 10.0, 9.0, 8.0, 6.0, 8.0, 14.0, 19.0, 49.0, 145.0, 169.0, 102.0, 48.0, 23.0, 14.0, 14.0, 9.0, 8.0, 10.0, 13.0, 4.0, 5.0, 3.0, 3.0, 0.0, 4.0, 4.0, 2.0, 4.0, 3.0, 4.0, 2.0, 2.0, 2.0, 0.0, 1.0, 1.0, 0.0, 0.0, 0.0, 0.0, 1.0, 0.0, 1.0], "bins": [-6.08203125, -5.8814697265625, -5.680908203125, -5.4803466796875, -5.27978515625, -5.0792236328125, -4.878662109375, -4.6781005859375, -4.4775390625, -4.2769775390625, -4.076416015625, -3.8758544921875, -3.67529296875, -3.4747314453125, -3.274169921875, -3.0736083984375, -2.873046875, -2.6724853515625, -2.471923828125, -2.2713623046875, -2.07080078125, -1.8702392578125, -1.669677734375, -1.4691162109375, -1.2685546875, -1.0679931640625, -0.867431640625, -0.6668701171875, -0.46630859375, -0.2657470703125, -0.065185546875, 0.1353759765625, 0.3359375, 0.5364990234375, 0.737060546875, 0.9376220703125, 1.13818359375, 1.3387451171875, 1.539306640625, 1.7398681640625, 1.9404296875, 2.1409912109375, 2.341552734375, 2.5421142578125, 2.74267578125, 2.9432373046875, 3.143798828125, 3.3443603515625, 3.544921875, 3.7454833984375, 3.946044921875, 4.1466064453125, 4.34716796875, 4.5477294921875, 4.748291015625, 4.9488525390625, 5.1494140625, 5.3499755859375, 5.550537109375, 5.7510986328125, 5.95166015625, 6.1522216796875, 6.352783203125, 6.5533447265625, 6.75390625]}, "gradients/graph_1rnn.bias_hh": {"_type": "histogram", "values": [1.0, 0.0, 0.0, 0.0, 0.0, 0.0, 0.0, 0.0, 1.0, 0.0, 0.0, 0.0, 1.0, 0.0, 0.0, 0.0, 1.0, 0.0, 0.0, 1.0, 4.0, 0.0, 2.0, 2.0, 0.0, 3.0, 2.0, 7.0, 3.0, 6.0, 10.0, 7.0, 12.0, 16.0, 15.0, 30.0, 49.0, 110.0, 131.0, 119.0, 65.0, 44.0, 30.0, 15.0, 14.0, 14.0, 7.0, 10.0, 4.0, 3.0, 2.0, 7.0, 1.0, 0.0, 3.0, 4.0, 2.0, 3.0, 3.0, 2.0, 1.0, 0.0, 0.0, 1.0], "bins": [-5.56640625, -5.422393798828125, -5.27838134765625, -5.134368896484375, -4.9903564453125, -4.846343994140625, -4.70233154296875, -4.558319091796875, -4.414306640625, -4.270294189453125, -4.12628173828125, -3.982269287109375, -3.8382568359375, -3.694244384765625, -3.55023193359375, -3.406219482421875, -3.26220703125, -3.118194580078125, -2.97418212890625, -2.830169677734375, -2.6861572265625, -2.542144775390625, -2.39813232421875, -2.254119873046875, -2.110107421875, -1.966094970703125, -1.82208251953125, -1.678070068359375, -1.5340576171875, -1.390045166015625, -1.24603271484375, -1.102020263671875, -0.9580078125, -0.813995361328125, -0.66998291015625, -0.525970458984375, -0.3819580078125, -0.237945556640625, -0.09393310546875, 0.050079345703125, 0.194091796875, 0.338104248046875, 0.48211669921875, 0.626129150390625, 0.7701416015625, 0.914154052734375, 1.05816650390625, 1.202178955078125, 1.34619140625, 1.490203857421875, 1.63421630859375, 1.778228759765625, 1.9222412109375, 2.066253662109375, 2.21026611328125, 2.354278564453125, 2.498291015625, 2.642303466796875, 2.78631591796875, 2.930328369140625, 3.0743408203125, 3.218353271484375, 3.36236572265625, 3.506378173828125, 3.650390625]}, "gradients/graph_1fc_embed_state_action.weight": {"_type": "histogram", "values": [1.0, 0.0, 0.0, 0.0, 0.0, 1.0, 0.0, 2.0, 1.0, 2.0, 3.0, 4.0, 3.0, 6.0, 19.0, 17.0, 21.0, 22.0, 43.0, 61.0, 90.0, 133.0, 207.0, 257.0, 375.0, 613.0, 825.0, 1307.0, 2062.0, 3171.0, 5116.0, 8410.0, 13820.0, 11535.0, 7024.0, 4323.0, 2681.0, 1718.0, 1162.0, 726.0, 464.0, 333.0, 232.0, 157.0, 111.0, 75.0, 58.0, 40.0, 32.0, 22.0, 11.0, 6.0, 5.0, 7.0, 5.0, 1.0, 3.0, 1.0, 0.0, 2.0, 0.0, 0.0, 0.0, 2.0], "bins": [-23.515625, -22.799072265625, -22.08251953125, -21.365966796875, -20.6494140625, -19.932861328125, -19.21630859375, -18.499755859375, -17.783203125, -17.066650390625, -16.35009765625, -15.633544921875, -14.9169921875, -14.200439453125, -13.48388671875, -12.767333984375, -12.05078125, -11.334228515625, -10.61767578125, -9.901123046875, -9.1845703125, -8.468017578125, -7.75146484375, -7.034912109375, -6.318359375, -5.601806640625, -4.88525390625, -4.168701171875, -3.4521484375, -2.735595703125, -2.01904296875, -1.302490234375, -0.5859375, 0.130615234375, 0.84716796875, 1.563720703125, 2.2802734375, 2.996826171875, 3.71337890625, 4.429931640625, 5.146484375, 5.863037109375, 6.57958984375, 7.296142578125, 8.0126953125, 8.729248046875, 9.44580078125, 10.162353515625, 10.87890625, 11.595458984375, 12.31201171875, 13.028564453125, 13.7451171875, 14.461669921875, 15.17822265625, 15.894775390625, 16.611328125, 17.327880859375, 18.04443359375, 18.760986328125, 19.4775390625, 20.194091796875, 20.91064453125, 21.627197265625, 22.34375]}, "gradients/graph_1fc_embed_state_action.bias": {"_type": "histogram", "values": [1.0, 1.0, 1.0, 1.0, 0.0, 0.0, 0.0, 1.0, 1.0, 1.0, 1.0, 0.0, 1.0, 2.0, 6.0, 5.0, 3.0, 2.0, 2.0, 0.0, 7.0, 10.0, 7.0, 5.0, 3.0, 4.0, 8.0, 10.0, 12.0, 14.0, 11.0, 11.0, 10.0, 6.0, 6.0, 11.0, 5.0, 7.0, 6.0, 8.0, 11.0, 7.0, 7.0, 7.0, 5.0, 4.0, 5.0, 3.0, 2.0, 1.0, 1.0, 2.0, 1.0, 1.0, 3.0, 0.0, 1.0, 0.0, 0.0, 0.0, 2.0, 0.0, 1.0, 2.0], "bins": [-2.333984375, -2.26068115234375, -2.1873779296875, -2.11407470703125, -2.040771484375, -1.96746826171875, -1.8941650390625, -1.82086181640625, -1.74755859375, -1.67425537109375, -1.6009521484375, -1.52764892578125, -1.454345703125, -1.38104248046875, -1.3077392578125, -1.23443603515625, -1.1611328125, -1.08782958984375, -1.0145263671875, -0.94122314453125, -0.867919921875, -0.79461669921875, -0.7213134765625, -0.64801025390625, -0.57470703125, -0.50140380859375, -0.4281005859375, -0.35479736328125, -0.281494140625, -0.20819091796875, -0.1348876953125, -0.06158447265625, 0.01171875, 0.08502197265625, 0.1583251953125, 0.23162841796875, 0.304931640625, 0.37823486328125, 0.4515380859375, 0.52484130859375, 0.59814453125, 0.67144775390625, 0.7447509765625, 0.81805419921875, 0.891357421875, 0.96466064453125, 1.0379638671875, 1.11126708984375, 1.1845703125, 1.25787353515625, 1.3311767578125, 1.40447998046875, 1.477783203125, 1.55108642578125, 1.6243896484375, 1.69769287109375, 1.77099609375, 1.84429931640625, 1.9176025390625, 1.99090576171875, 2.064208984375, 2.13751220703125, 2.2108154296875, 2.28411865234375, 2.357421875]}, "gradients/graph_3conv.16.weight": {"_type": "histogram", "values": [1.0, 0.0, 1.0, 0.0, 1.0, 2.0, 3.0, 1.0, 2.0, 1.0, 1.0, 3.0, 3.0, 0.0, 3.0, 5.0, 5.0, 4.0, 6.0, 5.0, 5.0, 10.0, 5.0, 5.0, 5.0, 9.0, 5.0, 11.0, 9.0, 6.0, 7.0, 5.0, 9.0, 15.0, 11.0, 11.0, 11.0, 9.0, 5.0, 5.0, 4.0, 4.0, 3.0, 3.0, 5.0, 2.0, 3.0, 0.0, 3.0, 5.0, 2.0, 2.0, 0.0, 2.0, 0.0, 2.0, 4.0, 2.0, 1.0, 0.0, 0.0, 0.0, 3.0, 1.0], "bins": [-55.3515625, -53.568992614746094, -51.78642654418945, -50.00385665893555, -48.22128677368164, -46.438720703125, -44.656150817871094, -42.87358093261719, -41.09101104736328, -39.308441162109375, -37.525875091552734, -35.74330520629883, -33.96073532104492, -32.17816925048828, -30.395599365234375, -28.61302947998047, -26.830463409423828, -25.047895431518555, -23.26532554626465, -21.482757568359375, -19.70018768310547, -17.917619705200195, -16.135051727294922, -14.352482795715332, -12.569913864135742, -10.787344932556152, -9.004776000976562, -7.222208023071289, -5.439639091491699, -3.6570701599121094, -1.874502182006836, -0.0919332504272461, 1.6906356811523438, 3.4732043743133545, 5.255773067474365, 7.038341522216797, 8.820910453796387, 10.603479385375977, 12.38604736328125, 14.16861629486084, 15.95118522644043, 17.733753204345703, 19.51632308959961, 21.298891067504883, 23.081459045410156, 24.864028930664062, 26.646596908569336, 28.42916488647461, 30.211734771728516, 31.99430274963379, 33.77687072753906, 35.55944061279297, 37.342010498046875, 39.12458038330078, 40.90714645385742, 42.68971633911133, 44.47228240966797, 46.254852294921875, 48.037418365478516, 49.81998825073242, 51.60255813598633, 53.38512420654297, 55.167694091796875, 56.95026397705078, 58.73283386230469]}, "gradients/graph_3conv.16.bias": {"_type": "histogram", "values": [1.0, 0.0, 0.0, 0.0, 1.0, 1.0, 0.0, 0.0, 1.0, 2.0, 0.0, 1.0, 2.0, 0.0, 5.0, 0.0, 3.0, 2.0, 7.0, 7.0, 4.0, 7.0, 7.0, 7.0, 9.0, 8.0, 7.0, 7.0, 8.0, 6.0, 5.0, 12.0, 7.0, 8.0, 17.0, 7.0, 4.0, 4.0, 9.0, 8.0, 4.0, 8.0, 6.0, 6.0, 4.0, 2.0, 4.0, 7.0, 6.0, 2.0, 4.0, 2.0, 2.0, 3.0, 3.0, 2.0, 0.0, 2.0, 0.0, 4.0, 0.0, 0.0, 0.0, 1.0], "bins": [-59.19879913330078, -57.40251922607422, -55.606239318847656, -53.80996322631836, -52.0136833190918, -50.217403411865234, -48.42112731933594, -46.624847412109375, -44.82856750488281, -43.03228759765625, -41.23600769042969, -39.43973159790039, -37.64345169067383, -35.847171783447266, -34.05089569091797, -32.254615783691406, -30.458335876464844, -28.66205596923828, -26.86577796936035, -25.069499969482422, -23.27322006225586, -21.476940155029297, -19.680662155151367, -17.884384155273438, -16.088104248046875, -14.291825294494629, -12.495546340942383, -10.699267387390137, -8.90298843383789, -7.1067094802856445, -5.310430526733398, -3.5141515731811523, -1.7178726196289062, 0.07840633392333984, 1.874685287475586, 3.670964241027832, 5.467243194580078, 7.263522148132324, 9.05980110168457, 10.856080055236816, 12.652359008789062, 14.448637962341309, 16.244916915893555, 18.041194915771484, 19.837474822998047, 21.63375473022461, 23.43003273010254, 25.22631072998047, 27.02259063720703, 28.818870544433594, 30.615148544311523, 32.41142654418945, 34.207706451416016, 36.00398635864258, 37.800262451171875, 39.59654235839844, 41.392822265625, 43.18910217285156, 44.985382080078125, 46.78165817260742, 48.577938079833984, 50.37421798706055, 52.170494079589844, 53.966773986816406, 55.76305389404297]}, "gradients/graph_3conv.15.weight": {"_type": "histogram", "values": [2.0, 0.0, 0.0, 0.0, 0.0, 0.0, 2.0, 0.0, 1.0, 0.0, 3.0, 3.0, 4.0, 4.0, 10.0, 16.0, 28.0, 34.0, 54.0, 77.0, 127.0, 181.0, 308.0, 479.0, 756.0, 1319.0, 2159.0, 3722.0, 6661.0, 12624.0, 24411.0, 49033.0, 98360.0, 147563.0, 87555.0, 41320.0, 20830.0, 11017.0, 6133.0, 3494.0, 2091.0, 1327.0, 878.0, 546.0, 407.0, 236.0, 144.0, 109.0, 78.0, 68.0, 43.0, 25.0, 12.0, 9.0, 8.0, 6.0, 5.0, 3.0, 2.0, 0.0, 0.0, 0.0, 0.0, 1.0], "bins": [-20.765625, -20.143310546875, -19.52099609375, -18.898681640625, -18.2763671875, -17.654052734375, -17.03173828125, -16.409423828125, -15.787109375, -15.164794921875, -14.54248046875, -13.920166015625, -13.2978515625, -12.675537109375, -12.05322265625, -11.430908203125, -10.80859375, -10.186279296875, -9.56396484375, -8.941650390625, -8.3193359375, -7.697021484375, -7.07470703125, -6.452392578125, -5.830078125, -5.207763671875, -4.58544921875, -3.963134765625, -3.3408203125, -2.718505859375, -2.09619140625, -1.473876953125, -0.8515625, -0.229248046875, 0.39306640625, 1.015380859375, 1.6376953125, 2.260009765625, 2.88232421875, 3.504638671875, 4.126953125, 4.749267578125, 5.37158203125, 5.993896484375, 6.6162109375, 7.238525390625, 7.86083984375, 8.483154296875, 9.10546875, 9.727783203125, 10.35009765625, 10.972412109375, 11.5947265625, 12.217041015625, 12.83935546875, 13.461669921875, 14.083984375, 14.706298828125, 15.32861328125, 15.950927734375, 16.5732421875, 17.195556640625, 17.81787109375, 18.440185546875, 19.0625]}, "gradients/graph_3conv.13.weight": {"_type": "histogram", "values": [1.0, 0.0, 0.0, 1.0, 1.0, 1.0, 0.0, 1.0, 0.0, 2.0, 0.0, 0.0, 3.0, 3.0, 1.0, 3.0, 2.0, 1.0, 2.0, 8.0, 4.0, 6.0, 4.0, 9.0, 7.0, 5.0, 7.0, 7.0, 3.0, 5.0, 8.0, 1.0, 3.0, 0.0, 4.0, 2.0, 4.0, 2.0, 0.0, 1.0, 1.0, 1.0, 1.0, 1.0, 1.0, 0.0, 0.0, 1.0, 4.0, 2.0, 0.0, 0.0, 1.0, 0.0, 0.0, 1.0, 0.0, 1.0, 0.0, 0.0, 0.0, 0.0, 0.0, 1.0], "bins": [-54.956512451171875, -52.9532585144043, -50.95000457763672, -48.94675064086914, -46.94349670410156, -44.940242767333984, -42.936988830566406, -40.93373489379883, -38.93048095703125, -36.92722702026367, -34.923973083496094, -32.920719146728516, -30.917465209960938, -28.91421127319336, -26.91095733642578, -24.907703399658203, -22.904449462890625, -20.901195526123047, -18.89794158935547, -16.89468765258789, -14.891433715820312, -12.888179779052734, -10.884925842285156, -8.881671905517578, -6.87841796875, -4.875164031982422, -2.8719100952148438, -0.8686561584472656, 1.1345977783203125, 3.1378517150878906, 5.141105651855469, 7.144359588623047, 9.147621154785156, 11.150875091552734, 13.154129028320312, 15.15738296508789, 17.16063690185547, 19.163890838623047, 21.167144775390625, 23.170398712158203, 25.17365264892578, 27.17690658569336, 29.180160522460938, 31.183414459228516, 33.186668395996094, 35.18992233276367, 37.19317626953125, 39.19643020629883, 41.199684143066406, 43.202938079833984, 45.20619201660156, 47.20944595336914, 49.21269989013672, 51.2159538269043, 53.219207763671875, 55.22246170043945, 57.22571563720703, 59.22896957397461, 61.23222351074219, 63.235477447509766, 65.23873138427734, 67.24198913574219, 69.2452392578125, 71.24848937988281, 73.25174713134766]}, "gradients/graph_3conv.13.bias": {"_type": "histogram", "values": [1.0, 0.0, 0.0, 0.0, 1.0, 2.0, 0.0, 1.0, 2.0, 0.0, 3.0, 3.0, 2.0, 4.0, 1.0, 8.0, 7.0, 5.0, 6.0, 3.0, 3.0, 9.0, 6.0, 4.0, 4.0, 5.0, 5.0, 4.0, 3.0, 7.0, 3.0, 1.0, 3.0, 1.0, 1.0, 1.0, 1.0, 3.0, 3.0, 2.0, 0.0, 3.0, 1.0, 0.0, 0.0, 0.0, 0.0, 1.0, 0.0, 0.0, 1.0, 2.0, 1.0, 0.0, 0.0, 0.0, 0.0, 0.0, 0.0, 0.0, 0.0, 0.0, 0.0, 1.0], "bins": [-31.206493377685547, -29.946279525756836, -28.686063766479492, -27.42584991455078, -26.165634155273438, -24.905420303344727, -23.645206451416016, -22.384990692138672, -21.12477684020996, -19.86456298828125, -18.604347229003906, -17.344133377075195, -16.083919525146484, -14.82370376586914, -13.56348991394043, -12.303275108337402, -11.043060302734375, -9.782845497131348, -8.52263069152832, -7.262416839599609, -6.002202033996582, -4.741987228393555, -3.4817728996276855, -2.2215585708618164, -0.9613437652587891, 0.2988708019256592, 1.5590853691101074, 2.8192999362945557, 4.079514503479004, 5.339729309082031, 6.5999436378479, 7.8601579666137695, 9.120376586914062, 10.38059139251709, 11.640806198120117, 12.901020050048828, 14.161234855651855, 15.421449661254883, 16.681663513183594, 17.941879272460938, 19.20209312438965, 20.46230697631836, 21.722522735595703, 22.982736587524414, 24.242950439453125, 25.50316619873047, 26.76338005065918, 28.02359390258789, 29.283809661865234, 30.544023513793945, 31.80423927307129, 33.064453125, 34.324668884277344, 35.58488464355469, 36.845096588134766, 38.10531234741211, 39.36552429199219, 40.62574005126953, 41.88595199584961, 43.14616775512695, 44.4063835144043, 45.666595458984375, 46.92681121826172, 48.18702697753906, 49.447242736816406]}, "gradients/graph_3conv.12.weight": {"_type": "histogram", "values": [1.0, 0.0, 0.0, 2.0, 0.0, 0.0, 2.0, 0.0, 0.0, 5.0, 4.0, 11.0, 17.0, 25.0, 47.0, 52.0, 96.0, 137.0, 192.0, 303.0, 484.0, 722.0, 1024.0, 1608.0, 2225.0, 3329.0, 4675.0, 6006.0, 9384.0, 15041.0, 26937.0, 22790.0, 13933.0, 7792.0, 4496.0, 2879.0, 1920.0, 1314.0, 892.0, 634.0, 480.0, 319.0, 284.0, 217.0, 212.0, 168.0, 108.0, 71.0, 68.0, 35.0, 34.0, 20.0, 21.0, 16.0, 13.0, 2.0, 9.0, 6.0, 2.0, 2.0, 3.0, 1.0, 1.0, 1.0], "bins": [-28.15625, -27.2421875, -26.328125, -25.4140625, -24.5, -23.5859375, -22.671875, -21.7578125, -20.84375, -19.9296875, -19.015625, -18.1015625, -17.1875, -16.2734375, -15.359375, -14.4453125, -13.53125, -12.6171875, -11.703125, -10.7890625, -9.875, -8.9609375, -8.046875, -7.1328125, -6.21875, -5.3046875, -4.390625, -3.4765625, -2.5625, -1.6484375, -0.734375, 0.1796875, 1.09375, 2.0078125, 2.921875, 3.8359375, 4.75, 5.6640625, 6.578125, 7.4921875, 8.40625, 9.3203125, 10.234375, 11.1484375, 12.0625, 12.9765625, 13.890625, 14.8046875, 15.71875, 16.6328125, 17.546875, 18.4609375, 19.375, 20.2890625, 21.203125, 22.1171875, 23.03125, 23.9453125, 24.859375, 25.7734375, 26.6875, 27.6015625, 28.515625, 29.4296875, 30.34375]}, "gradients/graph_3conv.10.weight": {"_type": "histogram", "values": [1.0, 1.0, 0.0, 0.0, 0.0, 0.0, 0.0, 0.0, 0.0, 0.0, 0.0, 0.0, 0.0, 0.0, 0.0, 0.0, 1.0, 0.0, 0.0, 0.0, 3.0, 0.0, 1.0, 1.0, 4.0, 1.0, 3.0, 1.0, 4.0, 3.0, 4.0, 3.0, 5.0, 5.0, 2.0, 0.0, 3.0, 0.0, 2.0, 2.0, 2.0, 1.0, 5.0, 1.0, 0.0, 0.0, 1.0, 1.0, 0.0, 0.0, 0.0, 0.0, 0.0, 2.0, 0.0, 0.0, 0.0, 0.0, 0.0, 0.0, 0.0, 0.0, 0.0, 1.0], "bins": [-71.31653594970703, -69.14148712158203, -66.96643829345703, -64.79138946533203, -62.6163444519043, -60.4412956237793, -58.26625061035156, -56.09120178222656, -53.91615295410156, -51.74110412597656, -49.56605529785156, -47.39101028442383, -45.21596145629883, -43.04091262817383, -40.865867614746094, -38.690818786621094, -36.515769958496094, -34.340721130371094, -32.165672302246094, -29.99062728881836, -27.81557846069336, -25.64052963256836, -23.465482711791992, -21.290435791015625, -19.115386962890625, -16.940338134765625, -14.765291213989258, -12.590243339538574, -10.41519546508789, -8.240147590637207, -6.065099716186523, -3.89005184173584, -1.7150039672851562, 0.46004390716552734, 2.635091781616211, 4.8101396560668945, 6.985187530517578, 9.160235404968262, 11.335283279418945, 13.510331153869629, 15.685379028320312, 17.860427856445312, 20.03547477722168, 22.210521697998047, 24.385570526123047, 26.560619354248047, 28.735666275024414, 30.91071319580078, 33.08576202392578, 35.26081085205078, 37.43585968017578, 39.610904693603516, 41.785953521728516, 43.961002349853516, 46.13604736328125, 48.31109619140625, 50.48614501953125, 52.66119384765625, 54.83624267578125, 57.011287689208984, 59.186336517333984, 61.361385345458984, 63.53643035888672, 65.71147918701172, 67.88652801513672]}, "gradients/graph_3conv.10.bias": {"_type": "histogram", "values": [1.0, 0.0, 0.0, 1.0, 0.0, 0.0, 0.0, 0.0, 0.0, 0.0, 1.0, 0.0, 0.0, 0.0, 1.0, 1.0, 0.0, 1.0, 0.0, 2.0, 2.0, 2.0, 2.0, 1.0, 4.0, 2.0, 2.0, 1.0, 4.0, 5.0, 3.0, 3.0, 1.0, 1.0, 5.0, 1.0, 1.0, 1.0, 3.0, 2.0, 1.0, 1.0, 1.0, 0.0, 2.0, 0.0, 0.0, 1.0, 1.0, 0.0, 0.0, 0.0, 0.0, 0.0, 0.0, 0.0, 0.0, 0.0, 2.0, 0.0, 0.0, 0.0, 0.0, 1.0], "bins": [-49.11101531982422, -47.4937858581543, -45.876556396484375, -44.25932312011719, -42.642093658447266, -41.024864196777344, -39.40763473510742, -37.7904052734375, -36.17317199707031, -34.55594253540039, -32.93871307373047, -31.321481704711914, -29.70425033569336, -28.087020874023438, -26.469791412353516, -24.852561950683594, -23.235332489013672, -21.61810302734375, -20.000871658325195, -18.383642196655273, -16.76641082763672, -15.149181365966797, -13.531951904296875, -11.914721488952637, -10.297491073608398, -8.68026065826416, -7.06303071975708, -5.44580078125, -3.8285703659057617, -2.2113399505615234, -0.5941104888916016, 1.0231199264526367, 2.640350341796875, 4.257580757141113, 5.874810695648193, 7.492040634155273, 9.109271049499512, 10.72650146484375, 12.343730926513672, 13.96096134185791, 15.578191757202148, 17.19542121887207, 18.812652587890625, 20.429882049560547, 22.04711151123047, 23.664342880249023, 25.281572341918945, 26.8988037109375, 28.516033172607422, 30.133262634277344, 31.7504940032959, 33.36772155761719, 34.984954833984375, 36.6021842956543, 38.21941375732422, 39.83664321899414, 41.45387268066406, 43.071102142333984, 44.688331604003906, 46.305564880371094, 47.922794342041016, 49.54002380371094, 51.15725326538086, 52.77448272705078, 54.39171600341797]}, "gradients/graph_3conv.9.weight": {"_type": "histogram", "values": [4.0, 1.0, 7.0, 13.0, 29.0, 28.0, 37.0, 40.0, 41.0, 58.0, 60.0, 75.0, 58.0, 77.0, 112.0, 131.0, 143.0, 145.0, 167.0, 191.0, 275.0, 366.0, 513.0, 655.0, 995.0, 1507.0, 2257.0, 3477.0, 4843.0, 4573.0, 3126.0, 2100.0, 1443.0, 1105.0, 847.0, 675.0, 591.0, 502.0, 368.0, 285.0, 213.0, 141.0, 103.0, 72.0, 39.0, 37.0, 25.0, 27.0, 22.0, 23.0, 29.0, 26.0, 25.0, 12.0, 14.0, 9.0, 5.0, 5.0, 6.0, 3.0, 5.0, 4.0, 2.0, 1.0], "bins": [-32.1875, -31.08203125, -29.9765625, -28.87109375, -27.765625, -26.66015625, -25.5546875, -24.44921875, -23.34375, -22.23828125, -21.1328125, -20.02734375, -18.921875, -17.81640625, -16.7109375, -15.60546875, -14.5, -13.39453125, -12.2890625, -11.18359375, -10.078125, -8.97265625, -7.8671875, -6.76171875, -5.65625, -4.55078125, -3.4453125, -2.33984375, -1.234375, -0.12890625, 0.9765625, 2.08203125, 3.1875, 4.29296875, 5.3984375, 6.50390625, 7.609375, 8.71484375, 9.8203125, 10.92578125, 12.03125, 13.13671875, 14.2421875, 15.34765625, 16.453125, 17.55859375, 18.6640625, 19.76953125, 20.875, 21.98046875, 23.0859375, 24.19140625, 25.296875, 26.40234375, 27.5078125, 28.61328125, 29.71875, 30.82421875, 31.9296875, 33.03515625, 34.140625, 35.24609375, 36.3515625, 37.45703125, 38.5625]}, "gradients/graph_3conv.7.weight": {"_type": "histogram", "values": [1.0, 1.0, 2.0, 2.0, 0.0, 1.0, 1.0, 1.0, 0.0, 2.0, 1.0, 0.0, 0.0, 1.0, 3.0, 2.0, 0.0, 0.0, 3.0, 0.0, 1.0, 1.0, 0.0, 1.0, 1.0, 0.0, 1.0, 1.0, 1.0, 0.0, 0.0, 0.0, 1.0, 0.0, 0.0, 1.0, 0.0, 0.0, 0.0, 0.0, 0.0, 0.0, 1.0, 0.0, 0.0, 0.0, 0.0, 0.0, 0.0, 0.0, 0.0, 0.0, 0.0, 0.0, 0.0, 0.0, 0.0, 0.0, 0.0, 0.0, 0.0, 0.0, 0.0, 1.0], "bins": [-37.741180419921875, -35.60218811035156, -33.46319580078125, -31.324201583862305, -29.185209274291992, -27.04621696472168, -24.907222747802734, -22.768230438232422, -20.62923812866211, -18.490245819091797, -16.351253509521484, -14.212259292602539, -12.073266983032227, -9.934274673461914, -7.795281410217285, -5.656288146972656, -3.5172958374023438, -1.378303050994873, 0.7606897354125977, 2.8996825218200684, 5.038675308227539, 7.177667617797852, 9.31666088104248, 11.45565414428711, 13.594646453857422, 15.733638763427734, 17.872631072998047, 20.011625289916992, 22.150617599487305, 24.289609909057617, 26.428604125976562, 28.567596435546875, 30.70659637451172, 32.84558868408203, 34.984580993652344, 37.123573303222656, 39.26256561279297, 41.40155792236328, 43.54055404663086, 45.67954635620117, 47.818538665771484, 49.9575309753418, 52.09652328491211, 54.23551559448242, 56.37451171875, 58.51350402832031, 60.652496337890625, 62.79148864746094, 64.93048095703125, 67.06947326660156, 69.20846557617188, 71.34745788574219, 73.4864501953125, 75.62544250488281, 77.76443481445312, 79.90342712402344, 82.04241943359375, 84.18141174316406, 86.32040405273438, 88.45939636230469, 90.598388671875, 92.73738098144531, 94.87637329101562, 97.01536560058594, 99.15436553955078]}, "gradients/graph_3conv.7.bias": {"_type": "histogram", "values": [1.0, 0.0, 0.0, 1.0, 0.0, 0.0, 0.0, 0.0, 1.0, 2.0, 0.0, 2.0, 1.0, 1.0, 3.0, 1.0, 0.0, 2.0, 2.0, 1.0, 2.0, 0.0, 1.0, 0.0, 2.0, 0.0, 2.0, 1.0, 2.0, 0.0, 0.0, 1.0, 0.0, 0.0, 0.0, 0.0, 0.0, 0.0, 0.0, 0.0, 0.0, 0.0, 0.0, 0.0, 0.0, 0.0, 0.0, 0.0, 0.0, 1.0, 0.0, 1.0, 0.0, 0.0, 0.0, 0.0, 0.0, 0.0, 0.0, 0.0, 0.0, 0.0, 0.0, 1.0], "bins": [-36.361934661865234, -34.54179382324219, -32.721656799316406, -30.901517868041992, -29.081378936767578, -27.261240005493164, -25.44110107421875, -23.620962142944336, -21.800823211669922, -19.980684280395508, -18.160545349121094, -16.34040641784668, -14.520267486572266, -12.700128555297852, -10.879989624023438, -9.059850692749023, -7.239711761474609, -5.419572830200195, -3.5994338989257812, -1.7792949676513672, 0.040843963623046875, 1.860982894897461, 3.681121826171875, 5.501260757446289, 7.321399688720703, 9.141538619995117, 10.961677551269531, 12.781816482543945, 14.60195541381836, 16.422094345092773, 18.242233276367188, 20.0623722076416, 21.88250732421875, 23.702646255493164, 25.522785186767578, 27.342924118041992, 29.163063049316406, 30.98320198059082, 32.803340911865234, 34.62348175048828, 36.44361877441406, 38.263755798339844, 40.08389663696289, 41.90403747558594, 43.72417449951172, 45.5443115234375, 47.36445236206055, 49.184593200683594, 51.004730224609375, 52.824867248535156, 54.6450080871582, 56.46514892578125, 58.28528594970703, 60.10542297363281, 61.92556381225586, 63.745704650878906, 65.56584167480469, 67.38597869873047, 69.20611572265625, 71.02626037597656, 72.84639739990234, 74.66653442382812, 76.48667907714844, 78.30681610107422, 80.126953125]}, "gradients/graph_3conv.6.weight": {"_type": "histogram", "values": [2.0, 3.0, 3.0, 5.0, 9.0, 6.0, 13.0, 11.0, 10.0, 20.0, 18.0, 22.0, 38.0, 30.0, 43.0, 64.0, 80.0, 103.0, 108.0, 138.0, 151.0, 196.0, 217.0, 284.0, 302.0, 382.0, 455.0, 583.0, 654.0, 637.0, 583.0, 541.0, 457.0, 378.0, 334.0, 233.0, 186.0, 149.0, 122.0, 81.0, 70.0, 56.0, 55.0, 55.0, 50.0, 50.0, 41.0, 26.0, 33.0, 24.0, 17.0, 19.0, 16.0, 12.0, 6.0, 6.0, 1.0, 0.0, 1.0, 1.0, 1.0, 0.0, 0.0, 1.0], "bins": [-38.3125, -37.0498046875, -35.787109375, -34.5244140625, -33.26171875, -31.9990234375, -30.736328125, -29.4736328125, -28.2109375, -26.9482421875, -25.685546875, -24.4228515625, -23.16015625, -21.8974609375, -20.634765625, -19.3720703125, -18.109375, -16.8466796875, -15.583984375, -14.3212890625, -13.05859375, -11.7958984375, -10.533203125, -9.2705078125, -8.0078125, -6.7451171875, -5.482421875, -4.2197265625, -2.95703125, -1.6943359375, -0.431640625, 0.8310546875, 2.09375, 3.3564453125, 4.619140625, 5.8818359375, 7.14453125, 8.4072265625, 9.669921875, 10.9326171875, 12.1953125, 13.4580078125, 14.720703125, 15.9833984375, 17.24609375, 18.5087890625, 19.771484375, 21.0341796875, 22.296875, 23.5595703125, 24.822265625, 26.0849609375, 27.34765625, 28.6103515625, 29.873046875, 31.1357421875, 32.3984375, 33.6611328125, 34.923828125, 36.1865234375, 37.44921875, 38.7119140625, 39.974609375, 41.2373046875, 42.5]}, "gradients/graph_3conv.4.weight": {"_type": "histogram", "values": [1.0, 1.0, 0.0, 0.0, 0.0, 0.0, 0.0, 0.0, 0.0, 0.0, 0.0, 0.0, 0.0, 0.0, 1.0, 0.0, 0.0, 0.0, 0.0, 0.0, 0.0, 0.0, 0.0, 0.0, 0.0, 0.0, 0.0, 0.0, 0.0, 0.0, 0.0, 0.0, 0.0, 0.0, 0.0, 0.0, 0.0, 0.0, 1.0, 0.0, 0.0, 0.0, 0.0, 1.0, 0.0, 0.0, 0.0, 0.0, 2.0, 1.0, 2.0, 0.0, 1.0, 0.0, 1.0, 1.0, 0.0, 0.0, 0.0, 0.0, 1.0, 0.0, 0.0, 2.0], "bins": [-88.30241394042969, -86.23863220214844, -84.17485046386719, -82.11107635498047, -80.04729461669922, -77.98351287841797, -75.91973114013672, -73.85594940185547, -71.79217529296875, -69.7283935546875, -67.66461181640625, -65.60083770751953, -63.53705596923828, -61.47327423095703, -59.40949249267578, -57.34571075439453, -55.28192901611328, -53.21814727783203, -51.15436935424805, -49.0905876159668, -47.02680969238281, -44.96302795410156, -42.89924621582031, -40.83546447753906, -38.77168655395508, -36.70790481567383, -34.644126892089844, -32.580345153808594, -30.516565322875977, -28.45278549194336, -26.38900375366211, -24.325223922729492, -22.26144790649414, -20.197668075561523, -18.133888244628906, -16.070106506347656, -14.006326675415039, -11.942546844482422, -9.878766059875488, -7.814985275268555, -5.7512054443359375, -3.687425136566162, -1.6236448287963867, 0.44013547897338867, 2.503915786743164, 4.567695617675781, 6.631476402282715, 8.695257186889648, 10.759037017822266, 12.822816848754883, 14.886597633361816, 16.95037841796875, 19.014158248901367, 21.077938079833984, 23.141719818115234, 25.20549964904785, 27.26927947998047, 29.333059310913086, 31.396839141845703, 33.46062088012695, 35.52439880371094, 37.58818054199219, 39.65196228027344, 41.71574401855469, 43.77952194213867]}, "gradients/graph_3conv.4.bias": {"_type": "histogram", "values": [1.0, 0.0, 0.0, 0.0, 0.0, 0.0, 0.0, 0.0, 1.0, 0.0, 1.0, 0.0, 0.0, 0.0, 0.0, 0.0, 0.0, 1.0, 0.0, 0.0, 0.0, 1.0, 0.0, 0.0, 0.0, 1.0, 0.0, 0.0, 0.0, 0.0, 1.0, 0.0, 1.0, 1.0, 0.0, 0.0, 0.0, 0.0, 0.0, 0.0, 0.0, 0.0, 0.0, 0.0, 0.0, 0.0, 0.0, 1.0, 2.0, 1.0, 0.0, 0.0, 0.0, 0.0, 1.0, 0.0, 1.0, 0.0, 0.0, 0.0, 0.0, 0.0, 0.0, 1.0], "bins": [-75.77115631103516, -73.98611450195312, -72.2010726928711, -70.41603088378906, -68.6309814453125, -66.84593963623047, -65.06089782714844, -63.275856018066406, -61.490814208984375, -59.705772399902344, -57.92072677612305, -56.135684967041016, -54.350643157958984, -52.56559753417969, -50.780555725097656, -48.995513916015625, -47.21046829223633, -45.4254264831543, -43.640380859375, -41.85533905029297, -40.07029724121094, -38.285255432128906, -36.50020980834961, -34.71516799926758, -32.93012237548828, -31.145078659057617, -29.360036849975586, -27.574993133544922, -25.78995132446289, -24.004907608032227, -22.219863891601562, -20.43482208251953, -18.6497802734375, -16.864736557006836, -15.079694747924805, -13.29465103149414, -11.509608268737793, -9.724565505981445, -7.939521789550781, -6.154479026794434, -4.369436264038086, -2.584393262863159, -0.7993502616882324, 0.9856929779052734, 2.770735740661621, 4.555778503417969, 6.340822219848633, 8.12586498260498, 9.910907745361328, 11.695950508117676, 13.480993270874023, 15.266036987304688, 17.05107879638672, 18.836122512817383, 20.621166229248047, 22.406208038330078, 24.191251754760742, 25.976295471191406, 27.761337280273438, 29.5463809967041, 31.331424713134766, 33.1164665222168, 34.901512145996094, 36.686553955078125, 38.471595764160156]}, "gradients/graph_3conv.3.weight": {"_type": "histogram", "values": [2.0, 0.0, 1.0, 2.0, 2.0, 1.0, 6.0, 5.0, 5.0, 2.0, 9.0, 16.0, 19.0, 17.0, 34.0, 46.0, 45.0, 65.0, 70.0, 78.0, 95.0, 97.0, 116.0, 145.0, 135.0, 138.0, 101.0, 96.0, 112.0, 98.0, 98.0, 73.0, 32.0, 48.0, 32.0, 29.0, 31.0, 20.0, 9.0, 20.0, 11.0, 6.0, 8.0, 8.0, 10.0, 5.0, 8.0, 1.0, 6.0, 5.0, 5.0, 5.0, 4.0, 2.0, 5.0, 2.0, 2.0, 0.0, 1.0, 1.0, 2.0, 0.0, 0.0, 1.0], "bins": [-67.1875, -64.50390625, -61.8203125, -59.13671875, -56.453125, -53.76953125, -51.0859375, -48.40234375, -45.71875, -43.03515625, -40.3515625, -37.66796875, -34.984375, -32.30078125, -29.6171875, -26.93359375, -24.25, -21.56640625, -18.8828125, -16.19921875, -13.515625, -10.83203125, -8.1484375, -5.46484375, -2.78125, -0.09765625, 2.5859375, 5.26953125, 7.953125, 10.63671875, 13.3203125, 16.00390625, 18.6875, 21.37109375, 24.0546875, 26.73828125, 29.421875, 32.10546875, 34.7890625, 37.47265625, 40.15625, 42.83984375, 45.5234375, 48.20703125, 50.890625, 53.57421875, 56.2578125, 58.94140625, 61.625, 64.30859375, 66.9921875, 69.67578125, 72.359375, 75.04296875, 77.7265625, 80.41015625, 83.09375, 85.77734375, 88.4609375, 91.14453125, 93.828125, 96.51171875, 99.1953125, 101.87890625, 104.5625]}, "gradients/graph_3conv.1.weight": {"_type": "histogram", "values": [1.0, 0.0, 0.0, 0.0, 0.0, 0.0, 0.0, 0.0, 0.0, 1.0, 0.0, 1.0, 0.0, 0.0, 1.0, 0.0, 0.0, 0.0, 0.0, 0.0, 0.0, 0.0, 0.0, 0.0, 0.0, 0.0, 0.0, 0.0, 0.0, 0.0, 0.0, 0.0, 0.0, 0.0, 0.0, 0.0, 0.0, 0.0, 0.0, 0.0, 0.0, 0.0, 0.0, 0.0, 0.0, 0.0, 0.0, 0.0, 0.0, 1.0, 0.0, 0.0, 0.0, 0.0, 0.0, 1.0, 0.0, 0.0, 0.0, 0.0, 1.0, 0.0, 0.0, 1.0], "bins": [-102.33784484863281, -99.24647521972656, -96.15510559082031, -93.06373596191406, -89.97235870361328, -86.88098907470703, -83.78961944580078, -80.69824981689453, -77.60687255859375, -74.5155029296875, -71.42413330078125, -68.332763671875, -65.24138641357422, -62.15001678466797, -59.05864715576172, -55.96727752685547, -52.87590789794922, -49.78453826904297, -46.69316482543945, -43.6017951965332, -40.51042175292969, -37.41905212402344, -34.32768249511719, -31.236310958862305, -28.144939422607422, -25.05356788635254, -21.962196350097656, -18.870826721191406, -15.779455184936523, -12.68808364868164, -9.59671401977539, -6.505342483520508, -3.4139633178710938, -0.32259225845336914, 2.7687788009643555, 5.860149383544922, 8.951520919799805, 12.042892456054688, 15.134262084960938, 18.22563362121582, 21.317005157470703, 24.408376693725586, 27.49974822998047, 30.59111785888672, 33.68248748779297, 36.773860931396484, 39.865230560302734, 42.95660400390625, 46.0479736328125, 49.13934326171875, 52.230716705322266, 55.322086334228516, 58.41345977783203, 61.50482940673828, 64.59619903564453, 67.68756866455078, 70.77894592285156, 73.87031555175781, 76.96168518066406, 80.05305480957031, 83.1444320678711, 86.23580169677734, 89.3271713256836, 92.41854095458984, 95.5099105834961]}, "gradients/graph_3conv.1.bias": {"_type": "histogram", "values": [1.0, 0.0, 0.0, 0.0, 0.0, 0.0, 0.0, 0.0, 0.0, 0.0, 0.0, 0.0, 0.0, 0.0, 0.0, 0.0, 0.0, 1.0, 0.0, 0.0, 0.0, 0.0, 0.0, 0.0, 1.0, 0.0, 0.0, 0.0, 0.0, 1.0, 1.0, 0.0, 0.0, 0.0, 0.0, 0.0, 1.0, 0.0, 0.0, 0.0, 1.0, 0.0, 0.0, 0.0, 0.0, 0.0, 0.0, 0.0, 0.0, 0.0, 0.0, 0.0, 0.0, 0.0, 0.0, 0.0, 0.0, 0.0, 0.0, 0.0, 0.0, 0.0, 0.0, 1.0], "bins": [-96.7816162109375, -94.5503158569336, -92.31901550292969, -90.08771514892578, -87.85641479492188, -85.62511444091797, -83.39381408691406, -81.16251373291016, -78.93121337890625, -76.69991302490234, -74.46861267089844, -72.23731231689453, -70.00601196289062, -67.77471160888672, -65.54341125488281, -63.312110900878906, -61.080810546875, -58.849510192871094, -56.61820983886719, -54.38690948486328, -52.155609130859375, -49.92430877685547, -47.69300842285156, -45.461708068847656, -43.23040771484375, -40.999107360839844, -38.76780700683594, -36.53650665283203, -34.305206298828125, -32.07390594482422, -29.842605590820312, -27.611305236816406, -25.380001068115234, -23.148700714111328, -20.917400360107422, -18.686100006103516, -16.45479965209961, -14.223499298095703, -11.992198944091797, -9.76089859008789, -7.529598236083984, -5.298297882080078, -3.066997528076172, -0.8356971740722656, 1.3956031799316406, 3.626903533935547, 5.858203887939453, 8.08950424194336, 10.320804595947266, 12.552104949951172, 14.783405303955078, 17.014705657958984, 19.24600601196289, 21.477306365966797, 23.708606719970703, 25.93990707397461, 28.171207427978516, 30.402507781982422, 32.63380813598633, 34.865108489990234, 37.09640884399414, 39.32770919799805, 41.55900955200195, 43.79030990600586, 46.021610260009766]}, "gradients/graph_3conv.0.weight": {"_type": "histogram", "values": [2.0, 0.0, 1.0, 1.0, 1.0, 1.0, 0.0, 1.0, 2.0, 0.0, 2.0, 3.0, 2.0, 6.0, 8.0, 2.0, 5.0, 8.0, 8.0, 8.0, 6.0, 8.0, 9.0, 11.0, 10.0, 5.0, 12.0, 11.0, 9.0, 14.0, 14.0, 14.0, 20.0, 13.0, 13.0, 19.0, 15.0, 16.0, 13.0, 8.0, 15.0, 14.0, 4.0, 6.0, 3.0, 10.0, 5.0, 3.0, 4.0, 5.0, 2.0, 2.0, 2.0, 3.0, 0.0, 0.0, 0.0, 2.0, 2.0, 0.0, 0.0, 0.0, 0.0, 1.0], "bins": [-124.875, -120.919921875, -116.96484375, -113.009765625, -109.0546875, -105.099609375, -101.14453125, -97.189453125, -93.234375, -89.279296875, -85.32421875, -81.369140625, -77.4140625, -73.458984375, -69.50390625, -65.548828125, -61.59375, -57.638671875, -53.68359375, -49.728515625, -45.7734375, -41.818359375, -37.86328125, -33.908203125, -29.953125, -25.998046875, -22.04296875, -18.087890625, -14.1328125, -10.177734375, -6.22265625, -2.267578125, 1.6875, 5.642578125, 9.59765625, 13.552734375, 17.5078125, 21.462890625, 25.41796875, 29.373046875, 33.328125, 37.283203125, 41.23828125, 45.193359375, 49.1484375, 53.103515625, 57.05859375, 61.013671875, 64.96875, 68.923828125, 72.87890625, 76.833984375, 80.7890625, 84.744140625, 88.69921875, 92.654296875, 96.609375, 100.564453125, 104.51953125, 108.474609375, 112.4296875, 116.384765625, 120.33984375, 124.294921875, 128.25]}, "_wandb": {"runtime": 6137}}